FANN_FLO_2.1
num_layers=3
learning_rate=0.700000
connection_rate=1.000000
network_type=0
learning_momentum=0.000000
training_algorithm=2
train_error_function=1
train_stop_function=1
cascade_output_change_fraction=0.010000
quickprop_decay=-0.000100
quickprop_mu=1.750000
rprop_increase_factor=1.200000
rprop_decrease_factor=0.500000
rprop_delta_min=0.000000
rprop_delta_max=50.000000
rprop_delta_zero=0.100000
cascade_output_stagnation_epochs=12
cascade_candidate_change_fraction=0.010000
cascade_candidate_stagnation_epochs=12
cascade_max_out_epochs=150
cascade_min_out_epochs=50
cascade_max_cand_epochs=150
cascade_min_cand_epochs=50
cascade_num_candidate_groups=2
bit_fail_limit=3.49999999999999977796e-01
cascade_candidate_limit=1.00000000000000000000e+03
cascade_weight_multiplier=4.00000000000000022204e-01
cascade_activation_functions_count=10
cascade_activation_functions=3 5 7 8 10 11 14 15 16 17 
cascade_activation_steepnesses_count=4
cascade_activation_steepnesses=2.50000000000000000000e-01 5.00000000000000000000e-01 7.50000000000000000000e-01 1.00000000000000000000e+00 
layer_sizes=50 34 11 
scale_included=0
neurons (num_inputs, activation_function, activation_steepness)=(0, 0, 0.00000000000000000000e+00) (0, 0, 0.00000000000000000000e+00) (0, 0, 0.00000000000000000000e+00) (0, 0, 0.00000000000000000000e+00) (0, 0, 0.00000000000000000000e+00) (0, 0, 0.00000000000000000000e+00) (0, 0, 0.00000000000000000000e+00) (0, 0, 0.00000000000000000000e+00) (0, 0, 0.00000000000000000000e+00) (0, 0, 0.00000000000000000000e+00) (0, 0, 0.00000000000000000000e+00) (0, 0, 0.00000000000000000000e+00) (0, 0, 0.00000000000000000000e+00) (0, 0, 0.00000000000000000000e+00) (0, 0, 0.00000000000000000000e+00) (0, 0, 0.00000000000000000000e+00) (0, 0, 0.00000000000000000000e+00) (0, 0, 0.00000000000000000000e+00) (0, 0, 0.00000000000000000000e+00) (0, 0, 0.00000000000000000000e+00) (0, 0, 0.00000000000000000000e+00) (0, 0, 0.00000000000000000000e+00) (0, 0, 0.00000000000000000000e+00) (0, 0, 0.00000000000000000000e+00) (0, 0, 0.00000000000000000000e+00) (0, 0, 0.00000000000000000000e+00) (0, 0, 0.00000000000000000000e+00) (0, 0, 0.00000000000000000000e+00) (0, 0, 0.00000000000000000000e+00) (0, 0, 0.00000000000000000000e+00) (0, 0, 0.00000000000000000000e+00) (0, 0, 0.00000000000000000000e+00) (0, 0, 0.00000000000000000000e+00) (0, 0, 0.00000000000000000000e+00) (0, 0, 0.00000000000000000000e+00) (0, 0, 0.00000000000000000000e+00) (0, 0, 0.00000000000000000000e+00) (0, 0, 0.00000000000000000000e+00) (0, 0, 0.00000000000000000000e+00) (0, 0, 0.00000000000000000000e+00) (0, 0, 0.00000000000000000000e+00) (0, 0, 0.00000000000000000000e+00) (0, 0, 0.00000000000000000000e+00) (0, 0, 0.00000000000000000000e+00) (0, 0, 0.00000000000000000000e+00) (0, 0, 0.00000000000000000000e+00) (0, 0, 0.00000000000000000000e+00) (0, 0, 0.00000000000000000000e+00) (0, 0, 0.00000000000000000000e+00) (0, 0, 0.00000000000000000000e+00) (50, 3, 5.00000000000000000000e-01) (50, 3, 5.00000000000000000000e-01) (50, 3, 5.00000000000000000000e-01) (50, 3, 5.00000000000000000000e-01) (50, 3, 5.00000000000000000000e-01) (50, 3, 5.00000000000000000000e-01) (50, 3, 5.00000000000000000000e-01) (50, 3, 5.00000000000000000000e-01) (50, 3, 5.00000000000000000000e-01) (50, 3, 5.00000000000000000000e-01) (50, 3, 5.00000000000000000000e-01) (50, 3, 5.00000000000000000000e-01) (50, 3, 5.00000000000000000000e-01) (50, 3, 5.00000000000000000000e-01) (50, 3, 5.00000000000000000000e-01) (50, 3, 5.00000000000000000000e-01) (50, 3, 5.00000000000000000000e-01) (50, 3, 5.00000000000000000000e-01) (50, 3, 5.00000000000000000000e-01) (50, 3, 5.00000000000000000000e-01) (50, 3, 5.00000000000000000000e-01) (50, 3, 5.00000000000000000000e-01) (50, 3, 5.00000000000000000000e-01) (50, 3, 5.00000000000000000000e-01) (50, 3, 5.00000000000000000000e-01) (50, 3, 5.00000000000000000000e-01) (50, 3, 5.00000000000000000000e-01) (50, 3, 5.00000000000000000000e-01) (50, 3, 5.00000000000000000000e-01) (50, 3, 5.00000000000000000000e-01) (50, 3, 5.00000000000000000000e-01) (50, 3, 5.00000000000000000000e-01) (50, 3, 5.00000000000000000000e-01) (0, 3, 0.00000000000000000000e+00) (34, 3, 5.00000000000000000000e-01) (34, 3, 5.00000000000000000000e-01) (34, 3, 5.00000000000000000000e-01) (34, 3, 5.00000000000000000000e-01) (34, 3, 5.00000000000000000000e-01) (34, 3, 5.00000000000000000000e-01) (34, 3, 5.00000000000000000000e-01) (34, 3, 5.00000000000000000000e-01) (34, 3, 5.00000000000000000000e-01) (34, 3, 5.00000000000000000000e-01) (0, 3, 0.00000000000000000000e+00) 
connections (connected_to_neuron, weight)=(0, 2.15392999200196610943e+00) (1, -4.96459616866351871600e-01) (2, 1.37661575895018639670e+00) (3, -6.25451296820930036091e-01) (4, -1.43350992157352613576e-01) (5, -1.05423875220592910829e+00) (6, 3.14112654059111040539e+00) (7, -5.94618333870379611739e+00) (8, 2.08941262174134712026e+00) (9, 1.68692851404427668349e+00) (10, 5.80160011408441089742e+00) (11, 2.70866688483468864845e+00) (12, -6.08933065225914171847e-01) (13, -6.43135257042489971724e-01) (14, 6.16339086472800978811e+00) (15, -8.15593598112295814495e-01) (16, 2.92559455662038780943e+00) (17, 2.09344145381701096653e+00) (18, 1.37891514416234950424e+00) (19, -1.08015871429731702413e+00) (20, -1.28384285287136878928e+00) (21, -3.77744129825078500673e+00) (22, -1.81025203118226252208e+00) (23, 9.04652509157217954439e-01) (24, -3.92074880444454654249e-01) (25, -1.11694694108626035867e-01) (26, -1.85358209097465809201e-01) (27, -5.80105660966423020142e-01) (28, 2.99676363026868841644e+00) (29, 7.36027999342528604920e-01) (30, -6.03857159798109471849e-03) (31, 9.36813952227360968728e-01) (32, -1.86032290937277577925e+00) (33, -8.04806276886764093703e-01) (34, -1.37347449067179860904e+00) (35, -1.34210578289205062497e+00) (36, 1.05650468474768466365e+00) (37, 2.73287491452473885190e-01) (38, -9.94252771885904829130e-02) (39, -8.04292267304076213819e-01) (40, 5.12318853766872139843e-01) (41, 1.75675608720665854534e+00) (42, 1.00078506061394971738e+01) (43, 8.73091602507757968965e-01) (44, 6.75502170723075390235e-01) (45, -5.47801299415524467484e-01) (46, -4.85419011852328552425e-01) (47, -3.02527069512222746006e-01) (48, -5.92750587056884659098e-01) (49, -5.26716074026881564407e+00) (0, -2.90965874502413761604e+01) (1, 4.18649404561990845508e+00) (2, 5.04411646600054774936e-01) (3, 2.54683063996627900849e+00) (4, -3.43611379068102573697e-01) (5, 2.70101280630935913774e-01) (6, -3.06784016509816694906e+02) (7, 9.51546787678941718980e+00) (8, -2.05740676194589067194e+00) (9, 9.23830246227778650869e-01) (10, -6.49027944482872953813e+00) (11, 1.20272262696104470514e+00) (12, -2.70591816595108047849e+00) (13, 1.37505493318590288254e+03) (14, -4.62458492087406902726e+00) (15, -3.56605879412043513810e+00) (16, 4.49738995486881953934e-01) (17, -2.85064404875362609193e-01) (18, 3.29731510637368518957e+00) (19, 3.03941274167753761049e+01) (20, 1.49553183615705029297e+03) (21, -9.64756315663406738281e+00) (22, 2.46527068302659824184e+00) (23, -3.41820544926558778087e+00) (24, 5.82872428988692625751e+00) (25, -6.19462987105000006949e+00) (26, 3.06225697826110920818e-01) (27, -7.87449747355467088994e+00) (28, 1.50000000000000000000e+03) (29, 5.63236704469526827666e+00) (30, -2.32306971776970572208e+00) (31, 3.25897507332622637932e+00) (32, -4.08814190056150650321e+00) (33, 4.16677423835929516827e+00) (34, -5.24935204128969434834e+00) (35, -5.38792479576803806651e+00) (36, 1.61520953097306385615e+00) (37, -1.84812565670351447444e+00) (38, -9.94763528928523710348e-01) (39, -1.33366765261912423313e+00) (40, -1.57297985945328222535e+00) (41, 6.00544913038885397327e+00) (42, 6.79629151544820331310e+01) (43, -2.37588994914393003555e+00) (44, 3.93003754975297381336e-01) (45, 7.74770704917342678542e-01) (46, 1.05539757116595822595e+00) (47, -2.34976424873571021479e+00) (48, 6.54548311841565038094e+01) (49, 1.32428490642274954148e+00) (0, -1.36514688720871873784e+02) (1, 6.74554807785400271314e+02) (2, 8.07960077470999138427e+00) (3, -2.31476382198033681092e+00) (4, 2.64243700163727535113e+00) (5, -3.02561899576121362543e+00) (6, 2.84627856287918099554e+01) (7, 9.86960576614456840616e+02) (8, -1.02000982862122555161e+03) (9, -1.02870475146287319035e+01) (10, 4.21820269062356589806e-01) (11, 4.69303732798853068253e-01) (12, -1.67416829273028566760e+00) (13, -2.54426778138249076733e+01) (14, 6.10813210201320373471e+01) (15, -2.18582297699743683950e+01) (16, -3.34432890939955962395e+00) (17, -1.05300917845723347455e+01) (18, -1.51277264239580535587e+01) (19, 1.03876980313395907984e+01) (20, 2.25202776699862710075e+01) (21, 5.75569028143334264769e+01) (22, -2.52437354306104957402e+01) (23, -2.07840604187283561899e+00) (24, 4.56429120563146994982e+00) (25, 1.24666633951911247635e+01) (26, 9.73142618370003292805e-02) (27, 4.98236093137127298291e+01) (28, 2.92639457445974962013e+01) (29, -1.06288699335058911544e+01) (30, -5.63891228456611415254e+01) (31, 5.72196886812078808759e+00) (32, 8.97544767777872465331e+00) (33, -9.39702648709253907100e+00) (34, -8.20637870396001467554e+00) (35, 3.51146187979662443013e+01) (36, 2.28595388032465649530e+01) (37, -8.23886620768799371461e-01) (38, 1.24312118391722581379e+01) (39, -4.87597138354490411416e+00) (40, -3.27114968877163336813e+00) (41, -1.50000000000000000000e+03) (42, -2.16437529698489896646e+01) (43, 1.85215445997847805160e+00) (44, 8.59817756884331707568e+00) (45, -5.56454342299275039885e-01) (46, 6.22848719364804281895e+00) (47, -1.50000000000000000000e+03) (48, 1.49461501882727861812e+03) (49, 4.36729868170071311440e-01) (0, 8.91857104031324965376e+00) (1, 1.38751207876121118723e+00) (2, 2.90478500018210494815e+00) (3, 7.76612660823883804717e-01) (4, -1.02652878140072756352e+00) (5, 6.88769607452055510066e-01) (6, -1.91448522272680665690e-01) (7, 2.12793812487325917360e+00) (8, 1.72173290520825306160e+00) (9, 1.00122729394861553764e-01) (10, -7.51289574135902138430e-01) (11, 5.97876838436826041345e-01) (12, -1.36548362763002556486e-01) (13, 2.32916970590473088043e-02) (14, -1.07714306575306340008e-01) (15, 1.17215249959973522031e+00) (16, -3.25125163530509252857e-03) (17, -6.09857766349634483616e-02) (18, -6.05537897836604499524e-01) (19, -1.00873111373917412337e+00) (20, -1.39727903915405970992e+00) (21, 2.22143954478334182401e-01) (22, 1.90130503467100120396e+00) (23, 1.67627959796747916243e+00) (24, 1.18293311302466275237e+00) (25, -1.22082286032945885879e+00) (26, 1.66872251060655840682e-01) (27, -3.17201502238185151228e+00) (28, 2.38571548457187310177e+00) (29, -1.83180791007183185748e+00) (30, 1.67695094074360606662e+00) (31, 2.25104904888531942575e+00) (32, 7.78593914329996805712e-01) (33, 4.58266267414406858194e+00) (34, -7.94440915494204369374e-01) (35, 3.60872628359236635731e+00) (36, -1.32737124862509081602e+00) (37, -2.46045698421947928169e-01) (38, -3.31322674358636914960e+00) (39, -1.95627234730328947165e+00) (40, -7.62969653341670994706e+00) (41, 1.99455183467314545176e+00) (42, -8.63180777277034128048e-01) (43, -2.91875054293460278743e-01) (44, -4.88302907196792201905e-01) (45, -1.01445500264586341288e+00) (46, -3.45222067329161097504e+00) (47, -5.14779815679479213486e+00) (48, -6.96624847975456074067e+00) (49, -1.75768612643622601510e+00) (0, 9.83428026255619016638e+01) (1, -5.59691373662405879941e+01) (2, 4.32859568184878540364e+00) (3, 2.83297333152968573711e-02) (4, 2.84589370613521319697e+00) (5, -2.30082337443444817637e+00) (6, -1.05583359641163774256e+01) (7, -5.77328742452367507099e+01) (8, -1.18532998424128575010e+01) (9, -1.40600657523796884751e-01) (10, 3.25155671712329397138e+00) (11, 1.51822001431057373999e+00) (12, 3.69490917961609266484e+00) (13, 9.96175303917983256952e+00) (14, 6.17019232108109889623e+01) (15, -4.37633074220926410192e+00) (16, -9.66925250708684957957e-01) (17, -1.32276449341603741239e+00) (18, 1.24511052308041758607e+00) (19, 6.07424945621423018061e-01) (20, 2.20661135929525897836e+01) (21, 2.92287864073282221966e+00) (22, 2.92476720358633501817e+00) (23, 1.56240636779162911374e+00) (24, 6.26836324709545200662e-01) (25, -5.86160622150436294575e-01) (26, 1.52136566209180190690e+00) (27, -1.27217188995737622292e+01) (28, 3.65654781972347677765e+01) (29, 4.20275203477641934313e+00) (30, -3.10604133852254227222e+00) (31, -7.31739433981252407335e-01) (32, -8.32107560628142195469e+00) (33, -9.58926106513333209591e-01) (34, -3.80403347026520011198e+00) (35, 2.72383582185941122700e-02) (36, 1.63971853548532875422e+00) (37, -1.65548765303618394817e+00) (38, 1.74003668302170844129e+00) (39, 2.61817689883486837132e+00) (40, 6.33232652957151809225e-01) (41, -1.21392784665555844015e+01) (42, 1.13659110005529612408e+02) (43, -3.85093585908748625712e+00) (44, 6.98933284941774535248e-01) (45, 3.07275745522813981125e+00) (46, 1.16331603966071579492e+01) (47, 5.09542182668370884358e+01) (48, -6.44654342328680751706e+00) (49, -8.39987041394036570985e-01) (0, -6.69794115468501587429e+01) (1, 1.55887700071170609561e+00) (2, 6.86556361645381363346e-01) (3, -1.47903660196287284334e-01) (4, -3.21681910995044562096e-01) (5, -8.68833387707325099925e-01) (6, -2.00425286460844143122e+00) (7, 5.78667743726295480400e-01) (8, 1.96790227187489796812e+00) (9, 2.29976739548301711835e+00) (10, 2.90544236343084349983e-01) (11, -1.62442728232973765401e+00) (12, -1.24693504858744819153e+00) (13, -2.73775684332318469671e+00) (14, 4.60557966928321782518e+00) (15, -1.99046235919695443245e-03) (16, 1.89810554953125376620e+00) (17, 1.03622830720091685386e+00) (18, -3.65382273508417343422e-01) (19, -7.92111106295965372581e-01) (20, 6.15256931396291784075e-01) (21, 2.86303971882196739429e+00) (22, -3.98347625062258670070e+00) (23, 4.22723810399824184714e+00) (24, 2.91388117232827470460e+00) (25, 1.13463707873845454088e+00) (26, 1.24494215654451800823e+00) (27, -2.87858156403112808164e+00) (28, 3.05993530760666221369e+00) (29, 2.57139044309847963898e-01) (30, 4.95597671799841377194e-01) (31, 1.56107372257927673465e-01) (32, 1.94919773381484112695e-01) (33, -3.88132865199803545053e+00) (34, -3.62223844916480253175e+00) (35, 3.94135243923932243604e+00) (36, 8.19510987550894243192e-01) (37, -1.38142813325492519461e+00) (38, -1.18146962761348439663e+00) (39, -1.10801031869642052641e+00) (40, -1.69099527554351602987e+00) (41, 2.22743058092706380791e+00) (42, -2.08179044689371917087e+00) (43, 9.67269491872774334063e-01) (44, 9.83282565853675349921e-01) (45, 9.01604068451131834827e-01) (46, -9.34596673874622196898e-01) (47, -9.64343530126210018993e-02) (48, -2.54579269532571483836e+00) (49, -4.47539020981279911382e+00) (0, 1.42307084396730996190e+01) (1, -3.63316886096304303422e+00) (2, -3.04573426848877337747e-01) (3, -1.54635658596688374544e-01) (4, 1.87321849902528675402e-01) (5, 2.62324258008231669947e-01) (6, -5.12516371648163659991e-01) (7, -8.78562873892854057090e+00) (8, -2.42630061351265569058e+00) (9, 4.27925721276596338072e-01) (10, -2.50341286180056998845e+00) (11, 4.08560460937660796521e-01) (12, 4.45788505432565873576e+00) (13, 4.74935454302896697953e+00) (14, 2.74384760165285390698e+00) (15, 5.08115612247334244578e-02) (16, -5.64730296158613054303e+00) (17, -1.18112502832845422951e+00) (18, -4.99467496253994724942e-01) (19, -1.09493004579854891212e+00) (20, -1.24213929532977274128e+00) (21, -1.91225127111687598358e+00) (22, 3.56610889986046397659e-01) (23, 1.17278302537399481409e+00) (24, 2.87992881468648355414e-02) (25, 1.52326664541370182526e+00) (26, -4.80977926583094106405e+00) (27, -8.72604866383020549847e+00) (28, 4.00330922914480580310e-01) (29, -1.82203562268684970959e+00) (30, 5.63565566435023090897e-01) (31, -1.02817749801908897567e+00) (32, 7.03930532954866294837e-01) (33, 1.26358635885118331110e+00) (34, 5.07764775718943361937e+00) (35, -5.58138712124773173073e-01) (36, 6.58932567287100479092e-01) (37, 3.91656780386006708738e-01) (38, 1.11382858367523795984e+00) (39, 2.30257019571112131473e+00) (40, 3.04026841123638069675e+00) (41, 7.06242858887201041540e+00) (42, -5.45191333585298210096e+00) (43, -1.17794298878730230307e+00) (44, -6.25911358992620070474e-01) (45, 1.03790854082546912807e+00) (46, -2.49157299380670160804e-01) (47, 1.13858589814554944653e+00) (48, 5.12215455738847635914e-01) (49, -8.60540004480458642355e-01) (0, 7.41236769629437759477e+01) (1, -5.23821487658561135703e+00) (2, 2.23731077564895075582e-01) (3, -2.48025279250766950145e-01) (4, 1.03511005669057198908e+00) (5, 1.37246409413376291297e+00) (6, 4.90030039463951322398e-02) (7, 2.73802518957837897062e+01) (8, 4.01881901415396591837e-01) (9, 4.95785461341946032121e+00) (10, 1.67429180718340564482e-01) (11, -5.86845453911735037700e-01) (12, 3.96802524233403342002e-01) (13, 2.39389641780253153991e-01) (14, -1.01276039754861297837e+01) (15, -1.65578732460520257064e+01) (16, 3.97205224255240019193e-01) (17, -1.19383825477490379541e+00) (18, 4.26510113869833229483e-01) (19, 4.31251262464742546321e-01) (20, -2.03404226853659064744e+00) (21, 1.00671543388875655012e+01) (22, -4.46071533550916221600e+00) (23, 9.64554637148503979382e-01) (24, -2.06012046640748514026e-01) (25, -5.03897182200404136765e-01) (26, 8.98375894027087840144e-01) (27, -4.87937367211401740175e-01) (28, 1.05270275498965002470e+01) (29, 7.07045316223104691744e+00) (30, 2.20390961809848073827e+00) (31, -3.35642337135269119841e+00) (32, 5.29207937214434931406e-01) (33, 1.52197631465797478256e+00) (34, 6.08953765067169805469e-01) (35, -9.47557768744223238855e+00) (36, -1.76151229017556976153e+00) (37, -1.29248086758814584307e+00) (38, 3.19899248776434386166e-01) (39, 1.03346889166143027228e-01) (40, -2.81114394812171664029e+00) (41, -1.90628508126424928149e-01) (42, -5.74860243876501275651e+00) (43, -3.05229017233591815028e+00) (44, -1.32173143765354550450e-01) (45, -5.47492194911990484596e-02) (46, -3.96468894597094487220e-02) (47, -1.82671747888233793056e+00) (48, -6.76607349694271498208e+00) (49, -1.13439503747674219625e+00) (0, 1.43534620473214289404e+01) (1, -9.26539373485480055592e+00) (2, 9.28922067418942870587e-02) (3, 3.91707210524193616408e+00) (4, -4.51208628546781387314e+00) (5, -3.01376152815256537210e+00) (6, -1.50000000000000000000e+03) (7, 3.33771484322126426036e+01) (8, -2.53737961684462165479e+00) (9, -2.94614673809506566471e+00) (10, 1.36175483097578764458e+00) (11, -4.14646635343890679337e+00) (12, -5.85524724616721226056e+00) (13, -1.50000000000000000000e+03) (14, -9.43922313384768330025e+00) (15, 2.34620393564465201663e+00) (16, 1.10849598076293531790e+01) (17, 6.50902919123553580505e-01) (18, -7.74666978796409111396e+00) (19, 5.42379339027731521838e+00) (20, -3.23313153720035018068e+01) (21, -1.03969541748369120882e+01) (22, -3.54003585067786641360e+00) (23, 1.36191276515759263077e+00) (24, 6.76743512673710689853e-01) (25, -3.83320728272557753602e-01) (26, -1.72885467319095091909e+01) (27, -4.09532228092009731313e+01) (28, -1.15527251763065326173e+01) (29, 9.11563335253777218270e+00) (30, -3.78726712867069714719e-01) (31, 2.81957422602734686379e+00) (32, 4.84111474327425794772e-01) (33, 2.77040383398640921442e+00) (34, -2.91916621538105003353e+00) (35, -5.47384756605957445430e+00) (36, -2.07377196972893362847e-01) (37, -5.72251670520629640571e-01) (38, -2.87600059509260042034e-01) (39, -1.63179069799727100021e-01) (40, 8.01714337700221513217e+00) (41, 1.90365818180840520313e+01) (42, -2.52678460451381461382e+01) (43, 5.74136976696320555646e+00) (44, 1.46704770040969334488e+00) (45, -7.94636447771049220234e-02) (46, 3.41659359128400175187e-01) (47, -4.46616093916445766610e+00) (48, -1.55363137606728773932e+01) (49, 2.45741678769334809251e-01) (0, -1.98402363900990486023e+00) (1, 3.84841745147189440157e-01) (2, 7.24582115759987099857e-01) (3, 8.09264230369657111552e-01) (4, 1.54569612815734641620e-01) (5, 1.06339707547483142136e+00) (6, -1.74527959889154749007e+00) (7, 8.31935334347866373150e-01) (8, 2.03483581141223401900e+00) (9, 1.84253384394142805114e+00) (10, 7.57373181212052881683e-01) (11, 1.76528521220553624715e+00) (12, -1.13806376030490416507e-01) (13, 3.30451494639501719419e+00) (14, 8.54467829269831291583e+00) (15, 7.30040706166723007975e-02) (16, 8.69383032630508978400e-01) (17, -1.60380139853890013590e+00) (18, -2.47015747878237412749e+00) (19, -4.75361977127890256156e+00) (20, -9.94553164076064355470e+00) (21, -3.74107864472109108434e+00) (22, 1.54886703462939645526e+00) (23, 4.18539047280464676648e-02) (24, 5.70760467164804996543e+00) (25, 3.16058408234762744371e+00) (26, 2.81221067057919915655e+00) (27, -1.98813751347829081872e+00) (28, -7.48394055380780409692e-01) (29, 1.62428397899526033576e+00) (30, 2.44884992784059152271e+00) (31, 1.69678173184327274470e+00) (32, 1.42686058773138069178e+00) (33, 1.08744535242556228383e+00) (34, 1.13188513600526374780e+00) (35, 8.12539038257881207628e-01) (36, -4.51224771673317359699e+00) (37, -1.19321821356129409430e+00) (38, -3.17664953785602577341e+00) (39, -3.94856175833638523009e-01) (40, -1.23678081967755704174e-01) (41, -2.61874029493656290679e-01) (42, -1.59542966553972043187e+00) (43, 3.63908507308600193131e-01) (44, -7.69929917998632196152e-01) (45, -1.80561963763484212286e+00) (46, 2.06576664577483937180e+00) (47, 3.33456856468690343576e+00) (48, -9.01148916240178721182e+00) (49, -2.06214477957531938657e+00) (0, -1.50000000000000000000e+03) (1, 2.63879365332349236084e+00) (2, 1.01010683469738604678e+00) (3, -7.53888556169625356773e+00) (4, -4.79727275308963996281e+00) (5, -2.63815125770659228976e+01) (6, -1.50000000000000000000e+03) (7, 1.33181749566995200063e+00) (8, -3.45309448275458397148e-01) (9, -8.89352067131999657335e-01) (10, -1.14412940610475066805e+00) (11, -1.15211959034539610514e+01) (12, -1.50000000000000000000e+03) (13, -1.30618096425545581951e+03) (14, 1.42869576240402551548e+01) (15, -3.39022406959872135701e+00) (16, 1.60308964410367273956e+01) (17, -4.08381749541017913252e-01) (18, -3.20593965996446517153e+00) (19, -5.13078262727181932945e+00) (20, -1.68111464156546008830e+00) (21, -2.42751124575592180932e+00) (22, 2.83538408427235788523e+00) (23, 1.61002106866913119454e+00) (24, -4.90237081603763957816e+00) (25, -1.21821104952168446367e+00) (26, -2.46296955452451626911e+00) (27, 7.09952742189509766746e+00) (28, -1.47500000000000000000e+03) (29, -2.82005553948546427989e+00) (30, -4.10917477808914299864e-01) (31, 2.93451712897397376523e+00) (32, 3.47595917895563433220e+00) (33, 2.31378094328891403819e+00) (34, 4.01713060293872015194e+00) (35, -1.44692953297037752236e+03) (36, 5.22277537766466259939e+00) (37, 3.76670661609372636747e+00) (38, -7.40341947429811075843e-01) (39, -4.53661073951419258066e+00) (40, -2.42580837746816824207e+00) (41, 3.10626774069207778339e+00) (42, 1.50000000000000000000e+03) (43, -2.45754496593268845217e+00) (44, -9.65453086707238661290e+00) (45, -1.50000000000000000000e+03) (46, -1.57085373946086814811e+01) (47, 8.08362313303033630518e+00) (48, -8.60835885670594365138e+01) (49, -5.51470206112222971484e+00) (0, -1.50000000000000000000e+03) (1, -5.28491779244309256569e+00) (2, -2.00642974656968009484e+00) (3, 7.47553482598277141413e-02) (4, 6.92503928264643242585e-01) (5, 7.19599311805513730533e-01) (6, 7.34352549520966402241e-01) (7, 9.14540495909280437559e+00) (8, -1.27194755968845374383e+00) (9, 6.66955437413341956088e-01) (10, 5.12173683018469994011e-01) (11, 5.80515671760234441834e-01) (12, 1.34091944002264901181e-01) (13, 9.28885766974895554782e-01) (14, -2.97158841930551815835e+01) (15, -2.04119657177699842521e+00) (16, -2.17225702663745812160e+00) (17, 1.17620070484288796742e+00) (18, -2.18032119106092858729e+00) (19, -5.74146033076857076338e-01) (20, 3.37519742220311913528e+00) (21, -2.22673823630384903893e+00) (22, 3.08277208589665185912e+00) (23, 1.08183470748271730599e+01) (24, 4.24611817760346266226e+00) (25, -3.53855563750172866233e-02) (26, -5.18081320804967965232e-02) (27, 3.76928664169243177184e+00) (28, -6.43594274121332965422e-01) (29, 2.08286873118178506026e-01) (30, -4.47275838432259931210e+00) (31, -1.22702440165598569699e+00) (32, 2.32800720334603139516e-01) (33, 2.60668510765206140611e-01) (34, -8.89749675147202978565e+00) (35, -1.94694183820627064740e+00) (36, 1.18354356165590521299e-01) (37, 1.07310521082195187148e+00) (38, -4.91079984898854160491e+00) (39, -5.55700326537989175435e-01) (40, 1.44486934900814190108e+00) (41, 2.17229603211801158835e+00) (42, 8.59541680002240182645e-01) (43, -1.18785432956813008509e+00) (44, 5.58072554346793814339e-01) (45, -2.03070725572256138847e+00) (46, 4.32901155701561124456e-01) (47, 6.56931079528623396158e-01) (48, 1.79509646396755442765e+02) (49, -3.60739399175710762080e+00) (0, 7.77340125757271760421e+00) (1, 1.58129710964809255813e+00) (2, 1.23877185016759527869e+00) (3, 1.17545136405888106523e+00) (4, 2.51942100234729338126e+00) (5, -1.23821357184002689422e+00) (6, -1.62747504580512569738e+00) (7, 3.51117125011401753909e+00) (8, -8.18659430427122969398e-01) (9, 4.56242811473635268005e-01) (10, -3.64324531853517719071e+00) (11, -3.19668074466401996858e+00) (12, -1.94702368108571555183e+00) (13, -1.95027721059195169317e+00) (14, 1.08078482244948248514e+00) (15, 1.39858757078989470735e+00) (16, 2.11700552209652809177e-02) (17, 6.53886780921060006833e-01) (18, 3.20962974138774459476e+00) (19, 3.81318322384869956565e+00) (20, 1.93464670736216004521e+00) (21, 1.96594285805511925780e+00) (22, 3.91850780351709448990e-01) (23, -3.85403331772118029619e+00) (24, 7.01437569946199435122e-01) (25, 1.22205419347144039754e+00) (26, 3.25940750188356753725e+00) (27, -2.70963609398908422676e+00) (28, -4.11934340939162868533e-01) (29, 9.69317157233993698107e-02) (30, -7.74111853302264174559e-01) (31, -2.32822075847273524118e+00) (32, -5.78204048979255591512e-01) (33, 1.14479990505272066770e+00) (34, 4.75016607789650935345e-01) (35, 4.08036071484774431894e+00) (36, 1.56678139322959997237e+00) (37, -1.52386773168921768606e-01) (38, -1.03538681313276792473e+00) (39, 7.17600175072008683586e-01) (40, -1.19921975041029704734e+00) (41, -5.03571250915184087660e+00) (42, -2.43733012525677006366e+00) (43, -4.98667387870916301029e-01) (44, 3.26067265877152234754e-01) (45, -9.64271515034776482977e-01) (46, -1.20476854766599167368e-01) (47, -2.43823529316164355762e+00) (48, -3.04174452568031803423e+01) (49, -1.27575305665257321408e+00) (0, 1.50000000000000000000e+03) (1, -1.28372874713764995036e+00) (2, 7.12060987872095152440e-01) (3, 1.78248718034359843188e+00) (4, 9.42561459343912666498e-01) (5, 9.58837994263282533680e-01) (6, 6.97521072700556743484e+00) (7, 5.05681829157829643151e+00) (8, -5.19616122872481808748e-04) (9, -1.30500161960075914541e-02) (10, 1.75462967670185387981e+00) (11, 1.15818037740153423343e+00) (12, 1.17856834005875721338e+00) (13, -3.26003770654124391815e-01) (14, -8.25390796354867672946e-01) (15, -6.19020190476918252820e-02) (16, -5.78900424010726943891e-01) (17, -1.30428709857164215613e+00) (18, -1.01328996563095525829e+01) (19, -3.99332163324391009596e+00) (20, 3.05959366935644805352e+00) (21, -1.36605556277365547402e+00) (22, -9.45692206696715054193e-01) (23, -1.32546991738984765163e+00) (24, -4.88117476220340851256e-01) (25, -2.23082517968899662897e-01) (26, 2.51014990642107038710e+00) (27, -6.82110125597710448275e-01) (28, 1.14478347639156395610e-02) (29, 4.89542537670162314356e-01) (30, -9.44909980797036586075e-01) (31, 3.05753706820551629519e+00) (32, -4.43401479374620766105e-01) (33, 1.08650899409653600713e+00) (34, -1.49688031716526648296e+00) (35, 4.19873594912634295895e+00) (36, -1.28459053610314927196e-01) (37, -6.79826787998748183206e-01) (38, 8.17250766602357514579e-01) (39, -1.94678034478832445719e-01) (40, 4.22742240675490099644e-01) (41, 4.09030360927442426799e+00) (42, -4.31026194422610853252e+00) (43, 1.87687096007676024190e-01) (44, 6.21337591855804727281e-01) (45, -4.75749138845524555119e-01) (46, 1.44123712557703093085e-01) (47, -9.60719504484473962869e-01) (48, 1.26090313807063036933e+01) (49, 4.58480235840444194650e+00) (0, 7.20496044691929249382e+00) (1, 1.24878021378556347543e+00) (2, -1.16969758050862870924e+00) (3, -1.02748091725061341251e+00) (4, 1.23138796200638656053e+00) (5, 2.54394436009550650724e+00) (6, 5.01938618763845045834e-01) (7, 2.07191573581690136052e+00) (8, -3.39198037393755624791e+00) (9, -1.01912869535924133224e+00) (10, -1.41729358728578569426e+00) (11, -1.74438730840113587206e+00) (12, 1.71389664204779301748e+00) (13, 8.52366596417903910066e-01) (14, -7.41396430928938166005e+00) (15, -2.37117876954611750406e+00) (16, -5.05461517347770630804e-02) (17, -4.61246471800555823961e+00) (18, -3.48571662499457202156e-01) (19, 1.91088101489145656409e+00) (20, -1.08350785036101737724e+00) (21, -6.90808835480103322624e+00) (22, 5.71348855340593320129e-01) (23, -2.56796143292568945782e+00) (24, 6.74913084121014694716e-01) (25, 1.35983230744056537986e+00) (26, 1.50412453997382211668e+00) (27, 6.34159698738403720952e-01) (28, 3.61064220129967239359e+00) (29, -1.20330585505178744299e+00) (30, -1.15359074830346575169e+00) (31, -7.30169444102788944839e-01) (32, 1.16213875668893829030e+00) (33, 2.72929515406239664443e+00) (34, 1.68974948498971255795e+00) (35, -8.82533337327913791626e+00) (36, -3.06234110021087824194e+00) (37, -7.38723863004617647965e-02) (38, 6.18306070682047903553e-01) (39, 9.69880306557703519843e-01) (40, 3.76197574077687890703e-01) (41, 1.43455304467085964504e+00) (42, -1.50000000000000000000e+03) (43, -1.47601380771701862216e+00) (44, -2.62160641901355706551e+00) (45, -7.35110423942266444364e-01) (46, -5.46479675975164669310e-01) (47, 4.41624138434567381495e-01) (48, -3.99922478468945685748e+00) (49, 5.33196413405747526859e-01) (0, 5.55821358000891718731e-01) (1, 1.48750266287797194842e+00) (2, 1.06991587121748743527e+00) (3, -1.34745041353466266099e-01) (4, -5.50489461617666542281e-01) (5, 3.11686204003087052872e-01) (6, -2.04311180838972816787e+00) (7, 2.82229248397806742332e+00) (8, -1.72396813058777409466e+00) (9, -9.30930746503402573033e-01) (10, 5.23117631659267626199e-02) (11, -2.35413223357918505174e-01) (12, -1.62301660590566432241e+00) (13, 5.38676314961888391686e-01) (14, 4.23734080711271124398e-02) (15, -1.66796515915615350956e+00) (16, -1.42342298492137286914e+00) (17, -5.00540640674607906213e-01) (18, -4.76439153644432678014e-01) (19, 8.70967861452216829399e-01) (20, -6.49253490830383839238e+00) (21, 4.71929800948015376605e+00) (22, -8.42274628262645180810e-02) (23, 1.50297745644835001322e+00) (24, 6.78723957702714097984e-01) (25, -1.55826547434254614188e+00) (26, 1.62211547629774610613e+00) (27, -1.90010763843051067035e+00) (28, 1.01711975320017167235e+00) (29, 1.65639708182537126469e+00) (30, -5.34332942597508298022e-01) (31, -4.93654064716745777375e-01) (32, -2.37773995059177556399e+00) (33, -2.19483244854297110393e+00) (34, -1.68696829412737170362e-01) (35, 5.25179283057600310158e-01) (36, -1.48095804314690160375e+00) (37, -1.41226686060829687008e+00) (38, -3.07203019863866977346e+00) (39, -1.90690625381555300955e+00) (40, 1.33621338852462034907e+00) (41, 7.70118312540967853153e-01) (42, 2.97099273916472661483e+00) (43, -3.37450355412550473400e-01) (44, 2.49613543595878450976e-01) (45, -1.52950223536955820514e+00) (46, 2.07733184391389569257e+00) (47, 1.31895926678875646809e-01) (48, 2.81467774306284468366e+00) (49, 2.47632469178359215789e+00) (0, -1.50000000000000000000e+03) (1, 3.00634072915209327181e-01) (2, 3.45964263664210802673e+00) (3, 3.40621135131010499553e-01) (4, 1.05288144067029731943e+00) (5, -8.48968712557968352428e-01) (6, -5.21032778798349083260e-01) (7, -6.75659341558310977405e+00) (8, 3.48089154617180840390e+00) (9, 1.06791124258189551455e+00) (10, 3.77057403181957240257e-01) (11, 1.29625130377775588109e+00) (12, 1.74242866572585897167e+00) (13, 1.98233320998509188193e+00) (14, 9.34455206321954179316e+00) (15, 2.41699827938633093893e+00) (16, -5.77221083665288792197e-01) (17, 1.07062497376170595587e+00) (18, -1.10802141892394412359e+00) (19, 6.28896201870943971635e-01) (20, -3.34131060267317137047e+00) (21, 3.59774968662666694286e+00) (22, -7.04923558000010497260e-01) (23, 1.62305836733513886294e+00) (24, -1.29478332902503590063e+00) (25, 6.12771476238910595136e-01) (26, 3.53623246919332157034e+00) (27, -3.51763224337755264770e+00) (28, -4.28846990689976070854e+00) (29, 3.43140979908879373284e-01) (30, 5.48646296422029999817e-01) (31, -4.12998233838297479359e-01) (32, -3.93502815633128721906e-01) (33, 4.18121560723096141743e+00) (34, 7.43210955567445896719e+00) (35, -2.42881828743184691177e+00) (36, -2.36326593793522610198e+00) (37, -9.42936432807055413541e-01) (38, -2.28076560876842693304e+00) (39, -9.67819530673946282207e+00) (40, -1.25014179884544081034e+01) (41, 6.28647730033882901068e+00) (42, -3.65814897792560733691e+00) (43, 4.78015268043106671125e-03) (44, 2.49654360656182350287e-01) (45, 1.03957781557222084245e+00) (46, -3.51707569772479278214e+00) (47, -3.74004811782233437256e+00) (48, -1.50000000000000000000e+03) (49, 1.74188768495192353170e-01) (0, 1.50000000000000000000e+03) (1, 1.50000000000000000000e+03) (2, 8.69164335961671596920e+00) (3, -1.05555856593427055401e+00) (4, 5.36284767106129489633e-01) (5, -6.57171242287206025523e-01) (6, 4.87579721740132931984e+00) (7, 1.50000000000000000000e+03) (8, 9.97270048622551863460e-01) (9, -4.89758903842042736532e-01) (10, 4.58508851858870425389e+00) (11, -8.14022488670617883066e-01) (12, 1.61495067443908246752e+00) (13, 5.52767017043078734417e-01) (14, -6.36523525328507311372e-01) (15, -9.01723449574149604757e+00) (16, 8.38091994323345246265e-01) (17, 3.96980778822152324814e-01) (18, -2.03908836690554107207e+00) (19, -5.71865003061754961777e+00) (20, 8.61601309290496275572e-01) (21, 4.54771762487826691768e+00) (22, 5.35742770514259536441e+00) (23, 2.80717063622755214070e+00) (24, 2.22694075855836404187e+00) (25, 8.27119931431850585746e-01) (26, 1.77931768244381061095e-01) (27, -5.94727595248772544778e+00) (28, -1.37574428202070180305e+01) (29, -2.53153696990833010361e+00) (30, -6.56880273409533721463e+00) (31, -1.13564289262752526888e+00) (32, 7.28653781097888675333e+00) (33, 4.29644034860607462178e+01) (34, 2.30677140112662186766e+01) (35, -9.30659920780684046804e+00) (36, -5.08682803811718806108e-02) (37, 8.62868833965824921783e-01) (38, -6.91575299891208583603e-01) (39, -2.87214134674678200909e+00) (40, 3.06676492359352614869e+00) (41, 1.53614311749195020518e+00) (42, 2.49299395634048437387e+01) (43, 8.81405384396012764325e-02) (44, -1.41546329774981782812e+00) (45, -2.15041221391295689358e+00) (46, -1.03048539409401840317e+00) (47, 8.22674419458735961541e+00) (48, -5.86317224646402479493e+00) (49, -3.94148774938494692033e-02) (0, -5.98017700763381299112e+00) (1, -2.55619833099369708762e+00) (2, -4.85573831023903224047e-01) (3, -1.43469628534044074675e-01) (4, -4.56201284392112119126e-02) (5, 9.38479305367010963046e-01) (6, 3.01723451704889544800e+00) (7, 2.55306662441583265277e+00) (8, -3.11008370096470754262e-01) (9, -6.06875331632078240940e-02) (10, 2.94136347416406929156e-01) (11, 6.68658376918705554814e-01) (12, 2.28212844577715644190e-02) (13, -2.13608837959639030757e+00) (14, 1.67832575674273032362e+00) (15, -8.49917404595891934349e-01) (16, 4.11600476617919985856e-01) (17, 1.43196993925525095648e+00) (18, 5.82534596562752970961e-01) (19, 6.04732910565125791891e-01) (20, 1.67713954181746682792e+00) (21, -2.48775673657877893774e+00) (22, -4.60371378568384448382e-01) (23, 2.57532947571780357343e-01) (24, -3.11533463287503309402e-01) (25, -9.38229512704504942100e-01) (26, 7.60651159823121036929e-01) (27, 1.95949265504432790230e+00) (28, 1.00638128881357880040e+00) (29, 8.37076944997167116114e-01) (30, 2.26652656694847964847e-01) (31, -1.52723529941370256280e-01) (32, 2.60092199199808637999e-01) (33, 2.71984255354681923877e-02) (34, -5.57817924881194038278e+00) (35, -4.53108840274036861473e+00) (36, -2.67150729141148746137e+00) (37, -3.51164290212573826366e+00) (38, -6.92507780436770747912e-01) (39, 1.85177513586302411319e-01) (40, -2.77389263567818211698e+00) (41, -3.39497976827333403094e+00) (42, 4.27986289014111420670e+00) (43, -7.05147212130159822818e-02) (44, -6.82641976608247547098e-01) (45, -3.57998383473723202908e-01) (46, 1.57845437276753886024e+00) (47, 2.33063371652026107839e+00) (48, 2.21435570568976238803e+01) (49, 5.93600241452535981601e-01) (0, 5.29892991894808602638e+01) (1, 5.95946776196312999474e+00) (2, -4.89547292768131914187e+00) (3, 1.61330340337412514451e+00) (4, -2.35152963051507812864e+00) (5, 6.90476873359713083644e-01) (6, -4.89200906495059673063e+00) (7, -4.49189311384479168510e+01) (8, -1.99366397275248075083e+00) (9, -3.90447153406629443584e-01) (10, -2.26776901732396352074e+00) (11, -1.44430355113195085792e+00) (12, 1.69510657418433274835e+00) (13, -5.96259065594174408886e-01) (14, -8.98116906922403313018e-01) (15, 1.60982413169214577664e+00) (16, -3.38059938124453396302e-01) (17, -1.53781658200199422559e+00) (18, -3.64816510013564465620e-01) (19, 2.94470835215399251439e+00) (20, 2.65713346521119264665e+00) (21, 1.53448984969789892219e+00) (22, -1.74356669983087231302e+00) (23, -3.11458865207375934503e+00) (24, -2.88802225529505351975e-01) (25, -2.27035573957012370983e+00) (26, -2.07031661270599443014e+00) (27, -1.17237739805289908901e+00) (28, 6.74702690481816524937e+00) (29, -5.09671962797253197408e+00) (30, 1.75702904053434636467e+01) (31, 3.62711522486484705396e+00) (32, -8.86769964871234384063e-01) (33, 8.90969401797035764901e-01) (34, -3.67028097756394533491e+00) (35, -3.08913520021501719626e+00) (36, -4.25745610837033172658e+00) (37, -2.76086199534240517295e-01) (38, -8.64893127833617270106e-01) (39, -9.40416087327529459650e-01) (40, -2.82019533264361310643e+00) (41, 6.25138449066103252250e+00) (42, -1.50000000000000000000e+03) (43, 2.82952512655421317689e-01) (44, 3.82924806837293685291e-01) (45, -1.40603939968786417758e+00) (46, 1.81825262681640920093e+00) (47, 8.21182548106805132448e-01) (48, -2.99268429316853801225e+00) (49, -3.15422048387198872277e+00) (0, 8.84109056637972479109e+00) (1, 6.85243463840190347725e+00) (2, 1.14676976101710303979e+00) (3, 2.85060694183154206272e+00) (4, 4.59648846626407792115e+00) (5, 9.06823524831661988144e-03) (6, 2.24656455695981138732e+00) (7, 7.09238903275065002418e+00) (8, 9.50472640363728915602e-01) (9, -2.29471048074249583948e+00) (10, -2.07538663264612699422e+00) (11, 1.52942924970516247463e+00) (12, 3.42951735718327876956e-01) (13, 1.31410853432903529381e+00) (14, -5.11672403420652011086e-01) (15, -3.49204486849687123495e+00) (16, -2.12903108959369902209e+00) (17, -2.18826661941342211215e-02) (18, -6.07017563634342116607e-01) (19, 9.48549466427507703692e-01) (20, 3.63272811909439097278e+00) (21, -9.16116281619105410350e-01) (22, -3.56892344101685532465e+00) (23, -1.22192427993591379298e+00) (24, -1.22403485954709845274e+00) (25, 2.60805798702152502599e+00) (26, -5.97513588404546491795e-01) (27, 5.63232634275825905235e+00) (28, -2.02791732025562865260e+00) (29, 1.33169885699795820244e-01) (30, -3.87640077787092929285e+00) (31, -1.93609575484226303921e+00) (32, -2.60465018860404118328e+00) (33, 1.40944283143241233525e+00) (34, 1.10040588622526236406e+00) (35, 3.27056578330001368471e+00) (36, 5.21269926845983988528e+00) (37, 1.36251956954234665353e+00) (38, 6.74549359726254493808e+00) (39, 1.65557897667113707030e+00) (40, 5.04287836827558777486e+00) (41, 2.20472336335516594374e+00) (42, -4.98793736560699052518e+00) (43, -2.21860598354097549034e+00) (44, 5.41904446667284989125e-01) (45, 3.14545393971641917830e+00) (46, 1.03757089742073782546e+00) (47, -1.54449940636136329175e+00) (48, 2.34099616243736069476e-01) (49, -1.56271910729787588679e+00) (0, -1.50000000000000000000e+03) (1, -1.44879343521531927763e+03) (2, 1.24424728480138560371e+03) (3, -1.31893279503019425647e+03) (4, -1.50000000000000000000e+03) (5, -1.50000000000000000000e+03) (6, 1.50000000000000000000e+03) (7, -8.71836855016443109889e+02) (8, 5.58420097301693090230e+02) (9, -2.24634204047173994923e+02) (10, -4.47181612012708058046e+02) (11, -1.50000000000000000000e+03) (12, 2.85472611120787327366e+01) (13, 6.64380297616924622162e+02) (14, 3.99755524443715387406e+02) (15, 1.50000000000000000000e+03) (16, 2.06242715457553146052e+02) (17, -6.41108804300186463365e+00) (18, -5.62974938925530992151e+01) (19, -2.23234489056828920184e+02) (20, 1.35151994282856117024e+03) (21, -1.07232020989955094592e+03) (22, 1.50000000000000000000e+03) (23, -3.12416028805889567366e+00) (24, -2.89993361309800334880e+00) (25, -2.83515988051206679899e+00) (26, 7.90012545481763872601e+00) (27, 3.89584119091661094103e+01) (28, 1.50000000000000000000e+03) (29, 1.39077703740487681472e+01) (30, -4.90817147068185288816e+00) (31, -1.90787475773958181691e+00) (32, -6.97615204183304058461e+01) (33, 3.56517930771009705637e+00) (34, 3.99587739614318735448e+01) (35, 1.50000000000000000000e+03) (36, -1.46145867725434027307e+03) (37, -1.67153927668290691599e+02) (38, -4.71558530964632964810e+01) (39, -2.79249151224445979480e+00) (40, 4.55689011846087396407e+02) (41, 6.58085534868758827542e+02) (42, 1.50000000000000000000e+03) (43, -1.50000000000000000000e+03) (44, -4.61505567409721262351e+00) (45, -3.79717963513357616989e+01) (46, -8.21427867879084949720e+00) (47, -2.21291049535301951323e+01) (48, -1.50000000000000000000e+03) (49, -2.99149801716326768641e+00) (0, -2.03566365157252675999e+02) (1, 1.88862999457042207041e+02) (2, -5.69017877140860903751e+01) (3, 4.75628028490955045982e+00) (4, -1.02164892951827326328e+01) (5, 2.79739328443458639128e+01) (6, 1.50000000000000000000e+03) (7, -3.07671230553771636096e+02) (8, 3.21873466133252748023e+01) (9, 6.62236178970213895667e+00) (10, -2.58868816167617055157e+01) (11, 1.21594517251206397646e+01) (12, 5.02429670671193235876e+01) (13, 1.34305565365698316782e+03) (14, 4.14837620595904695620e+02) (15, -1.75207368737758031330e+01) (16, -3.37342725185219975970e+01) (17, 4.87029071491838294605e+00) (18, -4.95314082939425848195e+00) (19, -3.36458588826021056661e+01) (20, -1.20480633145929459715e+03) (21, -1.17154961260097343256e+03) (22, 6.98051241644014197618e+01) (23, 6.43458609530287084510e+00) (24, -1.95847298617972209733e+00) (25, 4.05501732770531120309e+00) (26, 6.44774983375748774961e+02) (27, 1.04887925375922759486e+03) (28, 6.35701872141181070219e+01) (29, 3.70846906385490342473e+01) (30, 1.21560668004440231016e+01) (31, 3.73903299553681556233e+00) (32, 4.12741910703179915032e+00) (33, -1.14203411201021278742e+01) (34, 3.11245933081689649669e+01) (35, -2.29983866460572556889e+02) (36, 3.44907953956135671092e+01) (37, 3.52104727491041780141e+00) (38, -5.63085862435803830017e-01) (39, 1.07814254598922101280e+01) (40, 2.51187762764431166129e-01) (41, -7.00777421648614620153e+01) (42, -6.29129994973651605505e+02) (43, 2.71800540740990015820e+02) (44, 5.74972673024779457052e+00) (45, -1.99550971040940861023e+00) (46, -2.93387200155178762273e+00) (47, -2.50349388475238328056e+01) (48, -5.30486518029662875051e+02) (49, 3.34778893530163212944e+00) (0, -2.65522122824845254740e+01) (1, 2.75753118857665313612e+00) (2, -3.95791896148285449186e+00) (3, 1.05917407242906014275e+00) (4, 1.02143385367480798998e+00) (5, 1.21312514123395304155e-01) (6, -2.21838365470958613912e+01) (7, 3.63911060123582119630e+00) (8, 1.98196800760198521552e+00) (9, 2.37822893130831758413e+00) (10, -5.79455009798816589317e-02) (11, -9.82401670907654289699e-01) (12, -6.24490464493750230268e-01) (13, 1.62743239458942923203e-01) (14, 4.05804056103056520755e+00) (15, 7.75290230782119338393e-01) (16, 1.24647774337049299653e+00) (17, -8.46162220616630933456e-01) (18, -1.38097580183867446602e-01) (19, 1.68541765726379022539e-01) (20, 4.35258531929121250670e+00) (21, 8.18786413063483209385e+00) (22, -9.19467702225478245026e-01) (23, -7.37727600992697740701e-01) (24, -2.72155830841749279969e+00) (25, 2.41387749827293474070e+00) (26, 5.16788918980823197558e+00) (27, 1.44930661360390189429e+01) (28, 1.01129379121437223965e+00) (29, 5.04102587096704723990e+00) (30, 3.19884525190889368318e+00) (31, 1.50430261901874628983e+00) (32, 2.89408622470189813569e+00) (33, -6.53250855699747745575e+00) (34, 1.50000000000000000000e+03) (35, -1.82354796572865329729e+00) (36, -5.50988426214221682642e+00) (37, -3.09202513729517969310e+00) (38, 6.75097723342174216299e-01) (39, 1.35084393914147149474e+00) (40, 5.98597095542731416629e+00) (41, 1.38431401172608783412e+01) (42, -4.89111648892332251393e+00) (43, 4.02954520503414459487e-01) (44, -2.20281635485713167544e-01) (45, -8.91451911142141062427e-01) (46, 7.08368707738647795935e-01) (47, 1.39694746025276628210e+00) (48, -1.33571324033820619803e+01) (49, -1.30288942654665707011e+00) (0, -1.50000000000000000000e+03) (1, -8.51358709814957670403e+00) (2, 7.16376171220912238979e-01) (3, 5.27876509375812097424e-01) (4, -1.49600438591954487677e-01) (5, -1.15311098971429368265e-01) (6, 7.38194370426792145778e-01) (7, 2.77426222547236256410e-01) (8, 9.19395263326595491016e-01) (9, -1.28171720577684844500e+00) (10, -7.69582551251046020901e-01) (11, 1.92529335649557276078e+00) (12, 7.19118131664089776933e-01) (13, -9.10782782677082014544e-01) (14, 4.75455235401236375736e+00) (15, 1.14362723547130196167e+00) (16, -1.00333206678223152419e-01) (17, 4.74440450499719723609e+00) (18, 1.60331114064905344563e+00) (19, 1.03769820830961534419e-01) (20, 1.28328107927304935210e+00) (21, -9.69033096100124557992e-01) (22, 1.10998673488168275725e+00) (23, 2.07767793672060080423e-01) (24, -4.43916595898517751806e+00) (25, -4.77358803624974736834e+00) (26, -7.60403439836755068448e-01) (27, -1.26571280808828823261e+00) (28, -3.31279737662907636242e-01) (29, 2.99561568481909457073e-01) (30, -2.97445929419906684998e+00) (31, -1.37130638455352760197e+00) (32, 7.50523506904467341272e-01) (33, -2.69834483846284334252e-01) (34, -2.02379107576283390202e+00) (35, -1.54272521804196371953e+00) (36, -7.05985563592541498501e-01) (37, 4.86437501961213214496e-01) (38, -1.28122179156108062514e+00) (39, -2.66791967555984665950e+00) (40, -4.77981442100659226213e+00) (41, -1.31476968106461855612e+00) (42, 2.71277096815231266724e-01) (43, 3.23063155905702059645e-01) (44, 7.52000298715152060147e-01) (45, -2.31345710263946374718e-01) (46, -6.61387009613368603844e-01) (47, -1.45077854639472358933e+00) (48, 4.81154722589938010913e+00) (49, -1.92321917474642861690e-01) (0, -5.33092794678477517323e+01) (1, 5.86957515991472700279e+00) (2, 5.85121156509026851822e-01) (3, 9.54353666665810229652e-01) (4, -1.61393925013967742821e+00) (5, -7.04725658421064604653e-01) (6, 6.21201292981125030579e-01) (7, -7.86283971226665912013e+00) (8, 2.41861833163078987496e+00) (9, 1.60103225760165823743e+00) (10, 4.81428214564010581444e-01) (11, -4.17574318202189820326e-01) (12, 8.49196769880459001456e-01) (13, -4.39692031125066051800e-01) (14, 1.59886671256991199641e+01) (15, -3.49986701630484675629e-01) (16, 9.07080922191075700312e+00) (17, -1.05025901029598101033e+00) (18, -1.67277318434013588799e+00) (19, 5.07072143524896490341e-01) (20, -2.19574982218190689620e-01) (21, -9.24834576643810777341e+01) (22, -8.88836418318220466972e+00) (23, 9.70366846951879913341e-01) (24, 6.27393524067157870583e-01) (25, 2.00161038713184558091e+00) (26, -7.99489760724330622566e+00) (27, -2.14374647774748510187e+01) (28, -4.15751443846088886147e+00) (29, 5.36662031027941299755e-01) (30, 2.56826807866371753519e+00) (31, -6.11310752661998968449e-01) (32, 2.26759848147593201517e+00) (33, -1.72623724227843178269e+00) (34, -7.56784288589452724949e+00) (35, 1.28108303802013487882e+01) (36, 1.47761821177371555081e+00) (37, 6.63651739019170516798e-01) (38, 8.62106623675671923657e-01) (39, 2.61992393020946456872e+00) (40, 4.62535569419663838975e-01) (41, 6.29665403022992542503e+00) (42, 1.22403264426880475924e+01) (43, 1.68488972962608962725e+00) (44, 9.00485046655656207193e-01) (45, -5.31771447088585480500e-01) (46, -5.68850271951605868104e-01) (47, -1.30267566191498440631e+00) (48, -5.71591674959979467729e+00) (49, -6.21027992971416864521e+00) (0, -5.19701803734726408557e-01) (1, -3.59629805731880436426e+00) (2, 1.01934505416236986797e+00) (3, -2.57936071269776190373e-01) (4, 1.75280344763062445601e+00) (5, 2.08652653699014534183e+00) (6, 1.90302951794104302508e+00) (7, 2.47572855603410424408e+01) (8, -8.52003504475853712385e-01) (9, -1.23099541491460340303e+00) (10, -2.01140247221416823553e-01) (11, -1.54754532106011200021e-01) (12, -1.58677314544267611396e+00) (13, 2.88526867375703233165e+00) (14, -2.11611875953792960559e+01) (15, -1.29995778067325562510e+00) (16, 5.35041358593655091980e-01) (17, 7.19920385792436445804e-01) (18, 6.04207058895073090277e-01) (19, -2.06545488542636634932e+00) (20, -3.19997853447014390937e+00) (21, -2.52403905942430517584e+00) (22, 4.17474959104041587477e-01) (23, -2.79592086200070610857e+00) (24, 1.24281261624728833759e+00) (25, 1.31805301811290109804e+00) (26, 1.00154640283700846481e+00) (27, 6.58466729447506282646e-01) (28, 4.83421832284675367930e+00) (29, 1.79376455926946007935e+01) (30, 4.30120136590194324100e+00) (31, -1.77137520168235085283e-01) (32, -1.72200555438245306306e+00) (33, -5.04895581220294764613e-01) (34, -1.21745144424427165220e+00) (35, -1.33129427317861228630e+01) (36, -1.18460369807398642195e+01) (37, -4.86135034971404245141e+00) (38, 1.15525988086797770649e+00) (39, 6.65048760769623492628e-01) (40, 1.53860243697908849470e+00) (41, -9.97514673185725952997e-01) (42, -2.16156048237983355875e+01) (43, -2.79141071116288808085e+00) (44, -2.24055804610201159122e+00) (45, 5.98054026337515920453e-01) (46, 3.22398113077113246394e-01) (47, -2.13567891792269515250e+00) (48, 8.61741702831637468307e+00) (49, -1.18648507612680553791e+00) (0, 3.73706172333166080080e+01) (1, 1.86861943491359516756e+00) (2, -1.24690027403991576804e+00) (3, 1.25276712059589154930e-02) (4, -1.18164384030248759139e+00) (5, -1.56073206575847756028e+00) (6, -1.52047578904505034103e+01) (7, -5.31376634106041217942e-02) (8, 1.44724170588699713180e-01) (9, 7.51389843237391386044e-02) (10, -8.78896891427903420579e-02) (11, -7.85986264849696580903e-01) (12, -2.85573730060566388644e+00) (13, -1.69075686285805693032e+00) (14, 1.22008574803535796427e+00) (15, 3.02475688337153147955e+00) (16, 4.76906690056612525552e+00) (17, -3.76431569468249405119e-01) (18, -6.11257421267925815656e-01) (19, -1.37945829161107957894e+00) (20, -4.10593792109453836758e+00) (21, 1.22577379414478992992e+00) (22, 2.71081943444583650660e+00) (23, -7.50396251967934357907e+00) (24, -3.33116377924552331535e+00) (25, -3.67036798830062571675e-01) (26, -1.19485250498079209613e+00) (27, 1.96267443568853083846e+00) (28, 5.40097977024251107991e+00) (29, -9.75436176651678588101e-01) (30, -1.07830267386120604023e+00) (31, -3.49114896410636033064e-01) (32, 8.21684941412444080910e-01) (33, 1.28013651254015448089e+00) (34, 4.21791157703563257542e+00) (35, -1.83687994901538281800e-01) (36, 3.66704941757495950228e+00) (37, 2.42738660256729943399e+00) (38, 2.61509819027711198913e+00) (39, 1.00244161583631541390e+00) (40, -1.10144197406152843932e+00) (41, -8.51881619345921592412e+00) (42, 4.81391396621039113768e+00) (43, 8.16530031463995609187e-01) (44, 1.21675944020251125544e+00) (45, -9.16994489937845047578e-01) (46, 3.16308045648903080060e-01) (47, -2.98425233229789255152e-01) (48, 7.20060740127615694917e+00) (49, -7.14125065942078918191e-01) (0, -1.69969586529178435796e+01) (1, 1.26229673288545267695e+01) (2, 7.39310631230669734748e+00) (3, 6.59604223006116541228e+00) (4, -1.96788798709531964626e+00) (5, -2.64480404075245985496e+02) (6, 1.50000000000000000000e+03) (7, 1.30400943333647649780e+01) (8, -5.33277903320789725683e-01) (9, -6.68422369021144291423e+00) (10, -2.92225322794179342978e+00) (11, 4.60745009039488007119e+00) (12, -1.35163408012329568919e+01) (13, 1.26078577656053991696e+00) (14, -6.68688390534578669389e+00) (15, 4.87454583740175895201e+00) (16, -1.08029946209155447434e+00) (17, -2.40311366210924219899e+01) (18, -2.38502806046363291514e+00) (19, 9.89853505254162868709e+00) (20, 4.75682726330492400280e+01) (21, 8.18696468506070829108e+00) (22, 2.53202866356956268756e-01) (23, -1.16792829321955538013e+00) (24, 2.40719298578808427180e+00) (25, -7.16409633198335260573e+00) (26, 5.27717011657905832323e+00) (27, -9.81998127856853386675e+00) (28, 1.73605544374251934414e+01) (29, -1.37627485564226614834e+00) (30, 3.71997613126007076190e+00) (31, 2.13708032338633877600e+01) (32, -1.74072552948610925760e+00) (33, -5.42098422131458335116e+00) (34, -1.90450000900448124241e+01) (35, -6.23521373128950813225e+02) (36, -2.74074499649236980048e+00) (37, -2.12877413415763966364e-01) (38, 4.81298131141049412296e-01) (39, -1.35749462076224602924e+01) (40, 7.12662498311795733485e-01) (41, -2.55381752382726787687e+01) (42, 8.42752192958717216698e+01) (43, -3.38506492112356340840e+01) (44, 3.92363990922645777815e+00) (45, -1.30860388853896392192e+01) (46, 1.35638946196773257924e+01) (47, -9.81643694310567660466e+00) (48, 8.79318147898034112586e+01) (49, -9.58468224732194618021e-01) (0, -2.54319517064586335664e+01) (1, 9.85447355256380141952e+00) (2, 8.87181914249556236030e+00) (3, 3.01311073011803154387e+00) (4, 1.35966857490396053620e+00) (5, -2.93087933092453223338e+00) (6, -2.64944201495189268769e+01) (7, 4.28460649460415510248e+01) (8, -2.50737076961705174227e+00) (9, -1.31877092618316149597e-01) (10, -9.35509586486302424646e+00) (11, -3.51111970168266251946e+00) (12, 2.01231239662957861469e+00) (13, -5.13085562026618480225e-01) (14, -5.37139865580012276780e+00) (15, -1.40268701760108456256e+01) (16, -3.43997657866665651483e+00) (17, 2.51873357138339581951e+00) (18, -1.21537020824864701041e+01) (19, -1.44074550855403304972e+00) (20, -3.21356547991584591273e+01) (21, -1.16928044116989156009e+01) (22, -2.54510198733787751380e+00) (23, 1.82334172854098874872e+00) (24, 1.39336645581668356897e+01) (25, -8.26608675575238649458e+00) (26, -1.05454402848539108284e+00) (27, -4.37527422675313015787e+00) (28, 1.23762998856849915086e+01) (29, 1.40947427723193410287e+01) (30, 1.47746819114890204361e+01) (31, -1.29407706288037904763e+00) (32, -4.34185436137489855213e+00) (33, 9.48483380306353396350e+00) (34, 1.78220304011157431034e+01) (35, -1.81670853118840391893e+00) (36, 6.21705657393023702895e+00) (37, 1.13618615223355590160e+00) (38, -5.36058995520401282420e+00) (39, 4.97606530820442538587e-01) (40, -2.04447471074964326476e+00) (41, -6.51500823988165400635e+00) (42, -1.96003113484657518484e+01) (43, -2.03555545067845278240e+00) (44, 9.83504758713612980969e-01) (45, -3.01389132636515677532e-01) (46, -3.25701540078752016516e-01) (47, 4.74284286701816704124e+00) (48, -3.44076395320449091031e+00) (49, -5.19052308142318974404e+00) (0, 8.35954791157239185395e+00) (1, 1.88251662104644862383e-01) (2, -1.17866000651809144095e+00) (3, -1.78452205949610254176e-01) (4, -9.68498147805436082614e-01) (5, 8.31732391617161281872e-01) (6, -7.33817910646029969435e-01) (7, 2.25708325674026655250e+00) (8, -3.90455486653307481948e-01) (9, 7.96556675223252130813e-01) (10, -3.07201003041744291622e+00) (11, -1.82683130895736112187e+00) (12, 1.03760599160491340243e+00) (13, 5.10628248886940472318e+00) (14, 5.15876850886588655953e+00) (15, 2.60817861755542279578e-01) (16, 1.45439388008552161757e+00) (17, -1.74751927148022279113e+00) (18, -2.05650054851263908162e+00) (19, -5.55798810737414217265e-01) (20, -4.36414231487237547213e+00) (21, -6.41355373331009293025e+00) (22, 2.06383152710499118143e+00) (23, 3.95969468043184535944e+00) (24, -3.33906635878520374749e-01) (25, -1.13819476899356106236e-01) (26, 2.13523882558912703189e+00) (27, -2.14706205731951260685e-01) (28, -2.53818171831572580999e+00) (29, -1.51328049854397739260e+00) (30, 4.80011634892866245750e-02) (31, -9.17490106272725758352e-01) (32, 1.09221130807692934361e+00) (33, 2.96437261989302625054e+00) (34, -1.95269646801043283979e+00) (35, 1.02565041472129703237e+00) (36, -1.18061550313254981504e+00) (37, -3.16126559391709527347e+00) (38, -3.50526395635876042434e+00) (39, -1.43092542066302685910e+00) (40, -1.06911562293210282704e+00) (41, -1.65546373005574465331e+00) (42, -1.14442386944701350870e+01) (43, 2.21548256104440710601e+00) (44, 1.52941271289942198885e-01) (45, 1.80750894686366647690e+00) (46, 3.41913223093898421823e+00) (47, 2.38199483139593626291e+00) (48, -5.12796039287454985534e-01) (49, 1.08644367349692849700e+00) (0, 7.36013968139280372327e+00) (1, -3.53625239142543623672e+00) (2, 1.65383950748938501896e+00) (3, 1.24793931769224841766e+00) (4, 6.51066113154878167713e-01) (5, 7.79342091332865805065e-01) (6, -4.72832138881189756319e+00) (7, -6.26193843086952917076e+00) (8, 1.09400902073559191940e+00) (9, -3.71293900654960618013e+00) (10, 1.52963522008926378071e+00) (11, -5.64653891359666107452e-02) (12, 3.88937807603633334264e-01) (13, 1.93439030854564952833e+00) (14, -4.13809007583864030266e+01) (15, -1.62171943142226537837e+00) (16, -1.71488861971106381077e+01) (17, 3.09577523783942831770e+00) (18, -1.09753175209564646231e+00) (19, 8.38223856597520300404e-01) (20, -1.16093595544366401384e+00) (21, 6.14641957812228056923e+00) (22, 4.63121674052283704981e+00) (23, 1.04009692209786042127e+00) (24, 8.07045481724859348205e-01) (25, -6.14194670744629189763e-01) (26, -2.14560484605926582447e+00) (27, -1.96312663093168526807e+00) (28, -3.49260570359448019317e+00) (29, -1.24558266358550429054e+00) (30, -1.31279642087131859229e-01) (31, -3.07917800220048887283e-01) (32, 4.36344014158904169864e-01) (33, 6.78145421920540725225e-01) (34, 2.24269898546270862738e+00) (35, 2.65550693106434954061e+00) (36, 1.74799929642718426814e-01) (37, 4.18169062007976877204e-01) (38, 7.01727401343036794046e-01) (39, -9.59097131039414629861e-01) (40, -5.55136265326900746331e-01) (41, 1.45964654438420549099e-01) (42, -7.43310592650101842338e+00) (43, 8.18845387408878022661e-01) (44, -1.42989119594096014687e+00) (45, -1.16129106227193260037e-01) (46, -5.78124539713296359267e-01) (47, 9.07160730709087870238e-02) (48, -2.61970731371703706714e+01) (49, -5.44553800139314203577e-01) (0, -2.94592773327749100076e+01) (1, -1.55392039633949030630e+00) (2, 1.53740131639365385646e-02) (3, 3.62005631602555111304e-01) (4, -6.94638502953776382220e-01) (5, 1.85920281572516055135e+00) (6, -5.47760568299148342675e+00) (7, -9.48319659524073443890e+00) (8, 3.39123750089503683824e+00) (9, 4.14590852538757714818e-01) (10, 7.37329465610142342769e-01) (11, -4.86870486811908087521e-01) (12, -2.19765365340695684182e+00) (13, 5.69116931889287780422e+00) (14, 3.81451302132126546240e+00) (15, -8.42055522346655482835e-01) (16, -1.60993583408118645650e+00) (17, 2.29077337803218972212e+00) (18, 2.01241902640705916383e+00) (19, 2.43085628046839152816e+00) (20, -6.61718398244400152208e+00) (21, -4.45896477476391550621e-01) (22, -1.53097320721503038499e+00) (23, 9.64985182543174557779e-01) (24, 8.29131169813590496176e+00) (25, 1.36667833018924529398e+01) (26, -1.89322379361840975598e+00) (27, -8.65968068638855670294e-01) (28, -4.01544338764557084964e-01) (29, 1.45494464826941172220e-01) (30, -1.37429989701208454811e+00) (31, 2.09202215290559712102e+00) (32, -1.17158101669290237723e+00) (33, -2.79785415391017355802e+00) (34, -1.83742669215428966467e+00) (35, -1.30859136152229238448e+00) (36, -1.93051835319129994062e+00) (37, 3.36128385048719072192e-02) (38, 2.48916369688448124720e+00) (39, 1.46068044219427956021e-01) (40, -3.51600970390337108640e+00) (41, 1.42591140234571867040e-01) (42, 1.44749120433116607032e+00) (43, -5.35759219702328093327e-01) (44, -6.68134329633436441220e-01) (45, 2.70691548904414958088e+00) (46, 3.63866101032498556744e-01) (47, -2.56086275000384366862e+00) (48, 9.14442931332514596932e+00) (49, -8.60659237998260984170e+00) (50, -3.36707811204457430065e+00) (51, 3.31511989488242875268e+00) (52, -9.72441198186611455156e-01) (53, 7.02626358627395664058e+00) (54, 1.48893440468988957903e+00) (55, -8.51990205753590856830e+00) (56, -3.48349212948440456472e+00) (57, -2.16704245606326129092e+00) (58, 5.83923118952222111600e-02) (59, -3.69376445709467837730e+00) (60, 7.20741187010450978789e-01) (61, -5.20260142074796050338e+00) (62, -8.86318947670409862383e+00) (63, 1.26066361804890614273e-01) (64, -5.79064286039497844172e+00) (65, -2.10498253554208591964e-01) (66, -3.56957276948233204195e+00) (67, 4.43860465243877833075e+00) (68, -1.75212021066313639039e+00) (69, -1.90550394328334071758e+00) (70, 1.95113112195661009274e+00) (71, -7.24977622415048150728e-01) (72, 1.57358446689696562792e+00) (73, -1.53606108225519166766e+00) (74, -2.67328502869054673852e+00) (75, -5.93732053564339423701e+00) (76, 2.09401482150459894438e-01) (77, 3.86577802383851309997e-01) (78, -1.46782722041184965356e+00) (79, -2.92930533229263412309e+00) (80, -3.41237286664646122247e+00) (81, -8.02666316801735391095e+00) (82, -2.72961557791150122299e+00) (83, -8.24607424045557535486e-01) (50, -8.09728387737269805768e+00) (51, -3.55995793424702977603e+00) (52, 8.71734890053429634094e-01) (53, -7.70452474203694848143e+00) (54, -1.90863252583515174976e+00) (55, -1.22612769863171973128e+01) (56, 1.82662177912647945288e-02) (57, 9.11720379009048453867e-01) (58, 9.54899008675012206382e-01) (59, -6.36873005125046809383e+00) (60, 2.36709989777427942670e+00) (61, 1.10265745470943499207e+00) (62, -1.18436002947339780178e+00) (63, 4.15344002016620184037e+00) (64, -4.34397143131150720308e+00) (65, 9.47045081451459225264e+00) (66, 5.05256049254522920933e+00) (67, -1.75086200529607483034e+00) (68, 2.39272689048457509742e+00) (69, 3.06877391717758074563e-02) (70, 2.83786976291102632786e+00) (71, -1.12338535647416515317e+00) (72, -1.12344893744784557477e+00) (73, -1.91768147188130932967e+00) (74, -2.15905325443298767851e+00) (75, 6.51650915476437653240e+00) (76, -7.76778803727240729771e-01) (77, -6.43057450347129244683e-01) (78, -1.62600412713810893450e+00) (79, 3.24936277344308965809e-01) (80, 2.42946465795687949196e+00) (81, 1.97551894332551203348e+00) (82, -3.12222120550276160955e+00) (83, -3.83450533071315935452e-01) (50, 8.84171181891836854838e-01) (51, 7.37059950000815700122e-01) (52, -1.11366780490632177880e+00) (53, 3.58486869976202537913e+00) (54, -6.55830531906583691359e-01) (55, -6.61494928489520273018e+00) (56, -6.31113581443819571248e-02) (57, 1.54159800032909433121e+00) (58, 1.20246444169805299929e+00) (59, 4.38643361241876750256e+00) (60, 7.15358677214162774760e+00) (61, 3.28650400999155678505e+00) (62, -1.94847114580040203791e+00) (63, -9.84576864868508122575e-02) (64, -2.78572449895310958468e+00) (65, -1.23145119818795745203e+00) (66, 1.88931711436286953187e+00) (67, -2.35205937848632373743e+00) (68, 1.63961146861805828756e+00) (69, -3.13749413708009550206e+00) (70, -2.70897206506970966711e-01) (71, 7.64504656751605837783e-01) (72, -3.44056087357492434986e-01) (73, 2.22269913870275725998e+00) (74, -2.13880216665562485900e+01) (75, 2.50799748444262426972e+00) (76, -3.56974286255707662363e+00) (77, -1.58094824496878505471e-01) (78, 7.67033511301251413883e-01) (79, 4.12470449725150511977e-01) (80, -6.96872752422066543687e+00) (81, 4.54947708732469724424e+00) (82, -4.12364565598389187784e+00) (83, -2.03229038817747476031e+00) (50, 2.50340860500404882583e-01) (51, -6.67844570662784131621e-01) (52, 4.12404942590663903257e-01) (53, -3.50249377296815112004e+00) (54, 2.99570750899404936174e-01) (55, 4.24784146598373535397e+00) (56, -5.91300719157465071163e+00) (57, 1.71118007045194975291e+00) (58, 8.13843341395919739334e-01) (59, -2.82717461001134040544e-01) (60, -1.07525062405906379759e+00) (61, -1.44732072872951644804e+00) (62, -6.28134932877389973171e-01) (63, 1.50393089188978357207e+00) (64, -5.97292165913247963260e+00) (65, -6.60534692533083145349e+00) (66, -3.55190017005622138413e+00) (67, 4.40093859256318720163e-01) (68, -5.88462086207775580959e+00) (69, 1.50060665280442151470e+00) (70, -1.47979081488356389862e+00) (71, 2.78109741036570379258e-01) (72, -1.01339381396786909484e+00) (73, -2.22082752366901647889e+00) (74, 1.47310166581280221898e+00) (75, 6.64729431311040008801e-01) (76, 1.24664323699622636710e+00) (77, 1.99984791925776517196e+00) (78, -2.07930966708484010752e+00) (79, 7.12267734488169601548e-01) (80, 2.50103014011422342122e+00) (81, 5.27594286656533117963e+00) (82, 4.42417876134895315943e+00) (83, -2.32435647183722959852e+00) (50, -1.24247554976188574472e+01) (51, 2.17338484294731371094e+00) (52, -5.29011759023446548333e-01) (53, -3.78919097669954796359e+00) (54, 6.72797690191798358761e-01) (55, 4.00106692366573302166e+00) (56, 1.02834433876433067878e-01) (57, 1.41600584927441719429e+00) (58, -4.59275195136105873761e-01) (59, 1.62094763004670605611e+00) (60, -2.12634480100914622369e+01) (61, 3.63944101804146880053e-01) (62, -5.98915767247740404855e+00) (63, 2.76283365047817586202e+00) (64, -1.14744556696298727339e+00) (65, -3.29100329300152427692e-01) (66, 2.32362604137206707478e+00) (67, 9.50709457592716078445e-01) (68, -9.22797225840561896604e-01) (69, 8.04791657976849483802e-01) (70, -5.19515935527297756380e+00) (71, -4.19763910262146378027e-01) (72, 2.66289449098905528501e+00) (73, -8.23041960603030919863e-01) (74, -7.78793448027152290791e+00) (75, -1.86466055499987870547e+00) (76, -5.74145214573506201816e-01) (77, -5.91082398114335938466e-01) (78, 1.29284791513161212428e+00) (79, 2.01138762173977703185e+00) (80, 4.02186859196729584731e-01) (81, -1.09985070904263189107e+01) (82, -1.48506184342658698050e+00) (83, -2.27441819177244930472e+00) (50, 1.97223309332061225163e+00) (51, -3.36558942178242714860e+00) (52, 1.46196036207072688207e+00) (53, -3.94051988464683100588e+00) (54, 5.07154969153187251685e-01) (55, -2.90652342845835365281e+00) (56, 3.21416303043851581123e+00) (57, 9.23468024784682373074e-01) (58, -1.98382418968049289987e+00) (59, 1.77143484539826978619e+00) (60, 1.88345278470083687949e+00) (61, 1.70129700629082303287e+00) (62, 2.14313650877167738429e+00) (63, -6.10552315201867834560e+00) (64, -7.58548380192078131046e+00) (65, -3.86044359140836101929e+00) (66, -4.66159219572135885556e+00) (67, 3.11524504553734538081e-01) (68, -1.98581913803023213383e+00) (69, 3.80761929221844486193e+00) (70, 1.59932170271968265851e+00) (71, -6.39639874420184550985e-01) (72, 5.92423244661987813409e-01) (73, -1.56426490543436846892e+00) (74, 6.83491253433247880622e+00) (75, 5.95495812963770299042e-01) (76, 2.02310764126346320779e+00) (77, -3.57404000424918422141e+00) (78, 1.12220450404885507822e+00) (79, -6.42132411649834589085e-01) (80, 1.07103425173755470445e-01) (81, -1.80044287910118061546e+00) (82, 2.14434622841142008554e+00) (83, -3.23683044251342699749e-01) (50, -5.52167489348149320705e+00) (51, -1.87085528459223970899e+00) (52, -5.67555245179537370959e-01) (53, 2.69085846872036205113e+00) (54, -2.31188757619100693219e+00) (55, -2.14274155571913524909e+01) (56, 6.02478788842579771057e-01) (57, -3.98435173537047537806e+00) (58, -1.11236017275793863668e+00) (59, 4.41740597512412402903e-01) (60, -4.03390586580654542104e+00) (61, -3.99642148724459644882e+00) (62, 6.46912554731242561701e+00) (63, 1.79544981981516960090e+00) (64, 3.85464917901398429478e+00) (65, -1.24050591269449062004e+00) (66, -1.54939434636446304872e+00) (67, 2.15340421495617295733e+00) (68, 2.84306834019854770546e+00) (69, -2.16672439767955715695e+00) (70, 2.36993273324751374531e+00) (71, -1.04983722246376176557e+00) (72, 4.78878494668438625670e-01) (73, -1.86635948773639404052e+00) (74, 3.81111226828807436728e-01) (75, -2.22532350466270889555e+00) (76, 2.57772858454963094132e+00) (77, -3.03596185391270578791e+00) (78, -3.77075334204694967433e-01) (79, -8.84434909493633902855e-01) (80, -8.67765982593234319609e+00) (81, -5.91528470030113240341e+00) (82, 2.47562856736348768649e+00) (83, -2.04301150688670318800e+00) (50, 5.72169498989574032422e-01) (51, -6.11648671533576937520e-01) (52, 2.04896102349593017822e-01) (53, 2.02745245600125789665e+00) (54, -2.66796158679068984299e+00) (55, -1.24913912839013407918e+00) (56, -6.50112898471828626334e-01) (57, 3.85256592892875815437e+00) (58, -9.90219281591713795798e-01) (59, -3.28834605444912320138e+00) (60, -6.62164694647812712702e+00) (61, -2.88514267166674553966e-01) (62, 9.69385434516580879460e+00) (63, 3.89108574323560219010e-01) (64, -2.54463814973024256005e+01) (65, -2.32119191892928977694e+00) (66, 6.25834929642182125065e-01) (67, 8.36251127413147443690e-01) (68, 2.97871575951760725331e+00) (69, -2.20694250823050497345e+00) (70, -9.05633157671931421362e+00) (71, 1.33250024347856405038e-01) (72, 9.27267044079095437148e-01) (73, 9.27332986544247894756e-01) (74, 6.65156428488475359728e+00) (75, 1.96621675159847097980e+00) (76, 2.71738214862102978042e-01) (77, 3.26579176864509101996e-01) (78, -5.34703763697758560625e+00) (79, -3.71055625453159843019e+00) (80, 2.51852300877671586576e+00) (81, 1.53859122876308851424e+00) (82, -1.56174858682274630972e+00) (83, -1.37739496665655170027e+00) (50, -9.20440694021113281487e-01) (51, 9.72326342917101515972e-01) (52, -1.93084132771147420904e+00) (53, -1.64631288737521970234e+01) (54, 7.32797331656127592936e-01) (55, -7.72114395479958126600e+00) (56, -3.39664548393114706926e+00) (57, 2.81993485849534264442e-01) (58, 1.58077482440307615086e+00) (59, -1.92998546149566629904e-01) (60, 1.19050253903827751856e+00) (61, -2.74265783258183182269e+00) (62, -1.01853985872193919526e+00) (63, 3.68968154959294647455e+00) (64, -4.68113907764042735948e+00) (65, -5.21912962583767203739e+00) (66, 2.94284084856434979827e+00) (67, -2.57595277398102773248e+00) (68, 3.41741930368148194574e+00) (69, -4.67141347019436459220e+00) (70, -5.44613962396246154007e-01) (71, 9.15567536711812679506e-02) (72, -4.00839934429241373515e-01) (73, 7.25486718025186605452e-01) (74, -8.29859927599996538561e+00) (75, -1.81905645399291260311e+00) (76, -4.17532431755208577329e+00) (77, -7.34465276878788309034e+00) (78, -1.56590716266788526623e-01) (79, -2.18768800234688987061e+00) (80, 9.30249830339564987014e-01) (81, -2.70642267823158921836e-01) (82, 2.86637825483162655971e+00) (83, 4.58028369094981069320e-01) (50, 3.91708702258375618399e+00) (51, 7.59341357858353271926e-02) (52, 1.05623642917363458338e+00) (53, -3.29705929164300659551e+00) (54, 1.05010508129665147692e+00) (55, 8.89931581742062216556e-01) (56, -5.17168211489604967568e+00) (57, -3.99928691123896706827e+00) (58, 9.27124572515835354558e-01) (59, 1.34211585535362831756e+00) (60, 1.09725679394194064464e+00) (61, 1.66894370060167407388e+00) (62, -7.37656336203898277404e+00) (63, -1.69653574027878750741e+00) (64, -8.50987725270250372489e+00) (65, 4.22397848755509208729e+00) (66, 2.50325873821670219499e+00) (67, 1.41789425058782558864e+00) (68, 1.18447663233633826430e+00) (69, 3.96567874635264105976e+00) (70, -3.16686073263262368727e+00) (71, -2.45224439266538585258e-01) (72, -3.84764103579686156387e-01) (73, -4.43369930506249421143e+00) (74, -1.01323754171616116082e+01) (75, -5.70760422555615853923e+00) (76, 1.43649328863206959817e+00) (77, -7.62949701355461029628e-01) (78, -1.53265523439145834317e+00) (79, -4.09674540176584134343e+00) (80, -5.52850894862161812426e+00) (81, -8.82859411296566598537e+00) (82, -4.53238144578987645072e-01) (83, -7.46612701312548199262e-01) 
