FANN_FLO_2.1
num_layers=3
learning_rate=0.700000
connection_rate=1.000000
network_type=0
learning_momentum=0.000000
training_algorithm=2
train_error_function=1
train_stop_function=1
cascade_output_change_fraction=0.010000
quickprop_decay=-0.000100
quickprop_mu=1.750000
rprop_increase_factor=1.200000
rprop_decrease_factor=0.500000
rprop_delta_min=0.000000
rprop_delta_max=50.000000
rprop_delta_zero=0.100000
cascade_output_stagnation_epochs=12
cascade_candidate_change_fraction=0.010000
cascade_candidate_stagnation_epochs=12
cascade_max_out_epochs=150
cascade_min_out_epochs=50
cascade_max_cand_epochs=150
cascade_min_cand_epochs=50
cascade_num_candidate_groups=2
bit_fail_limit=3.49999999999999977796e-01
cascade_candidate_limit=1.00000000000000000000e+03
cascade_weight_multiplier=4.00000000000000022204e-01
cascade_activation_functions_count=10
cascade_activation_functions=3 5 7 8 10 11 14 15 16 17 
cascade_activation_steepnesses_count=4
cascade_activation_steepnesses=2.50000000000000000000e-01 5.00000000000000000000e-01 7.50000000000000000000e-01 1.00000000000000000000e+00 
layer_sizes=50 34 11 
scale_included=0
neurons (num_inputs, activation_function, activation_steepness)=(0, 0, 0.00000000000000000000e+00) (0, 0, 0.00000000000000000000e+00) (0, 0, 0.00000000000000000000e+00) (0, 0, 0.00000000000000000000e+00) (0, 0, 0.00000000000000000000e+00) (0, 0, 0.00000000000000000000e+00) (0, 0, 0.00000000000000000000e+00) (0, 0, 0.00000000000000000000e+00) (0, 0, 0.00000000000000000000e+00) (0, 0, 0.00000000000000000000e+00) (0, 0, 0.00000000000000000000e+00) (0, 0, 0.00000000000000000000e+00) (0, 0, 0.00000000000000000000e+00) (0, 0, 0.00000000000000000000e+00) (0, 0, 0.00000000000000000000e+00) (0, 0, 0.00000000000000000000e+00) (0, 0, 0.00000000000000000000e+00) (0, 0, 0.00000000000000000000e+00) (0, 0, 0.00000000000000000000e+00) (0, 0, 0.00000000000000000000e+00) (0, 0, 0.00000000000000000000e+00) (0, 0, 0.00000000000000000000e+00) (0, 0, 0.00000000000000000000e+00) (0, 0, 0.00000000000000000000e+00) (0, 0, 0.00000000000000000000e+00) (0, 0, 0.00000000000000000000e+00) (0, 0, 0.00000000000000000000e+00) (0, 0, 0.00000000000000000000e+00) (0, 0, 0.00000000000000000000e+00) (0, 0, 0.00000000000000000000e+00) (0, 0, 0.00000000000000000000e+00) (0, 0, 0.00000000000000000000e+00) (0, 0, 0.00000000000000000000e+00) (0, 0, 0.00000000000000000000e+00) (0, 0, 0.00000000000000000000e+00) (0, 0, 0.00000000000000000000e+00) (0, 0, 0.00000000000000000000e+00) (0, 0, 0.00000000000000000000e+00) (0, 0, 0.00000000000000000000e+00) (0, 0, 0.00000000000000000000e+00) (0, 0, 0.00000000000000000000e+00) (0, 0, 0.00000000000000000000e+00) (0, 0, 0.00000000000000000000e+00) (0, 0, 0.00000000000000000000e+00) (0, 0, 0.00000000000000000000e+00) (0, 0, 0.00000000000000000000e+00) (0, 0, 0.00000000000000000000e+00) (0, 0, 0.00000000000000000000e+00) (0, 0, 0.00000000000000000000e+00) (0, 0, 0.00000000000000000000e+00) (50, 3, 5.00000000000000000000e-01) (50, 3, 5.00000000000000000000e-01) (50, 3, 5.00000000000000000000e-01) (50, 3, 5.00000000000000000000e-01) (50, 3, 5.00000000000000000000e-01) (50, 3, 5.00000000000000000000e-01) (50, 3, 5.00000000000000000000e-01) (50, 3, 5.00000000000000000000e-01) (50, 3, 5.00000000000000000000e-01) (50, 3, 5.00000000000000000000e-01) (50, 3, 5.00000000000000000000e-01) (50, 3, 5.00000000000000000000e-01) (50, 3, 5.00000000000000000000e-01) (50, 3, 5.00000000000000000000e-01) (50, 3, 5.00000000000000000000e-01) (50, 3, 5.00000000000000000000e-01) (50, 3, 5.00000000000000000000e-01) (50, 3, 5.00000000000000000000e-01) (50, 3, 5.00000000000000000000e-01) (50, 3, 5.00000000000000000000e-01) (50, 3, 5.00000000000000000000e-01) (50, 3, 5.00000000000000000000e-01) (50, 3, 5.00000000000000000000e-01) (50, 3, 5.00000000000000000000e-01) (50, 3, 5.00000000000000000000e-01) (50, 3, 5.00000000000000000000e-01) (50, 3, 5.00000000000000000000e-01) (50, 3, 5.00000000000000000000e-01) (50, 3, 5.00000000000000000000e-01) (50, 3, 5.00000000000000000000e-01) (50, 3, 5.00000000000000000000e-01) (50, 3, 5.00000000000000000000e-01) (50, 3, 5.00000000000000000000e-01) (0, 3, 0.00000000000000000000e+00) (34, 3, 5.00000000000000000000e-01) (34, 3, 5.00000000000000000000e-01) (34, 3, 5.00000000000000000000e-01) (34, 3, 5.00000000000000000000e-01) (34, 3, 5.00000000000000000000e-01) (34, 3, 5.00000000000000000000e-01) (34, 3, 5.00000000000000000000e-01) (34, 3, 5.00000000000000000000e-01) (34, 3, 5.00000000000000000000e-01) (34, 3, 5.00000000000000000000e-01) (0, 3, 0.00000000000000000000e+00) 
connections (connected_to_neuron, weight)=(0, 1.44896894593188267208e+03) (1, -1.50000000000000000000e+03) (2, -1.49935223954029424931e+03) (3, -6.97471486179058359767e+01) (4, -7.17850805201138975065e+00) (5, -2.03500716817617046672e+01) (6, -7.78077249383845384045e+01) (7, -1.23547631366124903707e+01) (8, -2.45539529486226237864e+00) (9, -2.40390138037120815184e+00) (10, -1.45128985646924100195e+01) (11, -6.09154147729798189914e+00) (12, -5.60535676176986275010e+00) (13, -1.07260846426983853519e+01) (14, -2.70904588684889002792e+00) (15, 1.84570182826119344455e+00) (16, -3.93907866688078156514e+00) (17, -4.37547598421832051319e-01) (18, -6.02771447511066327252e+00) (19, 7.60520002917374871032e-01) (20, 4.73017548581596258828e+00) (21, 2.79484180184303054872e+00) (22, -1.80415843156235355949e+00) (23, 1.00888890664820651821e+00) (24, 4.36556438537323554527e+00) (25, 7.52435505941696280985e+00) (26, 4.28648386918286827818e-01) (27, -7.65668437603964413540e+00) (28, -3.24020031884797843347e+00) (29, -3.09935273197051330829e-01) (30, 2.71786237775095607105e+00) (31, 5.30965864028092648930e-01) (32, -7.11844859437195665031e-01) (33, 9.80060291830745167196e-01) (34, -1.25402234535313468200e+01) (35, -7.17061406721964633704e+00) (36, 9.37924050438893175397e+00) (37, 3.12636589694358280056e+00) (38, 8.24632183246049699221e-01) (39, 1.43957066709266157112e+00) (40, 1.60737700254176485437e+00) (41, 2.37658055400891932152e+01) (42, -2.22460686918164318726e+00) (43, 3.55783376787566396615e+00) (44, 6.24489119404174086725e+00) (45, 3.54434442325483267666e+00) (46, 3.34935516989648363051e+00) (47, 3.58485800253841091489e+00) (48, -9.12661107992287057300e+00) (49, 3.02487210509259751845e+00) (0, 2.36537662334993363800e+01) (1, -4.45480741789575329648e+00) (2, 7.01848864672569461298e-01) (3, 5.38595834410178042617e+00) (4, -1.09043126364508680126e+00) (5, -1.81154471016181295440e+00) (6, -1.82501911788314536977e+01) (7, -6.16003749954858115245e+00) (8, 2.07014462851970414137e-02) (9, -2.70712342180496404187e-02) (10, -1.25273179519470767573e+00) (11, -1.03672483499480549973e+00) (12, -9.67213934552912713016e-01) (13, -3.67742999280779914173e+00) (14, 3.00488713210729674330e+00) (15, -8.72495406604546830387e-01) (16, -2.04805459250565347062e+00) (17, -2.92777082648591280289e+00) (18, 6.58692192874522142176e+00) (19, 3.00069738954131448594e+00) (20, -7.30008404197937887936e-01) (21, -1.80532862176008723765e+00) (22, -2.21262375050596826753e+00) (23, -1.39520097936547821105e-01) (24, -1.62010139791807517007e+00) (25, 1.58300133907634132946e+00) (26, 2.49759747187442338046e+00) (27, -5.61637896961990401579e-01) (28, 5.55590361183619396712e+00) (29, 1.81023025019345917830e-01) (30, -2.20701487651855599026e+00) (31, -8.36859868224734460007e-01) (32, 3.55885981310187227145e-01) (33, -6.73625124488064330741e-01) (34, -9.22143955517791602539e-01) (35, -1.22320340591258486240e-01) (36, -1.51273290266694604433e+00) (37, -6.73011795157562975334e+00) (38, -5.30461658561912408061e-01) (39, 1.14306265249756222602e+00) (40, -1.26323960257111478356e+00) (41, 2.77992224929156706015e-01) (42, 5.21781720245467095509e+00) (43, 5.41091966333199625439e+00) (44, 5.79611520622833609195e+00) (45, 3.03113454017408034957e+00) (46, -1.94047682491827550022e-01) (47, 2.92088650902690805111e+00) (48, 1.68720483237514748964e+01) (49, 1.35110822107975259154e-01) (0, 3.11413315069692622217e+01) (1, 7.96115278711448759452e+00) (2, 7.27214816360514682003e+00) (3, 2.34716453842438887989e+00) (4, -1.67447406292119294058e+00) (5, -6.77528174159400586873e-01) (6, 1.01264271021148255514e+00) (7, 1.31944882681414323855e+01) (8, -4.50265058307767951362e+00) (9, -3.39800066831723368566e+00) (10, 3.91697998367084299076e+00) (11, 2.97495947102052626931e-01) (12, -8.55674466148827694845e-01) (13, 1.94581712884569157929e+00) (14, -1.03877487182130884280e-01) (15, -4.52829307858208718329e+00) (16, -2.98084818259985651068e+00) (17, -4.18946173723499723507e-02) (18, 4.15409737819982360918e-01) (19, -3.74884905214340857782e+00) (20, -4.54667232717647351592e+00) (21, -3.23795312141342206402e+00) (22, 2.60183074475225017963e+00) (23, 1.35074963873577491569e+00) (24, 2.46398059031766569760e+00) (25, 7.45780199855192171832e-01) (26, 3.66270015542734883596e+00) (27, 7.91988302049967707319e+00) (28, 1.71459887989572146161e+00) (29, 9.59418575818944141531e+00) (30, 1.46734578131219839392e+00) (31, -1.14308026938143059148e+00) (32, 4.96860201325129646754e-01) (33, 6.48525236224263279539e-01) (34, -4.96177881382614671679e+00) (35, 3.47927609871818148690e+01) (36, -6.10705000069180137245e+00) (37, -1.15370608595977741651e+00) (38, -5.73175403609860412146e-01) (39, 2.33555045846852626923e+00) (40, 6.52957900089722875769e-01) (41, 8.04383729175413009216e-01) (42, 6.24144128708361911606e+00) (43, -2.86443631737046544572e+00) (44, -9.84731267870953774768e-01) (45, 1.06254238847924509237e+00) (46, 3.10719439153738341552e-01) (47, 2.65091239288494762150e+00) (48, -3.93944907740074601321e+00) (49, -2.06201843536634843446e+00) (0, -2.32636784306519302845e+02) (1, 1.50000000000000000000e+03) (2, 1.50000000000000000000e+03) (3, 1.50000000000000000000e+03) (4, 1.50000000000000000000e+03) (5, -2.16126293400426590097e+02) (6, -1.50000000000000000000e+03) (7, 1.50000000000000000000e+03) (8, 1.50000000000000000000e+03) (9, 1.50000000000000000000e+03) (10, 9.63524521810956571244e+02) (11, 1.50000000000000000000e+03) (12, 1.39197949995569979365e+03) (13, 1.50000000000000000000e+03) (14, 1.50000000000000000000e+03) (15, 1.50000000000000000000e+03) (16, 1.75386910028218210300e+01) (17, 2.79008465197135402391e+00) (18, 1.50000000000000000000e+03) (19, 1.50000000000000000000e+03) (20, 1.50000000000000000000e+03) (21, 1.50000000000000000000e+03) (22, 1.50000000000000000000e+03) (23, 4.44165404242139238988e+00) (24, 4.54605118838038890772e+01) (25, 1.28537927448644073714e+00) (26, 1.50000000000000000000e+03) (27, 1.50000000000000000000e+03) (28, 1.50000000000000000000e+03) (29, 1.50000000000000000000e+03) (30, 1.50000000000000000000e+03) (31, 1.50000000000000000000e+03) (32, 7.91019403406970589288e+00) (33, 1.49472127294990855262e+03) (34, 1.50000000000000000000e+03) (35, 1.50000000000000000000e+03) (36, 1.50000000000000000000e+03) (37, 9.86988579932488896418e+00) (38, 1.50000000000000000000e+03) (39, 1.49999717156651013283e+03) (40, 6.56269098713399102962e+02) (41, 1.50000000000000000000e+03) (42, 1.50000000000000000000e+03) (43, 1.49120895210376693285e+03) (44, -2.36747126194462786941e+00) (45, 7.75002122988635577805e-01) (46, 2.21579621100895352015e+00) (47, -1.50000000000000000000e+03) (48, 1.50000000000000000000e+03) (49, 2.00880612526924640093e+00) (0, -1.52648244572732831870e+01) (1, 1.26970675304350044676e+00) (2, -5.66753237107752827484e+00) (3, 3.61645852183259242096e+00) (4, -2.71468158136330517394e+00) (5, -3.85326664793836301537e-02) (6, -1.50000000000000000000e+03) (7, -2.05112496397393817560e-01) (8, -1.52368081866834342852e-01) (9, -3.03221202331739503322e+00) (10, 2.26533785649789320971e+00) (11, -1.02344863181398149088e+00) (12, 1.20795790301401764766e-01) (13, -3.92106839178045220251e+02) (14, -1.57148935253165378256e+00) (15, 7.32520131546626429575e-01) (16, 2.17462279861383112056e-01) (17, 1.84689837615419100159e-01) (18, 3.23002798402669144551e+00) (19, -1.77191626330154461400e+00) (20, -1.50000000000000000000e+03) (21, -3.12893571540133197395e-01) (22, 2.80815495370921919260e+00) (23, 2.20399072967904757769e-01) (24, -1.86135744943578029797e+00) (25, -1.72406692872082589751e+00) (26, -9.87737734902384922897e-01) (27, 4.90788586993441688922e-01) (28, -8.92284275263286552615e+00) (29, -1.91557314041663806492e+00) (30, -6.34126963934039000748e-01) (31, 3.75151524781915768347e-01) (32, -6.94640269866327120241e+00) (33, 7.33916614296966862696e+00) (34, 5.61105441480988087477e+00) (35, -1.31041814035017910101e+03) (36, -7.36294157416593653132e-01) (37, -1.59159730619753481129e+00) (38, 5.21162475131190294775e+00) (39, -5.10372294933839398823e+00) (40, 7.50899080357933801366e+00) (41, -1.73617889337991626597e+00) (42, -1.31124731183046696970e+03) (43, 2.67738408238318870147e+00) (44, -2.25418364452757646887e+00) (45, 3.61139106801156595239e+00) (46, 2.99216980032553925284e+00) (47, 3.34849176739386544810e+00) (48, -5.31044501602608498558e+00) (49, -4.96365401635744252218e+00) (0, -1.50000000000000000000e+03) (1, -1.50000000000000000000e+03) (2, -1.27238756774174294151e+03) (3, 1.50000000000000000000e+03) (4, 1.49403186707815098089e+03) (5, -7.64170161424753473511e+02) (6, -1.50000000000000000000e+03) (7, -1.50000000000000000000e+03) (8, -1.50000000000000000000e+03) (9, -2.23329335030187962730e+02) (10, -1.42514433849373085650e+03) (11, 1.33247801631087668284e+02) (12, 5.01909556716234646956e+02) (13, -2.74019637191590106795e+02) (14, -1.50000000000000000000e+03) (15, -1.50000000000000000000e+03) (16, -1.21571899165465907799e+02) (17, -4.03486202952426609158e+01) (18, -3.72890501123279193507e+02) (19, -2.18944246447330144179e+01) (20, -4.13884774021238399655e+02) (21, 1.69984485798687359193e+02) (22, -2.26570726902561006000e+02) (23, -1.05250154395621052572e+02) (24, 1.50000000000000000000e+03) (25, -2.82998361711014956299e+00) (26, 1.14573754110234494874e+03) (27, -1.49714539098361319702e+03) (28, -1.78823404665615527165e+02) (29, -7.23441821151369310883e+01) (30, -2.46026464366580285059e+02) (31, 1.55225128637980589019e+02) (32, -2.60224650245877997534e+00) (33, -9.46490945139154405297e+02) (34, -1.50000000000000000000e+03) (35, 7.74994066470060488427e+02) (36, 1.48743125655772973914e+03) (37, -1.21565520932363097018e+03) (38, -1.49999684259468608616e+03) (39, -2.84357283293886844433e+01) (40, -1.50000000000000000000e+03) (41, 1.49099999928474426270e+03) (42, 1.50000000000000000000e+03) (43, 1.45010484868202206599e+03) (44, -1.31171124949039290186e+03) (45, -3.00675130275556853121e+02) (46, -1.50000000000000000000e+03) (47, -1.50000000000000000000e+03) (48, 1.40548619009517483391e+03) (49, -2.72531177027876791996e+00) (0, 9.79231394501057650359e+00) (1, 1.10303026730866871041e+00) (2, -3.18552651705677947191e+00) (3, 1.16105124357448530326e+00) (4, 6.49758059835882972877e-01) (5, 6.35153085626475544245e-01) (6, -5.22807556470183421027e+00) (7, 8.48365974770770719937e-02) (8, 4.33343723991691465169e-01) (9, -8.99310652381237529696e-01) (10, 9.16722520348742103691e-02) (11, -5.55261598346421386685e-02) (12, 1.92410123819704881321e+00) (13, 3.34276496178410997828e+00) (14, -4.50467605642300306101e+00) (15, -4.24072035768610022810e-01) (16, -1.31557413810884660244e+00) (17, -3.72723829616458890435e-01) (18, -1.88282176680209967223e+00) (19, -4.02809122680012521300e+00) (20, -3.67500962507601780516e+00) (21, 7.48425170287659202728e-01) (22, -3.99208435268603611945e-01) (23, 7.55481691392076215585e-01) (24, 8.66451561500561906470e-01) (25, -1.43143281277405076679e+00) (26, -1.35997708420146512509e+00) (27, -3.86738946099316249772e-01) (28, -5.38431614323725105109e-01) (29, -1.67120346923658158467e+00) (30, -7.03830678516225494157e-01) (31, -6.38395799986658074587e-01) (32, -2.28724168371338049122e-01) (33, 1.14892564786821993472e+00) (34, 6.02987788714397732193e-01) (35, -4.04359708621578772814e-01) (36, 1.19826334936462863823e+00) (37, 1.81045336558639524682e+00) (38, -6.79700707662753811356e-01) (39, -9.51210217536236912750e-01) (40, 1.89809417962490223353e+00) (41, -7.72811363642918358607e-01) (42, -4.48489348713011892755e+00) (43, -1.31974003026578223796e+00) (44, -1.85036912766842043254e+00) (45, -2.54497866893244717446e+00) (46, -2.52490802607384323686e-01) (47, -2.03411792727489526555e+00) (48, 1.54390947934875533143e+00) (49, 1.86816350067655490008e+00) (0, -1.50000000000000000000e+03) (1, -1.50000000000000000000e+03) (2, 1.50000000000000000000e+03) (3, 1.50000000000000000000e+03) (4, -1.49903935318297908452e+03) (5, -1.35646214713041081268e+03) (6, 1.50000000000000000000e+03) (7, -1.50000000000000000000e+03) (8, -8.55923208666225491470e+02) (9, 1.49963308506492558081e+03) (10, -1.47658583851522803343e+03) (11, 1.50000000000000000000e+03) (12, -1.38595825152314682782e+03) (13, 1.50000000000000000000e+03) (14, -1.21967314919072623525e+03) (15, 1.50000000000000000000e+03) (16, -6.83425137682817496199e+00) (17, -3.36937777897139540073e+02) (18, -6.40965228498143630986e+01) (19, 3.24030873472437860983e+02) (20, 1.50000000000000000000e+03) (21, 1.50000000000000000000e+03) (22, 1.50000000000000000000e+03) (23, -7.83347290061571488451e+00) (24, 1.49999654682660252547e+03) (25, -1.21733633280040320912e+00) (26, 1.50000000000000000000e+03) (27, 1.50000000000000000000e+03) (28, 9.73850690999232853073e+01) (29, 3.86136635614513693326e+02) (30, -1.13778505793065642138e+03) (31, -9.37278286523584256429e+01) (32, -4.36433366024325941623e+00) (33, -8.57991793833197220920e+02) (34, 1.50000000000000000000e+03) (35, -3.15528540914140421592e+02) (36, 1.50000000000000000000e+03) (37, 1.49706844436044980284e+03) (38, -9.89363507042326205010e+02) (39, -2.20158370234246973496e+02) (40, 1.28431303411093040268e+03) (41, 1.50000000000000000000e+03) (42, 1.50000000000000000000e+03) (43, 1.50000000000000000000e+03) (44, -6.73534575180353044743e+02) (45, -1.48771074413422866201e+03) (46, -1.34347206891307291698e+03) (47, -1.50000000000000000000e+03) (48, 1.50000000000000000000e+03) (49, -4.75828324666809798771e+00) (0, 2.87749655723976793809e+00) (1, -4.65588917726175477441e+00) (2, 7.20759203222836664082e+00) (3, -5.02641401608470239637e+00) (4, -6.84687939745273310699e-01) (5, -6.16763315741735418385e+00) (6, -3.35943980916240692025e+00) (7, 3.18117022259735859890e+00) (8, 7.31897646793079559302e+00) (9, 2.37995577101760913408e+00) (10, -2.32427311961720395317e-01) (11, -1.20905372432943331029e-01) (12, 3.52695433961336068940e-01) (13, 1.34829578386208748242e+01) (14, 1.43360536352520262504e+00) (15, -4.32964101470284301598e-01) (16, -1.28045715350094968521e+00) (17, -3.94904479669501928818e-01) (18, 2.70996217931119254274e+00) (19, 1.15231200091186058998e+00) (20, -4.96729346089387036045e+00) (21, 2.06062778503678600828e+00) (22, 1.06917099720546371344e+01) (23, -5.20559958723152060855e+00) (24, -2.32452407815152417569e-01) (25, -5.13483897883053508338e+00) (26, 1.68053967906406742649e+00) (27, 5.19357247454212522797e+00) (28, -9.14283457570502555711e-01) (29, 5.45042715619169282348e+00) (30, 3.73580380014643909092e+00) (31, -1.27810801111145622144e+00) (32, -2.50384824978878983703e-01) (33, 3.24940205781531643581e+00) (34, 2.31548413508250866544e-01) (35, 6.36796096487533080932e+00) (36, 8.31136887817178982019e-01) (37, 1.28528236491058356350e+00) (38, -1.51610709017828970691e-02) (39, 9.65496732575941152277e-01) (40, -3.68236045092658192956e+00) (41, 4.17643687650945505396e-01) (42, -8.34609348981969390024e+00) (43, -6.83313114125523979325e-01) (44, -1.81806105435277154392e+00) (45, 1.37885857191315963632e+00) (46, 1.68186657377940984581e+00) (47, 6.25822546039283711394e+00) (48, -1.42084920444398949968e+01) (49, 2.23602578530624318542e-01) (0, -1.12824581921188453748e+01) (1, 1.81134866549479522924e+00) (2, -5.12476395734522860437e-01) (3, 8.54963357471459795001e-01) (4, -6.60623542306176925187e-01) (5, 5.21017431260539010118e-01) (6, 2.29419083790194350270e-01) (7, 1.00876554692653397360e+00) (8, -4.75066956425580722012e-01) (9, -2.91233760465500535197e-01) (10, 6.13273414407313088859e-01) (11, 6.96629615045325945033e-01) (12, -5.05812362912140822679e-01) (13, -3.65111750252573530329e-01) (14, -1.16257007155468961024e+00) (15, -9.76042635900761568202e-01) (16, -3.45026669910677119546e+00) (17, 2.75724498878451629302e-01) (18, 4.27568738391628855311e+00) (19, 1.88079124915748185920e+00) (20, 1.09158035711251577560e+00) (21, -1.68034620726060168749e+00) (22, -9.06400944700692878797e-01) (23, -5.18086862688575955360e+00) (24, 1.44866327200166766787e+00) (25, 3.06158034203835560660e+00) (26, 1.71518148321359920061e+00) (27, -1.62246542395470622067e-01) (28, -3.26597286571802480903e-01) (29, 6.74716652283529838563e-01) (30, 1.66924002828532391796e+00) (31, 2.20467159804770851395e+00) (32, -5.54556627661054957201e+00) (33, -1.92059669716727055011e+00) (34, -1.13222226485201438173e+00) (35, 1.68106950644869787559e-02) (36, -4.81506618864199931185e-01) (37, 8.04017491764107528063e-01) (38, 1.75580567611044791043e+00) (39, -1.70568400508491824219e+00) (40, 1.79895969664011401434e+00) (41, -6.74903705335787140740e-01) (42, -1.48680007283552173547e+00) (43, 7.81633271684048724914e-01) (44, -9.10223726946909783564e-01) (45, -1.91306240462689763904e-01) (46, -1.08957236181009453624e+00) (47, -2.54050069845817771963e+00) (48, 8.77558708923471897378e+00) (49, -1.11371020414164356716e+00) (0, -1.50000000000000000000e+03) (1, 1.35583514829376576927e+03) (2, 2.75595442955736800172e+01) (3, -2.08850500908409308920e+01) (4, 3.11271394662519504948e+01) (5, 1.50000000000000000000e+03) (6, 3.02986444052436709740e+01) (7, -6.65676018189293206007e+00) (8, -3.59424857590951152275e+00) (9, -2.33494315309431810235e+00) (10, -1.54402369597371924570e+00) (11, 4.56098644093207461481e+00) (12, -1.77646699787770101508e+00) (13, -2.32184606371194046659e+00) (14, -4.03915426250215769954e+00) (15, -2.84459108507888969175e-01) (16, 1.96267266183809740987e-01) (17, 3.10976068759981538747e+00) (18, 1.26758870694635628062e+00) (19, 1.42731521360823765399e+00) (20, -1.44895929550221391757e+00) (21, 4.03770748081810904040e+00) (22, 7.67676178928206942587e-01) (23, 3.91937430066939107576e+00) (24, -1.33730309893535288523e+01) (25, 4.74830804229792180493e-01) (26, 3.46199511651278379887e+00) (27, 2.30241659639544327121e+00) (28, -8.60886230614733527489e+00) (29, -9.05518005494292399504e-01) (30, 1.00611058915525308777e+00) (31, 2.06736961526124929378e+00) (32, -3.94496419669971065680e-01) (33, 8.20890093576051915747e-01) (34, -6.21157721270043339246e+00) (35, 7.67622161250345591554e+00) (36, 8.97479738267238680294e+00) (37, 5.70114064538715048513e-01) (38, 5.72431439541238873403e-01) (39, 7.90968117466238074265e-02) (40, 1.17974844906116338450e+01) (41, 1.50000000000000000000e+03) (42, -1.98881930405880495982e+01) (43, -5.78814437321816566140e+00) (44, -1.60442699572101399319e+00) (45, -3.72169624871339144168e-01) (46, 5.93668193613794081820e-01) (47, -2.85740227868987339832e+00) (48, 1.50000000000000000000e+03) (49, -3.64144211804623918471e-01) (0, -2.44172631414960221719e+01) (1, -5.26098555964621983350e+00) (2, -3.14520564786588963102e+00) (3, -3.48346221516217866565e+01) (4, 4.38886368593141540373e+00) (5, 2.25666973360346201360e+00) (6, -6.74156392394042303096e+00) (7, 9.76290684854196566533e-01) (8, 2.44783770380236109787e+00) (9, -9.73129546696231639835e-01) (10, -2.15608771383913158104e+01) (11, 8.24480607834306100656e-01) (12, 2.47090530689191023583e+00) (13, 2.40326565268258640629e+00) (14, 6.29391963402218479473e-01) (15, -1.57160669518585871529e+00) (16, 1.12127446961531762604e+00) (17, -7.93840796265574133450e-01) (18, 3.22133421866920865995e+00) (19, -5.16785027775601757405e-01) (20, -2.42886759948098385209e+00) (21, 1.23416931105233655674e-02) (22, -5.06438660964662279440e-01) (23, 1.49520423119426748571e+00) (24, -1.65216197352273086452e+00) (25, 3.29014052620224584089e+00) (26, -3.20661889234407415650e-01) (27, -6.35154822043193623138e-01) (28, 8.47401265444965995366e-02) (29, 6.07932689841889639659e-01) (30, 3.20826994366663897917e-01) (31, -6.50875014102146098871e-01) (32, 1.39442787025139403045e-01) (33, -4.30616043518240898536e-01) (34, -4.83258716250811792836e-01) (35, -1.63680046230287667974e+00) (36, -1.68475791432160781902e+00) (37, 2.80683999174359100071e-01) (38, 4.59002310244436551034e-01) (39, 5.32587937398801489208e-02) (40, -2.36014231182907929796e-01) (41, -8.98992766490925077072e-01) (42, 1.26163133954833717176e+00) (43, 1.87172693397050560193e+00) (44, -2.31752437034874053667e-01) (45, 4.84724094416606632318e-01) (46, 2.83644730481815765533e-01) (47, -1.47256646829191269188e-02) (48, 2.62208692301225143595e+00) (49, -1.87497655510554928071e+00) (0, 4.76593330751691496516e+02) (1, -1.40672280422890558782e+01) (2, -2.15187131856128921470e+00) (3, 4.50309638204774653758e+00) (4, -6.14961748721062129164e+00) (5, 7.98635796543345577447e+00) (6, -6.71202802141100907107e+00) (7, -1.28903371894450941681e+02) (8, 1.09799953021134233389e+00) (9, -7.61972282949554813314e+00) (10, -9.71325048204119578799e-01) (11, 1.17409381487001374111e+00) (12, -3.00713861755682643206e+00) (13, -5.04395941700168770616e-01) (14, 3.42419283327211765311e+00) (15, 2.02039563809162814323e+00) (16, 7.84498138271939260413e-01) (17, 9.09003437542405090532e-01) (18, -4.17621015059119660151e+00) (19, -4.62605306029944707280e-01) (20, -1.96757162437701738078e+00) (21, 2.53777769434376487823e+00) (22, -3.54449476802759999572e+00) (23, 2.11239656037300971292e+00) (24, -4.65890811792819062309e-02) (25, -3.41504563916811276769e-01) (26, 4.81048039891428413917e-01) (27, 1.29050562407987641222e+01) (28, -2.94446000655249617850e-02) (29, 3.46877328884598901126e+00) (30, 4.02873884390689940282e-01) (31, 1.77301448474351830420e+00) (32, -6.06089255432849527416e-01) (33, -2.97403685014166327960e+01) (34, -1.05455478212143688665e+02) (35, 3.28495270317011067718e+00) (36, -2.63512101080563609923e-01) (37, 2.30370032395469870323e+00) (38, 4.45476552517818191745e+00) (39, 3.40619265929714032382e+00) (40, 4.07021961389772624074e+00) (41, -6.79737482683100324721e+01) (42, -3.68738843773872204679e+00) (43, 6.45789440697159378146e-01) (44, -3.66104397116768431886e+00) (45, 8.97885309064138215085e-01) (46, 6.46580236122723128744e+00) (47, 3.88186194068965093606e+01) (48, 1.66864784549584243223e+02) (49, 4.40926126902083603820e-01) (0, 1.36260213851511338135e+01) (1, -6.78153311788486945488e+00) (2, -1.00031040574772536189e+01) (3, 1.79359907486160663481e+00) (4, 3.70415532399833891120e+00) (5, 4.83326793125280218533e+00) (6, -2.61666461254041582407e+00) (7, -9.93394445358068756136e-01) (8, -3.88581081743862588596e+00) (9, -1.57265200040921393487e+00) (10, -7.56968979518787854488e+00) (11, -3.13519299377096816173e+00) (12, -3.39693269669919084564e+00) (13, -6.34788291935582371650e+00) (14, 1.99993930438345013378e+00) (15, 1.86274425524774667196e+00) (16, 3.81827177445486165563e-01) (17, -1.85768791868024685243e+00) (18, -1.41723371959949595578e+00) (19, 2.01473799121659302713e+00) (20, 1.07671629834469295695e+00) (21, 1.73862152308960959957e-01) (22, 5.38544368710879406414e-01) (23, 4.23058553642655446603e-02) (24, 6.54469987191465873977e-01) (25, 9.99521938429175693663e-01) (26, 5.38708013725400669536e-01) (27, -2.48559961110309179944e+00) (28, 7.16615007850160523617e-01) (29, 2.90060177949785835683e-01) (30, 1.31122412408317812194e+00) (31, -2.91177261122963215723e-01) (32, 3.01005215421764782402e-01) (33, -2.34544403371789966783e+00) (34, -4.70048556842534548394e-01) (35, 2.10986567023044191416e+00) (36, -5.17452157015647973282e+00) (37, 8.05470818586888848145e-01) (38, 5.89499017367430822034e-01) (39, 1.36040316322893461987e+00) (40, -1.55153234099808590152e+00) (41, 7.50838421319241278162e-01) (42, 2.49132714695980528319e+00) (43, 7.03502371137274629120e+00) (44, 3.21095972610328583841e+00) (45, 2.70119585663446537538e+00) (46, 1.45725221716178188203e+00) (47, 5.45504622323581678245e+00) (48, -1.00998714381542353813e+00) (49, -1.71636597165519183550e-01) (0, 3.31543554983644828127e+00) (1, -4.15428007179901115364e+00) (2, -2.58026206318797157735e+00) (3, -1.52908739354943201683e+00) (4, -5.71060951576532982443e+00) (5, -5.57852131176970011950e+00) (6, -1.56556976759153574363e+01) (7, 7.82966918175657156098e+00) (8, -4.09809946733789287610e-01) (9, -7.26395778283101734019e+00) (10, -4.98391488106116498091e-01) (11, 2.58162744427231016786e+00) (12, 4.33870108178184654690e+00) (13, 3.10800783597449070683e+00) (14, -8.24175278874193728562e-01) (15, 5.07220171945928832713e+00) (16, 2.17792181947524454699e+00) (17, 1.81724204254434718031e+00) (18, 3.07496339079397529304e+00) (19, -3.52372199938067565128e-01) (20, 1.55455261292685986696e+00) (21, 5.41714714111917050587e+00) (22, -2.49303652380762752472e+00) (23, 1.78653442283762298182e+00) (24, -5.90301343579089277114e+00) (25, 7.22683463262525904724e+00) (26, -9.51401119663478733735e-01) (27, 2.68307952591289755606e-01) (28, -3.85012382509338602077e+00) (29, -3.30291495232932819093e+00) (30, 1.96784450627408102896e+00) (31, -8.20002058691513369126e+00) (32, 1.90321452285007408634e+00) (33, -2.30176168191165153587e+00) (34, 7.73063563346375048901e-01) (35, -2.43071680409060286721e+00) (36, 3.38896979242891660533e+00) (37, 2.89028651835567496065e+00) (38, 3.83343888430968782188e+00) (39, 6.82722913784182150465e-01) (40, 1.86509322352202144835e+00) (41, -2.39805133360291833355e+00) (42, -3.18191300368327006254e+02) (43, -7.33366486670721684504e+01) (44, 9.78384639636420843090e+02) (45, 3.89171937679096213714e+00) (46, -4.46120246223594474344e-01) (47, 1.59338869137519578700e+00) (48, 2.89142284752220568578e+01) (49, -3.00136917919900769736e-01) (0, 3.36880625024604807294e+00) (1, 3.55010818142755946170e+00) (2, 2.79736789467168378565e+00) (3, 1.09952804446605756361e+00) (4, 6.52608839591929967838e+00) (5, 6.75414796554165919318e-01) (6, 5.20573386862836873235e+00) (7, -1.20400682853676261885e+01) (8, 6.49014648053292231289e-01) (9, -4.11718975227300554298e-01) (10, -3.03458242485999507565e+00) (11, -2.02338997469330683643e+00) (12, -2.19997505869820031421e+00) (13, -2.18631025619787777714e+00) (14, -4.04386737212695857036e-01) (15, 2.49050882276201701604e-01) (16, 7.69890317162741477652e-01) (17, -1.17384870301490007449e+00) (18, -3.89137657513031998135e+00) (19, 6.51493482502650631677e-03) (20, 8.95793371719356801286e-01) (21, 3.78517129102462546175e-01) (22, -1.65267949088725707441e+00) (23, 3.84252743574912070113e-01) (24, -1.23326224609897150408e+00) (25, -8.84796936425979591023e-02) (26, 1.38625037718925803176e+00) (27, 2.01053374653710292819e+00) (28, -1.80172244613770682342e+00) (29, 1.29806988501811670922e+00) (30, 6.67126727493567717175e+00) (31, 3.65308717422749562598e-01) (32, 6.25373030197733936753e-01) (33, 1.21342959254886428866e+00) (34, 5.37996134849153873070e-01) (35, 4.62102174206323557115e+00) (36, 3.20755201773268261434e+00) (37, 3.90690445813056808078e+00) (38, -2.11862720862753040052e+00) (39, 1.41049964217481393902e+00) (40, -6.83288572583119480086e-02) (41, -1.72430902058979707014e+00) (42, -1.27026898956181777400e+00) (43, -1.85645466760635668990e+00) (44, -2.60190060210563700593e+00) (45, 5.63286007627222029548e-01) (46, -9.16680335217622599409e-01) (47, -5.03844006193026316964e+00) (48, -9.66996150109661911642e+00) (49, -1.46593970370332926656e+00) (0, 1.13126646324980555391e+01) (1, 1.11613576324610064283e+00) (2, 2.33593101514060030865e+00) (3, 3.38132479970078625442e+00) (4, 1.38459275522350955256e+00) (5, 6.97478459440974862815e-01) (6, -1.77921072756580822549e+00) (7, 3.25871039800431083755e-01) (8, 1.64092809343979351144e-01) (9, -1.28511288883972851771e+00) (10, 1.48427073071341308896e+00) (11, -1.55114337531882573451e+00) (12, -1.29482945323540410421e+00) (13, -9.80197137574982946262e-01) (14, 1.92054229918854635351e+00) (15, 8.64091963184297040534e-01) (16, 2.16061537893582400471e+00) (17, -1.13246348236941782317e-01) (18, -2.29891893938458907742e-01) (19, 3.15651856145865106207e-01) (20, 1.09272312015112671446e+00) (21, 1.37099010287315192791e+00) (22, 1.67327955226920366272e+00) (23, 9.90587050983802314130e-02) (24, 7.18318928097298692315e-01) (25, 4.46829973379022860058e+00) (26, 1.68713654983176408741e+00) (27, 3.28877178979717932350e+00) (28, -1.81375900362209518946e+00) (29, 2.85184480870560863597e-03) (30, -6.80864805252974436556e-01) (31, 3.06074623391161926289e-01) (32, 5.87364150441451848828e-01) (33, -1.06125789065948472611e+00) (34, 3.04352609073083660296e-02) (35, -1.53993210432963945067e+00) (36, -4.20570255290296213246e+00) (37, -4.45881996648478740042e+00) (38, 2.39102262333303583475e+00) (39, 2.63261851227373844253e+00) (40, -1.77502587296042890763e+00) (41, -2.82650739499006142808e+00) (42, 8.29815556133158160890e+00) (43, -3.33311078638429663101e+01) (44, -1.80264289897847729272e+00) (45, 3.74551822846344961704e+00) (46, 4.48114113456591689477e-01) (47, 4.06408361168397824770e+00) (48, 1.40292897813703065779e+00) (49, -5.35133191665719198937e+00) (0, 1.50000000000000000000e+03) (1, -1.87853447036721021846e-02) (2, 1.11232958883053156818e+00) (3, -2.25869359523465651485e-01) (4, -8.78344617329211652113e-01) (5, -2.16058405126857644429e-01) (6, 2.36415645011709019130e+00) (7, 1.46243811051074157348e+01) (8, -2.94508880896527103221e-01) (9, 4.06765621906045204970e-01) (10, 2.32078707743805701114e+00) (11, -1.08129555365853069482e+00) (12, -1.92508969973771448814e+00) (13, -2.49602716839358684808e+00) (14, 4.47574959014675499702e+00) (15, 7.81307065102984976690e-01) (16, -2.19378117320899113096e+00) (17, 5.78738011902013460563e-01) (18, 1.05312376305507293672e+00) (19, 5.54448976542184102101e+00) (20, 3.06980905293163752745e+00) (21, 4.62401752666248944124e-01) (22, 8.33983800849791567789e-02) (23, 1.45440284140542580582e-01) (24, 1.12243913589616783888e+00) (25, -2.48797871122919990461e-02) (26, -3.65656700859592398434e-01) (27, 5.38394027903460026252e-01) (28, -4.92999035256896422919e-01) (29, 1.44457748214611747528e+00) (30, 1.49141158689576069918e+00) (31, 1.51152006732356092300e+00) (32, -2.65486538438564734221e+00) (33, -5.01338527056250526925e+00) (34, -1.16268275591003278358e+00) (35, -2.41277638713456060726e-01) (36, -5.74437072572963391970e-01) (37, -1.64451679829237085162e-01) (38, 1.53365448838040618895e+00) (39, 1.91983002898779098189e+00) (40, -1.00524790348615916669e-01) (41, 1.61209680337157279517e+00) (42, 2.63087502109924420424e+00) (43, 6.67908255956506158313e-01) (44, -5.07836791317055169515e-01) (45, -2.15924476636304030208e+00) (46, -2.11416211699421596748e-01) (47, 2.93012530862387787778e+00) (48, -6.51071069505358401841e+00) (49, -5.83583823534714163372e-01) (0, -1.50000000000000000000e+03) (1, -2.01876489343115883557e+00) (2, -3.12762878708973657282e+00) (3, 2.99363565129207387372e+00) (4, 2.60898173950610301475e+00) (5, 2.35895558851079600871e+00) (6, -2.88830919614586756339e+00) (7, -6.20389279330097132004e+00) (8, -5.26968048618688844620e-01) (9, -9.41165401385341687801e-02) (10, -5.50841511467494182597e+00) (11, 4.92124760607681910329e+00) (12, 1.81994553762853072953e+00) (13, 5.45693368431115155559e-01) (14, -1.56116613700064643666e+00) (15, -1.80349974958822434346e+00) (16, -1.38040405253408415831e+00) (17, -2.96824367708765102236e+00) (18, 1.52381276218563477265e+00) (19, 6.80501798251619671731e+00) (20, -4.92027106955896798013e-01) (21, -9.49841508481501062278e-01) (22, -5.47435270251177996670e-01) (23, 2.78278518722707812749e-01) (24, -1.24039391634302309519e+00) (25, -8.16660500774784692268e-01) (26, 4.95254178678730394569e-01) (27, 1.18613201661269385134e+00) (28, -2.32898948606410360895e+00) (29, 1.25484356117581086210e+00) (30, 3.28995889797518659137e+00) (31, -3.60100481245519465912e-01) (32, 1.17629957481566926880e+00) (33, 2.04409632017117370850e+00) (34, 1.01019890201766671112e+00) (35, 2.36218957840382026703e+00) (36, -8.42683272104426728255e-01) (37, 1.72277463261960694929e-01) (38, -6.95068179144120334989e-01) (39, 7.93716850433999976389e-01) (40, 1.05227620552497944106e-01) (41, -2.90204599701626753117e+00) (42, 2.94438323248328248649e-01) (43, 1.80263413812563522143e+00) (44, -1.55188224367878913057e+00) (45, 8.85334008718018483641e-01) (46, -3.01752752050936967620e+00) (47, -4.24851748568215192847e+00) (48, 9.25535385816249345226e+00) (49, -2.90377497368425485647e+00) (0, 1.50000000000000000000e+03) (1, -2.90627138033738276590e+02) (2, 1.50000000000000000000e+03) (3, 2.74361359530817651375e+02) (4, -1.44969553872910637438e+03) (5, -1.47038047240526771020e+03) (6, 1.39538880461855728754e+03) (7, -1.23721874694347889090e+02) (8, 2.42078300465133935404e+02) (9, -1.90342344267629060006e+00) (10, -1.14434142530950808236e+02) (11, -1.41449410768051393461e+01) (12, -4.61035705316820454414e+01) (13, 1.46759127847348486284e+03) (14, 1.50000000000000000000e+03) (15, -1.49409849888398085227e+01) (16, -3.55288063968684131311e+00) (17, -2.26935816395866352124e+00) (18, -1.29246222184536321720e+02) (19, -6.39263254448095779026e+01) (20, 2.02977181933064997565e+02) (21, 7.58712291863244786327e+02) (22, 7.22339412772540967467e+00) (23, -2.41266699117323657475e+00) (24, -4.02236354954757935332e+00) (25, -3.19354563136478297736e+00) (26, 1.29845516087512714876e+03) (27, -1.50000000000000000000e+03) (28, -2.55380965686771368439e+01) (29, -2.86804625504807342296e+00) (30, -1.42180339914423007031e+03) (31, -2.57809036779670330830e+00) (32, -4.04849013584091999007e+00) (33, -7.28955044266666902786e+01) (34, 1.50000000000000000000e+03) (35, 1.32393229809919557738e+03) (36, -2.44605939936406580060e+00) (37, -1.39690679092494724500e+03) (38, 2.48002720543699407829e-02) (39, 2.05520935610784469816e+01) (40, 4.00189512932317597915e+02) (41, 1.50000000000000000000e+03) (42, -7.70123580122729265440e+01) (43, 4.94998009010026748911e+02) (44, 4.15247571500271590139e+02) (45, -2.34963884658414059459e+02) (46, -3.79463010852208356027e+02) (47, 1.47213686359543362414e+03) (48, 3.01789089271288901273e+02) (49, -4.23756978206893375472e+00) (0, 4.92417633573277981895e+01) (1, -4.44135757360467842148e+00) (2, 8.04771061555486388883e-01) (3, 9.39996561356875315330e-02) (4, -3.47730772989135739071e-01) (5, -9.22487689434247304376e-01) (6, 2.42568159677063288626e+00) (7, 1.04805917794828040712e+01) (8, -2.05415761347072312049e+00) (9, -1.51095538378225469067e+00) (10, 6.02411555785068886237e-01) (11, -1.62587132318670346542e+00) (12, -1.36603313877855181424e+00) (13, -9.66912027554454933664e-01) (14, -3.48025578676610962248e+02) (15, -4.60950129326420598996e-01) (16, -4.31355997834882654018e-01) (17, -3.68233076047055019053e-01) (18, -1.96494864908785982216e+00) (19, -4.15492127604868255464e-01) (20, 3.95788023790681675607e+00) (21, -5.05869125245959327941e+00) (22, 1.46237154076164554972e+00) (23, 2.65495165696410850842e+00) (24, 7.18953672467026128068e-01) (25, -2.51094821150378066932e+00) (26, -1.53733398167280821411e+01) (27, 8.41048490112965979604e-03) (28, 4.75140316683411967347e+00) (29, -7.06030164238520496767e-01) (30, -1.93524050187760754405e+00) (31, 3.10578548065700132952e+00) (32, -1.72564006948259018870e-01) (33, -2.80683339505218709675e+00) (34, -9.42646357316841942975e+00) (35, -2.03166405112646986098e+00) (36, 1.78162777093664481676e+00) (37, -1.91343098281329204724e+00) (38, -1.21224356061761207037e+00) (39, 7.16760350248902944337e-01) (40, 9.92827750081701876361e-01) (41, -6.88528013961223273043e+00) (42, 2.57487668220974041944e+00) (43, -1.69966595612148529959e+00) (44, 2.50555689030063266642e+00) (45, -1.22207860420790959122e-01) (46, 2.53196226532164003764e-01) (47, -2.75656347460847772624e+00) (48, 1.64542408497018541880e+01) (49, -2.10923200043824699002e-01) (0, -1.60226327932654335484e+01) (1, -3.22557736153946628122e+00) (2, -2.92348157467968361445e+00) (3, -1.99590542133147397230e+00) (4, 3.58077974851176339399e+00) (5, 1.98068573759135557744e+00) (6, 3.08363735941904826277e+00) (7, -1.42808260121085134342e-01) (8, -9.57013336705438866225e-01) (9, -2.38691112773972990979e+00) (10, 1.29884638533890484080e-01) (11, -6.51795504527950542162e-01) (12, -8.32972885749693192636e-01) (13, 5.80772999256778457711e-02) (14, -5.48937712045674763850e-01) (15, -2.50681586593072602831e-01) (16, 7.72203320516124946948e-01) (17, -5.25837035015824905138e-01) (18, -2.28685247403697999857e+00) (19, -6.50078159143111844465e-01) (20, 1.01019753988807958756e+00) (21, -8.78320667569274182718e-01) (22, 1.77963851871316558473e+00) (23, 9.91414612462243383106e-01) (24, 1.32014310677449064890e+00) (25, -2.58080835963724775084e-01) (26, 5.35052107630355711088e-01) (27, 1.07463964235445086359e+00) (28, 1.12868912742706295482e+00) (29, -2.20168367527983077636e-01) (30, 6.54835184052595664639e-01) (31, 1.84257047127486006666e+00) (32, -5.27188066610467465090e-01) (33, 8.66831480642711593720e-02) (34, -1.14825334837038561808e+00) (35, -1.53838764490273693930e+00) (36, -8.38149012710440621809e-01) (37, 3.05157177212512875641e+00) (38, 2.31489688205914090346e+00) (39, -3.92169419937888585892e+00) (40, -2.36655949469279702768e+00) (41, 2.99145494689133269184e-02) (42, 3.01233685229974357256e+00) (43, 2.82360935385034483858e+00) (44, 3.64543252624420466290e+00) (45, 2.03669303703148507623e+00) (46, 3.11956571420593076205e-01) (47, -1.31863942372025833016e+00) (48, 1.66101127245360613571e+00) (49, -3.13922443981458831885e+00) (0, -1.50000000000000000000e+03) (1, -1.50000000000000000000e+03) (2, -1.50000000000000000000e+03) (3, -1.50000000000000000000e+03) (4, -1.50000000000000000000e+03) (5, 1.50000000000000000000e+03) (6, 1.50000000000000000000e+03) (7, -1.50000000000000000000e+03) (8, -1.50000000000000000000e+03) (9, -1.50000000000000000000e+03) (10, -1.49981885358125714447e+03) (11, -1.49979994191685909755e+03) (12, 1.50000000000000000000e+03) (13, 1.49552337402276134526e+03) (14, -1.50000000000000000000e+03) (15, -1.50000000000000000000e+03) (16, -2.20109116812613025971e+00) (17, -1.50000000000000000000e+03) (18, -1.50000000000000000000e+03) (19, 7.34981490922948665911e+00) (20, 1.16387912055258129840e+03) (21, -1.29754125837139645228e+03) (22, -1.50000000000000000000e+03) (23, -1.50000000000000000000e+03) (24, 1.49881781991064212889e+03) (25, -2.42775031027855703769e+02) (26, 1.46440003686045884024e+03) (27, 1.41117148265181185707e+03) (28, 1.50000000000000000000e+03) (29, 7.50456617685371043081e+02) (30, -1.50000000000000000000e+03) (31, -2.41282022910771942747e+00) (32, -1.50000000000000000000e+03) (33, -3.13034256930930837370e+02) (34, -1.50000000000000000000e+03) (35, 1.50000000000000000000e+03) (36, 1.49901091953603690854e+03) (37, 1.50000000000000000000e+03) (38, -1.49479779013573784141e+03) (39, -1.50000000000000000000e+03) (40, -1.50000000000000000000e+03) (41, -1.50000000000000000000e+03) (42, 6.82203662268101140853e+01) (43, 1.49926905117317664917e+03) (44, 1.49999455024521398627e+03) (45, 1.16616298932467179839e+03) (46, -1.50000000000000000000e+03) (47, -1.43836790329199675398e+03) (48, 1.50000000000000000000e+03) (49, -4.56565824277059295611e+00) (0, -1.86109298345533957786e+01) (1, -5.14735108892531573188e-02) (2, 4.76934971165159093953e-01) (3, -7.95905765262843178931e-01) (4, -1.55997877212398106117e-01) (5, -1.06248841392067117084e+00) (6, 5.81534511151951649666e-01) (7, -3.26376164128641965689e+00) (8, 1.32354014396014352251e+00) (9, 1.51578040508974698497e+00) (10, -3.53626526653591455318e-01) (11, 6.25075568788930779895e-01) (12, 3.55825365122825587605e-01) (13, 6.20449403226219220464e-01) (14, 1.87503739688228532323e+00) (15, -4.61461566504559383972e-01) (16, 1.96137033453083475809e-02) (17, -3.54979162930143921084e-01) (18, -1.35700719560495031146e+00) (19, -1.01563271543956856746e+00) (20, -1.04020145240164185729e+00) (21, -1.33315359566596836061e+00) (22, -1.24390251145883756756e+00) (23, -3.60989938033978607912e-01) (24, -3.74460581928737767932e-01) (25, -1.99640045071683119859e-01) (26, -3.64374813917172690747e-01) (27, -2.12387135695388629131e+00) (28, 7.11879890516849189730e-01) (29, -5.27270583503421597094e-01) (30, -2.96537087333820492674e+00) (31, -3.48473161626951688508e-01) (32, 1.85356534920696458535e+00) (33, 5.52879144303656366866e-01) (34, 6.20389717469902679525e-01) (35, -1.79865609774767259976e-01) (36, 6.55299015625190439671e-01) (37, -1.21946643332813398075e+00) (38, -5.78587553247554176039e-01) (39, 2.21392869926497481980e-01) (40, -1.25033165476769103641e+00) (41, 1.09341760365230378227e+00) (42, 1.84303295157957336414e+00) (43, 2.15917001955629572763e-01) (44, 1.50512092682980958003e+00) (45, 1.85734770485349975910e-01) (46, -4.72368466516673080058e-01) (47, 2.19945841176461609479e+00) (48, -2.34219278351570636687e+00) (49, 8.29361582069401581663e-01) (0, 3.55354214373885781697e+01) (1, 8.21646973209281594741e-01) (2, 4.70816165899924032878e-01) (3, -2.61834880542587367103e+00) (4, -1.30739258114582623804e+00) (5, -4.17965643985450441278e+00) (6, -2.55678089058256174937e+00) (7, -6.74722385375462518908e+00) (8, 2.91153761302872238215e-01) (9, 1.23420405886574213739e-01) (10, 1.97946919162985324192e+00) (11, -4.93420806026590719195e-01) (12, -2.63714906893475542482e-01) (13, 3.58015200046087134211e+00) (14, 1.08822656409641060904e+00) (15, -2.33802036517674149962e+00) (16, -2.42135705834190462227e+00) (17, 5.62947688736202822568e-01) (18, 7.11670081090732042917e-01) (19, -5.04136160657707499411e-01) (20, -3.17718953115798985465e+00) (21, 2.20977103894086024383e+00) (22, -3.45427405255712649534e+00) (23, 2.94663722498493318991e-01) (24, 6.41368883157404479078e+00) (25, -1.41298776535221853878e-01) (26, 1.68947363356209678820e+00) (27, -2.00299878371761019835e+00) (28, -2.30790047876281567696e+00) (29, -1.52330124880987716196e+00) (30, -4.32288967420359426796e+00) (31, 1.03926299186712767231e+00) (32, 1.24591897482933089414e+00) (33, 7.94061318632283796859e-01) (34, -1.28251297174806211387e+01) (35, 8.71682059563734124019e-01) (36, 2.48359113526867486543e-01) (37, -1.19848331792450268907e+00) (38, -1.09681090150355653456e+00) (39, 6.87853887297118382627e-01) (40, -2.90607983856987939220e+00) (41, -7.99419832412973629943e+00) (42, -1.45317683913308948185e+00) (43, 1.87483166471849593826e+00) (44, 2.52512146133494308486e+00) (45, 1.99127813922662794122e-01) (46, -1.62794456505618745368e+00) (47, -3.98517579125220955394e-01) (48, 1.22322809453521119671e+00) (49, -9.81589467557845263279e-01) (0, 1.47202895728668146091e+01) (1, 1.98681796672594490616e+00) (2, 2.92592994598730138378e+00) (3, -8.67484402564355105980e-01) (4, -4.67353297776960019405e+00) (5, -7.47849978197953735304e+00) (6, 2.94860912088017901311e+00) (7, 3.24256034732188869185e+00) (8, 1.69644231625296870725e+00) (9, -1.45943881251568940982e+00) (10, 6.36927699675884584352e-01) (11, 1.92063501488164589670e-01) (12, -3.64825292279021828890e+00) (13, -2.28726395154450301561e+01) (14, -2.09608647041236162423e+00) (15, -5.90686491752586362303e-01) (16, -2.30102489912526708693e+00) (17, 4.45896668883198810107e+00) (18, 5.34588542915281195178e+00) (19, -4.84299756924916557921e+00) (20, -1.53874537235235493426e+01) (21, 8.58087619371203036422e-01) (22, 1.13196679932008575920e-01) (23, 1.17232283404139514538e+00) (24, 9.54365706263493818184e-01) (25, 8.23227504987152025606e-01) (26, -7.34229393519549078384e-01) (27, -7.37253514602139836676e-01) (28, 5.92635067315315788861e-01) (29, -4.82720950359962347465e-02) (30, -2.26237611148589801147e+00) (31, 1.09463344003280005357e-01) (32, -1.36592988481043731142e-01) (33, -3.36496762659473869217e-01) (34, 7.15458885916309461628e-01) (35, -9.97482287785877885788e-01) (36, 7.76220948730037441088e-01) (37, -9.08760497218800034069e-01) (38, 2.54111025407639357088e-01) (39, -2.64441386765054975427e+00) (40, 5.62651252301423210334e-02) (41, -7.02557363066637408089e-01) (42, -5.48208999417284070788e-01) (43, -3.70207658993769173073e-01) (44, 1.61189925439059522638e+00) (45, -1.20412813211584879269e+00) (46, 3.10264047243392671049e+00) (47, 1.25600825535711835279e+00) (48, -2.33710998400038638678e+00) (49, -1.23216633083500970436e+00) (0, -2.04151293685205859063e+00) (1, -5.55946871879460347010e-01) (2, 8.28039073280402271315e-01) (3, 6.50764424591922185925e-01) (4, -9.43763508381855742435e-02) (5, -4.26500606410759708353e-01) (6, 1.48422687519359675079e+00) (7, 1.61543601802462677419e+00) (8, 1.43793262227231766204e-01) (9, -1.22857995912331396937e+00) (10, -1.17598374565583729812e+00) (11, 3.93851593481519213213e-01) (12, 8.02582464386455418648e-01) (13, 2.43158171322328281461e-01) (14, -1.80402650508574291521e+00) (15, 1.18290003153162237570e-01) (16, -7.51329084303166028214e-01) (17, 1.66689832462058751261e+00) (18, -2.29159293297214938789e+00) (19, -1.65613864529382071034e+00) (20, 1.24444157550199371864e-01) (21, 3.32963835537408714416e-01) (22, 1.35200514955702200126e+00) (23, 3.24228529322951253278e+00) (24, -1.81352179711601224632e-01) (25, 5.66472620896566136928e-01) (26, 1.35502809240080646092e+00) (27, 1.96472775783466979682e+00) (28, 1.21995472807347771216e+00) (29, -1.59533616403794797911e+00) (30, -4.64862008460315112579e-01) (31, -4.03864144989316553591e+00) (32, 5.80378336149515727804e-01) (33, 4.69596974519463206121e+00) (34, -1.99340413538164090701e-01) (35, 2.38749606185428175920e-01) (36, 1.54940210943807654687e+00) (37, -7.02301609146152916452e-01) (38, -1.22532573382227738534e+00) (39, -4.08941567939307248913e-01) (40, -1.09585433976251880872e-01) (41, -1.01813703925467335942e+00) (42, -5.41720161736970773347e+00) (43, -1.08508587465945227635e+00) (44, -1.13786544090745470048e-01) (45, 7.40859416875927578872e+00) (46, 2.58149482562194387825e+00) (47, -2.76218557449841339846e+00) (48, 8.96764774493041372239e+00) (49, -2.92440174706929179038e+00) (0, 1.44799199642848952863e+03) (1, -1.13019871758761340175e+02) (2, 1.50000000000000000000e+03) (3, 1.48679999997615823304e+03) (4, -7.68592148884816197096e+02) (5, -1.13412019333612738592e+03) (6, -1.50000000000000000000e+03) (7, -1.50000000000000000000e+03) (8, -7.85772579511073274716e+01) (9, -3.97915689108503897842e+02) (10, -2.15312616738264267724e+02) (11, -3.57689541238732502393e+01) (12, 5.16580134671394386459e+00) (13, 5.54133972344343646910e+02) (14, -3.27189860865539174029e+02) (15, -5.32427994504143864418e+00) (16, -2.67849977845455322623e+00) (17, -9.21328182828529018700e-01) (18, -3.53897182962231937609e+01) (19, -8.83450015736626248497e+00) (20, 1.50000000000000000000e+03) (21, 1.49112689536036532445e+03) (22, 2.34787618474166803750e+00) (23, -1.30162402830980372670e+01) (24, 1.50000000000000000000e+03) (25, -1.89312995826217655981e+00) (26, 9.68030111148720607162e+02) (27, 2.49882516125142615238e+02) (28, 4.94639540059916726022e+02) (29, 3.05589879766372440884e+01) (30, -2.10487048533953080565e+00) (31, 5.02507050343518368862e+00) (32, -1.08833358467996731633e+02) (33, -1.49750048484534158888e+03) (34, 2.91697335438964898913e+02) (35, -1.50000000000000000000e+03) (36, 1.50000000000000000000e+03) (37, -2.99714290518422679099e+01) (38, -5.08561247874358173249e+02) (39, -1.50000000000000000000e+03) (40, -1.50000000000000000000e+03) (41, 1.50000000000000000000e+03) (42, -5.50067883017976896554e+02) (43, -1.37196489897265769287e+03) (44, -1.30697396231126413113e+03) (45, -1.17460195892634953196e+01) (46, -1.50000000000000000000e+03) (47, -1.50000000000000000000e+03) (48, 1.50000000000000000000e+03) (49, -2.59775013735558335526e+00) (0, -4.22250559506501477181e-01) (1, 3.70397492449396592562e+00) (2, 8.29908727043523586353e-01) (3, 1.26661355949826942568e-01) (4, -1.99190806682137377948e+00) (5, -7.29323210001063704233e-01) (6, 7.22747473616529578777e+00) (7, 3.91117792329665414641e+00) (8, 2.17882749949170451131e+00) (9, -4.50062248427394506756e-01) (10, 3.31154737780157715221e+00) (11, 1.23450179815336480438e+00) (12, 5.02923146157557510172e-01) (13, 5.74962309892679712675e-01) (14, 1.81711172771411910709e+00) (15, -2.25753914007024958366e+00) (16, 1.42299546343214022848e+00) (17, 4.59592025094405054464e-01) (18, -2.83600822549884168389e-01) (19, -1.76028278724693149071e-01) (20, 9.44573572597754096414e-01) (21, -1.98253897643739152024e+00) (22, 1.90322761199570500423e+00) (23, 2.95729007295004642231e+00) (24, 6.37641345484291299783e+00) (25, -4.27716946474245585108e+00) (26, -4.47335272919037574280e-01) (27, -1.68645764722190261153e+00) (28, -4.37353614435452953124e-01) (29, 7.80354300510730292118e-01) (30, -1.41347011404126421397e+00) (31, 2.05170730795164946159e+00) (32, 7.83360049273379877022e-01) (33, 2.38673544263483705663e+00) (34, -7.17562339258311343571e+00) (35, -8.73202586136820557705e-01) (36, -2.00905535459663120434e+00) (37, -3.42522488890514842375e-03) (38, -1.51678039525508112639e+00) (39, 3.93119601922143591111e+00) (40, -2.06649380310371277858e+00) (41, -8.72889766833212732422e-01) (42, 3.62606406085906707304e+00) (43, -1.07441374961501190377e+00) (44, -5.52286304209913980756e-01) (45, 9.56693867601311365156e-01) (46, -2.20585367817628918985e+00) (47, -2.17767104014650270116e+00) (48, 5.85570782027914571444e+00) (49, -2.39642221540884303721e+00) (0, 1.50000000000000000000e+03) (1, 1.50000000000000000000e+03) (2, 1.50000000000000000000e+03) (3, 1.50000000000000000000e+03) (4, -5.83551792603918784152e+02) (5, -1.44975633896116778487e+03) (6, -1.50000000000000000000e+03) (7, 1.50000000000000000000e+03) (8, 1.50000000000000000000e+03) (9, 1.50000000000000000000e+03) (10, -4.72457636037409827168e+02) (11, -1.24587863562721122435e+03) (12, -1.50000000000000000000e+03) (13, 1.49326782032398205047e+03) (14, 1.50000000000000000000e+03) (15, -1.50000000000000000000e+03) (16, -2.59997852095191239741e+00) (17, -2.23323395640994082356e+00) (18, -4.13526594621400931828e+02) (19, 5.50236237845307300631e+02) (20, 1.50000000000000000000e+03) (21, 1.50000000000000000000e+03) (22, -6.34374954414445380024e+00) (23, -1.47372912239851192595e+01) (24, -2.76962528127761675734e+00) (25, -3.38121923675584579172e+00) (26, -1.40987468381000485351e+03) (27, 1.50000000000000000000e+03) (28, -1.48656306772851507958e+03) (29, 1.45404897873305770872e+02) (30, -8.43940375363133512110e+02) (31, -3.39548246588663626966e+00) (32, -3.07229047661727472374e+00) (33, -1.17841258091725262602e+03) (34, -9.76068780410341787501e+02) (35, -1.50000000000000000000e+03) (36, -1.44545778810660885938e+03) (37, -1.50000000000000000000e+03) (38, -2.96904283268030599885e+00) (39, 1.03361307247693304134e+02) (40, -1.50000000000000000000e+03) (41, -1.50000000000000000000e+03) (42, -1.45000000000000000000e+03) (43, -1.50000000000000000000e+03) (44, -1.50000000000000000000e+03) (45, -1.50000000000000000000e+03) (46, 1.48456670021925174296e+03) (47, -1.50000000000000000000e+03) (48, -1.50000000000000000000e+03) (49, -4.18877403240201395818e+00) (0, -1.35430677193865199115e+03) (1, -7.03640873500711183652e+00) (2, -4.22458017617637793251e+00) (3, -1.94359869898492876317e+00) (4, -1.91184874475130051064e-01) (5, -9.69387501373254911741e-01) (6, -2.90199687282010376776e+00) (7, -1.39932821509991107689e+01) (8, -4.00075368831144917436e+00) (9, -1.36747408250238478011e+00) (10, -7.56667766817158748971e-01) (11, -1.93111882215966035314e-01) (12, 1.82665905219222657330e+00) (13, 3.87625911406023382355e+00) (14, -4.62328869418277399461e+00) (15, 1.40552340620224991419e+00) (16, 1.00486512379255099603e+01) (17, 3.36547021501112242348e+00) (18, -2.01632915913612764669e+00) (19, -1.11412651265151474433e+00) (20, -5.87050841582443805322e-01) (21, 2.27290983033121118950e+00) (22, 2.35423359894074257781e+00) (23, 1.32311707456065064115e+00) (24, 1.23644004888676956738e-02) (25, -1.19319500861065463937e+00) (26, -6.54099504708561707567e-01) (27, 1.99878191909996805187e+00) (28, -2.24727514079562151750e+00) (29, 7.64058454327077751778e-01) (30, -4.43222829144746921504e-01) (31, -1.80023681063150275961e+00) (32, -3.70342348871540549826e-01) (33, -1.21456711051008281466e+00) (34, -9.92712542637418482450e-01) (35, 8.92980434590997407263e-01) (36, -4.13134728709700249638e-01) (37, 9.09252247137286473411e-01) (38, 2.53423685792045061405e+00) (39, 5.25967404912028868580e-01) (40, 2.62530420320998958417e+00) (41, 8.40236675629617124628e+00) (42, -1.70183043344232620697e+00) (43, -1.17460462247314789686e+00) (44, -2.09167701630138624935e+00) (45, -2.06549732501657956618e+00) (46, 1.91485398081944291349e+00) (47, 1.22385939360673887677e+01) (48, 1.50000000000000000000e+03) (49, -3.53607941560477279097e+00) (0, 1.50000000000000000000e+03) (1, 1.50000000000000000000e+03) (2, 1.50000000000000000000e+03) (3, 1.50000000000000000000e+03) (4, 1.50000000000000000000e+03) (5, -1.50000000000000000000e+03) (6, -1.50000000000000000000e+03) (7, 1.50000000000000000000e+03) (8, 1.50000000000000000000e+03) (9, 1.50000000000000000000e+03) (10, 8.56632133888572511182e+00) (11, 1.10704207526480118418e+01) (12, 1.49966775035864066012e+03) (13, 1.50000000000000000000e+03) (14, -1.50000000000000000000e+03) (15, 1.50000000000000000000e+03) (16, -1.70274653578409775889e+01) (17, 3.82203301550583296464e-01) (18, 7.72857311923653522712e+00) (19, 1.50000000000000000000e+03) (20, 1.50000000000000000000e+03) (21, 1.50000000000000000000e+03) (22, 1.50000000000000000000e+03) (23, 1.50000000000000000000e+03) (24, 1.50000000000000000000e+03) (25, 2.03820145316536240898e+01) (26, 1.50000000000000000000e+03) (27, 1.50000000000000000000e+03) (28, 1.49895732234155116203e+03) (29, 1.49997748576615208549e+03) (30, 1.50000000000000000000e+03) (31, 1.50000000000000000000e+03) (32, 8.35794354171900288897e-01) (33, 1.30794426084277165501e+03) (34, 1.50000000000000000000e+03) (35, -1.66126285078045611954e+02) (36, 1.50000000000000000000e+03) (37, 1.13886131624990539990e+02) (38, 1.50000000000000000000e+03) (39, 1.25569524099925558858e+02) (40, 1.12966824794563490286e+03) (41, 1.50000000000000000000e+03) (42, 1.50000000000000000000e+03) (43, 1.50000000000000000000e+03) (44, 1.50000000000000000000e+03) (45, 4.36591286851879178954e+00) (46, 2.63538262484788354811e+01) (47, -1.50000000000000000000e+03) (48, 1.50000000000000000000e+03) (49, -7.99001440086321013112e-01) (0, 2.27289077620290891346e+00) (1, 1.51383491489536492480e+00) (2, 9.02008897366041284549e-01) (3, 2.65682359454086647332e+00) (4, 3.83473555532840501558e-02) (5, -2.66825609591213153138e+00) (6, 1.08871484417139163803e+00) (7, -1.22475026699693928522e-01) (8, -5.43713806163002355554e-01) (9, 1.76742786136679508324e+00) (10, -4.06420235416175557042e-01) (11, 4.18792653154676119964e-01) (12, 5.60491565285625603643e-01) (13, -1.06783224835549983567e+00) (14, 1.55224875941720696915e+00) (15, 2.25402263930028290417e+00) (16, -2.62512532001040321816e+00) (17, -4.54819110158404038557e-01) (18, 2.24779038819149024064e+00) (19, 1.36934945003383345963e+00) (20, 2.60287173791458625871e+00) (21, -3.16980018873992808182e+00) (22, -5.99959853522168096163e+00) (23, -5.54228908765415173576e+00) (24, -4.29712777965502557009e-01) (25, -2.38375967319531856248e+00) (26, -3.80530826204445249417e+00) (27, -5.73223998365002263000e-01) (28, -3.81908341673248719061e+00) (29, -3.02217840306341495316e-02) (30, 1.97056036486630925531e+00) (31, 1.78162279120723154868e+00) (32, -1.64202813849476014774e+00) (33, -2.04244749375401823954e+00) (34, -2.31972033957960011019e-01) (35, 5.08836081811505103190e+00) (36, 4.63574552930529737438e+00) (37, 2.75591738673941799576e+00) (38, 1.39333193586695669453e+00) (39, 2.59775845287969886499e+00) (40, 5.58116381847872577993e+00) (41, 2.96502014006176350946e+00) (42, -1.35784789505841985147e+00) (43, -1.36955325291718232883e+00) (44, -8.43497287763844583175e-01) (45, -7.22811109700796650124e-01) (46, 4.82362466489162755590e-01) (47, -3.86340984424486100224e+00) (48, 2.87563626487226864370e+00) (49, 2.82839210170730936955e-01) (50, 1.82651249640395196838e-01) (51, 1.53020101576632955309e-01) (52, 1.14418181441032040802e+00) (53, -3.00084668085946082439e-01) (54, -1.27472726768314204016e+00) (55, 6.28169693178440513570e-01) (56, -1.36740333226362142938e+01) (57, 6.02322142404612750899e-02) (58, -2.46805390047353245819e+00) (59, -8.15186770236809299384e-01) (60, 6.53130525580791654328e-01) (61, -1.40063186624233848576e+00) (62, -4.44064094154907440526e-01) (63, -3.51498121898762061477e+00) (64, 4.16363048385965406339e+00) (65, 3.75617246340843413677e+00) (66, -6.19142382225708942656e+00) (67, 5.06704164854124949890e-01) (68, 8.29450979436906044029e-01) (69, 4.37125268345728679176e-01) (70, -4.83582882246424705652e-01) (71, -4.44717416523475872481e+00) (72, 1.00121461935580780001e+00) (73, -2.04436692706104139461e+01) (74, 4.77605373632928742467e+00) (75, 1.04554606031288543910e+00) (76, 1.84275579324076232979e+00) (77, -2.14476302571784183115e-01) (78, -4.93227999576473785659e-01) (79, -1.50000000000000000000e+03) (80, 2.16900707019262617425e-01) (81, 5.81358896367574984332e-01) (82, -5.64523175757365613947e+00) (83, -1.10736442936178680618e+00) (50, -7.23943161431019194252e-02) (51, -4.03207666587435831218e+00) (52, 1.33835274751618893418e+00) (53, -1.22512569968255946584e+00) (54, 6.22996826741319398302e-01) (55, 3.58549092630956522942e-01) (56, -1.98326348540959901401e-01) (57, -3.33697339224939493185e-01) (58, -5.02940843675917026445e+00) (59, 4.98706129889452232096e-01) (60, -7.89404554308167805132e-01) (61, 5.21332177737894841840e+00) (62, 1.33931642575042486598e+00) (63, -9.70518786187789750386e+00) (64, -2.79048779170666794158e+00) (65, -2.99780748709759592430e+00) (66, 5.13269585342674261597e+00) (67, 5.53185694750957246413e-01) (68, 3.33738108210456418945e+00) (69, -3.01784959866768454084e-01) (70, 1.15243224586615178318e+00) (71, 4.29449200312056333928e+00) (72, 9.42101780623345486099e-01) (73, -3.67246740909709878942e-01) (74, 1.74977866373489976404e+00) (75, 3.03788750684225261622e+00) (76, -2.86734211840803476790e+00) (77, -4.14910806807168075494e-01) (78, -4.13655391726202648073e+00) (79, 4.16953577024688160080e-01) (80, -4.62227063367600166099e-01) (81, -1.62805455198284310114e+00) (82, 5.99669007883658977676e+00) (83, 1.29791066419804479448e-01) (50, -5.43475617816807532456e-01) (51, 2.17260368105413315121e+00) (52, -5.89457923758809898551e-01) (53, -7.37159408614517563940e-01) (54, -6.49736433041988981074e+00) (55, -4.38900688186583509687e-01) (56, 3.00241937174967832291e+00) (57, -8.81863672646114732379e-02) (58, 1.95117206597075765195e+00) (59, 4.90379907518315150128e+00) (60, -2.50112039620303094889e-01) (61, -3.53881100048802199609e+00) (62, -2.91024102537286111225e-01) (63, -1.03003293728667499884e+00) (64, -1.33429099167642295498e+00) (65, 9.70306750512184941135e-04) (66, -4.75320900426137527006e+00) (67, 6.78124830028579372865e-01) (68, -2.85401060298973441309e-01) (69, 3.34540697797416353154e-01) (70, -9.72619822938481704000e+00) (71, -9.43786943749446294305e+00) (72, 7.12991334340486559995e-01) (73, -1.44363729304404708742e+00) (74, -5.31786770820289778072e+00) (75, 2.79773954691292559005e+00) (76, -9.10838635756042158675e+00) (77, -2.05580425250375620205e-01) (78, -2.34146161536965147221e+00) (79, 1.05258751543161799269e+00) (80, 9.33304273196787659295e-01) (81, -6.52255267837389407504e-01) (82, 6.61434839320926615258e-01) (83, 8.60713372569970158743e-01) (50, 4.71790114822300266084e-01) (51, 1.15597314236562120904e+00) (52, 1.49223309527843261968e+00) (53, -2.03572191202574359625e-01) (54, 4.27102869609310697996e+00) (55, 6.69429973312500203875e-01) (56, -6.09157766315115645206e-01) (57, -1.29733719100910166455e-01) (58, -1.93681525721256554695e-02) (59, -7.88119531800074391015e+00) (60, -2.33371147228686015573e-01) (61, -9.78895367499868052086e-01) (62, 8.93632340328458729672e-01) (63, 4.08781180595074344897e-01) (64, 1.18909885248910529576e+00) (65, -2.88709007002442907819e+00) (66, -7.45278667297093733168e+00) (67, -9.20333577312170802998e-01) (68, 3.96376323231011262749e+00) (69, -8.74092035051743709850e-01) (70, -1.89108180607543951979e+00) (71, -7.53029046285264147542e+00) (72, 3.03475122974195321568e-01) (73, 2.03292049358239035328e+00) (74, 9.43710751474100328906e-01) (75, 3.74486399109182599432e+00) (76, 1.03674214173602652345e+00) (77, 1.60100811534418380200e-01) (78, 1.57722459503179490703e+00) (79, -8.08401716942963699530e-01) (80, -6.09110921043092812255e+00) (81, -1.46991245868223457949e-01) (82, 1.59822681758149087727e+00) (83, -2.18829146270254248918e+00) (50, -1.49723687225552226643e+00) (51, 9.97184862610738242950e-01) (52, -9.20304000681588685318e-01) (53, -3.97298212277149953575e-01) (54, -2.97548015217247741049e+00) (55, -7.76207743764814828147e-01) (56, -1.49885159084623387216e+00) (57, -3.44048050418313378085e-01) (58, 5.08145049051515140803e-01) (59, 7.54379647485384330352e-01) (60, 5.21337758276203433461e-01) (61, 7.93750943073167114505e+00) (62, -1.10624514604388068939e+00) (63, -8.94884763234915148189e+00) (64, 1.15418269230486703059e+00) (65, -4.39810416261564540719e+00) (66, 3.22626179787133704480e+00) (67, 8.74023255074548033328e-01) (68, -9.47330484894738256152e-01) (69, -2.66945809930209804195e-02) (70, -6.80712926917624727707e+00) (71, 3.96930520772863415502e+00) (72, -2.94865706570863916891e-01) (73, -1.97690319720664509084e+00) (74, 1.96155530366315028479e-01) (75, -1.85151209714451807364e-02) (76, -2.93366296350023070261e+00) (77, -1.20629387317566760807e+00) (78, 4.92242655631086711843e-01) (79, 1.63298069015169938778e-01) (80, 3.50484650180625401106e+00) (81, -7.98699342838319670257e-01) (82, -5.91782104682330167833e+00) (83, -1.14071117453911874406e+00) (50, 2.79971802715394069150e-01) (51, -4.54658395882541022104e+00) (52, 7.16406102150336399070e-01) (53, 2.08478708616213259663e-01) (54, 1.40424245833935823491e+00) (55, -1.68564982563297660612e-01) (56, -2.81403739953321707645e+00) (57, -1.19416532825848166477e-03) (58, -4.32173168477639035867e-01) (59, 4.27704957467338253707e+00) (60, 1.16046324517941598642e-01) (61, 9.83584542824698204733e-01) (62, 3.46938049162270167880e-01) (63, 1.64167392484818108755e+00) (64, 3.94870357537503569034e+00) (65, 1.70305080677213477314e-01) (66, -5.37145895477449109023e+00) (67, -5.84101980672941589745e+00) (68, -5.81859472494061158443e+00) (69, -4.73469853575867127837e-01) (70, 1.26214948679580025725e+01) (71, -4.33723391880420461320e+00) (72, 1.88806658922814285528e-01) (73, 7.73863588707908522935e+00) (74, -1.16877002767420634655e+00) (75, -9.16851983287874183759e+00) (76, 1.53333175746250027771e+00) (77, 1.31337478827271925130e-01) (78, -8.67298330038539733167e-01) (79, -2.39754316721771676413e+00) (80, 9.36962356921244299279e-01) (81, -2.12699765308318355927e-01) (82, -2.25470474169303614076e+00) (83, 2.90649925559812380427e-02) (50, -1.25155976466659968338e+00) (51, -4.10247192299724972031e+00) (52, 3.36676700332669742721e+00) (53, 4.94312423193343841721e-01) (54, 1.52524789168425312091e+00) (55, -1.98634792483378591621e-01) (56, 4.89841918301658285628e+00) (57, -3.34012360825655940655e-01) (58, -1.28083306682993702807e+00) (59, -5.94190892333578624118e+00) (60, 7.61392454802394813562e-01) (61, -1.14488076440243768950e+00) (62, 1.07912417813650773901e+00) (63, -3.00248654175896945162e+00) (64, -2.93620937504665713291e+00) (65, 3.69707057998908394936e+00) (66, 4.30298493337791843061e+00) (67, -2.26250966368811257112e+00) (68, 5.39145891803977761469e-01) (69, 7.36378686986357222644e-01) (70, -3.82583970944902906908e+00) (71, 3.52199646810278688136e+00) (72, -1.13614514070102590182e+00) (73, -1.17217922841193296080e+01) (74, 1.25043731837722282840e+00) (75, -4.32335698236258814120e+00) (76, -4.20327683092522175201e+00) (77, 4.18011151076217557510e-01) (78, 1.52778672499502610194e+00) (79, 6.26253354980184862022e-01) (80, -2.99795116581652409948e+00) (81, 5.06484377462509960388e-01) (82, -1.71892014725360775529e+00) (83, -7.82210295640865305167e-01) (50, 2.15339979363111400090e+00) (51, 1.14263459115703680524e+00) (52, -7.83955444458127148621e-01) (53, -1.15730448376213335138e+00) (54, 6.20793786246964129916e-01) (55, -5.33478452441575427823e-03) (56, -8.81113811811741598490e+00) (57, -4.87454653026016260231e-01) (58, 1.47043555782391233144e+00) (59, 2.63283277995701947560e+00) (60, -4.08407587800919280596e+00) (61, 1.84076599631286530467e+00) (62, -1.88464304110912839185e+00) (63, 2.17152592896379381671e+00) (64, 3.90996884477540995739e-01) (65, 2.17887110857297727762e+00) (66, 2.48808676776454662516e+00) (67, 1.94423162116286574186e-01) (68, -1.82818804151975355943e+00) (69, 2.00606583044211528311e-01) (70, -2.53297450228053344645e+00) (71, 1.24067546705658249273e+00) (72, 8.80144526588058501160e-02) (73, -1.07651645128326714507e-01) (74, 2.63450323094914296007e+00) (75, 4.09442733855913065799e-01) (76, 1.58843311673871845358e+00) (77, -5.15803883198730273030e-01) (78, -3.94018679394770243718e+00) (79, -1.54144906749507509813e-01) (80, -3.57697896722910302358e-01) (81, -5.24342431079885762379e-01) (82, -6.14953049613643165650e-01) (83, -1.64764071124850408623e+00) (50, 2.19609210815890215640e-01) (51, -2.38829985218400686620e+00) (52, -2.64962998912118186112e+00) (53, 4.76684015000930383366e-01) (54, 3.69364355301655855612e+00) (55, 5.49024782134641786691e-01) (56, -6.96310379154028868953e+00) (57, 2.52080307515073320790e-01) (58, 5.58464283661858518215e-01) (59, -3.84229449771360220822e+00) (60, 1.07726986951336511922e+00) (61, -1.67010481733783588965e+00) (62, 2.14708640713936160793e+00) (63, 9.60888346852081576266e-01) (64, 1.23092309830047375030e+00) (65, -5.99756555425160452211e-03) (66, -1.31825997383620818759e+00) (67, -4.61088315883328725420e+00) (68, -6.05338669991305144968e-01) (69, 1.52999761748262991246e-01) (70, -8.55993435199231278432e+00) (71, -7.82259989945533140698e-01) (72, 4.65005372766125468775e-01) (73, -1.11063890370025522003e+01) (74, 2.90424661600303224418e+00) (75, -2.13393218037699661238e+00) (76, -3.20545346937920605512e+00) (77, 1.73830328783303261764e-01) (78, 3.71486014671042408253e+00) (79, -5.97993943601087929451e-01) (80, 7.36505931987697981533e-01) (81, -5.66689590194632164533e-01) (82, 4.74627321097328369603e+00) (83, -5.37665087488213497280e-02) (50, 4.66619042877865997099e+00) (51, 1.40162021367651545845e+00) (52, 5.80530577037698392040e-01) (53, -6.23569701423520972305e-01) (54, -2.91908729693023949459e-01) (55, 4.37406640520610956457e-01) (56, -3.16023727455054403990e+00) (57, 1.64242645866836928237e-01) (58, -4.13244407634215349390e+00) (59, -2.99285433016545354690e+00) (60, 1.52620289146094245680e+00) (61, -8.13729661785547619957e+00) (62, 9.49492285201467223210e-01) (63, 1.72188461481881005533e+00) (64, 1.03739525224263262615e+00) (65, -5.54331454677105739393e+00) (66, 7.33999445443222153784e-01) (67, -1.04389055235218952689e+00) (68, 4.05151530370675416748e+00) (69, -4.54107082828297037302e-01) (70, 4.44589890571916168671e-02) (71, 7.75511568246020077666e-01) (72, 1.09349468038404173953e+00) (73, -1.30123601381102704799e+00) (74, -3.69441704581031160615e+00) (75, 2.71434127531886115747e+00) (76, -1.02143184736642278487e+00) (77, 6.87857170479120538786e-01) (78, -3.44138565570345000832e-01) (79, -5.39396342548405405282e-01) (80, 2.30807500176555685512e-01) (81, -5.85896904086863457017e-01) (82, -4.16865013171324694241e+00) (83, -2.36318588334445189858e+00) 
