FANN_FLO_2.1
num_layers=3
learning_rate=0.700000
connection_rate=1.000000
network_type=0
learning_momentum=0.000000
training_algorithm=2
train_error_function=1
train_stop_function=1
cascade_output_change_fraction=0.010000
quickprop_decay=-0.000100
quickprop_mu=1.750000
rprop_increase_factor=1.200000
rprop_decrease_factor=0.500000
rprop_delta_min=0.000000
rprop_delta_max=50.000000
rprop_delta_zero=0.100000
cascade_output_stagnation_epochs=12
cascade_candidate_change_fraction=0.010000
cascade_candidate_stagnation_epochs=12
cascade_max_out_epochs=150
cascade_min_out_epochs=50
cascade_max_cand_epochs=150
cascade_min_cand_epochs=50
cascade_num_candidate_groups=2
bit_fail_limit=3.49999999999999977796e-01
cascade_candidate_limit=1.00000000000000000000e+03
cascade_weight_multiplier=4.00000000000000022204e-01
cascade_activation_functions_count=10
cascade_activation_functions=3 5 7 8 10 11 14 15 16 17 
cascade_activation_steepnesses_count=4
cascade_activation_steepnesses=2.50000000000000000000e-01 5.00000000000000000000e-01 7.50000000000000000000e-01 1.00000000000000000000e+00 
layer_sizes=50 34 11 
scale_included=0
neurons (num_inputs, activation_function, activation_steepness)=(0, 0, 0.00000000000000000000e+00) (0, 0, 0.00000000000000000000e+00) (0, 0, 0.00000000000000000000e+00) (0, 0, 0.00000000000000000000e+00) (0, 0, 0.00000000000000000000e+00) (0, 0, 0.00000000000000000000e+00) (0, 0, 0.00000000000000000000e+00) (0, 0, 0.00000000000000000000e+00) (0, 0, 0.00000000000000000000e+00) (0, 0, 0.00000000000000000000e+00) (0, 0, 0.00000000000000000000e+00) (0, 0, 0.00000000000000000000e+00) (0, 0, 0.00000000000000000000e+00) (0, 0, 0.00000000000000000000e+00) (0, 0, 0.00000000000000000000e+00) (0, 0, 0.00000000000000000000e+00) (0, 0, 0.00000000000000000000e+00) (0, 0, 0.00000000000000000000e+00) (0, 0, 0.00000000000000000000e+00) (0, 0, 0.00000000000000000000e+00) (0, 0, 0.00000000000000000000e+00) (0, 0, 0.00000000000000000000e+00) (0, 0, 0.00000000000000000000e+00) (0, 0, 0.00000000000000000000e+00) (0, 0, 0.00000000000000000000e+00) (0, 0, 0.00000000000000000000e+00) (0, 0, 0.00000000000000000000e+00) (0, 0, 0.00000000000000000000e+00) (0, 0, 0.00000000000000000000e+00) (0, 0, 0.00000000000000000000e+00) (0, 0, 0.00000000000000000000e+00) (0, 0, 0.00000000000000000000e+00) (0, 0, 0.00000000000000000000e+00) (0, 0, 0.00000000000000000000e+00) (0, 0, 0.00000000000000000000e+00) (0, 0, 0.00000000000000000000e+00) (0, 0, 0.00000000000000000000e+00) (0, 0, 0.00000000000000000000e+00) (0, 0, 0.00000000000000000000e+00) (0, 0, 0.00000000000000000000e+00) (0, 0, 0.00000000000000000000e+00) (0, 0, 0.00000000000000000000e+00) (0, 0, 0.00000000000000000000e+00) (0, 0, 0.00000000000000000000e+00) (0, 0, 0.00000000000000000000e+00) (0, 0, 0.00000000000000000000e+00) (0, 0, 0.00000000000000000000e+00) (0, 0, 0.00000000000000000000e+00) (0, 0, 0.00000000000000000000e+00) (0, 0, 0.00000000000000000000e+00) (50, 3, 5.00000000000000000000e-01) (50, 3, 5.00000000000000000000e-01) (50, 3, 5.00000000000000000000e-01) (50, 3, 5.00000000000000000000e-01) (50, 3, 5.00000000000000000000e-01) (50, 3, 5.00000000000000000000e-01) (50, 3, 5.00000000000000000000e-01) (50, 3, 5.00000000000000000000e-01) (50, 3, 5.00000000000000000000e-01) (50, 3, 5.00000000000000000000e-01) (50, 3, 5.00000000000000000000e-01) (50, 3, 5.00000000000000000000e-01) (50, 3, 5.00000000000000000000e-01) (50, 3, 5.00000000000000000000e-01) (50, 3, 5.00000000000000000000e-01) (50, 3, 5.00000000000000000000e-01) (50, 3, 5.00000000000000000000e-01) (50, 3, 5.00000000000000000000e-01) (50, 3, 5.00000000000000000000e-01) (50, 3, 5.00000000000000000000e-01) (50, 3, 5.00000000000000000000e-01) (50, 3, 5.00000000000000000000e-01) (50, 3, 5.00000000000000000000e-01) (50, 3, 5.00000000000000000000e-01) (50, 3, 5.00000000000000000000e-01) (50, 3, 5.00000000000000000000e-01) (50, 3, 5.00000000000000000000e-01) (50, 3, 5.00000000000000000000e-01) (50, 3, 5.00000000000000000000e-01) (50, 3, 5.00000000000000000000e-01) (50, 3, 5.00000000000000000000e-01) (50, 3, 5.00000000000000000000e-01) (50, 3, 5.00000000000000000000e-01) (0, 3, 0.00000000000000000000e+00) (34, 3, 5.00000000000000000000e-01) (34, 3, 5.00000000000000000000e-01) (34, 3, 5.00000000000000000000e-01) (34, 3, 5.00000000000000000000e-01) (34, 3, 5.00000000000000000000e-01) (34, 3, 5.00000000000000000000e-01) (34, 3, 5.00000000000000000000e-01) (34, 3, 5.00000000000000000000e-01) (34, 3, 5.00000000000000000000e-01) (34, 3, 5.00000000000000000000e-01) (0, 3, 0.00000000000000000000e+00) 
connections (connected_to_neuron, weight)=(0, -1.28973131354564820583e+01) (1, 5.44643227323690748420e-01) (2, 1.08098670460594270537e+00) (3, -1.20156704705574113312e+00) (4, -2.39469344372318060366e+00) (5, 9.94881043568930922838e-01) (6, -2.46990296773979611800e+00) (7, 3.02316948794139905843e+00) (8, 1.06916024585525426538e+00) (9, -2.03821442840463024071e-01) (10, -1.17250851210321149765e+00) (11, 1.03728437285288332959e+00) (12, 1.29061902095066893814e+00) (13, 7.07152708432614907075e-01) (14, 1.95723308184585165215e+00) (15, 1.53759583030517310576e+00) (16, -1.20768219572692259156e+00) (17, -6.33031752395944335987e-01) (18, -1.15167603103282045751e+00) (19, 5.95382880291503657766e-01) (20, 3.58658871455301786479e-01) (21, -7.65038891894522454784e-01) (22, 2.10713326794860295044e-01) (23, -1.23526543715734557494e-01) (24, 4.01240353893521362050e-02) (25, 4.63747844949480014787e-01) (26, -4.25001410924828737503e-01) (27, -1.48005885755834265538e+00) (28, -2.59122955140351507453e+00) (29, -1.68758905231949207781e+00) (30, -8.20079225109163867380e-01) (31, 8.52481539760157946972e-01) (32, 2.81785602218164843435e+00) (33, -3.72046844255682351843e-01) (34, -5.29809589586254903182e-01) (35, -4.77666228843538132054e+00) (36, -1.60111727771498357775e+00) (37, 5.15542701285144136514e-02) (38, 8.82391667560461057107e-01) (39, -2.44269939236810440519e+00) (40, -2.66847173117593206015e+00) (41, 6.13658849947560147697e-01) (42, 7.62230541274044881561e-01) (43, 9.72997510949204169606e-01) (44, -4.33937604055190495611e-01) (45, 1.17928130310004819492e+00) (46, 1.64840577951445105276e-01) (47, -1.28043364714273188998e-01) (48, 1.30227617670301620834e+00) (49, -1.74932690949273483838e+00) (0, -6.56128038616818631823e+00) (1, -4.77499781809795464937e+00) (2, 1.20295856239086296213e+00) (3, -2.13101756819677490284e+01) (4, 1.66774220399831207828e+00) (5, -1.13109482420616540566e+01) (6, -1.18196359123428251792e+02) (7, 4.47641401097253033292e-01) (8, -1.01298991527999660001e+00) (9, 4.72497721274816306902e+00) (10, 3.44185846380646838852e-03) (11, -1.24917137865182037437e+00) (12, 5.55053594107843739636e+00) (13, -1.00877897463041872328e+01) (14, -5.06485485833897985941e+00) (15, 1.38538382736458531852e+00) (16, -1.18831503589539672072e-01) (17, 1.74192189208403980238e+00) (18, 3.96670681688323367720e-01) (19, -2.61493878267599111354e+00) (20, 1.76315891281005932001e+01) (21, 3.70980811718152070355e+00) (22, -1.83099600887228164403e+00) (23, -2.53600183846139914934e+00) (24, 5.60343677414817520344e+00) (25, 1.32763512040461040264e+00) (26, 1.48807599207889929005e+00) (27, -1.78504892485639778954e+01) (28, 3.07224266640304266573e+00) (29, -1.34342630853338445007e+01) (30, 2.02285685578844152133e+01) (31, -3.69627614363337864134e+00) (32, -9.69014945862865961779e-01) (33, 3.98172299865545697983e+00) (34, -1.34011180681237274115e+01) (35, 2.48326672180958389902e+01) (36, 6.13341444956970889280e+01) (37, -1.38089811232075931891e+00) (38, 2.99773333285448684293e+00) (39, -4.20645056493272928577e+00) (40, -2.43548421121032143688e+00) (41, 1.50000000000000000000e+03) (42, -1.18376032588707573723e+02) (43, -7.30685102996207991310e+00) (44, -8.77715418233468436249e-01) (45, -2.70003205666451950862e+00) (46, -1.13359248952747271311e+00) (47, 1.71029638233954950355e-01) (48, 1.50000000000000000000e+03) (49, -1.10602976643449912864e+00) (0, 1.50000000000000000000e+03) (1, 1.50000000000000000000e+03) (2, 1.50000000000000000000e+03) (3, 1.50000000000000000000e+03) (4, 1.50000000000000000000e+03) (5, 1.50000000000000000000e+03) (6, 1.50000000000000000000e+03) (7, 1.50000000000000000000e+03) (8, 1.50000000000000000000e+03) (9, 1.50000000000000000000e+03) (10, 1.50000000000000000000e+03) (11, 1.50000000000000000000e+03) (12, 1.50000000000000000000e+03) (13, 1.50000000000000000000e+03) (14, 1.50000000000000000000e+03) (15, 1.50000000000000000000e+03) (16, 1.50000000000000000000e+03) (17, 2.61788564713375437876e+00) (18, 2.99576218229835955498e+00) (19, 1.50000000000000000000e+03) (20, 1.50000000000000000000e+03) (21, 1.50000000000000000000e+03) (22, 1.50000000000000000000e+03) (23, 1.50000000000000000000e+03) (24, 1.49042620260835133195e+03) (25, 1.97981155164102884392e+00) (26, 1.50000000000000000000e+03) (27, 1.50000000000000000000e+03) (28, 1.50000000000000000000e+03) (29, 1.50000000000000000000e+03) (30, -1.50000000000000000000e+03) (31, -7.30166840807673578340e-01) (32, -1.50000000000000000000e+03) (33, 1.50000000000000000000e+03) (34, 1.50000000000000000000e+03) (35, 1.50000000000000000000e+03) (36, 1.50000000000000000000e+03) (37, 2.75838598506228791507e+01) (38, 2.46447962799185038563e+00) (39, 1.50000000000000000000e+03) (40, 1.50000000000000000000e+03) (41, 1.50000000000000000000e+03) (42, 1.50000000000000000000e+03) (43, -1.50000000000000000000e+03) (44, -1.50000000000000000000e+03) (45, -1.49901844420687257298e+03) (46, 1.46853398398236523192e+00) (47, 1.50000000000000000000e+03) (48, -1.50000000000000000000e+03) (49, 1.65166226356746359549e+00) (0, -6.48847092005275971616e+00) (1, 1.20147626020773068412e+00) (2, 7.50760094471606964639e-01) (3, 7.64506019986550322542e-01) (4, -9.63226310920946571237e-01) (5, -1.26801939698486121344e+00) (6, 2.28946645345344590439e+00) (7, 7.56219657796874766831e+00) (8, 1.18439620310194637653e+00) (9, 1.40780200957592382949e+00) (10, -1.74058597423704020102e+00) (11, -3.64186717622199873645e+00) (12, 7.29088626099964609573e-01) (13, -2.13520902405708490335e+00) (14, 1.30548453766071936855e+00) (15, -1.19450962078379330222e+00) (16, -1.30025513874452336438e+00) (17, -7.77819225188537188842e-01) (18, 8.37559390074678233873e+00) (19, 7.12169974415070239360e-01) (20, 1.28299524704565937050e+00) (21, -1.76978080578413643487e+00) (22, -8.65055055244964066219e-01) (23, -1.41568836082579507796e+00) (24, -3.36993974032629262094e-01) (25, 4.50065132896077635394e+00) (26, 4.22684174591846789637e-02) (27, -3.07009391810148057900e+00) (28, 2.81476255425625643269e+00) (29, 1.69591475912024303163e+00) (30, -1.61199490837046210956e-01) (31, -7.53743801509424660168e-01) (32, -1.35375434249382209373e+00) (33, -2.68410876618415938921e+00) (34, -5.66035600231798552429e-01) (35, -6.21934189483271282484e-01) (36, 9.49318806658465130788e-01) (37, 8.94397230010056443206e-01) (38, -1.24991134150787175372e+00) (39, -2.37836271370734070318e-01) (40, 1.08526370468798916136e+00) (41, 9.62804645829563265913e-01) (42, 7.58198850729416662375e+00) (43, -4.73167161679191802803e-02) (44, 1.75076419928190651909e+00) (45, 6.80402346928892454159e-01) (46, -5.05514662909571477201e-01) (47, -1.44135290229529644535e+00) (48, 6.85403751663892668589e-01) (49, -3.05361724157948444258e+00) (0, -4.60687529546607592579e+01) (1, 7.96105368763531218157e-01) (2, 1.49388149474281184403e+00) (3, 9.46095468629536751060e-01) (4, 1.77810279248535563212e+00) (5, 2.67368477697639894686e+00) (6, 3.37414111777308800555e+00) (7, -1.11685471570751859716e+00) (8, 1.60668563845466172424e+00) (9, -2.37798758416548938754e+00) (10, 6.67992265826397479955e-01) (11, -9.20073771388775996094e-01) (12, -2.15378751802875489929e+00) (13, -2.84564098637645113143e+00) (14, -1.57267662828048004897e+00) (15, -2.00551599035767491586e+00) (16, -3.67976814009770891722e-01) (17, 2.01753892653918098787e+00) (18, 4.13729848832037294670e+00) (19, -9.72213648766772187138e-01) (20, -3.70134591573435756118e+00) (21, 1.40214003324422220587e+00) (22, -8.89113900589334593683e-01) (23, 6.25230097951849916882e-01) (24, -3.24137141867295031084e-01) (25, -1.20465194816077358908e+00) (26, -8.57562062504420991038e-02) (27, -3.54184382167124001128e+00) (28, 1.16536146021599074096e+00) (29, 8.48336420785936295985e-01) (30, -1.85147938956997348825e+00) (31, -2.42305942311291211411e+00) (32, -1.03810645935597167799e+00) (33, -1.37183938595833510021e+00) (34, -1.10972084772993202506e+01) (35, -3.34969034850039870665e-01) (36, 7.20914569191805520987e-01) (37, 7.24178527375847758130e-01) (38, 2.73422773280756814529e-01) (39, 1.60244587938111721082e-01) (40, -9.52371251334705459790e-01) (41, -3.68494570611692324746e+01) (42, 1.95692229211162405100e+00) (43, 1.45808701485426639444e+00) (44, 1.78021486078550661425e+00) (45, 5.34588422784283312517e-01) (46, -1.90641272540384293377e-01) (47, -5.41392836293906754008e+00) (48, -1.25792603928337985053e+03) (49, -7.06974395402976685254e-01) (0, 1.77540063883605503392e+00) (1, -1.27335886326117542211e+00) (2, -4.63861384340707227913e-01) (3, 2.83702037582772437219e+00) (4, 2.01817210991429263345e+00) (5, -2.62006858877679293940e+00) (6, -1.38399249754822449177e+03) (7, 3.02189460281830468702e+00) (8, 1.70873998185623388046e+00) (9, -8.81620730720084400112e-01) (10, -6.52766539924853983479e+00) (11, -5.83033051644760647036e+00) (12, -1.75485842140147285662e+00) (13, -1.50000000000000000000e+03) (14, 7.05469056140378381059e+00) (15, 4.91444366933162790634e-02) (16, 1.65273626464695144733e+00) (17, 9.34417040904576801097e+00) (18, 4.86171177062928716595e+00) (19, -3.30742739246667971642e+00) (20, -1.50000000000000000000e+03) (21, -1.02364237547868590639e+01) (22, -2.78764382995910553475e-01) (23, 5.52573247639449038893e-01) (24, 3.28068404211486397415e+00) (25, 2.98041184580860818443e+00) (26, -3.01251974395244603855e+00) (27, -7.17385379716593352128e+00) (28, -3.39095403003764728211e+00) (29, 3.31587486575982193227e-01) (30, -2.76724197302516738972e+00) (31, 2.36095811503508334894e+00) (32, -5.66995420984370723794e-01) (33, -8.69538289298828037666e-01) (34, 3.49956720588103964431e+00) (35, 1.23867982407041510307e+00) (36, -1.65420709789336706219e-01) (37, -6.80860663574505808882e-01) (38, -1.12664881889087165057e+00) (39, -2.94075085680273007327e+00) (40, -3.75410444436804102697e-01) (41, -4.43612410395662681850e+00) (42, -9.52217527863962631685e-01) (43, 3.91372457082055813515e+00) (44, -1.26357623690013087803e+00) (45, -1.70171247661861002598e+00) (46, 1.40292635956415567833e+00) (47, -1.40057004728380385394e+00) (48, -7.45599671484492709794e+00) (49, -3.33909123562458554080e-01) (0, 1.50000000000000000000e+03) (1, 5.51723574776559644306e+02) (2, -2.94559535281555806563e+00) (3, 4.25069420267410720271e+01) (4, -6.48566706723564720960e+01) (5, -1.74856135429747965304e+01) (6, 5.62373088478839520121e+01) (7, 4.00104282494655308255e+02) (8, -1.50000000000000000000e+03) (9, 9.11785566295914939872e+00) (10, 8.44934608656034846774e+00) (11, -1.35513078056239891112e+02) (12, 5.29515989767184862558e+01) (13, 1.71169151091966753597e+00) (14, -1.93797993943675734840e+01) (15, -2.09584373927567817475e+01) (16, -2.18568876607178363969e+00) (17, -2.27960689017995399297e+00) (18, -2.13274338308503308426e+00) (19, 4.02977439055876303087e+01) (20, 4.17471121249093854999e+01) (21, -7.88056593820057713629e+01) (22, 1.22976310050048081024e+01) (23, 8.51211314626180026721e+00) (24, -8.12122931495422406556e+00) (25, -1.26772840255839480683e+00) (26, -8.14304627742844466809e+00) (27, -2.71178658684949080993e+00) (28, 2.02043041483630538835e+01) (29, -8.78096075396991615492e+00) (30, -1.07214191303807759859e+00) (31, -3.04689021188738529133e+00) (32, 2.44062637706784713032e+01) (33, 1.32507422368294314197e+01) (34, -2.07736600992282518519e+01) (35, -2.38874532314968046620e+00) (36, -4.06211162851559564047e+01) (37, -9.54418456933899506112e+00) (38, -6.13212189371345472999e-01) (39, -4.38684756938668662940e+00) (40, -4.97819123953756648149e+00) (41, -5.43226258129194117252e-01) (42, 2.10687814463295630674e+00) (43, 1.39899681924082894824e+01) (44, 5.14917036492490787225e+00) (45, -1.04357209867119067326e+01) (46, -1.16157456286183062844e+01) (47, -5.83031004333681757146e+00) (48, -1.50000000000000000000e+03) (49, -6.88378646666458871017e-01) (0, -4.05670954529545646494e+00) (1, -1.84846639017779912351e+00) (2, -3.34310674074288050051e+00) (3, -5.90738988853683477664e-01) (4, -4.09000962463352024656e+00) (5, 6.79306039942241368657e-01) (6, 2.22064997175464462487e+00) (7, 4.59791773307702544837e-01) (8, 9.66392124341692859701e-01) (9, -8.11391843558061237607e-02) (10, -2.37116883435094294441e+00) (11, -1.63560842356020724742e-01) (12, -1.30290740241462921212e+00) (13, -4.99642171054888117876e-01) (14, -3.19986521604533180607e+00) (15, 1.47083038489341411115e+00) (16, -4.58113012220067034042e-02) (17, 4.50224420936353939005e-02) (18, -2.09013055739896769225e+00) (19, -4.78883266297077281326e-01) (20, -2.74791345228232120057e-01) (21, 1.28576760351614609590e+01) (22, 3.83963240254011539676e+00) (23, 1.10285116819879078776e+01) (24, 7.62199691532848278008e-01) (25, 8.83654432163767933339e-01) (26, 3.98448992528008860692e-01) (27, -6.75792239147974482805e-01) (28, -9.75838290313886780325e+00) (29, -7.12526950290313632053e+00) (30, -3.64904178569660286868e+00) (31, 1.57744781044935922232e+00) (32, -2.91876854482669534363e-01) (33, -2.39316514440943928221e+00) (34, -2.53827216691284718308e+00) (35, -2.38689581279155138560e+00) (36, -8.55501944977723693952e-01) (37, 1.26070899654836043879e+00) (38, 3.30986542749322654178e-01) (39, -2.97087341974896146368e+00) (40, -7.44869531554104069571e-01) (41, 9.64640944737388927877e-01) (42, 2.16574495771820130230e+00) (43, 2.16437064423928937629e+00) (44, 1.04902061110577293768e+00) (45, 1.79294086012041709033e+00) (46, -7.41188427593887366740e-01) (47, 3.60328714729159527153e+00) (48, 1.12182856232376693129e+00) (49, -1.57167973430645657729e+00) (0, 2.28455724839749336752e+01) (1, 1.91925400278243851737e+00) (2, 1.48452446500940116181e+01) (3, -6.64039307215208651769e+00) (4, -7.87730987730845289008e+00) (5, 4.81049701975233201523e+00) (6, 5.12482578653086804366e+01) (7, 3.05453806727262566767e+01) (8, -4.56774452308133760425e+00) (9, 1.12032497139582378765e+01) (10, -8.76248237925561945794e-01) (11, -5.77926400527744199564e+00) (12, 2.99408318052097799367e+00) (13, 1.10010806286982152358e+01) (14, -2.00469776722383485890e+01) (15, -1.12744831544195243112e+01) (16, -5.32345497898750519283e-01) (17, -1.01439999499926472026e+01) (18, -8.74659261506451635171e+00) (19, 1.17596800711575810716e+00) (20, -7.78060907811657376243e+00) (21, 1.08845298022055541054e+01) (22, -4.42155029658267011428e+01) (23, 3.70334276808860085595e+00) (24, -4.16136375005431768948e-01) (25, -3.94935276142925173470e-01) (26, 1.66903287729777822790e+01) (27, 5.41202308629428259223e+01) (28, 1.65943302787586297597e+01) (29, 1.72139159278915911955e+01) (30, -5.45011356723204976049e+00) (31, -3.22888721892530095037e-01) (32, 1.59231549461899546394e-01) (33, -1.79925193604548603332e+01) (34, -6.49993649095093317669e+00) (35, 1.56405483222322594372e+01) (36, 3.11735370841744208192e+00) (37, -9.31555373543432452266e+00) (38, -2.20061951328808635964e+00) (39, 1.31144205695026916381e+00) (40, -7.35875207503205785997e+00) (41, -1.50000000000000000000e+03) (42, -3.36903235214804794850e+01) (43, 1.28470841457140156905e+01) (44, -7.97325650544498021333e+00) (45, 3.71682147854745714710e+00) (46, 3.49399017100629416532e+00) (47, 1.72114148335991679062e+01) (48, -1.50000000000000000000e+03) (49, 6.99749865225540862435e-02) (0, -2.77690226316773625115e+00) (1, -3.97064771770469837620e-01) (2, 1.69877687599645804672e-01) (3, 2.56292490847899789852e-01) (4, 1.18455958063228727895e+00) (5, -1.84178409123172681650e-01) (6, -3.52996381102507683636e+00) (7, 2.18925787215795075724e+00) (8, 1.28008693638814374793e+00) (9, 1.76823785421098578219e+00) (10, -4.24209453763181087993e+00) (11, 9.67233685396885367602e-01) (12, -3.58039833115629035909e-01) (13, -1.40352269372834204120e+00) (14, -3.12542150872884461066e+00) (15, -9.88491195106844466878e-01) (16, -1.45115539007584359865e+00) (17, -1.16821341998861027989e+00) (18, 4.03338630737885728283e-01) (19, -1.87414155367713974876e+00) (20, -4.04266666623093229305e+00) (21, -7.81024575422725853002e-01) (22, -3.13508933549104307215e-01) (23, -2.09127834355687797219e-01) (24, 6.87662833168735887490e-01) (25, 4.29173155122599148115e+00) (26, 4.76880648356961089895e-01) (27, -1.33990225963089226724e+00) (28, 5.67948275916554834453e-01) (29, 1.33251530761750536236e+00) (30, 1.38766185576662204326e+00) (31, 4.45459701672353436397e-01) (32, -7.81576286817048937472e-01) (33, -4.18538309121936347168e-01) (34, 1.09654188776170280484e+00) (35, 1.37580796146866302099e-01) (36, -3.02875519681331473176e-01) (37, -3.62598327085106308942e-02) (38, -1.78817786823577545841e-01) (39, -2.45046609417168603784e+00) (40, 5.31392800703101908510e-01) (41, -1.16231873576543409676e+00) (42, 2.61438981179839124991e+00) (43, 1.77921372389550791482e+00) (44, -5.10108588028162390771e-01) (45, -1.16932700125125266233e+00) (46, -8.03396889030105088025e-01) (47, -4.75821032292777779116e-01) (48, 7.95668719916095557032e-01) (49, -6.75225536818784499715e-01) (0, -5.36007662023664632756e+00) (1, 2.72330326917216947180e+00) (2, 6.61261671495902758622e-01) (3, 1.57970655798847126050e+00) (4, -4.16263606762565741004e-01) (5, -1.34954263133452462275e-01) (6, 1.00346074917425713835e+01) (7, -4.04664056148039075200e-01) (8, 1.85714879682398859018e+00) (9, 6.08116991096350201218e-01) (10, -5.37997548948548134917e-02) (11, -3.52636142496424165316e-01) (12, -1.27394493266670472131e+00) (13, -3.84756086626829185704e+00) (14, 2.27149644467226341504e+00) (15, 1.80878296922333992036e+00) (16, -1.19877841756246117377e+00) (17, 9.62516350496466777109e-01) (18, -5.38236589166407389251e-02) (19, -7.06317755981300976487e-01) (20, -2.38812102434770556769e+00) (21, -2.25464550561279564178e+00) (22, -2.21156924805233057185e+00) (23, -7.60221328257936423967e-01) (24, -4.31760276889422112134e+00) (25, -1.82355462123984846112e-01) (26, 5.12746050357809846076e-01) (27, -2.28948511181290559335e+00) (28, 1.02725965827133292052e+00) (29, -3.67744128822732399553e-02) (30, 1.04788553181115906554e+00) (31, -2.45239663273618922756e-02) (32, -8.45453596701022103144e-02) (33, -1.31379247138595256494e+00) (34, -1.39867782894817910266e-01) (35, 4.08281484799423033394e+00) (36, 1.59369069634653093281e+00) (37, 3.02950188996299996091e+00) (38, 7.21563079601278745123e-01) (39, 2.54606395995702250445e+00) (40, -3.33823891744068290688e-01) (41, -4.23236474471142654075e-01) (42, 1.50000000000000000000e+03) (43, 9.05141465776484999139e+00) (44, 4.74940277945481437172e+00) (45, 3.96078807224849871460e+00) (46, 2.63728017385222557323e+00) (47, 1.10267129035952082816e+00) (48, 6.32053110594066414052e+00) (49, -2.12013606876647786592e+00) (0, 9.06955585423926002875e+00) (1, -2.63657071101446272010e+00) (2, -2.56978253250643584593e+00) (3, -3.25732972612726401351e+00) (4, -1.89870829456610112906e+00) (5, -1.82944125065890927928e+00) (6, -1.26521033078702931363e+01) (7, 2.15404292353696469320e+00) (8, 8.31702683571682088726e-01) (9, 6.34226426222609829253e-01) (10, -2.07017715213877240288e+00) (11, -5.31199265051663704895e-01) (12, -1.30509714827889267141e+00) (13, -1.27909232606703548996e+00) (14, -7.05114421164921179042e-01) (15, -1.37252202210009621730e+00) (16, -7.40018304830779127812e-01) (17, -3.16056482015685591414e-01) (18, -6.15806234233408855694e-01) (19, 1.81009942683660829399e-01) (20, -8.26882623795675564260e-01) (21, 2.92869853263945711941e-01) (22, 8.55347767874934161725e-01) (23, 1.12735976352432309966e+01) (24, -1.93762296081935647685e+00) (25, -2.05148093051823954269e+00) (26, 5.92964069788643244330e-01) (27, -2.45851389447199170091e-01) (28, -2.73708951826895696691e-01) (29, -2.31703611817969301612e+00) (30, -7.54426876582750316480e-01) (31, -2.77273879280974844264e+00) (32, 9.10243614618806096139e-01) (33, 6.24877024863281560485e-01) (34, -1.36599478307151334100e+00) (35, 3.20251810605943987298e+00) (36, 9.05586777653643593133e-01) (37, -6.83677742384693143407e-01) (38, 7.37134683318049654943e-01) (39, 1.92453286700690201494e-01) (40, -4.82442237832314338442e-02) (41, -8.43646995716675340837e-01) (42, -7.78747892194065283178e+00) (43, 1.91302641899430270200e+00) (44, 1.19419205694315122557e+00) (45, 7.23074090668456181952e-01) (46, -4.07237048499545714608e-02) (47, -8.53318047495348064313e-02) (48, -1.19395916503202292880e+00) (49, -1.98451499360541450123e+00) (0, 5.02795132380099474290e+00) (1, 3.05352671954674803612e-01) (2, 9.54998689014283308474e-01) (3, 8.10389580030333012139e-01) (4, -3.15490562282636388680e-01) (5, 5.93913451770089584336e-01) (6, -2.50441835852918925909e+00) (7, -4.30616436716078576641e-01) (8, 5.25305291971130405848e-01) (9, -3.86808834754746200257e-01) (10, 7.78227474067545582637e-02) (11, 2.46890469193219930233e+00) (12, -4.12829618872216141945e-01) (13, 2.94836748329326159279e+00) (14, 3.13065137663218306940e-01) (15, 1.63860513491986181656e+00) (16, 2.73617679463665108841e+00) (17, 1.60821028087900974590e+00) (18, 1.69037348726619773842e+00) (19, -7.84823279343795088270e-02) (20, -3.02908775867392121572e-01) (21, 5.79716129972501215128e-01) (22, -4.43945276506975516906e-01) (23, -1.11191670255968988457e+00) (24, 1.77659377814425711861e+00) (25, -2.17594173127737855467e+00) (26, -2.30336779622732112927e+00) (27, 1.03517885975562107248e+00) (28, -4.21415030611425212026e-01) (29, -4.78647872047347355817e+00) (30, -5.50333111956198806070e+00) (31, 2.15123181505452976126e+00) (32, 1.86684300294713195756e-01) (33, 2.54231662444657002808e+00) (34, -7.37645408914431199854e-01) (35, 1.50170900752213154483e+00) (36, -1.59816265039350891008e+00) (37, -7.51831714931332217855e-02) (38, -8.15000817333923488484e-01) (39, 1.74366818141683843635e+00) (40, 4.17464228157222450033e-02) (41, -7.65995793345515818551e-01) (42, -3.35848487569019082954e+00) (43, 9.54933020853602099187e-01) (44, -4.00176297196240204901e-01) (45, 1.30630016173547214287e+00) (46, 3.40615635014215822896e-01) (47, 8.11474913837811229200e-01) (48, 2.31355154803058793433e+00) (49, 6.27402975559706366226e-01) (0, -1.50000000000000000000e+03) (1, 9.76846782316228086529e+02) (2, 1.50000000000000000000e+03) (3, -5.25295508860826210196e+00) (4, -1.39111834371878615002e+02) (5, 5.69591607254254768122e+02) (6, 2.39508533922649746728e+02) (7, 1.50000000000000000000e+03) (8, -1.42330151276997094101e+03) (9, -2.99983664754011385867e+02) (10, -6.40561102017844996581e-01) (11, -1.68793174043941163198e+00) (12, 6.09662808469938326539e+01) (13, 1.50000000000000000000e+03) (14, -1.44499999880790710449e+03) (15, 1.05451746418941951333e+02) (16, -1.64936081510412635431e+00) (17, -8.18966257056955471150e-01) (18, -7.29487870573467205304e+01) (19, 2.11192982692244912712e+00) (20, 1.50000000000000000000e+03) (21, 2.22165831974311089425e+02) (22, 1.50000000000000000000e+03) (23, 8.75491172854265542469e+00) (24, -1.48714800631110210816e+03) (25, -1.50000000000000000000e+03) (26, 5.83083458203423248278e+01) (27, 1.50000000000000000000e+03) (28, 1.31397654455672096674e+02) (29, 1.50000000000000000000e+03) (30, -1.14650182496927381948e+01) (31, -1.00453728725131941246e+03) (32, -2.64542494521037463429e+00) (33, 1.49858067118176040822e+03) (34, 1.50000000000000000000e+03) (35, 2.52295253612338484572e+02) (36, 6.85659000270931528576e+02) (37, -1.32817158319939835565e+02) (38, -1.71390776900697794360e+00) (39, -1.20584891544768835203e+00) (40, 6.04965327469449221098e+00) (41, 1.50000000000000000000e+03) (42, 1.20586008254687794761e+03) (43, 5.83443827780503625036e+02) (44, 3.72145418678332305262e+02) (45, 2.16405025061416367294e+01) (46, -1.50000000000000000000e+03) (47, 9.02167511780618724515e+02) (48, -3.45161784800398208972e+02) (49, -3.37223021806020262225e-01) (0, 1.50000000000000000000e+03) (1, 1.50000000000000000000e+03) (2, 1.50000000000000000000e+03) (3, 1.50000000000000000000e+03) (4, 1.50000000000000000000e+03) (5, 1.50000000000000000000e+03) (6, -1.49902637192435872748e+03) (7, 1.50000000000000000000e+03) (8, 1.50000000000000000000e+03) (9, 1.50000000000000000000e+03) (10, 1.50000000000000000000e+03) (11, 1.46597334792970991657e+03) (12, 1.50000000000000000000e+03) (13, 1.50000000000000000000e+03) (14, 1.50000000000000000000e+03) (15, 3.14536384162376521090e+01) (16, 1.50000000000000000000e+03) (17, 6.08407279820732616038e-01) (18, 1.11459200112556757745e+02) (19, 1.50000000000000000000e+03) (20, 1.50000000000000000000e+03) (21, 1.50000000000000000000e+03) (22, 1.50000000000000000000e+03) (23, 1.50000000000000000000e+03) (24, 1.50000000000000000000e+03) (25, 1.50000000000000000000e+03) (26, -1.50000000000000000000e+03) (27, -1.50000000000000000000e+03) (28, 1.50000000000000000000e+03) (29, 1.50000000000000000000e+03) (30, 6.59202027140838442421e+00) (31, 1.50000000000000000000e+03) (32, 1.50000000000000000000e+03) (33, -1.49564163438532705186e+03) (34, -6.99356458831841337087e+02) (35, 1.50000000000000000000e+03) (36, -1.49538124786694538670e+03) (37, -1.50000000000000000000e+03) (38, 1.22054468278294403483e+00) (39, 1.50000000000000000000e+03) (40, 1.50000000000000000000e+03) (41, -5.79782866397265252090e+02) (42, 1.50000000000000000000e+03) (43, -1.36296710684095364741e+03) (44, -1.49089054546501006371e+03) (45, 8.11809095686753856569e-01) (46, 1.50000000000000000000e+03) (47, 1.50000000000000000000e+03) (48, 1.50000000000000000000e+03) (49, 3.78071965705035428762e-01) (0, 7.76847969838330598691e+00) (1, 1.52255941265265343221e-01) (2, 1.93353853806833075879e+00) (3, 1.21962015584946859015e+00) (4, 1.25132366289522373171e-01) (5, 7.28060539158072561605e-01) (6, -5.46985995278385644269e+02) (7, -1.05463190835720865834e+00) (8, -1.17449895498968692742e+00) (9, 1.52682923444773466226e-01) (10, -5.44524088995397059776e-01) (11, -3.53933456012417657632e+00) (12, -8.15036275233988050104e+00) (13, -8.09208127623604767109e+00) (14, -1.30932071715278719459e+00) (15, 2.56928091036733130537e+00) (16, 2.46850598252188557780e+00) (17, 9.32624734152227241601e-01) (18, 8.96796032170817658535e-02) (19, 3.69448943865548384835e+00) (20, 3.04426312061915815832e+00) (21, 2.41894577908363661578e+00) (22, 3.54441195689277122050e-01) (23, -2.22674874492211877230e-01) (24, 1.88583555111253398096e+00) (25, 3.00560013074639309494e+00) (26, 1.47035860389628414424e+00) (27, -2.32639956023460525714e+00) (28, -1.92106085680100990842e+00) (29, -4.00985143624037976284e-01) (30, -1.69135267199086603007e+00) (31, 1.48702388361134296701e+00) (32, 3.44689366582616396606e-01) (33, 1.01932411931794963955e+00) (34, 8.86960404210051511775e-01) (35, -2.57996612529100133315e+00) (36, -2.06562472913361139248e+00) (37, -1.87441892006186949793e+00) (38, -2.82145954960936018452e+00) (39, -4.11937869999011496702e+00) (40, -2.23261355848830467252e+00) (41, -1.73527502896815821742e+00) (42, 3.86073265363758411084e+00) (43, 4.27173573849239929245e+00) (44, 1.48762007291622100347e+00) (45, 9.77770180013670553443e-01) (46, -1.50058732215963175349e+00) (47, -3.76479784629385333394e-02) (48, -7.29421251339980591943e-01) (49, -1.02570786171693195676e+00) (0, 1.61878482960117651146e+01) (1, -1.47981577980925678162e+01) (2, 2.32672207295528199467e+00) (3, -2.06617184026332267877e+00) (4, 4.85570069723131714223e-01) (5, -2.38543702675722252282e-01) (6, -7.77003367507812736648e+00) (7, -4.05339089653152928605e+00) (8, 1.53986054427403273870e+00) (9, -1.66063900878601455879e+00) (10, 8.10835086387901604610e+00) (11, -1.81836955329566336559e+01) (12, -8.58692514986182686698e+00) (13, -6.76307116341907654800e+00) (14, 3.48181906433544430257e+00) (15, 2.98193032024480730868e+00) (16, -1.26599736906861859431e+00) (17, 2.52495459661491450376e+00) (18, 6.44199904123461752903e+00) (19, 8.02384770400807845192e+00) (20, 1.50003993188682116511e+01) (21, 1.89767837557551311001e+00) (22, -1.09894748468864422719e+00) (23, 9.93495505032199299755e-01) (24, -2.12419759277434128109e+00) (25, 1.66931595933577137103e+00) (26, 1.33264984469816990392e-02) (27, -3.38097904288420858521e+00) (28, 8.72408626096351946799e-01) (29, 2.71157853289054617818e-01) (30, 5.02153952035982453772e-01) (31, 3.13283327834983316151e+00) (32, -2.50706510839803975443e+00) (33, -1.27624215040815358613e+00) (34, 6.22306676139871894904e-01) (35, 2.75486298601814194598e+00) (36, 1.23322111740751383380e+00) (37, 1.04646031219265833734e+00) (38, 2.30536252871855706914e+00) (39, -2.34934458154309411260e-01) (40, -4.57410529984621838651e-01) (41, -1.79363589607688639349e-01) (42, -4.12571830177678133822e+00) (43, 1.18299749603758863614e+00) (44, 1.31639662548948210841e+00) (45, 8.20802382574702282803e-01) (46, 8.53981771221353658241e-01) (47, 1.18109729431141530220e+00) (48, -4.80259253601091540276e+00) (49, -1.20116116557114599450e-01) (0, -1.50000000000000000000e+03) (1, -1.50000000000000000000e+03) (2, -1.50000000000000000000e+03) (3, -1.50000000000000000000e+03) (4, -1.50000000000000000000e+03) (5, -1.50000000000000000000e+03) (6, 1.20968873470833273132e+03) (7, -5.70489620417715337375e-01) (8, -5.51000132103762682578e-02) (9, -1.89123228256458908447e+00) (10, -1.38294422055108312541e+00) (11, -9.23523640885964947067e-01) (12, -8.59127541564116747885e-01) (13, -1.97178111875509842754e+00) (14, 3.35474209011346147236e+00) (15, 8.85920275642279708705e-01) (16, 2.27904113838128496994e+00) (17, -2.11999621115814690375e-02) (18, 7.11639501394330520334e-01) (19, 1.18776548866950037997e+00) (20, 1.75099482387771110403e+00) (21, -7.98227726872330745067e+00) (22, 1.79018028085084024426e+00) (23, -3.47846340394276865027e-01) (24, -2.12190993701778990443e-01) (25, -1.13433549417534429438e+00) (26, -1.92307278646655488430e+00) (27, -2.99485004322812020661e+00) (28, 2.68630920171737086477e+00) (29, 2.69269823901252891574e+00) (30, 1.69933649735742542397e+00) (31, 6.38930202693580806539e-01) (32, -3.41019382661189696115e-01) (33, -3.82512251250323731533e-01) (34, -2.30799673661726068019e+00) (35, -2.23858151514505099300e+00) (36, -7.08729232277887888358e+00) (37, -7.79228729162974476097e-01) (38, 2.38846287345059860030e-01) (39, -8.27171423929345173143e-01) (40, -1.61519039215893811523e+00) (41, 1.41229176157203606401e+00) (42, 1.07947428175699133845e+01) (43, -3.86745321986039392037e-01) (44, 3.12392158634994920874e-01) (45, 6.51142500449795269546e-01) (46, 1.08616654700900094888e+00) (47, -2.34080542629044235925e-01) (48, 8.36493902166408620502e-01) (49, -3.14701845301228244622e-01) (0, 1.93721814967858740886e+01) (1, -2.42638887684057857896e+00) (2, -1.53399713397083470312e+00) (3, -1.41660967527512160480e+00) (4, 1.91780228658779083872e-01) (5, -2.72961366258457527323e+00) (6, -2.85337848754082124003e+00) (7, -1.20903202334995771849e+01) (8, -2.56661842096316838990e+00) (9, -1.01820757591833865874e+00) (10, -1.86805602259183789471e+00) (11, -9.32864960488842265285e-01) (12, -1.34497266941749127334e-01) (13, 2.42839954004578340019e+00) (14, 4.99716937850785480890e+00) (15, 1.38451507306895238436e+00) (16, 1.49890046333365454245e+01) (17, -2.24919363075240408278e+00) (18, -5.40550865491895016213e-01) (19, 3.30864615428064023916e+00) (20, 8.23216682638253871573e-01) (21, 4.50464974638553705688e+00) (22, 7.76204671836422832598e-01) (23, -4.06513634131980827746e-01) (24, -2.59957040389811488978e+00) (25, -4.07430790427881817095e+00) (26, 1.46540852727296222469e-01) (27, -2.68767333004952480024e+00) (28, -1.39279661011907096579e+00) (29, -4.09171777787127655124e-01) (30, 1.40250170958536357624e+00) (31, 1.85632224364444958775e-01) (32, 1.27776892740320113795e+00) (33, -6.92961170618397392929e+00) (34, -1.46999151086820134537e+00) (35, 1.13950321597638399851e+01) (36, 1.74268809136520164138e+00) (37, 2.77115815473690241255e-01) (38, 1.06161930568571882816e+00) (39, 1.30825068987168724455e+00) (40, 3.58613746688784162941e+00) (41, -9.45037758162229568626e-01) (42, 2.61042256209534215827e+01) (43, 1.77423471377860209053e+00) (44, 3.03514554696222793595e+00) (45, 5.00243759981600444320e+00) (46, 5.07987425358821464982e+00) (47, 3.05306969605901663556e+01) (48, 6.27282148195640658628e+01) (49, -1.70164245999930341391e+00) (0, -2.91449706055081954048e+01) (1, 2.15287377815811851178e+01) (2, 1.81563198845742101994e+00) (3, -5.68337722690235858103e-01) (4, -1.54037411735734397489e+00) (5, 2.57092838917375932084e+00) (6, -2.03648416770751383709e+00) (7, 1.57037298222549051019e+01) (8, 2.07364418884956047684e-02) (9, -2.74263309227733342865e+00) (10, -3.88671529282650030090e-01) (11, 3.39851277506857452071e-01) (12, -2.72112234608035796768e+00) (13, 8.59763542812477021826e-01) (14, -1.92275011223634151314e+00) (15, 1.71036340300272193815e+00) (16, 9.59062356447808239679e-01) (17, 5.24451467361065418182e-02) (18, 8.93963254882690883107e+00) (19, 6.43706552594393244249e-01) (20, -2.11777292627693780602e+00) (21, 4.26189096405331202533e+00) (22, -1.13732124511206666995e+00) (23, 1.48895440118717981015e+00) (24, 2.99146462698127324487e+00) (25, 5.61071812936764113822e-01) (26, 3.25253080719540221821e+00) (27, 4.25871989463003242093e+00) (28, -2.45501116275670216993e+00) (29, 2.32410799515758714762e+00) (30, -1.03195793211290753888e+00) (31, 8.87374980223860632123e-01) (32, -7.56987210707041557889e-01) (33, 1.73127605525956407284e+00) (34, 3.99646602866831379686e+00) (35, -1.25374276054791983226e-01) (36, -4.08625361383428931106e+00) (37, -1.99898723626422771815e+01) (38, 1.56354452064678106638e+00) (39, 3.05301685687791835022e+00) (40, -5.42526500411464063234e+00) (41, -5.51532058550175463552e+00) (42, -9.10467932433409465887e+00) (43, 1.96319011933083187316e+00) (44, 6.38227510375972140189e-02) (45, 9.10149274292695409372e+00) (46, -5.16847098424998119270e+00) (47, -1.45433738441778048767e+00) (48, -3.36954431239493885641e+01) (49, 1.75760018396597317292e+00) (0, 1.49578572324923460002e+01) (1, -4.14287011739985899794e+00) (2, -4.07533113210646646962e+00) (3, -1.47976795687902185072e+00) (4, 4.54197557385705941169e-01) (5, -8.38637588718384785480e-01) (6, 1.28966972835085122995e+01) (7, -1.38971707140169487005e+00) (8, -3.15619211373422858813e+00) (9, -2.90383332606205391002e+00) (10, 1.89220811025461799204e+00) (11, 3.74327423153716853932e+00) (12, 2.45356750858834482543e+00) (13, 2.91989993873347186693e+00) (14, -1.20156683018259435869e+00) (15, -4.26002844090057550264e-02) (16, 6.51351974978575309905e+00) (17, -1.28413155625207442423e-01) (18, -5.86910292869769989466e+00) (19, -2.75140140738797045472e+00) (20, 7.54678789015101991744e-01) (21, 3.85631952289863777494e+00) (22, 1.35552910140240423509e+00) (23, 3.37237136218912048058e-01) (24, -6.74870848661132782809e-01) (25, -3.81119264038220162405e+00) (26, 4.99801131202777249030e-01) (27, 2.24212198733108314386e+00) (28, -2.17571326362561690004e+00) (29, -1.04230574224426142393e+00) (30, -2.56848019015843798130e+00) (31, -1.34197303370300558001e+00) (32, 7.31184899316754344234e-01) (33, 3.35723746415119567166e-02) (34, -2.19785150924953809337e+00) (35, 2.15023917970867950444e+00) (36, 5.74237329262004880803e-01) (37, -1.88521248596209001214e+00) (38, -1.02665786348200804845e+00) (39, 8.99947295717888784417e-01) (40, -2.96576581887603607512e-01) (41, 1.67101735825470121277e+00) (42, -5.54826568159992916662e+00) (43, -3.41141676880134858685e-01) (44, 3.90119636598169450270e-01) (45, 6.00017738010945045346e-01) (46, 1.94238830451892030560e+00) (47, 3.23640566073900304289e+00) (48, -2.47141531794832003399e+00) (49, 7.20266180585780735335e-01) (0, -7.08518281183467113493e+00) (1, -2.90979027115328170439e+00) (2, -1.31436321891693941311e+00) (3, 1.88568244505652859999e+00) (4, 1.75598092600048971690e+00) (5, 2.44718799088608651715e+00) (6, 3.32188378365234487921e-02) (7, -3.21533609194737657333e+00) (8, -7.02710102571088457424e-01) (9, 3.44933992102464004326e-01) (10, 1.44372261722542716278e+00) (11, 3.26777407166115363424e-01) (12, 5.30385946431962615466e-02) (13, 8.11715823339972719630e-01) (14, 9.90083339077327817535e-01) (15, 3.49738003411151188171e-01) (16, -2.89335015035199472067e+00) (17, -2.78247136229697669685e-02) (18, 1.41578446341611563497e+00) (19, 1.56883349705743335711e+00) (20, 1.67755826964345966523e+00) (21, -1.62035966606179182570e+00) (22, -1.87097861592238823292e+00) (23, -9.40910681712892604800e-01) (24, 2.81397778569065434850e-02) (25, 5.66488736128729186703e-01) (26, -9.00320218700194482495e-06) (27, 2.41206664716877527965e+00) (28, -2.96786869277963072378e+00) (29, -1.32158782554540454868e+00) (30, 8.11737347123436947527e+00) (31, 1.28167095356915217153e+00) (32, -6.61918873538904239950e+00) (33, -2.15078270174899444100e+00) (34, -1.87032676095069738675e-01) (35, 1.04915596497927188224e+00) (36, 6.46848441896028525377e-01) (37, 6.56737229184466198006e-01) (38, -7.28260448141488797580e-02) (39, 6.77552441656060544517e-01) (40, 3.32944129738846950062e+00) (41, 1.19977172286066369189e+00) (42, -3.11709121422419332958e+00) (43, -3.36832690544890445139e+00) (44, -1.80995433918758275027e+00) (45, 2.01654399915442816837e-01) (46, 6.41144556758203032487e-02) (47, -1.96065642285949692791e-01) (48, 1.40384402671155306130e+00) (49, -2.39144293293740561879e+00) (0, 7.10581628003370191493e+00) (1, 7.87939829051478191069e-01) (2, 6.40553639617900016923e-01) (3, 1.37235848349445777039e+00) (4, -8.77817385364812241555e-01) (5, 9.90630011983632541295e-01) (6, -9.09628913620172774301e+00) (7, -8.49865926130955706697e+00) (8, 2.20477304374979699020e+00) (9, -5.18397476068938045657e-01) (10, 7.65314436025707738737e-03) (11, 2.00834189409985564012e+00) (12, 4.83019816539857649307e-01) (13, -4.92805243587453659093e-02) (14, 2.97561653465312214717e-01) (15, -9.81632963226570898208e-01) (16, 7.03083404752732787912e-01) (17, 5.28521376840314749401e-01) (18, 7.57393828753171516333e-01) (19, -5.78055481873521848080e-01) (20, -5.55673207998410134678e-01) (21, 2.97306727714054774836e+00) (22, 6.38432256709322398791e+00) (23, 5.93749460231049219772e+00) (24, -1.43431552442090248789e+00) (25, 2.00275393185967010012e+00) (26, -1.61220088350602996918e+00) (27, 3.07745266063446898386e+00) (28, -1.24853005156309393442e+01) (29, -1.50779546094854257632e+01) (30, -1.29669154825221233374e+00) (31, -1.02935723488146391169e-01) (32, 1.00556636135464327886e+00) (33, 2.57437493774876058339e+00) (34, 1.39270793211508769893e+00) (35, 3.41089017188152467952e+01) (36, -1.12040177810456480501e+01) (37, 1.86056359633007133425e+01) (38, 1.97042651411195901545e+00) (39, -6.95103334391326921349e+00) (40, 2.28030588554656343803e+00) (41, -3.13917120878637767589e+00) (42, 1.20705138892715217480e+03) (43, 1.00771302349232652062e+01) (44, 1.00653433784717325494e+01) (45, 2.63658695214483396185e+00) (46, -5.55642151154792074408e+00) (47, 1.30503534032787693597e+00) (48, 9.56256210675344142658e+00) (49, -1.86113939695337515801e+00) (0, -3.79785164011761633418e+00) (1, 5.69171810950947154595e+00) (2, -1.22458572200575899203e+00) (3, -1.19092728714248541344e+00) (4, -1.13065513040748610862e+00) (5, 1.22471170528407546918e+00) (6, 1.27999784237837954670e+00) (7, 2.52449081095361949068e+00) (8, -3.51458660351673390920e-01) (9, -1.11145705160996932648e+00) (10, -8.20506834183620026302e-01) (11, -6.97545218573732556111e-02) (12, -1.24431951352885317164e+00) (13, -3.27576463021447450430e+00) (14, -2.48139580051620756151e+00) (15, -1.21794971405089835770e+00) (16, 1.06212110013881999571e+00) (17, -1.45737467092093026660e-02) (18, -2.41204988528099129041e+00) (19, 8.64744056707646563398e-02) (20, -2.67239401524667963272e+00) (21, -9.70922899107554915332e-01) (22, 5.83384867132947704249e+00) (23, 3.32465365084196129430e+00) (24, -1.98391577106523664398e+00) (25, -3.03953242957241305533e-02) (26, 2.45669992167898731950e+00) (27, 2.02523410621262422993e+00) (28, 1.88480594905243026282e+00) (29, 8.29040378728141291731e-01) (30, -2.43366928322215825276e+00) (31, 1.57054736480813295074e+00) (32, 6.03747148884195983243e+00) (33, 4.28224689568200211909e+00) (34, 4.52351606086928725858e+00) (35, -1.13387729673066743885e+01) (36, -3.88658442476835519486e+00) (37, -3.07213283698667094512e+00) (38, -2.33289228983010105134e-01) (39, -2.46159085742433880739e+00) (40, -4.55667636694381794626e+00) (41, -4.84882520541149109050e+00) (42, 1.59178400805062736367e+00) (43, -1.73571147320659341373e-01) (44, 6.28481985543445587084e-01) (45, -9.60616174481354168080e-01) (46, -2.31717258337419718117e+00) (47, 1.19143385753079633638e+00) (48, -2.98032434615626717900e+00) (49, -3.58669774992899578758e-02) (0, -1.35873859387440052160e+03) (1, -1.48864818144946434586e+03) (2, -1.21270039421220349141e+03) (3, -5.28963172957161987142e+02) (4, 1.04166182160530752299e+03) (5, -1.38036734951209086830e+03) (6, 1.50000000000000000000e+03) (7, 1.48499999940395355225e+03) (8, -5.38268229059682123960e+00) (9, 6.02178322878018661868e+02) (10, 5.28745829454060185526e+02) (11, 1.40066816495993218261e+00) (12, 1.50000000000000000000e+03) (13, 1.50000000000000000000e+03) (14, 1.50000000000000000000e+03) (15, -9.17872827507248523204e+00) (16, -2.18469130693791324660e+00) (17, -5.99946371604630570573e+01) (18, -8.03711707342666392684e-02) (19, 1.50000000000000000000e+03) (20, -2.37752563266836205003e+02) (21, 1.50000000000000000000e+03) (22, 1.50000000000000000000e+03) (23, -5.32406015207244398546e-01) (24, -2.44342431590460595903e-01) (25, 3.56290566530778164633e+02) (26, 1.08241528672405551426e+00) (27, -1.50000000000000000000e+03) (28, 1.50000000000000000000e+03) (29, 1.49258475517272449906e+03) (30, -1.58705999530590389668e+02) (31, 1.50000000000000000000e+03) (32, -1.41453613669195692637e+03) (33, -1.47500000000000000000e+03) (34, 1.50000000000000000000e+03) (35, 1.50000000000000000000e+03) (36, -7.63381109527360308675e+02) (37, -7.82344083651736070806e+01) (38, -2.06222922444848570933e+01) (39, 6.88705407936149299530e+02) (40, 1.48835204432618456849e+03) (41, 4.12184172857438966275e+02) (42, -1.50000000000000000000e+03) (43, -1.50000000000000000000e+03) (44, -1.44499999880790710449e+03) (45, -6.03887568217267357795e+02) (46, -1.35505177067520367018e+03) (47, 1.50000000000000000000e+03) (48, 1.50000000000000000000e+03) (49, -7.51524545962732126725e+00) (0, -8.00370692484446166759e+00) (1, 1.07816733307891041704e+01) (2, 1.46098913216154269179e+00) (3, 2.13439547869786583334e+00) (4, 2.02680259012389640816e+00) (5, 6.42171960617171522223e-01) (6, -1.19763358443577816459e+00) (7, 8.92341140829532586398e-02) (8, 8.22903222685308244344e-01) (9, -6.40688409210395382054e-01) (10, 6.82372735523153584047e-01) (11, -1.05749826164607485524e+00) (12, 1.15198150679448274580e+00) (13, 4.23663055844614111489e-01) (14, 5.22164509025710765755e-01) (15, -2.54572817280896224190e+00) (16, -5.46657311506547505253e-01) (17, 1.32369994434222038038e+00) (18, -2.27987306841341297314e+00) (19, -7.47878750214101772897e-01) (20, 1.34105909515241950025e+00) (21, -4.01547891323207029046e+00) (22, -7.67264219992175200424e-01) (23, 2.04367734644714582615e+00) (24, -6.30463215397906173720e-01) (25, -7.91198121397590714565e+00) (26, -1.78902632907625314118e+00) (27, 6.41273222126445691105e-02) (28, 3.50776321151673897702e+00) (29, 9.63533128827454565801e-01) (30, -2.96009627854147128190e+00) (31, -2.30916630795557953348e+00) (32, -1.28480897839744513667e-02) (33, 3.17187613692747616412e-01) (34, 9.81279877491592844585e-01) (35, 3.73364615651879683256e+00) (36, 5.43195681599712898446e+00) (37, 4.47729454740607124563e+00) (38, 5.50289987305260819284e+00) (39, 5.02009766901627774160e+00) (40, 4.49597043431293919014e+00) (41, 5.20327421686937796608e+00) (42, -6.71571158201596407622e-01) (43, -3.35858999861066820358e+00) (44, -1.42989758561145752225e+00) (45, -1.33017971776795462802e+00) (46, -1.14664011832035450666e+00) (47, -9.96258151759900401068e-01) (48, -6.50249473527735233347e+00) (49, -7.24539309172605228149e-01) (0, -8.93382746938327585440e+01) (1, -7.24393538656399371689e+00) (2, 7.00274615596289451425e-01) (3, -6.15669264479397693179e+00) (4, 2.59863985362309146687e-01) (5, 1.39014134463372407424e+00) (6, -7.71070332534341584818e+00) (7, -6.95615671783706090991e-01) (8, 1.63200175913653566795e+00) (9, 1.69140543862247416662e+00) (10, 8.86891795787692416297e+00) (11, -4.05149799334409588258e-01) (12, 3.01024537890048859978e+00) (13, 5.62461438904606847444e+00) (14, -2.78802904529919093335e+00) (15, -1.24589198513104228994e+01) (16, -2.97958305160779968190e+00) (17, -2.11898399428345929341e-01) (18, 9.97553055419105744184e-02) (19, 1.05213752255577563943e+00) (20, 6.24241545247324136625e+00) (21, -6.33155672076469073772e+01) (22, 2.85708437326060717965e+01) (23, 1.37233825985370465617e+01) (24, -9.34513633885650030209e+00) (25, 5.16461772961356979650e-01) (26, 5.54012808479988017041e-01) (27, 6.19645179952869828988e-01) (28, -9.85239190196370451247e+00) (29, -9.06917709930028692611e+00) (30, -4.15503849008386605401e-01) (31, 3.15029016833444819312e+00) (32, -2.69605931510562735198e+00) (33, -3.95370012251351932164e-01) (34, 4.40197023948775634228e-01) (35, -9.53486368995977500163e+01) (36, 3.75919369330610209090e+00) (37, -8.72981933406921650764e-01) (38, 6.87598200232998446602e-01) (39, 1.46915911247172537024e+00) (40, -7.79439431797606330221e-01) (41, -1.46330706364083296123e+00) (42, 1.21593238240207011103e+01) (43, -4.84977884240229339952e+00) (44, -3.67270064762365633371e+00) (45, -7.28802179296614505155e-01) (46, 2.95564591480391847256e+00) (47, 1.32574924085397127804e+00) (48, -4.91893167060299285609e-01) (49, -8.87056584263521408218e-01) (0, -4.09653759568129660629e-01) (1, 5.62577495163221641405e+00) (2, 8.97021179563101078713e+00) (3, 7.28830460462746909656e-01) (4, 3.54217286366508243844e+00) (5, -7.71122468849300274352e-02) (6, 5.61314196997365483233e-02) (7, -4.18319567484611076758e-01) (8, -1.67952645150191304246e+00) (9, 1.29848445521535538205e+00) (10, 8.42474528978612191565e-01) (11, -2.01037865826709927219e+00) (12, -1.04462048417576092163e+00) (13, 4.33435483963261436458e+00) (14, -1.37952558567082528285e+00) (15, 2.16130502727573237109e+00) (16, 1.31226064243079298954e+00) (17, -1.48388887847031497591e-01) (18, 1.40047992030172374633e+00) (19, 8.89207190289466820055e-01) (20, -4.58240669047378812451e+00) (21, 1.33464532349882469831e+00) (22, 2.00908498661762457971e+00) (23, -5.81661267760182232323e-01) (24, -6.49766223845840040774e-01) (25, 1.83968990049573344336e+00) (26, 1.00404782391599264879e-01) (27, 3.76163223543793545645e+00) (28, -1.05514586417826761178e+00) (29, 2.11120852519117629953e+00) (30, 6.84579150943712411159e-02) (31, -7.24352312059277636536e-01) (32, -2.59642143070472908306e+00) (33, 1.47320057502674517380e+00) (34, 6.54535097840251278711e+00) (35, 3.16773080171692322793e+00) (36, 4.69805849767115812909e-01) (37, 4.01640905993708219324e-01) (38, -8.97488153831412005523e-01) (39, 3.24231032919562833783e+00) (40, 1.38666002516318140891e+01) (41, -8.19196824445835325434e+00) (42, -7.63668287497290965149e+00) (43, -1.47703703783256234949e+00) (44, -9.36235590909080706012e-01) (45, -1.18825288583009669452e+00) (46, 3.17154569022469123851e+00) (47, 1.50000000000000000000e+03) (48, 1.50000000000000000000e+03) (49, -2.06933781588546494845e+00) (0, -1.18088428670273959398e+01) (1, 3.98570792989775313231e+00) (2, 9.54829894826125569196e-01) (3, 1.25340947800734814344e+00) (4, 6.44432314169019027084e-01) (5, 2.22251605510131078347e+00) (6, 3.29196097370081208755e-01) (7, -1.50000000000000000000e+03) (8, -4.08123581481665609338e-01) (9, -4.53582213776448650577e+00) (10, 7.23205746996460696607e+00) (11, -9.40475906427952756950e-01) (12, -2.70868156525887426866e+00) (13, 1.79010256585235727478e+00) (14, -1.88084794936114851893e+00) (15, -9.03424599569622177597e-01) (16, -2.92144697884067827687e+00) (17, -1.82739069492675237916e-01) (18, 5.21941300260991901221e-04) (19, -2.35723921772772593286e+00) (20, -3.42308168785765420949e+00) (21, -5.47630015599532615767e-01) (22, 2.75609907335660286876e+00) (23, -2.53255626037656479677e-02) (24, 7.46824342795157358754e-02) (25, -1.33085814134513080731e+00) (26, 8.08200457557584406310e-01) (27, 9.75664516243923141126e-01) (28, 2.27422235465804867260e+00) (29, 4.27436355994865679886e-01) (30, -1.19277216391926366157e+00) (31, -1.44055140103114021066e+00) (32, -3.64879088815926955203e-01) (33, 1.95565551777905444197e+00) (34, 2.36268255195795173762e+00) (35, -1.41633742445331067827e+00) (36, -6.28464015464826797341e+00) (37, -2.14140906672002273581e+00) (38, -1.06290084412817931181e+00) (39, -1.44661269545414650217e+00) (40, -3.37531073168476591917e+00) (41, -7.22800768246785185767e+00) (42, 1.17098283795857724954e+01) (43, 1.54548130403633243724e+00) (44, 1.33831809402597667891e+00) (45, -4.43475463869904273917e-01) (46, 1.14146322307264358464e+00) (47, 1.31683521998374564177e+00) (48, -1.50000000000000000000e+03) (49, 2.29189296739986808626e-01) (0, -1.03896596455078205068e+00) (1, -3.86920025926792465754e+00) (2, -1.69817242926974892869e-01) (3, 7.60262813925884350930e-02) (4, 4.77324443112994656335e-01) (5, -5.66944748035628998117e-01) (6, -1.16925644191220645673e+00) (7, 2.35397946703852012362e+00) (8, -6.98681112165397188996e-01) (9, -1.82242069023524827509e-01) (10, -2.29609590955597564488e+00) (11, -8.47953646637047864232e-01) (12, 3.99021480762133506914e-01) (13, -2.11176111470209182386e+00) (14, 1.23000710574551375132e+00) (15, -3.47484154974099457291e-01) (16, -2.69663288920974197893e+00) (17, 6.97620626097414597844e-01) (18, 6.92060671676194671953e-01) (19, 1.14600571731404254905e+00) (20, 2.24728014830855027384e+00) (21, 1.49755712776651783713e-01) (22, -1.15638567249790519265e-01) (23, -2.91770853613282199479e-01) (24, -1.09762515359381618296e+00) (25, 3.52627090883926741505e-01) (26, -1.15251026581699989038e+00) (27, -8.06921760291013145938e-01) (28, -7.16880647695495865079e-01) (29, 1.17306550918991425725e+00) (30, -1.41252354873698204862e+00) (31, -4.09266090369758139822e-01) (32, -7.42451051777149650945e-01) (33, -2.89569071975207359415e+00) (34, 1.02024769259030678725e+00) (35, -8.18363297216873619710e-01) (36, 7.23730939189470623418e-01) (37, -9.04175090678628778917e-01) (38, -5.12773994681843370280e-01) (39, -1.52363009434575857881e+00) (40, -7.83489371134495349303e-01) (41, 1.09697096427851747968e+00) (42, 7.96021996146884402989e-01) (43, -9.53808847184827057752e-01) (44, 1.95384526111533585180e+00) (45, 3.82757664835917221779e-01) (46, -2.28291907306931371457e-02) (47, -1.57986998170566428357e+00) (48, 1.80802237357300232823e+00) (49, 1.02661055363826725362e+00) (0, -2.90145084742539381750e+02) (1, 1.50000000000000000000e+03) (2, 1.84383825038397985985e+00) (3, -2.81466196062662987742e+00) (4, 6.52609496312049852662e+00) (5, 1.38562863050743544591e+03) (6, -6.45825796783515659882e+00) (7, -1.68521118292545786232e+01) (8, 2.33687791943790585947e+01) (9, 2.97699911575812414810e+00) (10, -3.47329485242589308669e+00) (11, 2.21130072004373373629e-01) (12, 1.56895373031269502739e+00) (13, 1.95237529799228437533e+00) (14, 2.59329460205433086628e+01) (15, 3.95787343692297666209e+00) (16, -4.04365961702855170046e+00) (17, -2.31665449390563438214e-01) (18, -1.39363452139731047730e+00) (19, 2.46803168599228461844e-01) (20, -5.53651462799597204878e-01) (21, 1.28903562511536460278e+01) (22, -3.40970519596079224556e+00) (23, 2.18882951259872760019e+00) (24, 4.63138731337047993009e+00) (25, -1.90591638812714958551e-01) (26, -1.82097317905998434817e+00) (27, -2.34837385920959873520e-01) (28, 4.00514616422466662726e+00) (29, 2.12404272079780076510e+00) (30, 3.85606484532353965822e-01) (31, 3.22797778972873983250e+00) (32, -6.44558053338758263351e-01) (33, -2.15967890850810961823e+00) (34, 6.76677847616599104086e-01) (35, -3.12401808723790352929e+00) (36, 2.52188982984069154369e+00) (37, 4.32819751256642709647e-02) (38, -6.34833266939173634924e-01) (39, 1.37937520431606008842e+00) (40, 1.85916370796159813317e+00) (41, -1.08949860809477550028e+00) (42, 4.77734604693676612186e+00) (43, -1.93863025518746145970e+00) (44, 1.26953234795059666240e+00) (45, -1.67295063985188696698e+00) (46, 8.22342793291142903911e-01) (47, 7.68306004576533529971e-01) (48, 1.12663380989432334900e+03) (49, -1.10340988177498156020e+00) (0, 2.51560279190798707916e+00) (1, 2.93319811542329089704e+00) (2, -1.92973643062581468044e-01) (3, -2.17226571390124023608e+00) (4, 7.47109976855745316904e-01) (5, 1.68650552106789053397e+00) (6, -8.97410853030363853122e+00) (7, -4.06398788776659625199e+00) (8, -5.77777844822218167309e-01) (9, 3.27274929674507053523e-01) (10, 3.50560674313118658674e+00) (11, -1.29725404760254914294e+00) (12, -4.04047978326751544564e-01) (13, 1.86124341566418305405e+00) (14, -5.96272145862667990457e+00) (15, -2.67027885213189586366e+00) (16, 8.09788473526498298050e-01) (17, -1.10394090487627338781e+00) (18, -8.89897942708475331308e-01) (19, -5.97248727830133260830e-02) (20, -3.71037087689107325517e+00) (21, -4.00821305963187726751e-02) (22, -1.06116824761262318333e+00) (23, 1.30991727042386318924e-01) (24, 1.06495116964198732745e+00) (25, 9.74772822094085777955e-01) (26, -3.33525591462131210108e+00) (27, -5.11383233897746123375e+01) (28, 1.83751431957147493002e-01) (29, -1.07181721483702130371e+00) (30, 1.86157375885929399217e-01) (31, 1.73164728028747272326e+00) (32, -5.57400346187522988117e-01) (33, -9.28070769750315527347e+00) (34, 3.59083376399531006840e+00) (35, -6.76228466111558557117e+00) (36, 1.65324555884915125326e+00) (37, -6.57526022066315052328e-01) (38, -2.76780762210425290704e+00) (39, -5.20888042811757823181e-01) (40, 6.65262811086920358150e+00) (41, 6.97493105827454229484e+00) (42, 7.32777165764589799579e+00) (43, -3.91671494971537370589e+00) (44, -1.25659780483370120407e-01) (45, 4.24468121049962066049e-01) (46, -1.76758150990454554474e+00) (47, -5.44237752434737931395e+00) (48, -5.04797610393160223197e+00) (49, -1.54973769274049211209e-01) (0, 5.48110476605616003809e+00) (1, -5.51837308602759590848e-01) (2, 1.35551956127456008083e+00) (3, -2.14552059676936385246e-01) (4, -1.10796181869378784768e+00) (5, -8.70314081647920678719e-01) (6, -1.04996683584942491763e+01) (7, 9.25636223242185418592e-01) (8, 1.98884834424008571929e+00) (9, 2.12759612616437854271e+00) (10, -5.92184850903070714168e-01) (11, 2.07450958045732081203e+00) (12, 1.80380778252392715011e+00) (13, 2.01960708556582213546e+00) (14, 4.33164152755048548205e-01) (15, -1.06995574715278518596e+00) (16, -6.81551601393043715582e-01) (17, 5.61081357819027265466e-02) (18, 2.78914883542268521310e+00) (19, -1.64209642336675920582e+00) (20, 1.32605918827312069252e-01) (21, -3.73311890092503539940e-01) (22, -1.78507855841095230964e+00) (23, -1.99440939774550396457e+00) (24, 2.32451274725966783308e+00) (25, -1.49618248092909977842e+00) (26, -7.43619416456387050118e+00) (27, -1.21126410151629197998e+01) (28, 1.36767705402190986597e+00) (29, -8.57808714498108915159e-01) (30, -5.23775817504214380449e+00) (31, -1.49956609896178028052e+00) (32, 1.55798598489117279264e+00) (33, 2.82828949649593841542e+00) (34, 5.15479108476156877572e+00) (35, 7.72124160747257537452e-01) (36, 4.45583293569816074609e+00) (37, 6.10996703539692731511e+00) (38, 1.54513855336490368853e-01) (39, 4.19065587356862390145e-01) (40, 1.75762082135059088950e-01) (41, -1.60356379898424994401e+00) (42, -2.72293899624888879885e+00) (43, 4.58122255451205023791e-02) (44, -6.28758131231172634479e-01) (45, 1.43434833827386143401e-01) (46, -6.42753066792343896729e-01) (47, 4.45844223841862175028e-01) (48, -1.06791840387829886083e+01) (49, -1.55729773054336706473e+00) (50, -1.99823003872567532824e+01) (51, 8.06362588496697507701e-01) (52, 5.93530247569182441147e-03) (53, -9.17619250343772030476e+00) (54, 1.30287815211111568381e+00) (55, 4.33395580445427808236e-01) (56, -7.27828011585276324347e-01) (57, -3.44810268831851685079e+00) (58, -5.32901233030464460683e+00) (59, -6.83950270112533242894e+00) (60, 1.31717821398867873661e+00) (61, 1.14689196149468664032e+00) (62, 5.12661693026117193384e-01) (63, 2.19204452939902566522e-01) (64, -3.04610975763645042136e-01) (65, -3.84131832383008520182e+00) (66, 2.81898669931906686870e+00) (67, -4.45196473529270164704e+00) (68, 1.71161319393299526936e+00) (69, 1.24820533016159318507e+00) (70, -2.85089102193127053031e-02) (71, -6.22061116100630862036e+00) (72, 2.67900417082917963185e+00) (73, 6.73444611398728465446e-01) (74, -8.25886130848267757676e-02) (75, 2.07636771386966789699e-01) (76, 7.38071297921445990120e-01) (77, -2.23523136166319691398e+00) (78, -1.06873640934916540601e+01) (79, -4.52679247480914348500e+00) (80, -8.43800763753608684681e-01) (81, 1.43362433071172801213e+00) (82, -9.14899707719363775027e+00) (83, -6.64146562891612779467e-01) (50, 3.58226008036473420049e+00) (51, -1.23234879540431707667e+00) (52, 1.37480283604694419886e+00) (53, -1.04152907758332915478e+01) (54, 1.25028422541911288235e+00) (55, 9.02846412968052014492e-01) (56, 1.57011348686418394927e+00) (57, 1.32311228489016241561e+00) (58, 4.03596999054970861920e+00) (59, 3.46502212165943612732e+00) (60, 2.55964944390468085444e+00) (61, -3.37385636620438189581e-01) (62, 7.76553636326954843661e-01) (63, -1.19817709764499569225e+00) (64, -5.61741056204256405948e-01) (65, -7.92841448195371167884e+00) (66, 9.62788717083117723261e-02) (67, -3.11260480286527707605e+00) (68, 9.30025025238974401010e-03) (69, -1.46894483977749534809e+00) (70, -2.78895601922917579785e+00) (71, 6.00264212101860206161e-01) (72, -6.18543968648183506431e-01) (73, -3.74417122551760384042e+00) (74, 1.61643661435402208326e-01) (75, -2.67194543095341607852e+00) (76, -5.09140172556421077843e-01) (77, 1.45743199772049814023e+00) (78, 5.52848563544038196227e+00) (79, 1.75967469101869617987e+01) (80, -5.11826598004900024108e+00) (81, 4.86410726599443243856e+00) (82, 1.60878616200267804404e-01) (83, -8.42462126927073562399e-01) (50, 3.25002940228327474870e+00) (51, 7.95878613860746875197e-01) (52, -1.32380075916835160399e+00) (53, -1.19657610419908411181e+00) (54, -4.17036348407898405100e+00) (55, 1.07813342754700780546e+00) (56, -1.72943741835348485658e+00) (57, 1.23462208598307388030e+00) (58, -1.94747988170116376194e-01) (59, 2.39802573897246862344e+00) (60, 5.15645389138549292696e-01) (61, -3.74465304088149641970e+00) (62, -7.08208067263048945961e+00) (63, -2.27891815359562904808e-01) (64, -1.27631818588583134666e-01) (65, -2.35576408955599170270e+00) (66, 2.74031772444926469134e+00) (67, -7.49084699686867749868e-01) (68, -1.81554839325473049705e+00) (69, -1.39208214444309730240e+00) (70, -3.48751427066211805439e+00) (71, -2.47348135149905723473e-01) (72, 1.51367506489775194289e+00) (73, 5.14872135221062510180e-02) (74, 3.25479995198239419052e-02) (75, -1.19733568840978785164e-01) (76, -1.63368318689861302673e+00) (77, 5.67757562283937389225e+00) (78, 3.39619242959422962258e+00) (79, -1.09905117990467893208e+01) (80, -1.04062931497634209022e-01) (81, 3.87444791809853450459e+00) (82, 7.17246725495866987998e-02) (83, -4.99239767892285912776e-01) (50, -1.20318465450408780271e+01) (51, 6.17920318689554992631e-01) (52, -3.79230159594405646928e-01) (53, 2.11952782310779808128e+00) (54, 3.92493792813520903096e+00) (55, 2.54349431252691360328e+00) (56, -1.67816682205684308826e+00) (57, 2.87196034080217721396e+00) (58, 2.93709135759217865314e-01) (59, -6.37638676890540168074e+00) (60, 2.42711997684683350451e-01) (61, 2.04194178316223329261e+00) (62, 1.69735220542496145768e+00) (63, -8.79245143029713238647e-02) (64, -3.10626889827131269506e-01) (65, -4.40596699793670598666e+00) (66, 2.56215229038803671280e-01) (67, -2.11542506864043577952e-01) (68, -9.36514169151559605631e-01) (69, 1.10016560095751847470e+00) (70, -6.01588826692743339208e+00) (71, -3.70494033164565639282e+00) (72, -9.82739037183885333349e-01) (73, -3.68417545098791987535e-01) (74, -2.97648983261006305767e-01) (75, 6.56679862575525130630e-01) (76, -1.43103954096943919438e+00) (77, -8.72028800267178882955e-02) (78, -5.26894729716505416661e+00) (79, 3.65551401375043716335e-01) (80, 9.89201321141489287037e-01) (81, -4.05753657305133064170e+00) (82, 8.45034555077003535217e-01) (83, -1.27828460679327293725e+00) (50, 1.65938440102328166326e+00) (51, 1.21896287699979510855e-01) (52, -1.87166233840203338756e-01) (53, 2.68458465575537230663e+00) (54, -8.30372836793033197722e-01) (55, -9.20419374415976321302e-01) (56, 2.23903835625443958790e+00) (57, 1.63368701925798953667e+00) (58, -5.84123913171146896817e-02) (59, 2.27237343446941864045e+00) (60, -4.16275966822362697428e+00) (61, -2.05267859363042326493e+00) (62, 1.89750696683694908273e+00) (63, 4.78713181915423002799e-01) (64, -3.00052800144588627251e-01) (65, -3.80815692454061638372e+00) (66, -4.15059317748902856238e+00) (67, -2.85315022042045685069e+00) (68, 6.16709063978819749252e+00) (69, -1.81009008232045132125e-01) (70, -4.31282240921972004344e+00) (71, -2.67146112640800037497e+00) (72, -1.58474906478347743466e+00) (73, 1.82930871654505544655e+00) (74, -2.93736676124873863358e-01) (75, -5.64950621517440509933e+00) (76, 1.22085978902367719989e+00) (77, 2.59657866336481246705e-01) (78, 5.47220370280224521764e+00) (79, -7.70589945969251211011e+00) (80, -1.51166582982194297458e+00) (81, -8.20961837432750085597e-01) (82, 1.68590844226376962434e-01) (83, 6.59990586637341003495e-01) (50, -9.60963906493997299663e+00) (51, 3.75751619138368742057e-01) (52, -1.27392205289248727773e+00) (53, -7.88076823780586988022e+00) (54, -3.01182349573888918925e+00) (55, -5.23396384027334082845e+00) (56, 1.28504881738405107861e+00) (57, 2.52994149008301194570e+00) (58, 1.93808332527603821571e-01) (59, -1.90466845182038269080e+00) (60, 7.80672491783650168706e-01) (61, -2.93235084853650596060e+00) (62, 1.10205221407351006135e+00) (63, -5.00706022728200861316e-01) (64, 1.44534875195918028484e-02) (65, 5.79512193990752155770e-01) (66, -2.55398150565725057248e+00) (67, 5.30242020599468322217e+00) (68, 1.03742950722579729828e+00) (69, -2.57994031629524056548e-01) (70, -2.85583290659796595889e-01) (71, -1.83419627853445388332e+00) (72, -1.64682112521891776957e+00) (73, -2.76265164862049239503e+00) (74, 1.06998894657245546824e-01) (75, 4.35170896952941710367e+00) (76, 9.63345795864851139889e-01) (77, -1.39459430849391563534e+00) (78, -2.35591351232042001129e+00) (79, 1.29879221963277533547e+01) (80, -6.11772433576182939063e-01) (81, -2.90108264146789007754e+00) (82, 3.99116766978091774831e+00) (83, 7.94937452942627020835e-02) (50, 3.16546783208687565470e-01) (51, -4.08031004554204823620e-01) (52, -3.41541436119607688671e-01) (53, 1.90125128783544899980e-01) (54, 4.67355206734682582237e+00) (55, 7.44894047263461533959e-01) (56, 8.09222781682776837187e-01) (57, -4.16580465425082469011e+00) (58, -7.45792131493851928603e-01) (59, -2.96596898736729608359e+00) (60, -5.26128022720429466830e+00) (61, -4.52100220823415988036e+00) (62, 2.57460245045547386766e+00) (63, -4.84698702333737740933e-01) (64, 2.83519391623286876047e-01) (65, 7.34095530548757224665e+00) (66, -3.31522210003255413113e+00) (67, -2.99478756103091958707e+00) (68, -3.09712271403733607755e+00) (69, 3.86637769303591824488e-02) (70, 1.59378061375941459943e+00) (71, 8.99756752815145333102e-01) (72, 2.95419617809831702715e+00) (73, -1.02065748270947542764e+00) (74, -1.15852733903570273566e-01) (75, 2.62140870341960185996e+00) (76, 1.13808693200294763770e+00) (77, -2.70850509692286278707e+00) (78, -4.14629131330657152432e+00) (79, -2.33866001298203869396e+01) (80, 7.85066456748692131917e-01) (81, -3.67819743272080335039e-02) (82, -3.58714870471850355571e+00) (83, -1.17359554329797899364e+00) (50, 2.92120985265745725101e+00) (51, -3.56089609660032202498e+00) (52, -7.91262470762616687558e-01) (53, -1.68473306566188685274e+00) (54, -5.93401068396094011348e+00) (55, 6.15566432175181477149e-01) (56, 6.51024968095968992188e-01) (57, -3.32344670117075358107e+00) (58, -8.96510006306475593085e-01) (59, 2.73590220340347467509e-01) (60, 2.53527812684081155226e+00) (61, 7.01173242361057358352e+00) (62, -5.50076594193554480050e-01) (63, -4.45893591000831313043e-01) (64, -2.77232020817613056263e-01) (65, 4.72587067117210601896e-01) (66, 3.55546960014806456840e+00) (67, 2.27829932952290103998e+00) (68, 3.72610962544313084610e-01) (69, -4.17208681279308490897e-01) (70, 1.12769094269849712298e+00) (71, -9.32762170492468123406e-01) (72, -1.09642756825388584807e-01) (73, 1.12648430605025340334e+00) (74, -2.95475045913896450234e-01) (75, -7.89753564146575293137e+00) (76, -2.18051935607331470734e+00) (77, -4.98476770450767148191e+00) (78, -1.93645387798683854541e+00) (79, -2.89029249879084915165e+00) (80, 3.13261457987701374961e+00) (81, 1.60728353367543275176e+00) (82, 1.27804691928323088668e+00) (83, 2.66684215692173154366e-01) (50, -4.46183775410836247488e+00) (51, -1.69113329025486675006e-01) (52, -7.52781780609490414058e-01) (53, -1.31790300551050609812e+00) (54, -1.40784445321428997033e+00) (55, 4.23132182963824987620e-01) (56, -8.39146516586426804984e-01) (57, -9.33910517872760248537e-01) (58, 3.60558267911776753056e-01) (59, -6.89396656631427973139e+00) (60, 2.93097470616796862419e-01) (61, -2.75670911040858435115e+00) (62, -5.07948007251674127360e+00) (63, -5.37068119034740276696e-01) (64, -8.53450894149982049186e-03) (65, -3.72546194507230199466e-01) (66, 6.50576285154463307414e-01) (67, -1.28417412658438356843e+00) (68, 6.94976816854541934454e-01) (69, 3.64799851189435253573e+00) (70, -1.31301350917137438223e+00) (71, 3.59529424604683223166e+00) (72, 1.93607573742086680468e+00) (73, -4.26448096864953196672e+00) (74, 2.75456203180058478708e-01) (75, -4.41244103174545454493e+00) (76, 2.53736518224339668848e+00) (77, -2.64781422869945382015e-01) (78, -6.37877158068664140700e+00) (79, -5.57240637009899852927e+00) (80, -2.08969930465667183550e-02) (81, -1.34019951345725996106e+00) (82, 1.08460905685891528805e+00) (83, 6.50593183319163825828e-01) (50, -9.70670628539043178762e+00) (51, 2.68405413092997946478e+00) (52, -7.92956692035969523680e-01) (53, 4.44952326603705927699e-01) (54, 2.51707110861947702674e+00) (55, 2.34719041141650958116e-01) (56, -4.50859417581915344897e+00) (57, 4.32082323963024261815e+00) (58, -1.49783213391664005165e+00) (59, -5.90172526769250271883e+00) (60, 5.79579390355764001441e-01) (61, -7.71420826316925545285e+00) (62, 3.30337814150574671235e-01) (63, -5.81146479759430678591e-01) (64, -6.87475343496705804114e-01) (65, 1.88332981509062458159e+00) (66, 2.54811174493085701442e+00) (67, 2.04380839074477904660e+00) (68, 5.64231292825597807727e-01) (69, -2.48260361645592775304e+00) (70, 1.10161699809255564375e+00) (71, -6.65347530936090691966e+00) (72, -1.55624390174304805257e+00) (73, 5.11274547403880674779e-01) (74, -1.48093972320081979088e-01) (75, -2.70677663534685697400e+00) (76, 1.36846858296160567292e+00) (77, -5.95780508735342384519e-01) (78, -8.02206725137422438365e+00) (79, -4.71636502723281125782e+00) (80, -1.95352563621319408327e+00) (81, 1.30262574556647203750e+00) (82, -1.14459939145480227296e+00) (83, -7.66686910592373149775e-01) 
