FANN_FLO_2.1
num_layers=3
learning_rate=0.700000
connection_rate=1.000000
network_type=0
learning_momentum=0.000000
training_algorithm=2
train_error_function=1
train_stop_function=1
cascade_output_change_fraction=0.010000
quickprop_decay=-0.000100
quickprop_mu=1.750000
rprop_increase_factor=1.200000
rprop_decrease_factor=0.500000
rprop_delta_min=0.000000
rprop_delta_max=50.000000
rprop_delta_zero=0.100000
cascade_output_stagnation_epochs=12
cascade_candidate_change_fraction=0.010000
cascade_candidate_stagnation_epochs=12
cascade_max_out_epochs=150
cascade_min_out_epochs=50
cascade_max_cand_epochs=150
cascade_min_cand_epochs=50
cascade_num_candidate_groups=2
bit_fail_limit=3.49999999999999977796e-01
cascade_candidate_limit=1.00000000000000000000e+03
cascade_weight_multiplier=4.00000000000000022204e-01
cascade_activation_functions_count=10
cascade_activation_functions=3 5 7 8 10 11 14 15 16 17 
cascade_activation_steepnesses_count=4
cascade_activation_steepnesses=2.50000000000000000000e-01 5.00000000000000000000e-01 7.50000000000000000000e-01 1.00000000000000000000e+00 
layer_sizes=50 34 11 
scale_included=0
neurons (num_inputs, activation_function, activation_steepness)=(0, 0, 0.00000000000000000000e+00) (0, 0, 0.00000000000000000000e+00) (0, 0, 0.00000000000000000000e+00) (0, 0, 0.00000000000000000000e+00) (0, 0, 0.00000000000000000000e+00) (0, 0, 0.00000000000000000000e+00) (0, 0, 0.00000000000000000000e+00) (0, 0, 0.00000000000000000000e+00) (0, 0, 0.00000000000000000000e+00) (0, 0, 0.00000000000000000000e+00) (0, 0, 0.00000000000000000000e+00) (0, 0, 0.00000000000000000000e+00) (0, 0, 0.00000000000000000000e+00) (0, 0, 0.00000000000000000000e+00) (0, 0, 0.00000000000000000000e+00) (0, 0, 0.00000000000000000000e+00) (0, 0, 0.00000000000000000000e+00) (0, 0, 0.00000000000000000000e+00) (0, 0, 0.00000000000000000000e+00) (0, 0, 0.00000000000000000000e+00) (0, 0, 0.00000000000000000000e+00) (0, 0, 0.00000000000000000000e+00) (0, 0, 0.00000000000000000000e+00) (0, 0, 0.00000000000000000000e+00) (0, 0, 0.00000000000000000000e+00) (0, 0, 0.00000000000000000000e+00) (0, 0, 0.00000000000000000000e+00) (0, 0, 0.00000000000000000000e+00) (0, 0, 0.00000000000000000000e+00) (0, 0, 0.00000000000000000000e+00) (0, 0, 0.00000000000000000000e+00) (0, 0, 0.00000000000000000000e+00) (0, 0, 0.00000000000000000000e+00) (0, 0, 0.00000000000000000000e+00) (0, 0, 0.00000000000000000000e+00) (0, 0, 0.00000000000000000000e+00) (0, 0, 0.00000000000000000000e+00) (0, 0, 0.00000000000000000000e+00) (0, 0, 0.00000000000000000000e+00) (0, 0, 0.00000000000000000000e+00) (0, 0, 0.00000000000000000000e+00) (0, 0, 0.00000000000000000000e+00) (0, 0, 0.00000000000000000000e+00) (0, 0, 0.00000000000000000000e+00) (0, 0, 0.00000000000000000000e+00) (0, 0, 0.00000000000000000000e+00) (0, 0, 0.00000000000000000000e+00) (0, 0, 0.00000000000000000000e+00) (0, 0, 0.00000000000000000000e+00) (0, 0, 0.00000000000000000000e+00) (50, 3, 5.00000000000000000000e-01) (50, 3, 5.00000000000000000000e-01) (50, 3, 5.00000000000000000000e-01) (50, 3, 5.00000000000000000000e-01) (50, 3, 5.00000000000000000000e-01) (50, 3, 5.00000000000000000000e-01) (50, 3, 5.00000000000000000000e-01) (50, 3, 5.00000000000000000000e-01) (50, 3, 5.00000000000000000000e-01) (50, 3, 5.00000000000000000000e-01) (50, 3, 5.00000000000000000000e-01) (50, 3, 5.00000000000000000000e-01) (50, 3, 5.00000000000000000000e-01) (50, 3, 5.00000000000000000000e-01) (50, 3, 5.00000000000000000000e-01) (50, 3, 5.00000000000000000000e-01) (50, 3, 5.00000000000000000000e-01) (50, 3, 5.00000000000000000000e-01) (50, 3, 5.00000000000000000000e-01) (50, 3, 5.00000000000000000000e-01) (50, 3, 5.00000000000000000000e-01) (50, 3, 5.00000000000000000000e-01) (50, 3, 5.00000000000000000000e-01) (50, 3, 5.00000000000000000000e-01) (50, 3, 5.00000000000000000000e-01) (50, 3, 5.00000000000000000000e-01) (50, 3, 5.00000000000000000000e-01) (50, 3, 5.00000000000000000000e-01) (50, 3, 5.00000000000000000000e-01) (50, 3, 5.00000000000000000000e-01) (50, 3, 5.00000000000000000000e-01) (50, 3, 5.00000000000000000000e-01) (50, 3, 5.00000000000000000000e-01) (0, 3, 0.00000000000000000000e+00) (34, 3, 5.00000000000000000000e-01) (34, 3, 5.00000000000000000000e-01) (34, 3, 5.00000000000000000000e-01) (34, 3, 5.00000000000000000000e-01) (34, 3, 5.00000000000000000000e-01) (34, 3, 5.00000000000000000000e-01) (34, 3, 5.00000000000000000000e-01) (34, 3, 5.00000000000000000000e-01) (34, 3, 5.00000000000000000000e-01) (34, 3, 5.00000000000000000000e-01) (0, 3, 0.00000000000000000000e+00) 
connections (connected_to_neuron, weight)=(0, -1.50000000000000000000e+03) (1, 1.50000000000000000000e+03) (2, 5.78287189278627380418e+01) (3, 9.52919382962123222569e+01) (4, 1.50000000000000000000e+03) (5, 1.50000000000000000000e+03) (6, 1.50000000000000000000e+03) (7, -1.50000000000000000000e+03) (8, -3.38767429780407042017e+02) (9, 1.50000000000000000000e+03) (10, 1.38104304647854192467e+01) (11, 1.50000000000000000000e+03) (12, 1.50000000000000000000e+03) (13, 1.50000000000000000000e+03) (14, -1.43664934406630595731e+03) (15, 1.50000000000000000000e+03) (16, 1.50000000000000000000e+03) (17, 9.04029650596428169251e+00) (18, 1.50000000000000000000e+03) (19, 1.50000000000000000000e+03) (20, 1.50000000000000000000e+03) (21, 1.50000000000000000000e+03) (22, -1.44799999964237213135e+03) (23, 1.09420557876314478563e+03) (24, 1.50000000000000000000e+03) (25, -3.77942844664592492165e+00) (26, 1.58408335485442734125e+02) (27, 1.50000000000000000000e+03) (28, 1.50000000000000000000e+03) (29, 1.50000000000000000000e+03) (30, -4.13164194131344919558e-01) (31, -1.07074596909735380024e+01) (32, 1.86999349447696072701e+00) (33, 1.63627793356411075365e+02) (34, -1.50000000000000000000e+03) (35, -1.42927999802589420142e+03) (36, 1.50000000000000000000e+03) (37, 2.06121283539493616033e+00) (38, 3.12017180919784697934e+00) (39, 1.50000000000000000000e+03) (40, 1.50000000000000000000e+03) (41, 1.50000000000000000000e+03) (42, -1.50000000000000000000e+03) (43, 1.47410443875710620887e+03) (44, 9.61916491629386805062e-02) (45, -3.93241924281079135994e+00) (46, -1.46056688923500087185e+03) (47, -1.50000000000000000000e+03) (48, 1.47839999742507916380e+03) (49, 2.33733617325410030219e+01) (0, 1.89213862645894792536e+01) (1, -5.31954640412328672028e+00) (2, 3.95853049962916148097e-01) (3, -6.42340277092743772158e-01) (4, -4.69589143934616926046e-01) (5, 1.37777744038071442434e-01) (6, -6.31213266340419743017e-01) (7, -3.26652119640441274129e+00) (8, 1.91279504440894654316e+00) (9, 3.97712697566126527349e+00) (10, 1.19301737881186498136e+00) (11, 2.08194484541244273501e+00) (12, -1.19281772025381060942e+00) (13, 9.52725989631511560596e-01) (14, 5.55934138764160223900e+00) (15, -3.07723371490312980203e-01) (16, 4.06983455298680940615e+00) (17, 1.25031481519326326257e+00) (18, 1.18367197310578364799e+00) (19, -2.14628837342096412399e+00) (20, -4.10788634366978033796e+00) (21, -1.11180399208829427948e+00) (22, 3.90879620601872146413e-01) (23, 2.54097428901799027301e+00) (24, 3.76026508540446968709e+00) (25, 8.92119433136771555759e-01) (26, -1.01459484855531312242e+00) (27, -2.18418204771860136049e+00) (28, 2.20484052555988663258e+00) (29, 2.08701152820052832082e-01) (30, 4.06177659312254135671e-01) (31, 3.60211183501425169506e-02) (32, 1.53233219324314714344e-03) (33, 1.79008477569839202781e-01) (34, 1.13559798990960181264e+00) (35, 2.31367022973462921343e+00) (36, 1.84410629898871403221e+00) (37, -3.57629032127923318640e+00) (38, -5.16150328500604693716e+00) (39, 1.04156821853874848038e+00) (40, -3.35114853087236319595e+00) (41, 1.23175110650863950390e+00) (42, 1.03731325137930041613e+00) (43, 2.02652349436786671788e+00) (44, -1.38698314818344603516e-01) (45, -1.54148861484002175359e+00) (46, 5.00416578246227317095e+00) (47, 4.01509568390271365246e+00) (48, 1.73763100147700377818e+00) (49, -2.16962643589387971232e+00) (0, 1.23194670546214729256e+03) (1, -6.17246156523723765730e+00) (2, 5.45791507322499569455e+00) (3, 3.91202571995424713824e-02) (4, 1.19271590551451778239e+00) (5, 4.22671128744414303924e+00) (6, 3.86230397747177622847e+00) (7, -1.50000000000000000000e+03) (8, -7.50987508991066032848e+00) (9, -2.24308652563250587875e+00) (10, 9.65452619211538576316e-01) (11, -1.78150511011510670478e+00) (12, -1.10169360411310002235e+00) (13, 3.59236661621200659145e-01) (14, -1.50000000000000000000e+03) (15, -3.06548434250167289861e+00) (16, -6.72498103318947748619e+00) (17, -1.38635135339158810375e+00) (18, -1.15673335425908674345e+00) (19, -2.51308207236950464925e-01) (20, 1.41097938111955212293e+00) (21, -1.92623171046382708482e+01) (22, -8.68904315307540975333e-02) (23, 8.34198254884875534110e-01) (24, 1.27638249297527295312e+00) (25, 3.62185767574022821069e-01) (26, 1.55174136097057302486e+00) (27, -2.80646173549267485825e+00) (28, 6.57686601653165059389e-01) (29, 4.62867891300294959089e-02) (30, 1.47115551613595130220e+00) (31, 2.22249674941616337520e+00) (32, -8.38955043363140862134e-01) (33, -1.32022776335494768790e-02) (34, 8.40313941862337321353e-01) (35, -1.74674420921179307520e+00) (36, -3.25068792833311359658e-01) (37, 4.30730134563648059398e-01) (38, 2.39139501519052899425e+00) (39, 4.47600553797458200478e+00) (40, 1.49509780708480533029e-01) (41, -6.50602050848435986552e+00) (42, -7.16054523457471958636e+01) (43, -1.83042729249721247697e+00) (44, -2.33787524740652141730e+00) (45, 6.05401340335584126073e-01) (46, -1.42658406709930396516e+00) (47, -5.45044504730241685664e-01) (48, 2.47334542293659040979e+01) (49, 4.79476397020259237358e-01) (0, 6.70306346854249213152e+00) (1, -3.17366681119067184369e+00) (2, 2.74751820494494869429e-01) (3, -5.21197326125288906695e-01) (4, -9.76697199877512856059e-02) (5, 1.96148474761269020483e+00) (6, 9.37850587685681169603e+00) (7, -4.04722532595717510162e+00) (8, 3.65320440666559664855e-01) (9, 1.68250411530384691439e+00) (10, 1.37843249780919796521e+00) (11, -1.45360901950833820706e+00) (12, 1.39257793871929957952e+00) (13, 2.32389409609081998287e-01) (14, -6.63868694210436927072e-01) (15, 1.58204700096358874539e+00) (16, -1.03837287506171804807e+00) (17, 1.08019991875649301605e+00) (18, -1.92580180174444404173e+00) (19, -1.63306338372482540144e-01) (20, -3.28437983267185984460e+00) (21, 2.24316879461033957810e+00) (22, -5.33613100352978708685e-01) (23, 3.01367220497235610566e+00) (24, 5.74727712982017724386e+00) (25, 1.55224841493650766999e+00) (26, 6.02179925774858215703e+00) (27, 1.54776350553577319857e+01) (28, -2.20957007638634417290e+00) (29, -1.71908914179373417674e+00) (30, 3.17843814702660099059e+00) (31, 3.23166519754003322973e+00) (32, 4.33408956027336245143e+00) (33, 1.88338886750541245618e+00) (34, -2.39997519366998668389e+00) (35, 2.33478094849266154531e-01) (36, -7.31662773263410448621e-01) (37, 3.38008023262624579530e+00) (38, -1.78037119538496502180e+00) (39, -1.53932567548411292080e+01) (40, -9.01397026493185116180e+00) (41, -1.17740311489778304299e+00) (42, 1.41552413062912463282e+00) (43, 6.59798735818279191712e-01) (44, 2.54495203194318753148e+00) (45, 8.54821659833231217718e-01) (46, 4.35792148047738869820e+00) (47, 1.94915467839135048145e+00) (48, 9.00267044622334466908e+00) (49, -2.85576069479652439043e+00) (0, -2.65789713086520791308e+01) (1, 1.50453045598462704646e+01) (2, -7.63436969961949318808e-01) (3, 2.68331775741749101183e-01) (4, 1.48518511267938337940e-03) (5, 5.83104952882225746613e-01) (6, 3.95211563174379687524e+00) (7, 2.69499635625922051574e+00) (8, -8.67388276930458346214e+00) (9, 1.22589297304901858610e+01) (10, 5.20545642758325133315e+00) (11, -4.45675945162101516672e+00) (12, 8.46268413049907741730e-01) (13, 2.88483958585274702369e-01) (14, -1.00406251093193610302e+00) (15, 4.34092058180191475714e+00) (16, 2.20458748181200192562e+00) (17, 2.42845014561431954414e-01) (18, 2.65091412638257262202e+00) (19, 2.84565753273310084737e+00) (20, 3.49040516853522841956e+00) (21, -4.70254461990958017026e+00) (22, 1.57455060671203128653e-01) (23, 1.61321367328818143783e+00) (24, 2.15788407007163840490e+00) (25, 7.95795129466903283788e-02) (26, 1.84512945671580830265e+00) (27, -3.38622479884244764747e-01) (28, 2.03008255064958342828e+00) (29, -2.66588211605666547399e+00) (30, -7.72442178769329745869e-01) (31, 4.09996123431147019289e+00) (32, 1.79633600162831230662e+00) (33, -4.10519265403640964962e+00) (34, -1.02694071939707226582e-01) (35, -4.68754489148797937048e+00) (36, 1.46333897542053170682e+00) (37, -1.32803554384244515418e-01) (38, 4.43925562045971933145e+00) (39, 3.00976719190904962176e+00) (40, 6.13853195389722383624e+00) (41, -5.22872335457621684185e+00) (42, 4.27528601974777888728e+00) (43, -9.12486868075920998233e-02) (44, -1.52574455845821654876e+00) (45, -1.12647532749704004651e+00) (46, -1.43599265350911498018e+00) (47, -5.90022523822725109000e+00) (48, 8.65203898301849960717e+00) (49, -4.50333475189364040858e+00) (0, -5.13010459507593274964e+00) (1, 1.12366538792940300340e+01) (2, 9.21681551736823534426e-01) (3, 4.26208419723685894009e-01) (4, 4.73669528786810623000e-02) (5, 1.09116795335633298691e+00) (6, 1.52868689024917525643e+00) (7, 4.59427637493049156880e-01) (8, 1.09267190813704662133e+00) (9, -1.79131558122557077439e+00) (10, -2.33737719234642060684e+00) (11, 1.53548940247748899601e+00) (12, -1.15501627085926794614e+00) (13, 1.40273777527521370523e+00) (14, 1.64612603988125760779e+00) (15, 1.25028040801541417970e+00) (16, 1.20774415998081474655e+00) (17, -2.52363400514138014330e+00) (18, 8.14155612123722005613e-01) (19, 5.32534543225205547756e-01) (20, -1.31973129410603884359e+00) (21, -2.50486366555767903108e+00) (22, 2.30028010671211280425e+00) (23, 6.69420940649028661795e+00) (24, -7.41073839105282017314e-01) (25, -6.57978303864769298315e-01) (26, 3.11618357037585447245e-01) (27, 2.37324051390650136995e+00) (28, 2.50211426806209891183e+00) (29, -8.40063649129725642517e-01) (30, 1.09166222179093996836e+00) (31, -1.32235802921588763148e+00) (32, 5.66181979667529922118e-01) (33, 6.15777470829301010191e-01) (34, 1.63390332391014680979e+01) (35, -1.54011630280532246795e-01) (36, 3.99225166390411390083e-01) (37, 2.33710904605463642980e+00) (38, -6.83539811619143788946e-01) (39, 2.86353839912045549099e+00) (40, 1.37272057297771832296e+00) (41, 1.50000000000000000000e+03) (42, -2.66370492257137936321e-01) (43, 2.22992075208624990212e-01) (44, 5.56402032856339823219e-01) (45, -3.43034763822160360114e-01) (46, -6.05005000737362186314e-01) (47, 8.89336726370665187069e-01) (48, -4.29016627937286258998e+01) (49, -1.92782304464105203046e+00) (0, 8.64167393285023450744e+01) (1, -9.11306106917922598143e+00) (2, -2.72472172002098611543e-01) (3, 3.67245538459032694334e+00) (4, 1.59356531689705782640e+00) (5, 4.29626855368278803837e+00) (6, 5.04714540487364793364e+00) (7, -5.18568819994054042155e+00) (8, 5.05112970918190917757e+00) (9, -2.13207777367709816474e+00) (10, -1.53830913516864207224e+01) (11, -2.46409784114993168913e+00) (12, -4.36146459143005849057e+00) (13, -4.12505051846542181160e-01) (14, 1.08426600068520571085e+01) (15, 2.34160805655700654526e+00) (16, 4.55545658654171692348e+00) (17, -2.82878380336732751510e-02) (18, -6.05438253974635642862e+00) (19, -1.50688599879819329352e+00) (20, -1.18460970499128803723e+00) (21, -4.75082362229839638701e+00) (22, 1.18511548972329938678e+00) (23, 4.45328499267936106509e-01) (24, 1.97484671949355949927e+00) (25, 3.56642626588895694795e+00) (26, 3.61696313256324009089e+00) (27, 4.44217392693100698864e+00) (28, 2.81978904265977448063e+00) (29, 5.97148694038245886340e-01) (30, 1.31934157248686734221e+00) (31, -2.20523722559506155094e-02) (32, 4.96431773201393589101e-01) (33, 6.74608535009924237258e-01) (34, 3.61952637791215225960e-02) (35, -9.07594147475745494091e+00) (36, -5.66678621711736774103e+00) (37, 6.73228803314040891159e-01) (38, 1.89921544085227989029e+00) (39, 9.65568956629871966157e-01) (40, -2.78871224009392815191e+00) (41, -3.17006054186142804951e+00) (42, 6.78959919467201000742e+00) (43, 9.13499227882983211302e-01) (44, -5.31193438375989201994e-01) (45, -2.88339130925238218417e-01) (46, 1.57354058590682055474e+00) (47, -9.76871093915209098846e-01) (48, 2.41692411997345502073e+00) (49, 1.29516396430636393511e+00) (0, 2.11588278007592336394e+01) (1, -1.32043206836030417861e+01) (2, 2.33736424009964416371e+00) (3, 3.70680277826879178704e+00) (4, -1.15913201797841303176e+00) (5, -2.05334341244483553623e+00) (6, -3.18947154550998224209e+00) (7, -3.56785716366616822981e+00) (8, -3.26929000897478427845e+00) (9, -3.05097312112372551218e-02) (10, 5.05236645330453315594e-01) (11, 8.20147299716422195637e-01) (12, 1.98732058338434658395e+00) (13, -1.25712773477841666114e+00) (14, 3.61838866289556504441e+00) (15, -4.02473553320441823633e-01) (16, -2.34048408952201109079e-01) (17, 1.05869528025980463859e+00) (18, 5.42171746783541852466e-01) (19, 3.30754849447685350672e-01) (20, 2.38245379321855477173e+00) (21, -2.55036242639768939711e+00) (22, -2.51593120315182083857e+00) (23, -2.98761052222142842183e+00) (24, -4.08927757839361250003e-01) (25, 2.97984682011475689178e-02) (26, 1.88368850733665338382e+00) (27, -6.01196281139318777775e-01) (28, 2.56150349456601644782e-01) (29, 5.78279140724617324310e+00) (30, -1.67335743048504757835e-02) (31, 2.01894115206125368545e+00) (32, 2.01721596672419734020e+00) (33, 5.12567464241240955403e+00) (34, 8.40426833125444261441e+00) (35, -8.38293947845034748134e-01) (36, 3.45004781199498822275e+00) (37, -1.38719260319411574756e+00) (38, 4.44732564332201985025e-01) (39, 1.41089640970477447901e+00) (40, -4.80967289067756542664e+00) (41, -1.07297168107460620945e+01) (42, 3.46251794830730519337e+00) (43, -2.36950924641090665546e+00) (44, 3.67600163977589211584e-01) (45, 1.37433347356522816973e+00) (46, 1.86135193740202442569e+00) (47, 5.52716719034038295177e+00) (48, -4.01366091138914811154e+01) (49, -2.67924968324365897487e+00) (0, -3.25332472617588521757e+01) (1, -2.38647326802482934172e-01) (2, -2.23503118424704316780e+00) (3, -9.64324493401637616863e-01) (4, 2.66892843191152695503e-01) (5, -4.26487509205735748630e-01) (6, 1.25381711119255268017e+00) (7, 6.34883655113291034411e+00) (8, 3.65955659324227244866e+00) (9, 3.53177183619782519841e+00) (10, 3.31352556233097539362e+00) (11, -5.09371346913343980845e+00) (12, 1.92452444677438272436e+00) (13, 2.54602153353230198363e+00) (14, -7.10756233390290814711e-01) (15, 5.69963242762074662195e-01) (16, 1.00477033786973080076e+00) (17, 1.15624442011858175050e+00) (18, -1.05991667353742102797e+00) (19, -4.43228452152229479566e+00) (20, -7.75851325316913786878e+00) (21, 7.11300022940772214142e-01) (22, -7.67916327072400428655e-02) (23, -7.74210920736903451811e-01) (24, 5.91011848483283142031e-01) (25, 4.13598111949547231347e+00) (26, 7.71314935616467689528e-01) (27, 5.97769874650546428896e-01) (28, -6.98980131681641525532e-01) (29, 2.59639222573678285499e+00) (30, -1.06511208828391223946e+00) (31, 2.71911192324216621774e-01) (32, 4.03749952719191673722e-01) (33, 6.42627142953269503423e-01) (34, 1.68699282599000421889e+00) (35, -1.09976585340246860167e-01) (36, -1.42941403769282926461e+00) (37, -4.93855384709820732780e+00) (38, -1.93464651789576014274e+00) (39, 1.72636370817219442220e-01) (40, -2.06827603159462292126e+00) (41, 9.14109590055653398188e-01) (42, 9.21762446777505317641e+00) (43, -2.72574431629942159905e-01) (44, 4.48946609044998057314e-01) (45, 5.20132848039178252719e-01) (46, -2.50083654945404514069e-02) (47, -8.59333302291297451703e-02) (48, 1.52097653294537338287e-01) (49, 4.14010341518628477431e-01) (0, 4.55026312487577087040e+01) (1, 5.94037500621485481389e+00) (2, 7.07070834933448999493e+00) (3, -3.04549586560718577033e+00) (4, -8.85331929199494882532e-01) (5, 2.75811276700569951714e+00) (6, -4.43073793397423454365e+00) (7, -4.53748346556311830113e+01) (8, -3.06648592208848991270e-01) (9, -1.75645135301880528367e+00) (10, 1.30774807182045549325e+00) (11, 2.94796324759656425130e+00) (12, 2.29072288201185569889e+00) (13, 4.78312524923599280413e+00) (14, 1.18826558851724129795e+02) (15, 1.49657147907291676603e-01) (16, -3.21788792948551616302e-01) (17, 3.05959284741984482991e+00) (18, -6.75739030366279469497e-01) (19, -1.22084684627422235259e+00) (20, -2.06676486010241955427e+00) (21, 2.19743091791828559778e+00) (22, -4.29413625136958909678e-01) (23, 4.67240638838405802913e-03) (24, -1.95889070484626182100e+00) (25, -1.54712854333711984367e+01) (26, 3.38668828307452640658e+00) (27, -2.42593347922377328141e-01) (28, -3.09170563824184263524e+00) (29, -1.49879764988858549257e-01) (30, 2.59050150464361153557e-02) (31, 2.32835376596352450207e+00) (32, -3.35782779394094355041e+00) (33, 2.27095227522802955988e+00) (34, 3.05018854867409805465e+00) (35, -5.68076169243271689169e+00) (36, -4.88106352715464364422e+00) (37, 4.07656484815544117861e-01) (38, 7.43280541092651869661e+00) (39, -1.05748508132890983724e+00) (40, -6.31026009558203142547e+01) (41, -1.50000000000000000000e+03) (42, -3.40592205566783468029e+00) (43, 1.87997216440775205548e+00) (44, 1.91689856121979285142e+00) (45, 6.10165906423541404280e-01) (46, 8.27951025815931096474e+00) (47, 1.65735230680257188851e+02) (48, -1.50000000000000000000e+03) (49, 2.34823082522048354193e+00) (0, -1.50000000000000000000e+03) (1, -1.50000000000000000000e+03) (2, -1.50000000000000000000e+03) (3, -1.62091262823115012104e+00) (4, -4.57591954061183470159e-01) (5, 1.71138778602108287963e+00) (6, 7.59294005050961562375e-01) (7, 3.38417950274261158938e+00) (8, 1.94918143312543823420e+00) (9, -4.21526220618657965211e-01) (10, -1.81481389618362487504e+00) (11, 5.16521369442431321772e-01) (12, -3.54323413786722732355e-02) (13, -4.43683687125052905742e-01) (14, 1.76824997288057939038e+00) (15, 8.97553505104943916137e-01) (16, -3.38108850836653929139e-01) (17, 1.60834799567456343539e+00) (18, 8.42403622991240830231e-01) (19, 1.45378691802531445632e+00) (20, -1.46506973473601997959e+00) (21, 2.37326898852904522030e+00) (22, 8.78936146951007746253e-01) (23, -6.50964852407143412805e-01) (24, -7.42526685492193916360e-01) (25, -1.12948255001386610452e-01) (26, 5.48747537949237473853e-01) (27, -2.26274783297981407770e+00) (28, 1.25148508263924873596e+00) (29, 2.11414345888273924601e+00) (30, -5.72760811377091005880e-01) (31, -1.25906342636480950148e+00) (32, -5.19947396408643847110e+00) (33, -7.35745180594352343739e-01) (34, -4.85268160572959228460e+00) (35, -4.39647117751672222852e+00) (36, -6.23223709637490319579e+00) (37, -6.36314108663611488481e+00) (38, -8.76752349153267718229e-01) (39, -3.70716215951655181371e+00) (40, -1.12614933922765825258e+01) (41, -1.01584024830180563725e+01) (42, 2.38479094786660805738e+00) (43, 3.49669566988163538213e-01) (44, 1.72761672279389905116e-01) (45, 3.08151455486889291890e+00) (46, 4.96384213313197708572e-01) (47, 1.03626915094503626591e+01) (48, 1.51953498470043033564e+01) (49, 2.49894813322194320193e+00) (0, -1.73382541355593673416e+01) (1, 6.60687742666932642521e+00) (2, 1.66079409096263885814e+00) (3, 3.89064684762960133479e-01) (4, 2.17320798932904013512e+00) (5, 2.37117035985380475438e-01) (6, 2.89930800954822887050e+00) (7, 3.49414404131933498121e+00) (8, 1.36153995741141486953e+00) (9, 3.64403388644973902366e-01) (10, 1.56138491425055692119e+00) (11, -6.89501124455972336236e-01) (12, -1.32127612003844419064e+00) (13, -2.04615572688872848772e+00) (14, 8.82915185391582979513e-01) (15, 1.36616980432143342306e+00) (16, -1.24144323543023138434e+00) (17, -7.98439054886555643620e-01) (18, -3.24809522236464243150e+00) (19, -4.00226934186995020326e+00) (20, 2.69018099835186853819e-02) (21, 2.05649594907189925408e+00) (22, -2.42057671094067305972e+00) (23, -3.30634161261829717660e+00) (24, 1.76847510560575238436e-01) (25, 2.84705334144573385391e-01) (26, -4.46095669056881471981e-01) (27, 9.41622296160144700572e-01) (28, -3.28318247489322301291e+00) (29, -2.71464439677645730242e+00) (30, -1.57098141968162519078e+00) (31, -5.76580125453629244170e-01) (32, 1.78646668706855371589e+00) (33, -8.54792648548274081044e-01) (34, -3.97764950337679723535e-01) (35, 3.79075559152710228616e+00) (36, 2.55109703746233851263e+00) (37, 1.94065864503352103476e+00) (38, 2.82235263333248997952e+00) (39, 1.37643256892632881438e+00) (40, 3.46034886372412442412e+00) (41, 4.23263271733741408553e+00) (42, 3.23546758209390450389e+00) (43, 1.25127041365911417792e+00) (44, 5.76688378040415616788e-01) (45, -1.10610229779885993473e-01) (46, -1.49776298471021385161e+00) (47, -3.16091046140909082141e+00) (48, -1.23434254238637541867e+00) (49, 5.89025543385800820495e-01) (0, 1.72415927606478214251e+00) (1, 9.14491425116454981215e-01) (2, 6.86509929553621001119e-01) (3, 2.20551447389460197890e-01) (4, 1.17767106609946603513e+00) (5, 8.85970184660278686772e-02) (6, -2.71204573242677438039e-01) (7, 7.98101241213701295685e-01) (8, -1.86413844733770295292e+00) (9, 1.35264978653306422451e+00) (10, -7.52408195139147029096e-01) (11, -3.13017690925399705293e+00) (12, 1.85200156405804200466e-01) (13, 1.12912826890113060507e+00) (14, -2.17842650906093382446e+00) (15, -2.04769490164728429349e+00) (16, -9.69347506909219114313e-01) (17, -1.08225968156926999342e+00) (18, -8.15059512028474819623e-01) (19, -1.33287872141189822628e+00) (20, -3.96807952448219447561e+00) (21, 5.27634473533761139130e-01) (22, 1.41677584693931435389e+00) (23, -2.00398588101604047118e-01) (24, 5.43681251664623110820e-01) (25, 1.12984940776841935595e+00) (26, 1.10160309735289452249e+00) (27, 5.92593172421329361654e-01) (28, -1.34359749480458168236e+00) (29, 1.38558122452154952597e+00) (30, 1.41955679094358644399e+00) (31, 6.67623694214279805870e-01) (32, 1.42178565292910702444e-01) (33, -6.67870680977456915306e-02) (34, 1.94412345760192861732e+00) (35, 1.44766396980120548577e+00) (36, -1.44654340626397659442e+00) (37, -1.80734628575758948799e+00) (38, -1.96905425664299360555e+00) (39, -4.45112692830280098910e-01) (40, -3.55395080688797415647e+00) (41, -5.35849311326205324235e+00) (42, 1.11950616692368742910e+00) (43, -2.64618585516854076811e-01) (44, -1.46862236685812153070e+00) (45, -2.09225362508826195906e+00) (46, 2.23217128459067470914e+00) (47, -5.99106966208039701249e-02) (48, 7.31101883706801647378e+00) (49, 6.59429695749690347739e-01) (0, -9.18099497519574356375e+02) (1, 6.77850472481149267878e+02) (2, 1.50000000000000000000e+03) (3, -7.05184314754341926346e+02) (4, 1.04558182870689324773e+03) (5, -1.46786505244665954706e+03) (6, 1.50000000000000000000e+03) (7, -1.46215733622259494950e+03) (8, 1.49881700260541242642e+03) (9, 5.58000002698208390939e+02) (10, -2.28249307938286250419e+02) (11, -4.67961053751986888471e+00) (12, -1.05456291399604236148e+01) (13, 9.97237375079392677435e+02) (14, -1.49066879777526833095e+03) (15, 5.11756948925630354097e+02) (16, 2.72365472760056320567e+02) (17, -5.88873152194146065597e+00) (18, -2.56126348102965284426e+00) (19, 1.95404732003209211655e+01) (20, 1.49805599961376174178e+03) (21, 1.50000000000000000000e+03) (22, -4.07986565846385595968e-01) (23, -1.90213078624471654265e+00) (24, -1.42862117217787749723e+03) (25, -1.48035994957416960460e+03) (26, 5.17491138611354358545e+02) (27, 4.75175459091524430733e+02) (28, 3.89994643702806413899e+01) (29, 1.50000000000000000000e+03) (30, -8.36604156600628243723e+01) (31, -1.46613798383204220954e+03) (32, -1.50000000000000000000e+03) (33, 7.56655755717674196603e+01) (34, -5.80586923344857609663e+02) (35, -5.40119657534524662879e+02) (36, 1.49999848401059102798e+03) (37, -3.05097162748899553009e+00) (38, -1.01474259983088722947e+03) (39, 1.50000000000000000000e+03) (40, 1.50000000000000000000e+03) (41, 1.46001796830127204885e+03) (42, -1.50000000000000000000e+03) (43, -1.00413275703568865538e+03) (44, -3.08422759287875365430e+01) (45, -1.34364083598182628521e+03) (46, 1.25091631972287231633e+02) (47, 6.04864324727194002662e+02) (48, -1.50000000000000000000e+03) (49, -5.21943058492370881574e-01) (0, 1.54365854697520159533e+01) (1, -1.00297881184178141467e+01) (2, 6.48146340838879564394e-01) (3, -1.28023785528842837245e+00) (4, 5.76354857944928467006e-01) (5, -5.07104511083546150019e-01) (6, -5.25709878889993120765e+00) (7, 1.57297865255794677708e+00) (8, 5.74536088597053584692e+00) (9, 1.75442918180080109636e+00) (10, -9.12100174605995794863e-01) (11, -3.46051764043093079692e+00) (12, -7.77983268033269892427e-01) (13, 2.29797822252036576529e+00) (14, -2.69046931666119748527e+00) (15, -1.91515329531013778208e+00) (16, -1.75648074603404702465e+00) (17, -1.70426193981103452080e-01) (18, -3.59646690260278223406e+00) (19, 1.19860886807624100747e+00) (20, 1.44292876940669723140e+00) (21, -3.05461763574149891554e+00) (22, 1.10414978765345828116e+00) (23, 8.29770765008735899926e+00) (24, 1.14013119925689672129e+01) (25, 1.77150880180114977946e+00) (26, 1.28602690322345769580e+00) (27, -2.12823696394579187086e+00) (28, -1.15342950531402954617e+00) (29, 1.99675425741750900421e+00) (30, -4.34605626648990717165e-01) (31, 5.76917423028844744692e-01) (32, 2.22985879195730563040e+00) (33, -2.88668925012450916512e+00) (34, 7.03313449766384324313e-01) (35, 9.11581873801140391000e-02) (36, 1.75929363989718212657e+00) (37, 1.93661910163077566338e+00) (38, -2.29441376675088104520e+00) (39, -1.14433856703501701801e+00) (40, 2.78216183788974635860e+00) (41, 4.63837051634594565996e+00) (42, -5.41490357384667664320e+00) (43, -1.44130132181029746441e+00) (44, 1.15881515634375298340e+00) (45, -1.26457166914551155656e+00) (46, 2.55443542554981206649e+00) (47, -2.63141198506510243238e-01) (48, -8.52820858552167138100e+00) (49, -4.27433946149125976177e+00) (0, 7.92694429726090010746e+00) (1, -5.80568570039116993442e-01) (2, 4.96881605759388378374e+00) (3, -1.54785746397381496209e+00) (4, 1.73883516833662676859e+00) (5, -2.26299348058325522359e-01) (6, -1.24295176568086596092e+01) (7, -5.35340064009082849950e-01) (8, 7.97957947496456387881e+00) (9, -1.98620488816295948098e+00) (10, 1.27616487077239142423e+01) (11, 1.61568894432446957810e-01) (12, -1.08208210838181018154e+00) (13, -1.38753906456630216049e+00) (14, 6.80550514261553640694e+00) (15, 1.57890444665607088126e+00) (16, -1.63595136616267708973e+01) (17, 1.00867044682402640099e+00) (18, -9.63038969156906010660e-01) (19, -1.47442688966422763563e+00) (20, -2.15787056502202645447e+00) (21, -3.43182174203376755273e+00) (22, -2.24502797981475277211e+00) (23, -6.87735283603008173969e-01) (24, 1.46176527862775129663e+00) (25, 3.16920106426662073762e-01) (26, 2.07576254750336419708e-01) (27, -1.50207558217425285463e+00) (28, 6.76062082913437034648e+00) (29, 1.19464238493606034197e+00) (30, -2.37662834228102326506e+00) (31, 1.50377491734985091476e+00) (32, -5.24223978493505660126e-01) (33, 7.91410114521443497360e-01) (34, -1.23747506395116846356e+00) (35, -1.51627402655275766996e+00) (36, 2.54366871512984982218e-01) (37, -1.71115551753764227882e+00) (38, 3.65144511453361131359e-01) (39, -4.25315247229055959366e+00) (40, -5.17301403528617420591e-01) (41, 2.47496781071145122155e+00) (42, 4.76721908740623701028e-01) (43, -7.78503989988225231222e-01) (44, 1.63536997315884868875e+00) (45, 1.41401888678978182590e+00) (46, -3.91883195571843090388e-01) (47, -2.85105176580477648329e+00) (48, -2.26578952314526427259e+00) (49, -1.00733181946950023367e+00) (0, 6.36996984184565135934e+01) (1, -4.22265238202820913926e+00) (2, -7.40356092478949623370e-01) (3, -5.28328514050185396589e-02) (4, -1.24113720346368427982e+00) (5, 9.03478811935686576540e-01) (6, 1.21411191202413015766e+00) (7, -2.49840606004753817970e+00) (8, -5.64263052112959018203e-01) (9, 1.49450514124354660872e+00) (10, 1.04457536405985762507e+00) (11, 2.41576492624429173262e+00) (12, 7.04880072165708804199e-01) (13, 1.80323591631440471872e+00) (14, 2.19143957182858928334e+00) (15, 1.45669651468279925943e+00) (16, 5.52824864056735809648e-01) (17, -3.62376639196355099237e-01) (18, -6.12284190042409859345e-01) (19, 6.91195443719323177056e-01) (20, -2.33168767130962795164e+00) (21, -2.88363240280235660906e-02) (22, -1.81657188350955767220e+00) (23, 5.21455079867273671446e-02) (24, 1.30088515982829489026e+00) (25, -8.50736825419946818272e+00) (26, -2.09886054682939704463e+00) (27, 2.13224894594123615121e+00) (28, -6.68548911513075161395e-01) (29, -1.92113403051202480398e+00) (30, -1.34401010297610490341e+00) (31, 7.91116306056486084941e+00) (32, 3.75587403143770126590e+00) (33, 1.19252310940615768864e+00) (34, -3.19971253261347321484e+00) (35, -1.30792635697878467660e+00) (36, -4.26199029107395932492e-01) (37, -1.50180043020381392971e+00) (38, -3.00248527384207974933e+00) (39, -1.68750919746661476317e+00) (40, 3.50445553501152673448e+00) (41, 3.41643324444103857473e+00) (42, 1.66731817664375148169e+00) (43, -7.02802579332069576878e-01) (44, 7.02294493440544509433e-01) (45, 5.02496251202369181854e-01) (46, 1.98226508156750713674e+00) (47, -3.33797618318015842931e+00) (48, 2.56546361301700054369e+00) (49, 1.02207509147735553512e+00) (0, 2.43234851182384588242e+01) (1, -1.22146754562804655819e+01) (2, 1.83863147727654796526e+00) (3, -1.12719632142376062489e-02) (4, -9.26783081211659975907e-01) (5, -1.69894258851830348700e-01) (6, -1.91833358778304119419e+00) (7, -1.17434313536223786656e+01) (8, -1.65860353478055655430e+00) (9, -4.54470006784069280314e+00) (10, -7.87937262392601756034e-01) (11, -8.15035059001418676905e-02) (12, 1.85372180889183635344e+00) (13, 3.18991570573087868112e+00) (14, 1.14268684639822182270e+00) (15, 3.59401735932037003085e-01) (16, 1.53706489134589219248e+00) (17, 5.49072291864364459002e+00) (18, 2.25762658099926710742e-01) (19, -5.20168065846916660711e-01) (20, 9.71355366081464999262e-02) (21, -1.24531675323862578431e+00) (22, 2.40051663833869266540e+00) (23, 9.18555331090643800707e-01) (24, 1.77400335565019195982e+00) (25, 4.27203404671679110027e-01) (26, -2.34497961068274918262e+00) (27, -1.82328783736156441186e+00) (28, -1.60949573938632606307e+00) (29, -2.50468111990445319037e+00) (30, -9.36769602427325231986e+00) (31, -2.89387984619400828734e+00) (32, 6.14790527860407332028e-01) (33, -2.70533162190269615976e+00) (34, 4.72610575438335711596e+00) (35, -5.81219468390019056159e+00) (36, 2.59740114349166273389e-01) (37, 7.47672738584059581868e-01) (38, 2.91343035826237883867e+00) (39, -1.50898215065595864282e+00) (40, 2.00698112762779379281e+00) (41, -7.89936330033974343223e-01) (42, 4.24007469096868216951e+00) (43, -1.40378085589951351331e+00) (44, -1.13493572660761501969e-01) (45, 1.17270815181945020633e+00) (46, 3.20581839803984314230e+00) (47, 4.97155326581987733192e+00) (48, 6.11300612808563048617e+00) (49, 6.55302844277547813512e-01) (0, 2.91649903607205871481e+01) (1, 3.65008798665367750758e+00) (2, 4.47328807958147400825e+00) (3, -7.83368834348830388181e-03) (4, 2.89363173719039146192e+00) (5, 7.42150766730878430621e-01) (6, 4.53624731142126336181e+00) (7, -2.42727594449916803110e-02) (8, 4.84695769501576112503e-01) (9, -1.34133704177167722982e+00) (10, -1.89473863618129700903e+00) (11, -3.01547848779341320924e-01) (12, 1.49226625566748344331e-01) (13, 2.51978421386747930555e+00) (14, 3.71686774872647007761e-01) (15, 1.42631712819434031125e+00) (16, -4.57828509115846410404e-02) (17, 2.75624218401058174166e+00) (18, 2.20733282269979635970e+00) (19, 1.35201296094620060373e+00) (20, 1.63573008441584760719e-01) (21, 1.79569193718671371585e+00) (22, 2.53163910022613514172e-01) (23, -2.44381915696756424339e+00) (24, -4.66814889285960799015e+00) (25, -1.57511405631779388692e+00) (26, -1.59216175849049590418e+00) (27, 4.44665956355178193515e-01) (28, -2.47994816845080956469e+00) (29, -3.76538823206172912350e+00) (30, -2.51992175475721191802e+00) (31, -2.61855436579387701457e+00) (32, 3.69718933617644044884e-03) (33, -9.09511761490422315779e-02) (34, 1.38315616947593977848e-01) (35, 2.41402792894076467789e+00) (36, 7.98951291078179859362e-01) (37, 2.68863019648681733642e+00) (38, 1.66086250545917279986e+00) (39, 2.00594027314422174157e+00) (40, 2.28727062224195643036e-01) (41, 3.67513900657899306168e+00) (42, -3.13418150803577266750e-01) (43, 1.14079754799007582200e+00) (44, 1.24421946335626243396e+00) (45, 9.54995299210458670203e-01) (46, 1.74571527334553999733e-01) (47, -3.35591808157557569547e-01) (48, -1.04762450066297030382e+00) (49, 6.42877305498155027230e-01) (0, 3.23183103242315468151e+01) (1, -4.36124102572011373979e+00) (2, -4.99877104345250611317e+00) (3, -7.24046694280398916987e-01) (4, -2.49795281593481455218e+00) (5, 3.15421608330861191760e+00) (6, -1.42596747283823681585e+01) (7, 2.92115220900691312522e+01) (8, 5.10353003391005355383e+00) (9, 9.95578573340891170851e-01) (10, -4.31912222975632142941e-01) (11, 2.24670721435154430168e+00) (12, -1.57827668097424478333e+00) (13, 6.10511653378666618863e+00) (14, 2.06030924098180818760e+01) (15, -6.95032616574935868670e-01) (16, -3.21826868820763456469e+00) (17, 2.79701253926295523300e-01) (18, -9.36496896976758641529e-01) (19, 1.90821025849830128163e-01) (20, -1.44047878486716562918e+00) (21, 1.31941215418324055975e+01) (22, -5.27623830515578262634e-01) (23, -3.66914771131062122933e+00) (24, 1.35425555001387909471e+00) (25, -2.95094078409573745692e-01) (26, -5.52001822024585989124e-02) (27, -2.34889180364569050141e+00) (28, -5.15733370372626254152e+00) (29, 1.38328200980035886936e+00) (30, -1.68840503315913437188e-01) (31, -4.81536104215133375916e-02) (32, -3.68121711374514504200e+00) (33, -2.73603992942523799314e+00) (34, -1.70868383304538151712e+00) (35, 4.41405334649478575670e+00) (36, -2.03603227876999870460e+00) (37, 7.53934267776469657640e-01) (38, -3.16060801292894766323e-01) (39, -3.75572829807062813501e+00) (40, -2.45323902995181342135e+00) (41, 1.27390644042323319951e+01) (42, -3.46018400502207201797e+00) (43, 2.94086998516435560447e+00) (44, 5.52435141134280094377e+00) (45, 3.84468783552038528839e+00) (46, 7.92860437264273976155e+00) (47, 4.38342207226884994498e+00) (48, -9.95889379770530069891e+00) (49, 1.77486230585672744020e+00) (0, -1.43359968388350068835e+02) (1, 3.68522197885505553572e-01) (2, 3.58723495559540506150e+00) (3, -3.04418831571794745727e+00) (4, 5.85609331815272637911e-01) (5, 1.07800641423869025814e+00) (6, -2.88715280141927155277e-01) (7, 3.86108543018675698377e+00) (8, -2.58331238990414346901e+00) (9, -3.11172852120364995532e-01) (10, -1.00165947523676601705e+00) (11, -3.40512493761271572978e-01) (12, 1.82600625207643552095e+00) (13, 1.52954218196226054971e+00) (14, 2.57352618699119695123e+01) (15, 3.45022535832264320987e+00) (16, 1.02840614557590592781e+00) (17, 1.48573101334919677186e+00) (18, 5.24168804013484534998e-01) (19, 1.80426665291411825187e+00) (20, 7.54311206226546682174e-01) (21, -3.35042035844039673975e+01) (22, -3.55483370306789980830e+00) (23, -1.29573313342684515170e+00) (24, -6.64324361002374019769e-01) (25, -1.74448576677691891135e+00) (26, -2.49144902399499912349e+00) (27, 3.62456627319087099082e+00) (28, 1.23530404833610560900e+01) (29, 2.77581276181893272792e+01) (30, 2.11105999063503766422e+01) (31, -3.11750022460601794450e+00) (32, 2.55033003384313294859e+00) (33, 2.23036733268145948017e+00) (34, 4.97097066835512002569e+00) (35, -6.30370068897094792959e+00) (36, -5.65025648104340039168e+00) (37, -2.51497651622171769503e+00) (38, 4.56723599258735735162e+00) (39, 1.11366169127429248675e+00) (40, -2.11953399011605769786e+00) (41, -2.00444327643702031594e+01) (42, -1.73934520044332896482e+00) (43, 6.28971831810988035727e-01) (44, 6.64766456525702209568e-01) (45, -9.00173914589325496749e-01) (46, -6.18326862480560679458e-01) (47, 4.06027185277473545710e+00) (48, 4.68051491721907524379e+01) (49, -3.68130248098096624076e+00) (0, 6.74391929534638823185e+00) (1, 1.95286594401696533829e+00) (2, 6.32585674300285560889e-01) (3, -6.85561465832750932536e-02) (4, -8.07323329064808858924e-01) (5, -2.81672125954103780288e+00) (6, 1.37836781431861488123e+00) (7, 3.70330061848729652496e+00) (8, 1.48359985482515410737e+00) (9, 1.35774221555260488081e+00) (10, -1.48089919997974522881e-01) (11, -2.16432988926441582933e+00) (12, 9.01016847121929725928e-02) (13, 2.85555202021230369880e+00) (14, -2.55583847237211703174e+00) (15, 1.59266772668120970557e+00) (16, 2.38680092203232607773e+00) (17, 4.50640461310342799184e-01) (18, -5.48192783402100491941e+00) (19, -2.52230645157023269931e+00) (20, 1.95810221234525871914e+00) (21, 4.99654718301622846610e+00) (22, 2.17757863894579450914e+00) (23, 1.79073248049803801507e+01) (24, 1.63215089307335570190e+00) (25, 4.12137479929772254650e+00) (26, -6.23012779386156401173e-01) (27, -2.24336163524448117812e+00) (28, -6.28158461949416757619e+00) (29, -2.83664371193274256200e+00) (30, -4.69990372435544423446e-01) (31, -1.46932190841957255323e+00) (32, 1.98755201988685770154e+00) (33, -2.31890428013875915525e+00) (34, -2.42052797998354574105e+00) (35, 1.59627725309371526485e+00) (36, 2.12839590097947645164e-01) (37, -6.93127788091028662620e+00) (38, -3.79154439290510936189e+00) (39, -1.01227472815828223318e+00) (40, -2.79242040371754240979e+00) (41, 2.56488316563641749468e+00) (42, -4.86923303693143605386e+00) (43, 6.53268807394608352901e-01) (44, 3.55174473230419041059e+00) (45, 2.15440660634694314268e+00) (46, 3.46260404497490981157e+00) (47, -2.08173296177018185560e-01) (48, -5.66228304439340668353e+00) (49, -1.56605281424392761558e+00) (0, -1.50000000000000000000e+03) (1, -3.42744157683125578728e+01) (2, -1.44817718481955671450e+03) (3, 1.46883805986111360653e+03) (4, 1.49032540799566345413e+03) (5, 7.38001137978505084902e+02) (6, 1.50000000000000000000e+03) (7, -1.24625145437999591991e+02) (8, -1.03191416202474755437e+02) (9, -3.95890168681504398679e-03) (10, -9.36491618246511166035e+02) (11, -5.79968773668809149058e+02) (12, -6.08184020368675419377e+02) (13, 1.50000000000000000000e+03) (14, -1.47749972506875496947e+03) (15, -7.78527892068595672725e+00) (16, -1.15233861056518844634e+03) (17, 1.49629862330538958304e+03) (18, -8.68563809283317334042e-01) (19, 1.50000000000000000000e+03) (20, 1.50000000000000000000e+03) (21, 1.50000000000000000000e+03) (22, -1.97251779913860048055e+01) (23, -4.03800523858771498453e+00) (24, 1.50000000000000000000e+03) (25, -1.25562501267076171985e+01) (26, -8.45992297113124891439e+01) (27, 1.50000000000000000000e+03) (28, 1.50000000000000000000e+03) (29, 1.50000000000000000000e+03) (30, 4.92925983615120411052e-01) (31, -1.48245426915070538598e+03) (32, -6.17288757171472326490e+01) (33, -4.94969564909581272172e-01) (34, -1.31051179168737803593e+03) (35, 1.50000000000000000000e+03) (36, 1.50000000000000000000e+03) (37, -1.50440125996433304856e+00) (38, -8.59377515267365943430e-01) (39, 7.34523695283801458800e-01) (40, 1.50000000000000000000e+03) (41, 1.50000000000000000000e+03) (42, -2.41075069126495918681e+02) (43, 2.64781478049582176482e+02) (44, 1.16365240828791876027e+01) (45, -1.47749842887936961233e+03) (46, -1.28298139555386092070e+03) (47, -1.50000000000000000000e+03) (48, 5.94032943161062689796e+02) (49, -6.91088083527646501736e-01) (0, 1.04592514117913680138e+02) (1, -9.93377572986024048873e+00) (2, -4.82942374493347159614e+00) (3, 2.78899523710483920880e+00) (4, -3.87278357469274681080e+00) (5, -3.70248283815609857683e+00) (6, -4.29350600844799146216e+00) (7, 4.13891847596037187884e+00) (8, -5.08915831619830005828e-01) (9, 9.03215093540558200402e+00) (10, 2.82594517932611344335e+00) (11, -1.54861609808034456082e-01) (12, -1.56767277234611679404e+00) (13, -6.63099538373634622701e+00) (14, 6.52543523113186196838e+00) (15, 4.58976994657871673056e-01) (16, 2.68258335558662430742e+00) (17, -3.30224131941768650478e+00) (18, -7.50104986136506113326e-01) (19, -1.61783396540133128649e-01) (20, -2.54344292548364769857e-01) (21, -1.29214858837745030229e+01) (22, -2.93579387687970605469e+00) (23, -4.18044500782878625245e+00) (24, -1.33126928428787860703e+00) (25, -2.74527268847348959735e-01) (26, 2.05991884031343580608e-01) (27, -6.83999879227697449302e-01) (28, 3.23109182878767242642e+00) (29, 1.77169587735409250762e+00) (30, 8.85527521677274109813e-01) (31, 3.15466535606154452331e-01) (32, 1.51733524018879095685e+00) (33, 4.95922975978094093819e-01) (34, -4.30854112123821075819e-01) (35, 3.33155142479693022750e+00) (36, 2.12195404988783486999e+00) (37, -2.22378369121524954721e+00) (38, -5.50815472576296150109e-01) (39, -1.92229669013612625150e+00) (40, -3.25039820656548883449e+00) (41, -3.79378948907511981403e+00) (42, 2.86156694318531856780e+00) (43, 8.24110799975880103929e-01) (44, 6.07932422763378665920e-01) (45, -7.01821404122209946408e-01) (46, -2.48279720788588909031e+00) (47, -4.75486740788408801528e-01) (48, 4.88760590592631949391e+00) (49, -1.09247836989916691230e-01) (0, -8.13530542252557964389e+00) (1, 9.39399866107870851195e-01) (2, 2.68360185520737859477e+00) (3, -3.24952629258787339950e+00) (4, 1.89139423749544910436e+00) (5, -1.06336191844983996013e+00) (6, 1.44326573554035491043e+01) (7, 1.10861012845827766604e+00) (8, -5.03985523652374389769e+00) (9, -3.73775123145891008392e+00) (10, 4.55349514026554047508e-01) (11, 5.90799587014066762691e-01) (12, 1.70817827008456890603e+00) (13, 1.89462133207218541564e+00) (14, 2.20755863229192605957e+00) (15, -3.07694977781198097944e+00) (16, 7.90617551222731362870e-01) (17, -1.77653071673462781277e+00) (18, -1.38044370426354490178e+00) (19, -8.45565192112493035914e-01) (20, -1.62426348600793324373e+00) (21, 2.45280549927358260121e+00) (22, 1.40153687996193787590e+00) (23, 5.92778930573975681995e+00) (24, 8.81972631994681233181e-01) (25, -1.71322573658667202945e-02) (26, -6.39965703029961030524e-01) (27, -1.85608132665074171408e-01) (28, -3.71272632881366249080e-01) (29, 1.28367570862863344949e+00) (30, -1.66108598440448318456e+00) (31, -2.35386451827608977894e+00) (32, 2.79978955234536242003e+00) (33, -8.13786408640452840757e+00) (34, 7.52296112925255222592e-01) (35, 2.44160010698679696972e+00) (36, 2.49191551890776880063e-01) (37, -5.68525860182243381047e-01) (38, 4.85108938863115923823e+00) (39, 1.34724295641225229048e+01) (40, 1.69449434227628970007e+01) (41, -1.38553672538729024666e+01) (42, 4.62639992061783811295e+00) (43, 9.52811410657701363114e-01) (44, 4.41362010339097388112e+00) (45, 9.32032454486006356476e-01) (46, -3.41031148771607517389e+00) (47, 2.64125325086497717564e+01) (48, 3.02879527289664522982e+01) (49, -1.52953484578713849729e+00) (0, -1.50000000000000000000e+03) (1, 1.47148799485015842947e+03) (2, -1.50000000000000000000e+03) (3, 1.49397593299768823272e+03) (4, 1.21269352317602465519e+03) (5, -1.49608726040932424439e+03) (6, -1.49698208513638314798e+03) (7, -1.41846550620614470972e+03) (8, 1.39081370035509007721e+03) (9, -1.34647827681495158458e+02) (10, -9.28068550019918461658e+02) (11, -1.00884571319230110475e+03) (12, -8.25034421805451323451e+00) (13, -4.42265018194428591869e+02) (14, -3.00238155211008404422e+02) (15, -1.49507475538474727728e+03) (16, -4.20320917744360315282e+02) (17, -4.48097730553259054886e+02) (18, -9.25970219028535801442e+00) (19, 1.50000000000000000000e+03) (20, 1.50000000000000000000e+03) (21, 1.50000000000000000000e+03) (22, 4.81605053527695048388e+00) (23, -6.99034062719207440750e+01) (24, 7.43811764603451841538e+00) (25, 1.48878261415332886486e+01) (26, -1.67631968046891813628e+02) (27, -1.31428720504665034241e+03) (28, 1.50000000000000000000e+03) (29, 1.36208037403928699405e+02) (30, 1.49929914022223738357e+03) (31, 1.60564114776840618504e+01) (32, 8.96264394716177775990e+02) (33, -1.49950474153714571912e+03) (34, -1.23459176512709831286e+02) (35, 1.50000000000000000000e+03) (36, -9.77293608872257522080e+01) (37, -6.72798116081486208273e-01) (38, -5.48767592320679731266e-01) (39, -5.50923029334324212414e+01) (40, -2.07254166214121084977e+01) (41, 1.49736587726193624803e+03) (42, -6.22671863071139114254e+02) (43, 1.50000000000000000000e+03) (44, -9.01366045921519365436e+00) (45, -3.58077713093703721370e+02) (46, -1.48982463556074526423e+03) (47, 1.50000000000000000000e+03) (48, 1.50000000000000000000e+03) (49, -3.15246074553976640686e+00) (0, -1.50000000000000000000e+03) (1, -1.50000000000000000000e+03) (2, -5.92594077210347158768e+00) (3, 2.17941176396528948911e-02) (4, -4.18505190142341287896e+00) (5, -1.22813994124215364323e+00) (6, -6.23419083587662647972e+00) (7, -7.46014710591946883511e+00) (8, -2.53097039208830221213e+00) (9, -2.03709099738329513229e-01) (10, 9.94524522345305306281e-01) (11, -2.56588384897420196396e+00) (12, 1.03951146873198152498e+00) (13, 8.45527312491417326612e-01) (14, -3.37792053425801297450e+00) (15, -2.77454743620170507512e+00) (16, -2.51640219808730547513e+00) (17, 1.33636355722410549163e+00) (18, 1.06145627121896923839e+00) (19, 1.01272502542154940741e+00) (20, 3.12216642116909603999e+00) (21, -9.94926460173315763136e-01) (22, 8.29699951864294904524e-01) (23, 1.14135637230686626253e+00) (24, 1.76523961248713084915e-01) (25, 7.12270028176771319295e-01) (26, 3.11658319948743267602e-01) (27, 4.74229956885692027768e-01) (28, -9.14941746209359862974e-01) (29, -5.62781928332865666320e-01) (30, 7.42075615054069825938e-01) (31, -2.48506328864252123978e+00) (32, -1.39273847226308844505e+00) (33, -6.92742639674286120322e-02) (34, 6.31436271529034587324e-01) (35, -5.91957371139080978928e-01) (36, 3.72690715706406161534e-01) (37, 2.65128657406327850055e-01) (38, 1.25754383334864605626e-01) (39, -4.58235087266284413232e+00) (40, 6.36152940402511357654e-01) (41, -2.49835065349111395960e+00) (42, -2.50426065098351546823e+00) (43, -8.69156189025549918981e-01) (44, 9.68717807852915280264e-01) (45, 1.88027608550931768505e+00) (46, 1.82980356102615537850e+00) (47, 1.10692966236527934321e+00) (48, 4.85372727601300846256e-01) (49, -1.95249248543879372342e-01) (0, -1.50000000000000000000e+03) (1, -1.50000000000000000000e+03) (2, -1.50000000000000000000e+03) (3, -1.50000000000000000000e+03) (4, -3.04604110021028740007e+00) (5, -8.68954102014533447118e+00) (6, -1.33909506966113622184e+03) (7, -1.32359435656452539831e+01) (8, 1.03544535019862118941e-01) (9, -2.19929959051908774370e+00) (10, 5.50835445092351605467e-01) (11, 8.93995968334313384496e-01) (12, -4.62452036743178362954e-01) (13, -3.94162724829374910840e+00) (14, 1.03391774621028336156e+01) (15, 4.21972444750362907229e+00) (16, -1.92989861188261424552e+00) (17, 5.16496601718141512549e+00) (18, 9.43390210892320801861e+00) (19, 1.14920110049406520858e+00) (20, 3.78214291100656685440e-02) (21, -2.81266019365286989995e+00) (22, -1.53835553233319144439e+00) (23, -9.71970165792562235119e-01) (24, -9.11638107282220744310e+00) (25, 2.66867122310724236289e-01) (26, -1.85341060722160944074e+00) (27, -1.83569624678551490682e+00) (28, 1.22929786847200728239e+00) (29, -3.75549684933487060157e-01) (30, 2.38612786165547569039e-01) (31, -5.47617483563065388097e+00) (32, -2.29377545249963432639e+00) (33, 1.30334880712288048166e+00) (34, -8.19142791577852191764e-01) (35, 2.08809806614307191808e+00) (36, -5.07586461892082563274e-01) (37, -4.06084273964003550361e+00) (38, -1.82721623865507010187e+00) (39, -6.29757836570228879403e-01) (40, -2.54302859397033920175e+00) (41, 1.17520450569249845785e+00) (42, 6.07799743108551560056e+00) (43, 2.87235032314842841927e+00) (44, 3.63727610526765809951e+00) (45, 1.74428992870972066065e+00) (46, 1.09385148284952404829e+00) (47, 2.70328490084413575190e+00) (48, -1.25907655274977847704e+00) (49, 1.45239886392583827934e+00) (0, 6.76613353501202112739e+01) (1, 5.79159893136147502446e+02) (2, 1.18628361199466348808e+03) (3, -3.17514291882703503234e+00) (4, -9.17845876888716105668e+00) (5, 3.19284448553854701913e+02) (6, 9.48298921097413199277e+02) (7, -1.50000000000000000000e+03) (8, -1.44625309010734486037e+03) (9, -1.46020572763165805696e+01) (10, -1.56095501253897900318e-01) (11, 2.90086214345857968055e+02) (12, 2.83895926190656204824e+01) (13, -1.44058329280002249106e+03) (14, -1.42941599282360016332e+03) (15, 1.47920209160164572992e+00) (16, 9.82677712676393610991e+01) (17, -1.49884959683991974089e+03) (18, -3.33931187836529286272e+00) (19, -2.88846717928196783376e+00) (20, 1.48732373658828259977e+03) (21, -1.50000000000000000000e+03) (22, -1.38629064602890616698e+03) (23, 6.98142704273877079402e+00) (24, -1.39783320510066374709e+02) (25, -7.36213254170408060162e+00) (26, -5.19936056889108044743e+02) (27, 1.36432981070723781158e+03) (28, 4.89005904720469004587e+01) (29, 4.51425613026096016256e+02) (30, -5.63705278577484314440e+00) (31, -8.85393296846745392337e-01) (32, 2.81054550406579188859e+01) (33, -4.34730851021120390243e+00) (34, -4.76325497373800430978e+02) (35, -2.26698777748270629218e+02) (36, 1.50000000000000000000e+03) (37, -6.94366036331415470428e-01) (38, -6.56916951973460339076e-01) (39, 8.98825189947029912219e+00) (40, 4.93792880248060555459e+02) (41, -2.45087233050201461992e+02) (42, -1.43275596420566716915e+03) (43, 4.56914213741930641532e+00) (44, -6.86245684310434000963e+01) (45, 6.89347469431654076288e+02) (46, -9.57623230749420315533e+01) (47, -1.50000000000000000000e+03) (48, 1.50000000000000000000e+03) (49, 1.35835043850190118064e+00) (0, 1.76037325610489254757e+01) (1, -3.24787605978572013754e+00) (2, 4.21155126240805102733e-02) (3, -1.10664387529093311002e+00) (4, -3.56542779506404616807e-01) (5, -2.38214134048350478778e+00) (6, -5.94251352753772810189e+00) (7, -4.67227596350737961473e+00) (8, 2.98761989815912787360e-01) (9, 1.80355620131551130925e+00) (10, 1.24343669922113808646e+00) (11, -4.33499802498900521641e+00) (12, -1.78112953054104961037e-01) (13, -1.98744021197488685004e-01) (14, 2.99562519927488102311e+00) (15, 1.16998279014980899326e+00) (16, 7.57382921335762349102e-01) (17, 3.74812024118623576818e-01) (18, 1.45997951800971220715e-01) (19, -2.31176748770753093254e+00) (20, -1.63950642393137724362e+00) (21, 2.14087607348832476006e+00) (22, -1.60948402345450491957e+00) (23, -1.95176036242185246827e+00) (24, 3.06331047803691181031e+00) (25, 4.56486317620565174025e+00) (26, -3.83051330324201444455e+00) (27, -1.50000000000000000000e+03) (28, 3.68241562761502061463e+00) (29, 9.61081663427507532083e-02) (30, 2.63740105737285901455e+00) (31, 1.66550028779889491837e+00) (32, 1.95693436164991751980e+00) (33, 2.42461666828197031087e-01) (34, -2.96847164395979667972e+01) (35, -5.58353722765438487130e-01) (36, 7.17029932648678980378e-01) (37, -3.35449922926037835680e+00) (38, -1.14604073345593504563e+00) (39, -2.27075202683374088863e+00) (40, -4.88211234516363723479e-01) (41, -3.66029628520950467419e+01) (42, 9.72627877208973923295e-01) (43, 4.61069253072209972455e-01) (44, -2.80283307672539860889e+00) (45, 6.62299129740902436936e-01) (46, 2.80058697096016873118e+00) (47, 7.44636747309754998270e+00) (48, -1.12058418211842877099e+02) (49, 1.82680705939562343376e-01) (0, 1.50000000000000000000e+03) (1, 1.50000000000000000000e+03) (2, 3.84935572706647644026e+00) (3, 6.63540486183345212812e-02) (4, 1.79670481086478484034e-01) (5, 2.57177055306446389338e+00) (6, 1.62442674441933387897e+00) (7, 1.50000000000000000000e+03) (8, -5.52929857533899560273e-01) (9, 1.20892514015271967942e+00) (10, -2.93345335084470049125e+00) (11, 2.30301025446185381185e+00) (12, -1.24722997086814058054e-01) (13, -1.11714020265882552074e+00) (14, 1.50000000000000000000e+03) (15, 1.49729075399409294889e+00) (16, 3.44306094377863969314e+00) (17, 3.19685082768946182696e+00) (18, 3.08737443120882137926e-01) (19, -1.79131492244111112377e+00) (20, -1.08885679051740957846e+01) (21, -1.08176452766754653823e+01) (22, -1.17730367942359359645e+00) (23, 2.60553534736397152116e+00) (24, -1.70037751308471296596e+00) (25, 5.30568146722861655462e+00) (26, 6.10244718532413159551e+01) (27, 1.12277526991976417392e+00) (28, -2.45575849504153476133e+00) (29, 1.37850397688524961559e+00) (30, -9.37028466200863552338e-01) (31, -3.10572615637011173462e+00) (32, -2.56730765709748132153e+00) (33, -1.26018836780318088664e+00) (34, 8.78197629658410683362e+00) (35, -2.48009223658060724838e-02) (36, -2.29477380956263488088e+00) (37, 1.85844264279364024262e+00) (38, 2.69071985372502231471e+00) (39, 1.81955055393826481414e+00) (40, 3.67900133499184800456e+00) (41, -1.20758709267905821605e+01) (42, 2.48605098588075335009e-01) (43, 2.18283388304876524444e+00) (44, -1.11604736855785285909e-01) (45, 3.76827765037570927564e-01) (46, -1.13403837946614283183e+00) (47, -3.42405009985725294896e+00) (48, 3.30997080741995759467e+01) (49, -2.62312381339844113981e+00) (0, -1.00061574397994888841e+03) (1, -9.38589242297854440267e+01) (2, 1.09913034492977942591e+02) (3, -2.64767164532569125868e+01) (4, 1.50000000000000000000e+03) (5, 1.50000000000000000000e+03) (6, 1.45473781109516517063e+03) (7, -8.19501130744221200075e+02) (8, 8.76181301823866220957e+00) (9, 4.11126821397966413230e+00) (10, -1.19428319857687337269e+00) (11, 6.90342598320016236357e+02) (12, 2.42060770539716187955e+01) (13, -1.50000000000000000000e+03) (14, 7.19095997192841593915e+01) (15, 2.99546644640590002950e+01) (16, 1.71855338554335958179e+02) (17, -2.01566496850726110779e+02) (18, -6.78669150546795307832e+00) (19, -5.04101099219870647516e+01) (20, 8.84150734197096284106e+01) (21, 1.57543420321616123303e+00) (22, -2.31591159797384094077e+01) (23, -1.01948385861006141084e+01) (24, -2.84291325682103206418e+01) (25, -2.54435033317762293592e+00) (26, -1.63427345411054480984e+00) (27, -2.13193670598597577737e+01) (28, -3.80229018378754091145e+01) (29, 2.38585669766534849146e+01) (30, -1.29153130867604744481e+02) (31, -7.28772880135557699077e+00) (32, 3.72620532060896110238e+01) (33, 1.39071725282513569688e+00) (34, 1.60717178413851051744e+01) (35, -1.39489760351745331945e+02) (36, 2.45354387405722206950e+02) (37, -3.00771099184212609146e+01) (38, -1.77768425567286598721e+01) (39, 2.30008791702975701199e+00) (40, 9.18223968015954596922e+01) (41, -8.83568324225649064374e+01) (42, -1.24005854789490285839e+02) (43, 1.83166448902361793216e+02) (44, -2.64455216994080558379e+02) (45, -6.95538458435259826729e+02) (46, -1.42001719818012986707e+02) (47, -7.76222076298357364976e+02) (48, 1.44545732277132219679e+03) (49, -6.71842101327274932032e+00) (0, -8.81746566808460272568e+01) (1, -7.88006905627111731150e+00) (2, 1.90209247058706343303e+00) (3, -3.75657233357051500988e+00) (4, 9.99769831257991681284e-01) (5, 4.76897530857501372736e+00) (6, 1.50000000000000000000e+03) (7, 1.05476138601902498237e+01) (8, 4.79828609757236090871e+00) (9, 8.35536854208471702066e+00) (10, -3.64468008808249077646e+00) (11, 5.90455832771415600746e+00) (12, 4.88438943682470583241e+00) (13, 1.50000000000000000000e+03) (14, -8.55556344355593267892e+00) (15, 9.11699650170726683118e-02) (16, -3.38751710987667520314e+00) (17, 2.60892390313607780428e-01) (18, -9.42886285475091678876e-01) (19, -2.39562515603616432713e+00) (20, 1.84543195307983154407e+01) (21, 4.66087286818018355916e+01) (22, -6.02855686372064880629e-01) (23, -2.69153621994530833916e+00) (24, -1.10642287304257913583e+00) (25, -8.83495231577469258832e-02) (26, 2.81593719414273113699e+00) (27, 1.93737040918761038721e-01) (28, 1.50000000000000000000e+03) (29, -1.12063732761781364999e+00) (30, -2.31931354755681740087e+00) (31, 2.16679019947557879866e-02) (32, -8.31906001689763983757e-04) (33, -3.86721224989922696125e+00) (34, 6.48757444178929887357e+00) (35, 1.50000000000000000000e+03) (36, 4.77339739884052782770e+00) (37, 1.92459368362116745033e+00) (38, -5.64254784527144259698e+00) (39, -5.08509589319442945055e+00) (40, 1.21416284042870703530e+00) (41, -5.00946691250072451140e+00) (42, -1.50000000000000000000e+03) (43, 1.50000000000000000000e+03) (44, 3.53163505487569917562e+00) (45, -3.25545336987128886008e+00) (46, 1.16343101894737555035e+00) (47, 1.81475862923525377290e+00) (48, 1.50000000000000000000e+03) (49, 3.77378998186984437879e+00) (50, -3.81075047549676720893e-02) (51, -1.49482076241775585501e+00) (52, -3.28048945682089421183e-01) (53, 3.09067614929925360556e+00) (54, -1.47185633057877107710e+00) (55, 1.70226013406759424385e+00) (56, -3.94964360290053040359e+00) (57, 8.85524353897308103001e-01) (58, -2.66640826489409299427e+00) (59, -3.05320113102784285175e-01) (60, -1.21876823544265313615e+01) (61, -4.85500295460299025052e+00) (62, -5.76430555944736244811e+00) (63, 5.63802872925094344936e-01) (64, -2.42324346982443161735e+00) (65, -1.20520831601573585878e+00) (66, -1.96216043327987210709e+00) (67, -3.01073698667452882560e+00) (68, 1.57021205227428795048e+00) (69, 2.08255714642756695198e+00) (70, 5.63432653532107807770e-01) (71, -3.28412962300783961567e+00) (72, -5.95371948570200926198e-01) (73, -1.09252103803313760366e+00) (74, 1.68730124573195050530e+00) (75, -4.78517299200656331948e-01) (76, 1.06784927692558095913e+00) (77, -7.05571955180211984882e-01) (78, -2.43134366261129997167e-01) (79, -1.92040894917554649801e+00) (80, 2.02701990064505910283e+00) (81, 1.03399746843486572967e-01) (82, -2.38890704298430867070e+00) (83, 7.22990397591115163678e-01) (50, 2.55254447321375255164e-01) (51, -1.68457503755430404446e+00) (52, 2.87849730860037844593e+00) (53, -2.26177571033444291260e+00) (54, -9.21688089286673850609e+00) (55, -1.14363066077632535844e+00) (56, -1.55219961042906473558e+00) (57, -2.33126683268826795370e+00) (58, 1.90223033153207632395e+00) (59, 1.92779359264138117069e+00) (60, -2.30252852122321272077e+00) (61, 6.47741371054842396404e+00) (62, -3.98969804997691412929e-01) (63, -6.37139238543761754485e-01) (64, -3.24981249516910830621e+00) (65, -7.03328970376472573101e-01) (66, 2.41490845656239194739e+00) (67, 3.34347161529862324514e+00) (68, -8.28271571192133876371e-02) (69, 7.08227910747970090810e-01) (70, 3.30866555578794158121e-02) (71, 2.82126800675470335023e+00) (72, 4.21917651515608393975e-01) (73, 1.79736236814158845121e+00) (74, -3.42192944293295442382e-01) (75, 2.62250489637531725151e-01) (76, 4.71725210596876465274e+00) (77, -1.57837047515717987523e+00) (78, 1.30486055018284557994e-01) (79, -6.30936251812678761119e-01) (80, -4.13603287697186017269e-01) (81, 1.99786746777992962887e-01) (82, -3.61790478674331827946e+00) (83, 3.93636459771417701603e-01) (50, -2.25083752889810584374e-01) (51, 4.03976709495425900798e+00) (52, -2.07026806251989148322e+00) (53, -3.98839351589103285889e+00) (54, -3.07859099875594344198e-01) (55, 1.16779900800403590999e+00) (56, -2.84262255978622224717e+00) (57, 4.20755598480895762203e-02) (58, -3.04334069214753855093e+00) (59, 1.87435235119321225161e-01) (60, -4.02144649756295802234e+00) (61, 3.19148482780413811355e+00) (62, 5.75294658220382260083e+00) (63, -6.59306921731893091909e-01) (64, 4.55951670648611306902e-01) (65, 1.71223188521180036403e+00) (66, 3.33786721073246672731e+00) (67, 6.66134277175993383402e-01) (68, -5.53952471002916557730e-01) (69, -3.15837883510345074356e+00) (70, 1.45742707000517457416e+00) (71, -4.01034552937398824923e+00) (72, -3.89786411238002061808e-01) (73, -5.79707354511752592785e-01) (74, -3.82470329446174073240e+00) (75, -1.78648743416028349396e-01) (76, 8.26256170223651359441e-03) (77, -1.56014353025250018803e-01) (78, -1.77302393685281833857e-01) (79, -3.41427209375986917550e+00) (80, 1.62652608889283878391e+00) (81, -6.11188173233723763822e-01) (82, 1.52485007880182155127e+00) (83, -7.26669217493739583169e-01) (50, -7.81372801984365206174e-01) (51, 1.52118220348360067007e+00) (52, -1.70858972553127586025e+00) (53, 2.50077006133812007604e+00) (54, -2.18342281126938986269e-01) (55, -1.64246848191525796068e+00) (56, -1.65176439841837741085e+00) (57, 7.63250113313530653691e-01) (58, -1.87110802885086036085e+00) (59, -9.65413629340366341580e-01) (60, -5.81458477614017521518e+00) (61, 6.76604586368750871017e-01) (62, -3.89788439038150658078e+00) (63, -9.13793528481451788892e-01) (64, -6.94388446435341977203e-02) (65, 2.75975067672858509482e+00) (66, -3.32309999761536190022e+00) (67, -2.55899423818030191669e+00) (68, -2.31202337705502092291e+00) (69, 1.12886617491692664572e+00) (70, -1.72190674664546250483e+00) (71, 2.41277433802278329367e+00) (72, -4.93908790306929856850e-01) (73, 1.72412876724100860848e+00) (74, 3.40918734379142751578e+00) (75, 2.03126705137451957217e-01) (76, -7.84259233110458708893e+00) (77, 1.78046931386641382744e+00) (78, 1.39814449158693093755e-01) (79, 1.56929110370001922981e+00) (80, -1.37658980544139830648e-01) (81, -7.97710300474421679651e-02) (82, 7.27558161423269678103e-01) (83, -1.96861822752397652714e+00) (50, 2.23440354150456904625e-01) (51, -2.15797394974791348354e-02) (52, 4.96152645752020393655e-01) (53, -2.26698641811454137951e+00) (54, -2.72356348505776280078e+00) (55, -2.60188884781945972691e+00) (56, 2.84045203852456795701e+00) (57, -3.40690119304191263438e+00) (58, 4.02713460203616602229e+00) (59, 2.11890698629231222228e+00) (60, -2.45593539249101822097e-01) (61, -9.26001072383691870016e+00) (62, 3.66875794206278194043e-01) (63, 4.59060211272662277437e-01) (64, -1.09222743993931148410e+00) (65, 1.91277165000448334808e+00) (66, 1.48567771069725318434e+00) (67, -2.20258181520321727476e+00) (68, -3.48814635386933247219e+00) (69, 9.60615597115329206135e-02) (70, -4.70381269607862251281e-01) (71, 3.70991402852923202182e-01) (72, -1.54134823360164725098e-02) (73, 7.81221001076532695073e-01) (74, 3.70028306945849294607e+00) (75, -5.85715804619239222006e-01) (76, 3.21552498990407853441e+00) (77, -5.75878375325942126750e+00) (78, 1.54559474105211480666e-01) (79, -1.00948017707991360981e-01) (80, 2.45005511373537609998e+00) (81, 9.72633716493888744736e-01) (82, 6.41352556022930717083e-03) (83, -6.96129451927122944177e-01) (50, -6.68044807602703238913e-01) (51, 3.44435345674733506272e+00) (52, 3.49571679670977797372e+00) (53, 1.78862244497098932250e+00) (54, -9.47203030121253064522e-02) (55, -5.42876692119713011309e-01) (56, 1.78196592650045171347e+00) (57, 1.03026924574984435345e+00) (58, 3.06008471985197472165e+00) (59, -1.40364864286226986856e+00) (60, -4.57449965251557966184e+00) (61, -4.14388768434829968257e-01) (62, -1.02952142478408319448e+01) (63, -1.24970787643079728202e-01) (64, 1.14358451275500483391e+00) (65, -4.81585801030277682599e+00) (66, -2.73588169386728452537e+00) (67, -1.50980743419702689856e+00) (68, 1.48236355316049200903e-01) (69, -8.80452657382754466653e-01) (70, -2.02527708326252842141e+00) (71, 1.18399200208197830086e+00) (72, -1.73648924636377377517e-01) (73, -3.88076717294004103209e+00) (74, 5.16404802189768030729e-01) (75, -1.95298779963642310520e-01) (76, 3.89257904310932634218e+00) (77, -6.35413054139690625099e-01) (78, -6.58806240705290591109e-01) (79, 1.56800474623358665482e+00) (80, -6.59008804172540774147e+00) (81, -5.29677067837899029357e-01) (82, 2.79230042712614645595e+00) (83, -2.93338296549745469743e-01) (50, -3.56767020613827257058e-01) (51, -7.17007914050309036469e+00) (52, 2.43407787548216258955e+00) (53, 2.03400525429673129096e+00) (54, 3.01413792295373406116e-01) (55, -1.30434629112731093059e+00) (56, 2.50561004111684226814e+00) (57, -1.01579343863438587015e+00) (58, -1.14526645884624489469e+00) (59, -8.59945546449241482456e-01) (60, -1.33743523445888889967e+01) (61, 1.83736739252307557102e+00) (62, 2.77066126937970569344e+00) (63, 8.12632125137738747789e-01) (64, 3.39808296148371580259e+00) (65, -3.65020391252056608522e+00) (66, -2.02350799832160932468e+00) (67, -5.96712031532485864815e-01) (68, -6.89096297724554163189e-01) (69, 1.29436768884413178071e+00) (70, 1.85009467182256259754e+00) (71, -1.92775016544984545419e+00) (72, -6.78736105026332081636e-01) (73, 1.88578297585169885053e+00) (74, -1.36112398261162281798e+00) (75, -4.39569912479936597549e-01) (76, -7.19982174804735119977e+00) (77, -7.07712825521861788047e+00) (78, -1.17698066449608451656e-01) (79, 3.19309458152546854492e-01) (80, -7.56616147110461323422e-01) (81, -5.53403148639203035231e-01) (82, -1.50552146693362987051e+00) (83, 3.81187765679052104062e-01) (50, -3.52886450824312969399e-01) (51, -1.18206058056213270113e+00) (52, -2.80836415500692826441e+00) (53, -1.43971907953811339986e+00) (54, 1.62745758275635687973e+00) (55, -3.58533400020430237376e+00) (56, 2.78824411028558794001e+00) (57, -1.06451050117536105688e+00) (58, 2.28028824121603257424e+00) (59, 1.30499004584310740462e+00) (60, 1.20010529821632339065e+00) (61, -6.10084599822720541340e+00) (62, -2.16291578084742974752e+00) (63, 9.50892066770521876551e-02) (64, -3.57304469355987519563e+00) (65, 5.03559490969920808823e-01) (66, -3.22020192838959107284e-01) (67, 1.92617416851698131097e+00) (68, 2.44635087863157485444e+00) (69, 5.43580514471700415591e-02) (70, 1.66275709997087572933e-01) (71, 3.22045365551089179945e+00) (72, -1.15854601730083460465e-02) (73, 2.81270757927157033507e+00) (74, -3.50474286131466161720e+00) (75, 1.28798405749463912295e-01) (76, 1.22579617767338966416e+00) (77, 2.38289442054641931179e+00) (78, -1.00488183588119861511e+00) (79, -7.61414677902069292337e-01) (80, 9.87240724150243775803e-01) (81, -2.79104675227705767426e-01) (82, 1.69784092752247386948e-02) (83, -2.23480066419188361238e+00) (50, -3.54227095560638582938e-01) (51, -8.94862728912298233119e-01) (52, -1.56889876098797254045e+00) (53, 1.56289284616095303093e+00) (54, 1.71018445083012046726e-02) (55, -7.40195291523419207635e+00) (56, -7.14250078956809725250e-02) (57, -5.16623178621247181042e-01) (58, -1.63855534978452510586e+00) (59, 9.35585758608491691035e-01) (60, -8.60602483306804622032e+00) (61, -1.29241002248551772880e+00) (62, -1.31586767527658938803e+01) (63, -1.00312316744594931528e+00) (64, 3.61022349896593741647e+00) (65, -1.71409957549281521949e+00) (66, 1.81637481728776739587e+00) (67, 2.71395707467120095302e+00) (68, -6.85862814317966668076e-02) (69, -6.49389952877402309994e-01) (70, 3.09960052572271171911e+00) (71, 1.26771250157228210220e+00) (72, -1.40445599733459380865e-01) (73, -2.20743213837452412207e+00) (74, -1.93991533954360091674e-02) (75, -6.93580848652282089262e-02) (76, -2.85464956800281433047e+00) (77, -1.33456193056310123968e-01) (78, 1.32215056096038702238e-01) (79, -2.24663374357744505261e+00) (80, 3.27536517889537792669e+00) (81, -4.12819803804444357409e-02) (82, -2.40570311878985254594e+00) (83, -8.70571743118599528088e-01) (50, -2.59511085468500601880e-01) (51, 7.78792711383132663094e-01) (52, 9.41935612877790262587e-01) (53, 9.05810174842374138393e-01) (54, 8.12228491311313249845e-01) (55, 5.41577844928487484033e-01) (56, -4.85885735747893221514e+00) (57, -2.40144571469554790610e+00) (58, -2.13936873978170227772e+00) (59, 5.07334895183062073443e-01) (60, 1.46086153423705700227e+00) (61, 2.24283823891530698091e+00) (62, 1.17398634213514685420e+00) (63, 4.39428925978927298335e-01) (64, 1.29942642980631339888e+00) (65, -4.38767660828097394443e+00) (66, 3.39772949030853033126e-01) (67, -8.43029166894188608516e-01) (68, -1.16291048767074123305e+01) (69, 1.64386336919637399134e+00) (70, -2.03445282365901602972e+00) (71, -1.08778764156884255598e+00) (72, 5.30629070303347133430e-02) (73, -7.20001916919446660614e+00) (74, 4.84942218148192383254e-01) (75, -4.80016875882069704584e-02) (76, -1.63615417374418270491e+00) (77, 6.78806413645384942868e+00) (78, 1.69749747500578584969e-01) (79, -7.63968503098859663680e-01) (80, 1.98879074795758226113e-01) (81, -3.17843147842127193847e-01) (82, -1.12315550901371841164e+00) (83, 2.83562076071389168597e-01) 
