FANN_FLO_2.1
num_layers=3
learning_rate=0.700000
connection_rate=1.000000
network_type=0
learning_momentum=0.000000
training_algorithm=2
train_error_function=1
train_stop_function=1
cascade_output_change_fraction=0.010000
quickprop_decay=-0.000100
quickprop_mu=1.750000
rprop_increase_factor=1.200000
rprop_decrease_factor=0.500000
rprop_delta_min=0.000000
rprop_delta_max=50.000000
rprop_delta_zero=0.100000
cascade_output_stagnation_epochs=12
cascade_candidate_change_fraction=0.010000
cascade_candidate_stagnation_epochs=12
cascade_max_out_epochs=150
cascade_min_out_epochs=50
cascade_max_cand_epochs=150
cascade_min_cand_epochs=50
cascade_num_candidate_groups=2
bit_fail_limit=3.49999999999999977796e-01
cascade_candidate_limit=1.00000000000000000000e+03
cascade_weight_multiplier=4.00000000000000022204e-01
cascade_activation_functions_count=10
cascade_activation_functions=3 5 7 8 10 11 14 15 16 17 
cascade_activation_steepnesses_count=4
cascade_activation_steepnesses=2.50000000000000000000e-01 5.00000000000000000000e-01 7.50000000000000000000e-01 1.00000000000000000000e+00 
layer_sizes=50 34 11 
scale_included=0
neurons (num_inputs, activation_function, activation_steepness)=(0, 0, 0.00000000000000000000e+00) (0, 0, 0.00000000000000000000e+00) (0, 0, 0.00000000000000000000e+00) (0, 0, 0.00000000000000000000e+00) (0, 0, 0.00000000000000000000e+00) (0, 0, 0.00000000000000000000e+00) (0, 0, 0.00000000000000000000e+00) (0, 0, 0.00000000000000000000e+00) (0, 0, 0.00000000000000000000e+00) (0, 0, 0.00000000000000000000e+00) (0, 0, 0.00000000000000000000e+00) (0, 0, 0.00000000000000000000e+00) (0, 0, 0.00000000000000000000e+00) (0, 0, 0.00000000000000000000e+00) (0, 0, 0.00000000000000000000e+00) (0, 0, 0.00000000000000000000e+00) (0, 0, 0.00000000000000000000e+00) (0, 0, 0.00000000000000000000e+00) (0, 0, 0.00000000000000000000e+00) (0, 0, 0.00000000000000000000e+00) (0, 0, 0.00000000000000000000e+00) (0, 0, 0.00000000000000000000e+00) (0, 0, 0.00000000000000000000e+00) (0, 0, 0.00000000000000000000e+00) (0, 0, 0.00000000000000000000e+00) (0, 0, 0.00000000000000000000e+00) (0, 0, 0.00000000000000000000e+00) (0, 0, 0.00000000000000000000e+00) (0, 0, 0.00000000000000000000e+00) (0, 0, 0.00000000000000000000e+00) (0, 0, 0.00000000000000000000e+00) (0, 0, 0.00000000000000000000e+00) (0, 0, 0.00000000000000000000e+00) (0, 0, 0.00000000000000000000e+00) (0, 0, 0.00000000000000000000e+00) (0, 0, 0.00000000000000000000e+00) (0, 0, 0.00000000000000000000e+00) (0, 0, 0.00000000000000000000e+00) (0, 0, 0.00000000000000000000e+00) (0, 0, 0.00000000000000000000e+00) (0, 0, 0.00000000000000000000e+00) (0, 0, 0.00000000000000000000e+00) (0, 0, 0.00000000000000000000e+00) (0, 0, 0.00000000000000000000e+00) (0, 0, 0.00000000000000000000e+00) (0, 0, 0.00000000000000000000e+00) (0, 0, 0.00000000000000000000e+00) (0, 0, 0.00000000000000000000e+00) (0, 0, 0.00000000000000000000e+00) (0, 0, 0.00000000000000000000e+00) (50, 3, 5.00000000000000000000e-01) (50, 3, 5.00000000000000000000e-01) (50, 3, 5.00000000000000000000e-01) (50, 3, 5.00000000000000000000e-01) (50, 3, 5.00000000000000000000e-01) (50, 3, 5.00000000000000000000e-01) (50, 3, 5.00000000000000000000e-01) (50, 3, 5.00000000000000000000e-01) (50, 3, 5.00000000000000000000e-01) (50, 3, 5.00000000000000000000e-01) (50, 3, 5.00000000000000000000e-01) (50, 3, 5.00000000000000000000e-01) (50, 3, 5.00000000000000000000e-01) (50, 3, 5.00000000000000000000e-01) (50, 3, 5.00000000000000000000e-01) (50, 3, 5.00000000000000000000e-01) (50, 3, 5.00000000000000000000e-01) (50, 3, 5.00000000000000000000e-01) (50, 3, 5.00000000000000000000e-01) (50, 3, 5.00000000000000000000e-01) (50, 3, 5.00000000000000000000e-01) (50, 3, 5.00000000000000000000e-01) (50, 3, 5.00000000000000000000e-01) (50, 3, 5.00000000000000000000e-01) (50, 3, 5.00000000000000000000e-01) (50, 3, 5.00000000000000000000e-01) (50, 3, 5.00000000000000000000e-01) (50, 3, 5.00000000000000000000e-01) (50, 3, 5.00000000000000000000e-01) (50, 3, 5.00000000000000000000e-01) (50, 3, 5.00000000000000000000e-01) (50, 3, 5.00000000000000000000e-01) (50, 3, 5.00000000000000000000e-01) (0, 3, 0.00000000000000000000e+00) (34, 3, 5.00000000000000000000e-01) (34, 3, 5.00000000000000000000e-01) (34, 3, 5.00000000000000000000e-01) (34, 3, 5.00000000000000000000e-01) (34, 3, 5.00000000000000000000e-01) (34, 3, 5.00000000000000000000e-01) (34, 3, 5.00000000000000000000e-01) (34, 3, 5.00000000000000000000e-01) (34, 3, 5.00000000000000000000e-01) (34, 3, 5.00000000000000000000e-01) (0, 3, 0.00000000000000000000e+00) 
connections (connected_to_neuron, weight)=(0, 2.08374745796417126797e+00) (1, 1.33192503007384061675e+02) (2, -4.96509128540245558980e+00) (3, -1.61798733762873414577e+00) (4, -5.90796379632832824313e+00) (5, 4.62457208212027168770e+01) (6, -1.49683847714219109548e+03) (7, 1.49557529313783697944e+03) (8, 3.56687681037943216111e+00) (9, 1.40086346430403629881e+01) (10, 1.49999804492902694619e+03) (11, 1.49409913636200781184e+03) (12, 4.71896760426780645048e+02) (13, 1.23141089586969286529e+02) (14, 1.82050810202223156686e+00) (15, -1.57592823312685567316e+02) (16, -7.50189520181554669875e+00) (17, -8.65262463151007636952e+01) (18, 1.00783405711133466909e+00) (19, -9.54269911228742557796e+02) (20, 8.54607810770659526156e+00) (21, -4.46917103103803157182e+01) (22, 4.46317928841058204625e+01) (23, -4.15195310508899183333e+02) (24, 5.74529588101190302751e+00) (25, -2.08431019458100024622e+02) (26, 5.67754244103465239846e+01) (27, -4.47388802757705263957e+02) (28, 5.55172607612251738374e+01) (29, 1.47634923388003841183e+02) (30, 1.03222369724196724405e+02) (31, -1.29402795476588067913e+02) (32, -8.21149584289192269182e-01) (33, -1.12017962002336646243e+00) (34, -6.67348441119788970965e-01) (35, -3.60996541019075689594e-01) (36, -1.50000000000000000000e+03) (37, -4.94760688777559465290e-01) (38, -5.19348856444949769084e-01) (39, 3.34840578875668199998e+02) (40, 1.50000000000000000000e+03) (41, -4.07720738738608723395e+00) (42, -3.19446419285480772032e+02) (43, 1.50000000000000000000e+03) (44, 1.50000000000000000000e+03) (45, 1.50000000000000000000e+03) (46, 1.50000000000000000000e+03) (47, 1.50000000000000000000e+03) (48, 1.50000000000000000000e+03) (49, -1.53861003779947402847e+00) (0, 7.27284482536421137411e+01) (1, 7.21007582012603842614e-01) (2, -2.96967408481899553863e+02) (3, 6.15466335455353452666e-01) (4, 6.09718326450075437606e+02) (5, 3.06067481186737282428e+01) (6, -8.40084360750386736072e+01) (7, 7.13304027942104790228e-01) (8, -2.91078420290705366824e+02) (9, -2.37213269917451219371e+00) (10, -2.87052793933164416273e+01) (11, 5.81442189307055468106e+00) (12, 3.17571159747603026791e-01) (13, 1.95580592469980163450e+00) (14, 7.89176765924365808402e-01) (15, 1.84288287085781621322e+00) (16, 3.50468662218267423825e+00) (17, 2.11396478489275985169e+00) (18, 4.27000124740268987011e+01) (19, 1.58524484554571243322e+00) (20, 5.10873747626803833555e+01) (21, 2.33979664425925903970e+00) (22, 2.67227279966644193365e+00) (23, 5.09638816101866254371e+00) (24, 1.70135662800813349804e+01) (25, 5.53988408786906649794e+00) (26, -3.74029177173652129795e+01) (27, 5.63317103455525991507e+00) (28, -3.79359012484918665109e+01) (29, 4.80123659023837845439e+00) (30, -7.18200121266160493860e+01) (31, 5.86499773172889415918e+00) (32, 7.51492946509993098303e-01) (33, 6.20556860332167059546e-01) (34, 2.73613660697619998086e-01) (35, 3.66503744487445548561e-01) (36, 4.81543824352713230041e+01) (37, 8.05246739749586604162e-01) (38, 1.04846089248337687172e-01) (39, -5.98774759838627446129e+01) (40, 3.81723876879331935896e+00) (41, -1.13490990733681540448e+00) (42, 3.87340627044884389107e+00) (43, 1.50000000000000000000e+03) (44, 1.50000000000000000000e+03) (45, 1.50000000000000000000e+03) (46, 1.50000000000000000000e+03) (47, 1.50000000000000000000e+03) (48, 1.50000000000000000000e+03) (49, -3.45177681083996323874e-01) (0, 3.18652560112677907256e+00) (1, -4.98207480005360192621e+00) (2, -1.22772864800803436225e+01) (3, 2.62551852130965657217e-01) (4, 1.14045905868613672851e+01) (5, 5.94410200934459842514e-01) (6, 3.48029685936224719711e+00) (7, 5.15542100996065899565e-01) (8, -1.65354948688937009038e+00) (9, 6.30854234276514658220e-01) (10, -2.63393560684539274064e+00) (11, 1.25671242851539022300e-01) (12, -1.92236040758768833570e+00) (13, -1.99431232351832021799e-01) (14, -2.12645439081902676293e+00) (15, -5.42794916461415768993e-02) (16, -7.36667485492940343761e+00) (17, 4.78950043519958623683e-01) (18, -1.02046004963897765094e+01) (19, 2.65728961848339662044e-01) (20, -5.28055470543100646807e+00) (21, -1.29266980299750896058e-03) (22, -4.57903410686071055125e+00) (23, 1.20092620816968545516e-01) (24, -1.20337335356438956957e+00) (25, 6.80313547475160616818e-03) (26, -3.33005110105417356792e+00) (27, 3.53921396459521142575e-02) (28, 9.19748035257057727776e-01) (29, -8.66696181922250591390e-02) (30, -4.71009007459016437735e+00) (31, 1.64029408168056903272e-02) (32, -1.90162278198589940192e-01) (33, -1.63078061723103184821e-01) (34, -2.08213991903652806403e-01) (35, -3.24143897228823085754e-01) (36, -2.18420914379548225526e+00) (37, 6.70607008553152361685e-01) (38, -1.91317717069287573928e-02) (39, -7.52597663296763697005e-01) (40, -1.27193839252419294006e+00) (41, 1.42673863678102219588e+00) (42, 4.16130918799395677077e-01) (43, 1.50000000000000000000e+03) (44, 1.50000000000000000000e+03) (45, 1.50000000000000000000e+03) (46, 1.50000000000000000000e+03) (47, 1.50000000000000000000e+03) (48, 1.50000000000000000000e+03) (49, 6.53022088623647967154e-01) (0, 7.91605024612023200348e-01) (1, 1.50000000000000000000e+03) (2, 1.50000000000000000000e+03) (3, 2.04299876789397927723e+02) (4, 1.28962612406419339095e+03) (5, 1.50000000000000000000e+03) (6, 1.52638482308897049933e+00) (7, 1.50000000000000000000e+03) (8, 2.82296959082211969871e+02) (9, 1.50000000000000000000e+03) (10, 1.50000000000000000000e+03) (11, 1.50000000000000000000e+03) (12, 1.50000000000000000000e+03) (13, 1.49997754089998534255e+03) (14, 1.50000000000000000000e+03) (15, 4.27464170961668159521e+01) (16, 1.50000000000000000000e+03) (17, 1.50000000000000000000e+03) (18, 1.50000000000000000000e+03) (19, 1.49406689736139560409e+03) (20, 1.50000000000000000000e+03) (21, 1.13983453577440101867e+02) (22, 1.50000000000000000000e+03) (23, 1.50000000000000000000e+03) (24, 1.50000000000000000000e+03) (25, 2.47750282178826397583e+00) (26, 1.50000000000000000000e+03) (27, 1.19951306547020340076e+03) (28, 1.50000000000000000000e+03) (29, 3.00085626525933903963e+01) (30, 1.50000000000000000000e+03) (31, 2.91104678832592114190e+01) (32, 1.33141218491393442669e+00) (33, 8.96576721151656985676e-01) (34, 1.31286572285491343060e+00) (35, 1.22756438322860095269e+00) (36, 1.50000000000000000000e+03) (37, 1.24237065382796618707e+00) (38, 6.84357296605891951558e-01) (39, -1.20479885560627303676e+03) (40, 1.50000000000000000000e+03) (41, 2.11869552893963586371e+00) (42, 1.50000000000000000000e+03) (43, 1.50000000000000000000e+03) (44, 1.50000000000000000000e+03) (45, 1.50000000000000000000e+03) (46, 1.50000000000000000000e+03) (47, 1.50000000000000000000e+03) (48, 1.50000000000000000000e+03) (49, 5.59770930488891260701e-01) (0, -1.90572935496548589995e+00) (1, -1.98810997592768234909e+00) (2, -1.49461344938839602037e+03) (3, -1.79077215399801503715e+00) (4, 3.55098411578619588269e+00) (5, -1.80411989767366272019e+01) (6, -8.33681519188811614995e-01) (7, -1.33206076518988258961e+00) (8, 1.61326696066394674745e+02) (9, -4.44438499745378567951e+00) (10, 1.49985860778042115271e+03) (11, 5.82001576504797224487e+00) (12, 9.99936270989774556028e-01) (13, -1.89161222590013018419e+01) (14, 4.37987839993133398764e+00) (15, -4.41665971447995246990e+01) (16, 4.13718564780359532307e+00) (17, -1.32418728712675459747e+01) (18, -8.19382333417024852906e+01) (19, 7.86978217957065027122e+01) (20, -1.49728192552329164755e+03) (21, -2.16074006596434244898e+01) (22, -1.49753694819489828660e+03) (23, -4.82169929736350923122e+02) (24, -1.42997695612606048599e+03) (25, -2.25699344174938367757e+01) (26, -1.08281747831457641951e+03) (27, -8.25464334684735661085e+01) (28, -1.46242533395472969460e+03) (29, 1.83291530010241359605e+02) (30, -1.42997695612606048599e+03) (31, -7.81659663458162441430e+01) (32, -3.42889133885079522290e-01) (33, -9.47199750735936318868e-01) (34, -1.00473824932750893657e-01) (35, -1.05406872001248519410e+00) (36, 7.07110497031393947509e+01) (37, -5.72951022579846536154e-01) (38, -3.23519591286355157056e-01) (39, 1.20974367203829820028e+03) (40, 2.78866904445342072449e+02) (41, -3.18573682846181860384e+01) (42, -1.42997695612606048599e+03) (43, 1.50000000000000000000e+03) (44, 1.50000000000000000000e+03) (45, 1.50000000000000000000e+03) (46, 1.50000000000000000000e+03) (47, 1.50000000000000000000e+03) (48, 1.50000000000000000000e+03) (49, -6.17687586739239846700e-01) (0, 1.49966516704765035684e+03) (1, -2.13870073643773128680e+00) (2, 1.49922001894390723464e+03) (3, 1.49999956319996317688e+03) (4, 1.49958484686566862365e+03) (5, 1.50000000000000000000e+03) (6, 1.49999956319996317688e+03) (7, 1.49922001894390723464e+03) (8, 1.49999956319996317688e+03) (9, 1.49922001894390723464e+03) (10, 1.49270834098632440146e+03) (11, 1.49922001894390723464e+03) (12, 1.49999906590535965734e+03) (13, 1.49656808327880708021e+03) (14, 1.50000000000000000000e+03) (15, 1.49526811490364184465e+03) (16, 1.50000000000000000000e+03) (17, 1.49922001894390723464e+03) (18, 1.50000000000000000000e+03) (19, 1.49881702872591040432e+03) (20, 1.50000000000000000000e+03) (21, 1.49817181195333932919e+03) (22, 1.50000000000000000000e+03) (23, 1.49817181195333932919e+03) (24, 1.50000000000000000000e+03) (25, 1.49999956319996317688e+03) (26, 1.50000000000000000000e+03) (27, 1.49881702872591040432e+03) (28, 1.50000000000000000000e+03) (29, 1.49923825501082728806e+03) (30, 1.50000000000000000000e+03) (31, 1.49881702872591040432e+03) (32, 1.70541037596727695913e+00) (33, 1.86111864425207507168e+00) (34, 2.07435655571485977333e+00) (35, 2.25045645214582723526e+00) (36, 1.49223317999920436705e+03) (37, 2.09555524565245088198e+00) (38, 1.77647055663133990322e+00) (39, 8.30999360789546130945e+02) (40, 1.50000000000000000000e+03) (41, 1.49999973599998384088e+03) (42, 1.50000000000000000000e+03) (43, 1.50000000000000000000e+03) (44, 1.50000000000000000000e+03) (45, 1.50000000000000000000e+03) (46, 1.50000000000000000000e+03) (47, 1.50000000000000000000e+03) (48, 1.50000000000000000000e+03) (49, 2.16518253065611210317e+00) (0, 6.67202614327890941581e+00) (1, -3.46539518231496135314e+00) (2, 2.46855502945333356024e+01) (3, 7.73887702729978088634e-01) (4, 3.60364927072701703992e+01) (5, 5.73432369690508814131e-01) (6, -9.42866470609728679619e+00) (7, 8.33947471555055330761e-01) (8, -1.52174851090920117969e+01) (9, 9.03788188522951840831e-01) (10, -1.16235340053167437446e+01) (11, 3.28672118504041849141e-02) (12, -8.21173542742717010867e+00) (13, -2.08871686598857841943e+00) (14, 2.01789992337869011907e-01) (15, -7.06861777699360649407e-01) (16, 8.65196143611476564672e+00) (17, 1.79993972983635841523e-01) (18, -3.92513990168374751755e-02) (19, 3.77993186302553296763e-01) (20, -4.99871475375199825208e-01) (21, 5.65427823688094410848e-01) (22, -6.07813252880611809559e+00) (23, 1.20857639621443746503e-01) (24, -1.83501751049765182700e+01) (25, 2.84531726626829517546e-01) (26, -7.33111713956193522534e+00) (27, -2.27022110294401474606e-01) (28, -9.55494563828794873928e+00) (29, 1.66226909738566075436e-01) (30, -4.90088088180011780537e+01) (31, 7.38691929460238094762e-01) (32, 2.56507225385828263597e-01) (33, -1.48537679994898089847e-02) (34, 6.33946732198396312175e-02) (35, 2.21614070287865422282e-01) (36, -2.65326416863772385213e+00) (37, -3.87062959321813448987e-01) (38, 2.84670777670068986254e-01) (39, 7.91033554504971192500e+00) (40, 1.44625256701591564656e+00) (41, -5.25443114608546757438e-01) (42, 3.40061486010825975157e-01) (43, 1.50000000000000000000e+03) (44, 1.50000000000000000000e+03) (45, 1.50000000000000000000e+03) (46, 1.50000000000000000000e+03) (47, 1.50000000000000000000e+03) (48, 1.50000000000000000000e+03) (49, -6.08115903982006766881e-01) (0, -1.03840076010680082419e+00) (1, -4.50948429810461881573e+00) (2, -1.69538192826156297599e+00) (3, -1.67744999951772899571e+00) (4, 2.48364668069751814983e+02) (5, -5.22316949645149520620e+02) (6, -1.48937035975232157092e+00) (7, -1.50464417099109311948e+02) (8, -9.59433727816107584374e-01) (9, -4.17173806346032804981e+00) (10, 1.07929592074956462966e+03) (11, -5.30395808786967482007e+00) (12, -8.20083948906478399365e-01) (13, -2.24557195700715013231e+01) (14, -6.02301486625453907919e-01) (15, -3.44858822237020206103e+01) (16, 2.29196705244527759726e-01) (17, -3.30628621228274752752e+01) (18, 1.09639004153080250603e+01) (19, -9.57980597420586548196e+01) (20, 2.25128199442534651098e+01) (21, -1.16641380294123777617e+01) (22, -8.66074979322756121292e+02) (23, -1.11795278049653418861e+02) (24, -1.50000000000000000000e+03) (25, -5.80919086629558734103e+01) (26, -1.50000000000000000000e+03) (27, -5.87139487204825485378e+01) (28, -1.50000000000000000000e+03) (29, -1.40400608841966416662e+01) (30, 7.42163266945534871866e+01) (31, 3.89044898031826580365e+00) (32, -1.85062261002008887623e+00) (33, -2.00747068302576714416e+00) (34, -2.11392225401346900426e+00) (35, -2.06880471186583214660e+00) (36, 5.00899792619844788533e+02) (37, -1.90860970394556472840e+00) (38, -1.92113043444101783130e+00) (39, 1.98361057287979924979e+01) (40, 2.04630426190809288300e+02) (41, -2.07692511910045212176e+01) (42, -3.11477984495022397482e+00) (43, 1.50000000000000000000e+03) (44, 1.50000000000000000000e+03) (45, 1.50000000000000000000e+03) (46, 1.50000000000000000000e+03) (47, 1.50000000000000000000e+03) (48, 1.50000000000000000000e+03) (49, -1.71936003940050574634e+00) (0, -5.46082400357070896213e-01) (1, 4.81107700500467527771e-01) (2, -1.62650681514546420203e+01) (3, 7.52521538552795732357e+00) (4, -1.02880010769701950579e+01) (5, -2.23167140799058777434e-01) (6, -1.34451342332748557951e+00) (7, 3.19683635807619992431e-01) (8, -7.89674056048516170847e+00) (9, -4.93966873553575824829e-01) (10, -1.49639241011645296453e+01) (11, -4.10061809048407555078e-01) (12, -1.45475517746203948377e+01) (13, -4.39799910326462317745e-01) (14, -1.22834107203485949356e+01) (15, -2.26105552092575406986e-01) (16, -1.28008278132138944017e+01) (17, -4.43070093720271285243e-01) (18, -1.34279394344646707538e+01) (19, -2.10033124477674276731e-01) (20, -2.59539120411982926484e+00) (21, -3.28356492715718928377e-01) (22, 9.02700477383139188170e-01) (23, -3.46802682761277791812e-01) (24, 2.54117699095490590100e-01) (25, -2.83033778348005526926e-01) (26, 8.27897385013154352151e-02) (27, -1.27401926585445801621e-01) (28, 4.30071908659742818681e-01) (29, -2.08989146801153657940e-01) (30, 2.75413807529343232505e-02) (31, -1.52835309697861215783e-01) (32, -7.96851742682420510766e-02) (33, 7.82388966860803475312e-02) (34, 4.36035774308684620504e-01) (35, 4.33239660817626270894e-01) (36, 1.98144525871157856090e-01) (37, 4.22132037240508461995e-01) (38, 2.26029596883300182286e-01) (39, -1.64307270364622226566e-01) (40, -8.86735305563550631203e-04) (41, -1.29006630891013762685e+00) (42, 8.24728049412035008059e-02) (43, 1.50000000000000000000e+03) (44, 1.50000000000000000000e+03) (45, 1.50000000000000000000e+03) (46, 1.50000000000000000000e+03) (47, 1.50000000000000000000e+03) (48, 1.50000000000000000000e+03) (49, 5.35412214356902782519e-01) (0, 3.32685285958890020197e+00) (1, 1.50000000000000000000e+03) (2, 1.50000000000000000000e+03) (3, 1.50000000000000000000e+03) (4, 1.50000000000000000000e+03) (5, 1.50000000000000000000e+03) (6, -1.40827999683380130591e+03) (7, 1.50000000000000000000e+03) (8, 1.06872527746339107679e+00) (9, 1.22446293160946435563e+01) (10, 2.15537530726968270756e+02) (11, 1.50000000000000000000e+03) (12, 1.50000000000000000000e+03) (13, 1.50000000000000000000e+03) (14, 1.50000000000000000000e+03) (15, 1.50000000000000000000e+03) (16, 1.50000000000000000000e+03) (17, 1.50000000000000000000e+03) (18, 1.50000000000000000000e+03) (19, 1.38263377421848508675e+03) (20, 1.50000000000000000000e+03) (21, 1.50000000000000000000e+03) (22, 1.50000000000000000000e+03) (23, 1.50000000000000000000e+03) (24, 1.50000000000000000000e+03) (25, 4.04536732688811095926e+00) (26, 1.50000000000000000000e+03) (27, 1.50000000000000000000e+03) (28, 1.50000000000000000000e+03) (29, 1.50000000000000000000e+03) (30, 1.50000000000000000000e+03) (31, 1.50000000000000000000e+03) (32, 1.09203238657933399125e+00) (33, 1.31663681439381829996e+00) (34, 1.55652774743062249918e+00) (35, 1.54662205151540033121e+00) (36, -1.11978734040329800337e+03) (37, 1.37333984545689813395e+00) (38, 8.17451580085576390289e-01) (39, 1.02416839834680963861e+01) (40, 1.50000000000000000000e+03) (41, 4.29093295749819958473e+00) (42, 1.50000000000000000000e+03) (43, 1.50000000000000000000e+03) (44, 1.50000000000000000000e+03) (45, 1.50000000000000000000e+03) (46, 1.50000000000000000000e+03) (47, 1.50000000000000000000e+03) (48, 1.50000000000000000000e+03) (49, -4.10947666845500436672e-01) (0, -4.53593529846292611296e+01) (1, 1.45137278967425942255e+00) (2, -5.82329401671072801605e+01) (3, 5.79865698387647343637e-01) (4, -2.14161006659459918211e-01) (5, -1.37893409701477276386e+00) (6, 8.55962989124177342504e-01) (7, 1.21966564544116162772e+00) (8, 1.98548154813955797238e+01) (9, 2.99735017138899273448e-01) (10, 1.28065900003624033587e+01) (11, -1.85981162849456239938e-02) (12, 2.01512487597638738634e+01) (13, 5.27922095363879573249e-01) (14, 2.08086363585221754136e+01) (15, 6.37646165046334756354e-01) (16, 9.15593194035221991101e+00) (17, 5.55195224320820135411e-01) (18, 1.49700940324609881316e+01) (19, 1.80915162178798688553e-01) (20, 1.54073673975708587136e+01) (21, 5.35555987050168935681e-01) (22, 2.08785131026854706704e+01) (23, 3.70271739496451868234e-01) (24, 3.87503236397731898322e+00) (25, 4.13923482425063604673e-01) (26, 1.77618436312126988241e+01) (27, 5.12041442836148719131e-01) (28, 1.41407064265864210739e+01) (29, 7.36071172932287298707e-01) (30, 2.29841682705480998550e+01) (31, 5.17091890563052714036e-01) (32, -2.86810083603087573323e-01) (33, 2.86064209128197466381e-01) (34, 3.17148448611077271586e-01) (35, -1.78454129313654841216e-01) (36, 8.17393422879185704844e-01) (37, 5.66696540363363851500e-02) (38, 3.14366640234765015727e-01) (39, -1.14609124310027477023e+00) (40, 3.27901756207663819254e-01) (41, 1.89133184232142959047e+01) (42, 5.48791690180780888930e-01) (43, 1.50000000000000000000e+03) (44, 1.50000000000000000000e+03) (45, 1.50000000000000000000e+03) (46, 1.50000000000000000000e+03) (47, 1.50000000000000000000e+03) (48, 1.50000000000000000000e+03) (49, -1.33146220288199845783e+00) (0, 3.31556914587761326629e+01) (1, -2.58004321406944514550e-01) (2, -2.40633622154677651039e+00) (3, -1.82291627083704554924e-01) (4, -1.58038446043574527522e+01) (5, -2.38416710246821583752e+00) (6, -2.90059576378314254441e-01) (7, 1.18694606714746450637e-01) (8, 4.01544045818666273107e+00) (9, -1.24498166086757552917e-01) (10, 4.21250148623810005688e+00) (11, -4.68601351088995199401e-01) (12, 5.25113755883399857538e+00) (13, -6.12771627686498510101e-01) (14, 2.30721260149067991518e-01) (15, -4.86619999756188137408e-01) (16, 4.85178080638518860468e-01) (17, -2.41572434458739632168e-01) (18, -3.24614621742525866210e+00) (19, -4.98749233829338167734e-01) (20, -2.25051863641781713099e+00) (21, -4.41338073252185658646e-01) (22, -3.13605914473639568740e+00) (23, -5.01126111797440820794e-01) (24, -4.14819484382811420886e+00) (25, -4.04627724494705798275e-01) (26, -2.97156768152646844072e+00) (27, -2.95610782742588118488e-01) (28, -4.33653295306025565736e+00) (29, -2.53585786628378606622e-01) (30, -5.60411377477895911170e+00) (31, -1.09943981071596350030e-01) (32, -1.33344623419605845527e-01) (33, 3.69803872731366334303e-01) (34, -2.69320818754993585031e-01) (35, 1.13031891015208579843e-01) (36, -9.79838842413247368412e-01) (37, -1.78863435715073196275e-02) (38, -3.59387311312517887529e-01) (39, 2.83640104098251966125e-01) (40, 5.70728459251127612228e-02) (41, 9.06781378194763815204e-02) (42, -8.29902348777111442679e-01) (43, 1.50000000000000000000e+03) (44, 1.50000000000000000000e+03) (45, 1.50000000000000000000e+03) (46, 1.50000000000000000000e+03) (47, 1.50000000000000000000e+03) (48, 1.50000000000000000000e+03) (49, -1.03641096052822168083e+00) (0, -1.93609651778979957593e-01) (1, -4.30654106904506903675e+01) (2, -2.85297165657850335663e+01) (3, 3.24395311685198972640e+00) (4, 5.39971062735132818489e+02) (5, -3.17511035572007287442e+01) (6, 7.76624880622748605674e+01) (7, -1.48994625397650022336e+01) (8, 7.10853560696080055692e+00) (9, -1.68077196641413413591e-02) (10, 4.32737538359875372862e+02) (11, -1.29038223046116873327e+00) (12, 4.59769310193669955567e-01) (13, -1.66930910027736771895e+01) (14, -2.18853176357910143679e+02) (15, -5.30526436420056910492e+01) (16, -8.10605239022298860618e+02) (17, -2.50277402667355772792e+01) (18, -8.87424747225600185629e+02) (19, -9.26878720355541196874e-01) (20, -8.68400109191218689375e+02) (21, 1.40498067857042929774e+01) (22, -5.75385753090227414219e+00) (23, 4.18828246994077773024e+01) (24, 2.02421053173777600875e+01) (25, 5.15464776760084646412e+01) (26, 9.49833297198198600597e+00) (27, 4.92742056301172937083e+01) (28, -1.75869415575075322522e+02) (29, 9.49887253992699420735e+00) (30, 1.01205368725704460076e+02) (31, -1.04226318798715240632e+01) (32, -9.76600807990540387138e-01) (33, -2.86720503952011596116e-01) (34, -9.26363487627018034054e-01) (35, -4.13001672286870472051e-02) (36, 3.66141422712637742976e+00) (37, -8.02925069715488715083e-01) (38, -1.03379644909094858818e+00) (39, 8.37458149441018129266e+00) (40, -6.75826779361785590083e+00) (41, 2.82673613887010244383e+00) (42, -4.78675590919053650651e+00) (43, 1.50000000000000000000e+03) (44, 1.50000000000000000000e+03) (45, 1.50000000000000000000e+03) (46, 1.50000000000000000000e+03) (47, 1.50000000000000000000e+03) (48, 1.50000000000000000000e+03) (49, -1.24992160954665254557e+00) (0, 2.55537013313213563492e+01) (1, 2.00792414316854683776e+00) (2, 2.34946752211823289835e-01) (3, -5.18352856265033024030e-01) (4, -1.15472976886764126903e+03) (5, 2.88667659213458946965e+01) (6, -2.63852634379589176206e+02) (7, -5.01921633815162522296e+01) (8, -1.27498742331071056810e+02) (9, 1.38059112883888399637e+01) (10, -1.66111691921640747260e+00) (11, 3.20358127584155272238e-01) (12, -1.17218645854510509707e+03) (13, -3.96505198207331188698e+00) (14, -1.48269524196936004046e+03) (15, -3.67003956939440513452e+02) (16, 5.72503169736526871247e+01) (17, -2.82220244934692132688e+01) (18, 3.79526966316126816992e+01) (19, -1.54766841946358340465e+02) (20, 4.24821586138955620271e+00) (21, -1.02907258292357028040e+02) (22, 2.08451581661973044390e+01) (23, 3.94530265862041062519e+02) (24, 1.50000000000000000000e+03) (25, -1.33638465919708675500e+01) (26, 1.29069198395976422944e+03) (27, -2.30332381138018462252e+02) (28, 5.55012814147605695325e+01) (29, -1.04325719430069003835e+01) (30, 1.50000000000000000000e+03) (31, -1.13012217512433011279e+02) (32, -9.93447738629073984207e-01) (33, -1.48660465229699223499e+00) (34, -8.93334287148211614316e-01) (35, -7.26581114273761041744e-01) (36, 1.00849064836767070119e+02) (37, -1.50372028064379303913e+00) (38, -1.15477384899208157520e+00) (39, 8.55698263604178777086e+01) (40, 1.75574459553690786606e+02) (41, -6.52842140402445103575e+00) (42, 1.29077919401417440248e+00) (43, 1.50000000000000000000e+03) (44, 1.50000000000000000000e+03) (45, 1.50000000000000000000e+03) (46, 1.50000000000000000000e+03) (47, 1.50000000000000000000e+03) (48, 1.50000000000000000000e+03) (49, -2.31082953785011291359e+00) (0, -4.25991481412922368133e-01) (1, 9.89897253926982911842e-01) (2, 1.98509067237541692030e+00) (3, 4.96467368213103332764e-01) (4, 1.50000000000000000000e+03) (5, 1.50000000000000000000e+03) (6, 1.50000000000000000000e+03) (7, 1.57647772308616462844e+00) (8, 1.81046919918132198646e+00) (9, 1.18005297448855506204e+00) (10, 1.36569515789566686692e+00) (11, 4.04627623611157183348e+00) (12, -1.49280774976494762996e+03) (13, 2.87892185563221154609e+01) (14, -1.07277704369461197587e+01) (15, 1.74299340248486416272e+01) (16, 1.50000000000000000000e+03) (17, 7.96472730279213010363e+02) (18, 1.50000000000000000000e+03) (19, 4.30198928395821909021e+01) (20, 1.50000000000000000000e+03) (21, 8.05192643427038490245e+00) (22, 1.50000000000000000000e+03) (23, 1.49367855524261472056e+03) (24, 1.50000000000000000000e+03) (25, 1.49874325567642767965e+03) (26, 1.49070436202997916553e+03) (27, 1.49997548244978588627e+03) (28, 1.50000000000000000000e+03) (29, 1.49652568456772405625e+03) (30, 1.50000000000000000000e+03) (31, 1.49992456399958382463e+03) (32, 1.42642476351787106381e+00) (33, 1.59620054753352746957e+00) (34, 1.76676615269710168832e+00) (35, 1.82099368365336999886e+00) (36, 1.50000000000000000000e+03) (37, 8.43725464659233148623e-01) (38, 1.62799545319606364657e+00) (39, -1.30345883227362355683e+03) (40, 1.50000000000000000000e+03) (41, -2.00493990606580503311e+01) (42, 1.50000000000000000000e+03) (43, 1.50000000000000000000e+03) (44, 1.50000000000000000000e+03) (45, 1.50000000000000000000e+03) (46, 1.50000000000000000000e+03) (47, 1.50000000000000000000e+03) (48, 1.50000000000000000000e+03) (49, 1.39709951670695797787e+00) (0, -2.25255962463674705987e+01) (1, 3.90084502649015618658e+00) (2, 7.45930042518221370074e-01) (3, -2.42096700692420263579e+00) (4, 7.79336714761275306529e-01) (5, 7.57388154964910853550e-03) (6, -2.76790936990275788787e+01) (7, 5.26292745606403600256e-01) (8, -2.11088363319494085601e+01) (9, 9.86363613049054815951e-02) (10, -2.52755291541907167741e+00) (11, 1.11784493275047625005e+00) (12, -7.34790940353839516774e+00) (13, 8.75560486092832990224e-01) (14, -2.88918581851534312932e+01) (15, 7.51940168825256161078e-01) (16, -3.59224830532855179399e+01) (17, 4.11870017832482115949e-01) (18, -4.49063786683822598889e+01) (19, -2.41081782873340783047e-01) (20, -4.11761207140310645514e+01) (21, 1.21668551336136146479e-01) (22, -3.31534024628200967300e+01) (23, 2.48438223126030283128e-01) (24, -1.67222709624428134134e+01) (25, 6.39254758288930413634e-01) (26, -3.78524778042434073555e+00) (27, 4.00222752416032612199e-01) (28, -3.20571140908775120693e+00) (29, 3.47046418556997804394e-01) (30, -1.51679083310824793784e+01) (31, 6.82374919614096242526e-01) (32, 3.43520074482239257119e-01) (33, 1.16297842129615758289e+00) (34, 5.95474343146361273504e-01) (35, 6.54309044922866012151e-01) (36, -4.87558293636274564520e-01) (37, 8.69222532357253663271e-01) (38, 1.00449807509330746313e+00) (39, -8.10778938586939834643e-01) (40, 5.06388552739572950223e-01) (41, 7.66017263576120654989e-01) (42, 2.99201012305379432377e-01) (43, 1.50000000000000000000e+03) (44, 1.50000000000000000000e+03) (45, 1.50000000000000000000e+03) (46, 1.50000000000000000000e+03) (47, 1.50000000000000000000e+03) (48, 1.50000000000000000000e+03) (49, 7.97714780415572977113e-01) (0, -5.81734124279139730440e-01) (1, -2.53639393146992064842e+00) (2, 5.53466454003390495586e+01) (3, -8.94475695574823426170e-01) (4, -7.02089087752357787764e-01) (5, 4.83468675366861422305e+00) (6, 5.31755275664004045666e-01) (7, 2.36557245655025099040e+01) (8, -5.03598197948120107625e-01) (9, 1.66921404266507551029e+02) (10, 1.08187043905830088120e-01) (11, -2.45616671852023404909e+00) (12, -1.05072560386204798988e+02) (13, -1.30126717509794094241e+01) (14, 5.61178880123550105630e-01) (15, -4.77834098722504947432e+01) (16, -1.21923091846411646433e-01) (17, -2.23049742211377122203e+01) (18, -2.28855921909376780476e+00) (19, -1.98275946500719122412e+01) (20, 3.37465715886003880808e-01) (21, -7.03638466714878774155e+01) (22, 4.37662520933913068433e+00) (23, -5.17411276250651553710e+02) (24, 1.40282107325014567323e+03) (25, -2.25445853874714430276e+01) (26, 2.98189517927293366029e+02) (27, 3.97098266863709348229e+00) (28, 5.38417817388183266303e+01) (29, -8.24841149367220367594e+01) (30, 1.50000000000000000000e+03) (31, -3.65523170593276347518e+02) (32, -5.89163215620479352452e-01) (33, -2.11565764410455381395e-01) (34, -5.81793399317226178624e-01) (35, -1.10924416945692017045e+00) (36, 2.48129408829586246554e+01) (37, -1.00411999390836670365e+00) (38, -3.04487617475943439516e-01) (39, -4.49288112868983731119e+01) (40, 2.97843846207173953644e+02) (41, 2.17423945965040772421e+01) (42, 2.39094296497282741143e+01) (43, 1.50000000000000000000e+03) (44, 1.50000000000000000000e+03) (45, 1.50000000000000000000e+03) (46, 1.50000000000000000000e+03) (47, 1.50000000000000000000e+03) (48, 1.50000000000000000000e+03) (49, -1.92038831279989263834e+00) (0, 5.81567728601455335991e-01) (1, 2.28159649489864599370e-02) (2, 9.24237209798185688214e-01) (3, 3.97596600370680475223e+00) (4, 4.20151043792540246358e+00) (5, -1.65640535751197459646e+00) (6, -4.91904385525784582089e-01) (7, -2.93362620383840311256e-01) (8, -3.80274144641706723924e-01) (9, 1.80634672143861578497e-02) (10, 6.95688983196587673596e-01) (11, -1.87340969870447182632e-01) (12, 1.59016930802409861556e+00) (13, -1.25294972992510772469e-01) (14, -7.39918495070576165418e-01) (15, -6.26765934510164601789e-01) (16, -3.63934005659512005426e-01) (17, -3.11722341960016635642e-01) (18, -2.71005500881672389824e+00) (19, -8.04745407737721185626e-01) (20, -1.60546418261995560428e-01) (21, -4.62844698490307016048e-01) (22, -8.61731762562067848954e-01) (23, -7.45726360831260759454e-01) (24, 1.00332438737832685405e+00) (25, -6.55498501516024956182e-01) (26, 2.46688814146708690345e+00) (27, -6.55645588307586346666e-01) (28, 1.58216089206967254199e+01) (29, -3.03545926560426115870e-01) (30, 2.27167691046661630594e+01) (31, -7.52906989071531862479e-01) (32, 4.84822787432843571587e-01) (33, 5.05127944140607465506e-01) (34, 2.40395464091473165524e-01) (35, 3.58238734393291680114e-01) (36, 1.66127414060870254309e-01) (37, 4.78691674857312343683e-01) (38, 1.00314990569882241805e-02) (39, -7.72852101311519379401e-01) (40, -3.59698046114158676012e-01) (41, 2.03043902801199349639e+00) (42, -9.41119680428994742627e-01) (43, 1.50000000000000000000e+03) (44, 1.50000000000000000000e+03) (45, 1.50000000000000000000e+03) (46, 1.50000000000000000000e+03) (47, 1.50000000000000000000e+03) (48, 1.50000000000000000000e+03) (49, 1.88766993670635763181e-01) (0, -6.69109701969892789464e+00) (1, 6.57609852762981628160e+00) (2, 7.76067515087131898355e+00) (3, 3.72864771759795932127e-01) (4, -1.75041937997588199494e+01) (5, 9.56190556778969802387e-01) (6, -4.30867683793028888317e+00) (7, 5.12284973723240888432e-01) (8, -1.64468705771165762952e-01) (9, 9.64860877783649484307e-01) (10, 1.48819883595832580525e+00) (11, 1.23925590173437988328e-01) (12, -3.18629498446169945325e-01) (13, -4.65408891147285230794e-01) (14, -1.83669991506227175959e-01) (15, -4.37844104651247068016e-01) (16, -1.55839674668609790009e-01) (17, 1.32415397111404709030e-01) (18, -9.52077398451434242510e-01) (19, 3.54266454256278229273e-01) (20, 3.34256054759154386247e+00) (21, -1.21135457969462539962e-01) (22, -1.79085186509485128070e-01) (23, 3.61761183348137671523e-01) (24, -3.87681910046147670812e+00) (25, 1.89839649321375453228e-01) (26, -4.59672678284237701263e+00) (27, 2.48583857540276807752e-02) (28, -3.16407320272940673078e+00) (29, 3.83874491000736617341e-02) (30, 7.66449900129844818863e-01) (31, -2.82017910117442621720e-02) (32, -2.66070227451175200795e-01) (33, 5.40899691790784009626e-01) (34, -1.47529440313134529994e-01) (35, 1.98647358123923145623e-02) (36, -2.05494609859208143821e-01) (37, 6.52900753230297281604e-01) (38, -2.56522639035731303547e-01) (39, 1.84081645376124147795e+00) (40, -1.47625745532274055272e+00) (41, -1.45999767335996000206e+00) (42, -8.48791112115414719819e-02) (43, 1.50000000000000000000e+03) (44, 1.50000000000000000000e+03) (45, 1.50000000000000000000e+03) (46, 1.50000000000000000000e+03) (47, 1.50000000000000000000e+03) (48, 1.50000000000000000000e+03) (49, -7.69222738533770877822e-01) (0, 6.96788364308750240994e-01) (1, -3.51037299171728589542e+00) (2, -3.91565953240833153348e-01) (3, 3.48739684379561876160e-01) (4, 4.12912949149486863121e+00) (5, 1.96944874987714912962e+00) (6, 2.70965526037321247088e+00) (7, -7.25695542144429994735e-02) (8, -1.81162535881400654780e+00) (9, -3.60883281967176283711e-01) (10, -2.65241609003530420807e+00) (11, 1.95602383589964456956e-01) (12, -4.79767104648468667438e-01) (13, 4.83059393213687182644e-01) (14, 2.71623668454124111982e-01) (15, 4.85973130288908872210e-01) (16, -6.16837520105612990839e-01) (17, -1.62906432112004562196e-01) (18, -6.20631100288103199070e-02) (19, 2.84713733163292737061e-01) (20, 1.08422672663937413873e+00) (21, 5.28920201237911280501e-01) (22, 5.07549457649434732076e+00) (23, 6.10519835918715614298e-01) (24, 3.43704711970801168874e+00) (25, 7.72629904377545639882e-01) (26, 7.62217858635623635166e+00) (27, 6.45080633041874795808e-01) (28, 5.11535073997734635043e+00) (29, 5.17086421831781106739e-01) (30, 1.06518608033860773254e+00) (31, 4.85782116561636834184e-01) (32, -4.76575945766228650791e-02) (33, -3.35200712576649906271e-01) (34, -2.69462451830650095985e-01) (35, -6.63592383757385051446e-01) (36, 1.99755862462022149018e+00) (37, -4.21393976107381162954e-01) (38, -2.63712928190971307441e-01) (39, 7.53200211494171267823e-01) (40, 2.70729925098568968700e-01) (41, -1.13914854641017093684e+00) (42, 1.29974867149928807741e+00) (43, 1.50000000000000000000e+03) (44, 1.50000000000000000000e+03) (45, 1.50000000000000000000e+03) (46, 1.50000000000000000000e+03) (47, 1.50000000000000000000e+03) (48, 1.50000000000000000000e+03) (49, -1.02711771477773594619e+00) (0, 6.00927926790329358653e+00) (1, 4.29218184793817847389e-01) (2, -4.84589824080754372204e+00) (3, 6.30417992011961136889e-01) (4, 7.93562093812657565195e+01) (5, 2.91846467857589553230e-01) (6, 4.75304965852955341177e+00) (7, -4.04447823511950677045e+00) (8, 3.05586002473349864772e+01) (9, -4.30101646335845444469e+00) (10, 1.21039166609355692827e+01) (11, -9.48480822178738858241e-01) (12, 1.36122270458961374118e+01) (13, -6.89468340408106561412e-01) (14, 2.67557779473978385454e+01) (15, 1.08612162032808590162e+00) (16, 3.14310948966740255628e+01) (17, 3.06310410334179085423e-02) (18, 2.76847585844753112383e+01) (19, 1.01944789379321776313e-01) (20, 1.93379654262289086830e+01) (21, 3.75441461414430022181e-01) (22, 9.78642365085906629218e-01) (23, 1.53056151718405392126e-01) (24, -1.75571567377821757816e+01) (25, -1.03468319730893903996e-01) (26, -1.04066341322439654959e+01) (27, -1.80865237876910972536e-01) (28, -7.43803568263240855174e+00) (29, -6.00522938427768049330e-01) (30, 1.10727473884654248337e+01) (31, -3.55166743256929651196e-01) (32, 2.49174080408274073450e-01) (33, 5.86216888940981784017e-01) (34, 7.30210922277620966270e-01) (35, 3.20024869955240542918e-01) (36, -1.10581366302244781252e+01) (37, 7.37285535699682970101e-02) (38, 7.50123642004183466270e-01) (39, -1.60523484641386104954e+00) (40, -1.08340057335768213953e+00) (41, -1.19964243980464013717e+00) (42, 4.74171977734821759043e+00) (43, 1.50000000000000000000e+03) (44, 1.50000000000000000000e+03) (45, 1.50000000000000000000e+03) (46, 1.50000000000000000000e+03) (47, 1.50000000000000000000e+03) (48, 1.50000000000000000000e+03) (49, 7.67331383741549188926e-01) (0, 5.35345562642893213479e+01) (1, -1.46191699876186881335e-01) (2, -6.94686473493551570613e+00) (3, 9.25209119054785922298e-02) (4, -1.17815067575816865286e+01) (5, 5.59839802968007616002e-01) (6, -3.79815817759673191034e+00) (7, -6.30090040738781942409e-01) (8, -1.04198153125092467519e+01) (9, -2.89650107190735695006e-01) (10, -3.11410934845778930580e+00) (11, 7.18179785297411443779e-02) (12, -3.43100816222371474140e+00) (13, -1.41461624699662946725e-01) (14, -5.32650708910058501289e+00) (15, -5.15079494723553760888e-03) (16, -2.90445055852252975725e+00) (17, -1.83817409437849604847e-01) (18, -7.38711961166120101296e+00) (19, -3.08622642898415122659e-01) (20, -3.38823244386450994625e+00) (21, -4.27022646233265967819e-01) (22, -9.22290004258195494913e+00) (23, -2.69493795578556960546e-01) (24, -9.53310365188781183576e+00) (25, -1.76512290384062409121e-01) (26, -1.28009867875462290954e+01) (27, -2.96061757354018351140e-01) (28, -1.19994327912852174478e+01) (29, -2.80682954027062336877e-01) (30, -1.89258739477161377351e+01) (31, -1.61966073501247670441e-01) (32, -7.27935301785235244765e-01) (33, -2.51475575093984771158e-01) (34, -1.42117920045615186986e-01) (35, -5.55949452047113434894e-01) (36, -4.36207967262630114114e-01) (37, -2.17090870187288224880e-02) (38, -2.92385878686666544901e-01) (39, -2.39853666982348584513e-01) (40, 4.03080849903908855492e-01) (41, 3.97799317742090041694e-01) (42, -5.87052378788703421719e-01) (43, 1.50000000000000000000e+03) (44, 1.50000000000000000000e+03) (45, 1.50000000000000000000e+03) (46, 1.50000000000000000000e+03) (47, 1.50000000000000000000e+03) (48, 1.50000000000000000000e+03) (49, -6.30301776056055862441e-01) (0, -5.07329530542508400082e-01) (1, -1.30143612855920446236e+03) (2, -2.66104443025461279149e+00) (3, -5.56099872764821043347e+02) (4, -1.43529978181520277758e+03) (5, -1.48344021832992574161e+01) (6, -1.93630763457538823680e-01) (7, -1.03924668993935142680e+03) (8, -2.93150974028265700611e+01) (9, 7.59688029730094513070e+02) (10, 3.37000525100255776678e+00) (11, -8.95772048753189267245e+01) (12, -8.98718436318813360231e+02) (13, -1.42634530716458266397e+03) (14, -7.89474209414750703218e+02) (15, -1.13864257109134200618e+03) (16, -8.64820635352521549066e+02) (17, 1.08588757467834011550e+03) (18, 8.77842508801239489458e+01) (19, -5.94654525747586930606e+01) (20, -4.21607719374174394034e+02) (21, -1.24626671629228258098e+03) (22, 4.54486338648265245865e+02) (23, 4.71035866063825423566e+01) (24, 8.73921776314746352909e+02) (25, 9.24517544206403982798e+01) (26, 4.54486338648265245865e+02) (27, -9.89796686634063433985e+01) (28, 1.06527718009556451761e+03) (29, -7.14754652595535020509e+01) (30, 5.82003547918341723744e+02) (31, -1.17892985678774323333e+02) (32, -3.80978086989447684019e-01) (33, -9.71094185512594409992e-01) (34, -4.99819913905194979087e-01) (35, -3.85284582179114432066e-01) (36, 1.30912848323813909701e+03) (37, -7.64992872279218971698e-01) (38, -5.07586697142652698567e-01) (39, 4.05025792502720037191e+02) (40, -1.13010380575985823270e+03) (41, -2.17047810641647799912e+02) (42, -1.15024105943803419905e+02) (43, 1.50000000000000000000e+03) (44, 1.50000000000000000000e+03) (45, 1.50000000000000000000e+03) (46, 1.50000000000000000000e+03) (47, 1.50000000000000000000e+03) (48, 1.50000000000000000000e+03) (49, -1.92480109075836947063e+00) (0, -3.27174203007265447241e+01) (1, 2.60774896925877186504e+00) (2, -3.28400256208762471033e+01) (3, -1.39171326158891481839e+01) (4, -1.45246453584796836367e+03) (5, -3.82401889564283351319e+02) (6, 3.53203492371608760436e+01) (7, -1.33112512383032033370e+01) (8, -8.28127080218655464705e+02) (9, -1.48177440371036573197e+03) (10, -1.45486265467660246031e+03) (11, -4.37714960898955638413e+01) (12, 6.30032181230611513456e+02) (13, -2.31150539712236593459e+02) (14, -3.08746508838097270200e+02) (15, -2.12683161479176391140e+02) (16, -1.46554957271451485212e+03) (17, -4.01458331651439408461e+01) (18, 1.49561234851366498333e+03) (19, -1.26058779363682333496e+03) (20, 2.52338763896150641841e+00) (21, 3.39785373053977650670e+01) (22, 1.39079999079704271026e+03) (23, -3.65618002692038288615e+01) (24, 1.49027527132265890941e+03) (25, 1.49413949866057305371e+03) (26, 1.37278696776252303380e+02) (27, 3.62701637580199133026e+02) (28, 7.04748657516289682690e+01) (29, 3.74229678121927634038e+02) (30, -1.47561946292470247499e+03) (31, -8.85760709633598480650e+02) (32, -7.95795533749810335422e+00) (33, -7.67135710212937915742e+00) (34, -7.53790683243028070137e+00) (35, -7.46964115593186761544e+00) (36, 8.20506206673769383997e+02) (37, -8.19362799767008276319e+00) (38, -7.50176823827973748848e+00) (39, -2.96078670359648157273e+01) (40, 6.09272659098783151421e+02) (41, -4.83143237698259664370e+00) (42, -4.13542390316744814527e+01) (43, 1.50000000000000000000e+03) (44, 1.50000000000000000000e+03) (45, 1.50000000000000000000e+03) (46, 1.50000000000000000000e+03) (47, 1.50000000000000000000e+03) (48, 1.50000000000000000000e+03) (49, -8.11870903465500326490e+00) (0, -6.38531596572953219493e-01) (1, 2.40701805685183586547e+02) (2, -1.50000000000000000000e+03) (3, -6.14171845239289582175e-01) (4, 9.77562594016775847194e+02) (5, -2.37583029250826669454e+01) (6, 2.32338780093328578502e+00) (7, -2.13616783749669352233e+01) (8, -1.82513516115618279478e+00) (9, -8.19047842795995073573e+00) (10, 2.49727925775180281676e+01) (11, -2.08872074497176285490e+01) (12, -1.39519509615776211575e+01) (13, -9.61978806812495008671e+01) (14, -1.22228665903767227974e+03) (15, -5.59715555886103999228e+01) (16, -1.17793604836558229998e+00) (17, -9.65800309269700107961e+01) (18, 9.29387061490644406092e+00) (19, -1.39089940141808938279e+02) (20, 1.95763149694201459283e+01) (21, -2.65825512543543744926e+01) (22, 1.31578011493712199176e+00) (23, -1.57387092935842304087e+02) (24, -1.48935881114740686826e+03) (25, -9.27258799622976965793e+01) (26, -1.33184701091689271379e+03) (27, -1.61128096644534934967e+02) (28, -1.17054677311732309164e+01) (29, -8.83278327635023856601e+01) (30, 4.10834573202834629768e+00) (31, -3.16249985114230980798e+02) (32, -1.98047141811053206695e+00) (33, -1.22683589240710144708e+00) (34, -2.13282353511254330058e+00) (35, -2.04788841387431164165e+00) (36, 1.70430666799671200806e+02) (37, -2.07876561662356396099e+00) (38, -1.66406278392474060723e+00) (39, 2.18179416080540922174e-01) (40, 6.95757096544974046992e+02) (41, -3.76249444468478131398e+01) (42, -8.72873645579315748932e+00) (43, 1.50000000000000000000e+03) (44, 1.50000000000000000000e+03) (45, 1.50000000000000000000e+03) (46, 1.50000000000000000000e+03) (47, 1.50000000000000000000e+03) (48, 1.50000000000000000000e+03) (49, -2.92005615016619524127e+00) (0, 1.18206078095392310701e+01) (1, 3.30856943288464933062e+00) (2, 1.34618477981079038841e+01) (3, -5.17939802300055318618e-01) (4, -1.52475679535767945083e+01) (5, 1.65648574746520865775e-01) (6, -2.14308187835551322564e+00) (7, 6.86733545945727774651e-01) (8, 1.28988573299821074336e+00) (9, 1.02858129881169046982e+00) (10, 2.77884025986871729952e-02) (11, -2.22309515704725929597e-01) (12, -1.49877785436132393571e+00) (13, -3.41603566389623358734e-01) (14, -4.05747894651036444813e-01) (15, -8.69556837188958264839e-01) (16, -5.08083465682645663009e+00) (17, -8.89713746043345188319e-01) (18, -5.26878428733675274742e+00) (19, -7.52067329250723393130e-01) (20, -7.20534891012090117357e+00) (21, -6.76818281320448633664e-01) (22, 3.24719958346551887396e-02) (23, -7.61551847306714879693e-01) (24, -5.76995731116721177756e+00) (25, -6.31828221673021217519e-01) (26, 7.74645374563886629504e-02) (27, -4.55921300940804297142e-01) (28, 9.19259226629326187119e-02) (29, -2.68717520914061314130e-01) (30, 9.79148643766204074268e+00) (31, -3.82683523451384788316e-01) (32, 3.39964276536348197766e-01) (33, 2.16831922372576688107e-02) (34, 4.45901340230348441906e-01) (35, 6.37038236840607785538e-01) (36, -7.88992271569485481564e-01) (37, 6.26493996365906857804e-01) (38, -2.70330311453373254085e-03) (39, 1.06348096519862300724e+00) (40, -1.79066696298946642640e-01) (41, 4.57516084642195064447e-01) (42, -3.20386798046944187845e+00) (43, 1.50000000000000000000e+03) (44, 1.50000000000000000000e+03) (45, 1.50000000000000000000e+03) (46, 1.50000000000000000000e+03) (47, 1.50000000000000000000e+03) (48, 1.50000000000000000000e+03) (49, -3.70294863001463081531e-01) (0, -7.27931025619696914220e-01) (1, -8.56789245246219466345e-01) (2, 9.73710873098647122781e-01) (3, 9.44739614612096656465e-01) (4, 3.53246201872277287848e-01) (5, 4.10101911726133838698e+00) (6, 7.01760580458834404283e+00) (7, -7.95448333371847171591e-01) (8, 9.32224991224837040704e+00) (9, -3.99633959381220926765e-01) (10, 2.83603818295227316781e+00) (11, 3.35885250606032872978e-02) (12, 8.56245885236615755787e+00) (13, -3.68985947905820954595e-01) (14, 1.47161622566696941306e+01) (15, 4.01975401607906568380e-01) (16, 1.67685016763527521277e+01) (17, -7.91974643505727660120e-01) (18, 2.00064861975629959545e+01) (19, -2.84424078152842374489e-01) (20, 2.93654808842740884245e+01) (21, -6.19313731458779881400e-01) (22, 2.27113300681105663159e+01) (23, -2.88234568481984032573e-01) (24, 2.64926865177134125418e+01) (25, -5.35931867944231532519e-01) (26, 2.20761022988388333488e+01) (27, -4.39646521693202452230e-01) (28, 1.75523202608956907511e+01) (29, -6.17534990025737196007e-01) (30, 1.43154384245569215039e+01) (31, -1.80581786975167413178e-01) (32, 2.13233181593319859326e-01) (33, 2.05538758394619880399e-01) (34, 9.72792552170657298660e-01) (35, 6.33108840641879111466e-01) (36, -4.08959009470337697678e-01) (37, 7.32362375912570140457e-01) (38, 7.11212740597628734207e-01) (39, -3.35051296230352957384e-01) (40, 5.26548048665771206700e-01) (41, -2.01937612203059030369e-01) (42, -1.01609040736246658554e+01) (43, 1.50000000000000000000e+03) (44, 1.50000000000000000000e+03) (45, 1.50000000000000000000e+03) (46, 1.50000000000000000000e+03) (47, 1.50000000000000000000e+03) (48, 1.50000000000000000000e+03) (49, -1.00326015296080220396e-01) (0, 1.69492066575787880822e+00) (1, 1.50000000000000000000e+03) (2, -1.49884558106812755796e+03) (3, -2.93429446863751799413e+01) (4, 1.49990042082625814146e+03) (5, 1.34909222993939970081e+00) (6, 7.49865023931237995036e-01) (7, 1.13724184231960907709e+03) (8, 5.76758196233130036035e+01) (9, 1.50000000000000000000e+03) (10, 1.50000000000000000000e+03) (11, 8.10368505311907960653e-01) (12, 3.21034000015222087399e-01) (13, 1.50000000000000000000e+03) (14, 6.03439735548637230522e+01) (15, 3.25309686336253844896e-01) (16, 1.23951980571254966890e+03) (17, 2.17102449219993554053e-01) (18, 1.50000000000000000000e+03) (19, 6.62655010241970598983e-01) (20, 1.50000000000000000000e+03) (21, 2.40360397731448738323e-01) (22, 1.50000000000000000000e+03) (23, 1.50000000000000000000e+03) (24, 1.31258397281781213906e+00) (25, 1.50000000000000000000e+03) (26, -2.62622530978392454415e+01) (27, 9.62918491973869805634e-01) (28, 1.73907508541672983782e+00) (29, 1.29391438768029752282e+03) (30, 1.50000000000000000000e+03) (31, 8.19334030345226449477e-01) (32, 1.29494314822605005588e+00) (33, 1.10422419938495486313e+00) (34, 6.77031377286226421219e-01) (35, 9.56369036764413538165e-01) (36, 1.50000000000000000000e+03) (37, 4.52845763370904763612e-01) (38, 1.32427393826892725315e+00) (39, 1.41365933198827178785e+03) (40, 1.25902807264260863107e+00) (41, -4.26489743620529093704e+00) (42, 2.94976466972062867367e-01) (43, 1.50000000000000000000e+03) (44, 1.50000000000000000000e+03) (45, 1.50000000000000000000e+03) (46, 1.50000000000000000000e+03) (47, 1.50000000000000000000e+03) (48, 1.50000000000000000000e+03) (49, 1.20591163072040452597e+00) (0, -3.58372686289209985144e-01) (1, -1.66119399523429439602e-01) (2, 9.72709118650624304792e+00) (3, -3.70162235438695752521e-02) (4, 5.54419531810200982846e-01) (5, -1.64588178212988611726e+00) (6, 7.21054343567210875854e-01) (7, 3.75868961579587490540e-01) (8, 7.35916842120250525028e+00) (9, -6.49722533064641394329e-02) (10, -1.34930527277361411720e+00) (11, 7.67865866937585517249e-01) (12, 1.39673051186567054316e+00) (13, 1.18449021241546048611e-01) (14, -4.00424691512949593175e+00) (15, 2.14675027886970709590e-01) (16, -1.30893017525664712153e+00) (17, -4.30660774131208373694e-02) (18, -6.38395907852606692146e-01) (19, 2.15097903240766524791e-01) (20, -6.43740923616533500251e+00) (21, 3.19274144864518327758e-01) (22, -5.98730514091064591753e+00) (23, 3.49854738845736368269e-01) (24, -5.57358001731855257077e+00) (25, 2.30243737332960524133e-01) (26, -1.15499103103257572123e+00) (27, -1.99804508983666730126e-02) (28, -2.69728490069408666230e+00) (29, 9.78151303439047797861e-02) (30, -1.99366042710418592265e-02) (31, 1.93414758920676721488e-01) (32, 2.68782398744630890430e-01) (33, -4.44367387250852119429e-01) (34, -4.70048637048196382704e-01) (35, -2.62899168685864825790e-01) (36, -5.25212540682998052510e-01) (37, 4.45398054166842083390e-01) (38, -3.16889875487279315536e-01) (39, -3.65490056424598863671e-01) (40, 1.98221659640476111086e-01) (41, 9.17703341791549997986e-01) (42, -4.10422388311684260831e-01) (43, 1.50000000000000000000e+03) (44, 1.50000000000000000000e+03) (45, 1.50000000000000000000e+03) (46, 1.50000000000000000000e+03) (47, 1.50000000000000000000e+03) (48, 1.50000000000000000000e+03) (49, 2.80574641271639502182e-01) (0, -6.72532940466434325799e+00) (1, 2.13444393451359504255e+00) (2, -1.73101666450511544326e+01) (3, -8.88320012346509457757e+00) (4, 2.09041128135147289413e+01) (5, 7.68248183786300331555e-01) (6, -1.12117727602625905092e+00) (7, 1.28201718770790479285e-01) (8, 4.88704377519914601180e+00) (9, 6.59055160845849252738e-01) (10, -4.34183088121268490056e+00) (11, 4.64687991521637144832e-01) (12, -7.42940396212911213780e+00) (13, 4.51344994258305765022e-01) (14, -2.77920967909811844621e+00) (15, 1.45309754293078852161e-01) (16, -9.88320690984760386044e-01) (17, -2.11088547141440818766e-01) (18, 1.94494701168202444030e+00) (19, -1.07090594858347112894e-01) (20, 3.39628290620086126239e+00) (21, -1.42433273793616088643e-01) (22, 7.80169280389518959851e+00) (23, -4.52180461090399776758e-01) (24, 2.64285545984715009027e+00) (25, -5.70228796095837986435e-01) (26, 5.73549837465820999682e+00) (27, -4.25288269756870229710e-01) (28, 9.59708860182705869590e+00) (29, -4.84892182541669491957e-01) (30, 2.00914078233735473589e+01) (31, -7.28356914443562208916e-01) (32, 8.72144464198607027861e-01) (33, 9.36962131206053316923e-01) (34, 4.90685481373324072774e-01) (35, 1.01635027283813283994e+00) (36, -2.11968828668094272372e-01) (37, 6.86245415154951188264e-01) (38, 1.09034848565246322849e+00) (39, 3.38669321915836929460e-01) (40, 1.40704319941824390616e-01) (41, -3.78756477266761704126e-01) (42, 4.02894461774137291332e-02) (43, 1.50000000000000000000e+03) (44, 1.50000000000000000000e+03) (45, 1.50000000000000000000e+03) (46, 1.50000000000000000000e+03) (47, 1.50000000000000000000e+03) (48, 1.50000000000000000000e+03) (49, 5.40627721492306423379e-01) (0, 3.84416675636446925068e+00) (1, -5.38729184075268596743e-01) (2, 4.93130406071038329685e+00) (3, -8.71039384034070107710e-01) (4, -1.65616781124892353816e+00) (5, 1.47122447058842076295e+00) (6, 1.73253605895311828533e+01) (7, -8.28419930406821380942e-01) (8, 4.13666145060018664026e+00) (9, 1.00983592742315470003e-01) (10, 1.59900018796462468629e+01) (11, -5.68482893510888320776e-01) (12, 1.48442720311592530891e+01) (13, 2.14301875183643325551e-01) (14, 1.84104975679487807838e+01) (15, 5.84181134491533055053e-02) (16, 1.61733870324751372038e+01) (17, -1.59557265170272820354e-02) (18, 9.49671994210794245816e+00) (19, -5.70504463661803372376e-03) (20, 7.60863871537792668676e+00) (21, 3.37411687436167395671e-02) (22, 3.71737528498438107860e+00) (23, 1.01398402388695754728e-01) (24, -2.29814758435713262230e+00) (25, 2.12422665196068088944e-01) (26, -1.00485157732122623031e+01) (27, 3.97925391475582146406e-01) (28, -1.03050908209392755310e+01) (29, 2.92978015024079996298e-01) (30, -8.04042090716054502764e+00) (31, 1.22900163407835952278e-01) (32, -3.77410500520151792614e-01) (33, -5.50873606675546412248e-01) (34, -8.96676211827676761246e-01) (35, -6.24742238992136100784e-01) (36, 4.25176071492917917460e-01) (37, -6.78594677918832656083e-01) (38, -6.16932242387216556168e-01) (39, -6.20136270668811495632e-01) (40, 3.86558545564679334472e-01) (41, 2.18804236284926928446e-01) (42, 2.05203188035086414587e+00) (43, 1.50000000000000000000e+03) (44, 1.50000000000000000000e+03) (45, 1.50000000000000000000e+03) (46, 1.50000000000000000000e+03) (47, 1.50000000000000000000e+03) (48, 1.50000000000000000000e+03) (49, -1.41952583121625708351e+00) (0, -2.88163141830871927240e+00) (1, -8.47092846792394652766e+02) (2, -1.47625969095784248530e+00) (3, -7.72111976963731994061e+00) (4, -1.47660382046457107208e+03) (5, -2.13789118961560964394e+00) (6, -2.50185819861750191606e+00) (7, 5.42526004022150686978e+02) (8, -9.59440858702602206165e+00) (9, -5.44960605769035737467e+01) (10, -2.71543756444996063237e+02) (11, -6.38798282938688988253e+00) (12, -6.07668872244172098007e-01) (13, -2.19011741315246517559e+01) (14, 2.12844493242341270545e+00) (15, 4.16785991157014201747e+00) (16, 1.41043894136564375685e+02) (17, 2.32288731432896646822e+01) (18, 1.50000000000000000000e+03) (19, -1.72847788130503005277e+02) (20, 1.50000000000000000000e+03) (21, 2.75687772664984827031e+01) (22, 1.45199999737739562988e+03) (23, -1.61044766393000003291e+02) (24, 1.45199999737739562988e+03) (25, -8.10683378310376667741e+01) (26, 1.49999615422691499589e+03) (27, -1.68819607511308845460e+02) (28, 1.49982951592708968747e+03) (29, 1.58890493516920173533e+02) (30, 1.42825168863673275155e+03) (31, -2.36095108712186600997e+01) (32, -2.61527905511098657243e+00) (33, -1.77091421829895434570e+00) (34, -1.85653521763519635535e+00) (35, -2.52943708645540032975e+00) (36, 6.27857490019250974456e+01) (37, -1.76666571842865405273e+00) (38, -2.48699053274827752702e+00) (39, -1.43674137467152854697e+03) (40, 1.78237326677704608358e+01) (41, -8.35826476526351114238e-01) (42, -1.97028400863415198430e+00) (43, 1.50000000000000000000e+03) (44, 1.50000000000000000000e+03) (45, 1.50000000000000000000e+03) (46, 1.50000000000000000000e+03) (47, 1.50000000000000000000e+03) (48, 1.50000000000000000000e+03) (49, -2.72104336964326654069e+00) (0, -6.29939632805746256849e+01) (1, 2.55793285975501838436e+01) (2, 1.13220044926003765795e+02) (3, -5.48911510459736007306e+00) (4, -6.57398841585303443935e+01) (5, 5.15810846329443767333e-02) (6, 1.31136310393022572640e+01) (7, -9.41025469861008767580e-01) (8, -1.03203268827536440710e+01) (9, -4.04425454758136471156e+00) (10, -9.32764969967754958846e-02) (11, -2.44645609494078292157e-01) (12, -6.48817989013875440207e-01) (13, -1.34105846398365047278e+00) (14, -9.86984071514540595160e-02) (15, -8.32818894649157370758e-01) (16, 8.08034352419679002821e+00) (17, -1.60920127944245749951e+00) (18, 1.33293366706212097483e+01) (19, -1.04036043462780791735e+00) (20, 1.48083675238545993125e+01) (21, -2.02534826261709799411e+00) (22, -4.67287631274298664863e+00) (23, -2.29522137267126957738e+00) (24, 7.57615885294022817220e+00) (25, -2.03740470054690625545e+00) (26, -3.77173918946912822836e-01) (27, -1.88187870865240158835e+00) (28, 1.56350483987944564035e+01) (29, -1.79286851821106685279e+00) (30, 2.06461732107853066509e+01) (31, -9.86965951743300262677e-01) (32, -7.77587339388306930665e-01) (33, -5.49367502438000809839e-01) (34, -7.47546076880868270997e-01) (35, -5.80801054941587513447e-01) (36, -1.13945373477035349907e+00) (37, -5.90527847515516568500e-01) (38, -5.34910246836117764246e-01) (39, 4.92526036080592710675e+00) (40, -1.02472635599577888144e+00) (41, -1.33590014331447463292e+02) (42, -4.74687512636453382009e-02) (43, 1.50000000000000000000e+03) (44, 1.50000000000000000000e+03) (45, 1.50000000000000000000e+03) (46, 1.50000000000000000000e+03) (47, 1.50000000000000000000e+03) (48, 1.50000000000000000000e+03) (49, -1.47479309152262727522e+00) (50, -2.40820500661095060480e-01) (51, -2.16431745019889687498e+00) (52, -4.54438600321172059271e-01) (53, -1.48783223827973209996e-01) (54, -2.43167671412916508444e-01) (55, -3.65549235431776031735e-01) (56, -2.06479372348154971428e-01) (57, 5.89208889560797755003e-01) (58, 1.94123474942573404078e+00) (59, -6.59941554739814861819e-01) (60, -3.88114345384342307455e-01) (61, -6.80648973725054684536e+00) (62, 2.58085265632391369639e-01) (63, 1.76557171914610219754e-02) (64, 7.59882639960153261072e-02) (65, -3.90199936715663053821e-01) (66, 3.08853795822067400678e-01) (67, 1.39590343423910190346e+00) (68, -5.37270077161890180495e-02) (69, -1.51394978852170858374e+00) (70, 1.77365677762067255885e-02) (71, 2.01944388684002129608e+00) (72, 5.71237176459925688476e+00) (73, -1.30596878614887612624e-01) (74, -4.09809654467328754457e-01) (75, 8.58864378808347983529e-01) (76, -1.07342213494208760238e+00) (77, 3.73879384116043989028e-02) (78, 2.73999476933020000291e-02) (79, 2.27180697935699704715e+00) (80, -2.77357514849553066227e+00) (81, -7.93904056065442148560e-02) (82, -2.54881971068847512640e+00) (83, 2.08353431136976990912e-01) (50, 6.04076606968453000412e-01) (51, 7.66912032561514522833e-01) (52, -1.60649760991932333276e+00) (53, 3.41487941733528421739e-01) (54, -1.19082805470373376266e+00) (55, -5.36373548550470730101e-02) (56, 4.25856117868348926780e-01) (57, -6.56236817152838214362e-02) (58, -8.75046568269472087309e-03) (59, 8.42166838163011244323e-02) (60, 2.22398945541647741209e+00) (61, -1.56875897750330111080e+01) (62, -1.86565127285535226065e+00) (63, -1.28503945108606909553e-01) (64, -1.34462296251760649035e-01) (65, 3.02737703640324040677e-01) (66, -1.23656544235775257140e-02) (67, -6.24593139474432579306e+00) (68, 1.55329939334235378467e+00) (69, 6.25178971712126330118e-01) (70, 5.53199507865758777214e-01) (71, 5.99535299588573256102e+00) (72, -1.02079999198913560576e+03) (73, -9.92479342597017838434e-02) (74, 3.85183148030916966409e-01) (75, 8.39266446593238540919e-02) (76, -9.18608878921232197001e+00) (77, -7.48216800732481590597e-02) (78, 2.55805370808339815891e-01) (79, -1.19070352719050998047e+00) (80, 1.78515434020461305487e+00) (81, -1.44726253573456031809e-01) (82, 6.97968320275722087231e-01) (83, 1.21795148368371686232e-01) (50, 1.97729811712725189743e-01) (51, 2.75738927178223458547e-01) (52, 9.81795362773440372095e-01) (53, -1.42185365152837861480e-01) (54, 1.61342752072766409954e-01) (55, -3.36225177186034229759e-01) (56, 1.93071386547774115350e-01) (57, -2.70969632176887520458e-01) (58, -6.66582781413953018301e+00) (59, -2.20768564156762520101e-01) (60, -1.18112290903580641199e+00) (61, -1.22920649929602343597e+00) (62, 1.68919963739304901384e-01) (63, 1.63101915984358275535e-01) (64, 2.74651800257660894111e-01) (65, -8.02674093220928419612e-01) (66, -3.67470564287968384787e-02) (67, -2.32125372773124771797e+00) (68, -1.43937522287475860860e-01) (69, 3.44644442485434132628e-01) (70, 2.20859500816429632497e-01) (71, 2.45471270687274722988e+00) (72, 1.00474156269038017442e+00) (73, 8.38369187251544467632e-02) (74, 4.89884836062507433851e-01) (75, 2.08554512976218209275e+00) (76, 1.10620034589218763088e+00) (77, 2.42119012753488654921e-01) (78, -5.13067533498713324036e+00) (79, 6.94416010229047975244e-01) (80, 2.18616393754933274751e-01) (81, -5.35090832117258274891e-01) (82, 4.75384047514960439429e+00) (83, 2.70810757739045171455e-01) (50, 1.33998083495833975043e-01) (51, -1.04942315558963800148e-01) (52, -3.31001622979844878358e+00) (53, -8.49213559868162437549e-02) (54, 2.11153247370514524084e-01) (55, -2.47206969766704975910e-01) (56, -1.78634749552864668942e+00) (57, -2.16025751330571141873e-01) (58, -5.68887010456241681844e-01) (59, -2.81235410480586978110e-01) (60, -1.06524957248033749768e-01) (61, 3.28380693179331117904e+00) (62, 7.95558958974677821185e-03) (63, -2.60138895637906875091e-01) (64, -6.96861962436528759035e-01) (65, -2.45398388105126619152e+00) (66, -1.09096811124343190391e-01) (67, 6.43021303490798556979e-01) (68, 1.17290269450052497824e+00) (69, 8.48984501375485145491e-02) (70, -2.11016459352701357677e-01) (71, 2.22394948083648946735e+00) (72, 8.95371467135358578560e+00) (73, -2.51305273014763963513e-01) (74, -2.16484217173196435979e-01) (75, 1.67145185707573329381e+00) (76, -1.49594629351588667698e-02) (77, -1.33719338684170768738e-01) (78, 8.66774476415915762217e-02) (79, -1.91757606863833163224e+00) (80, -3.05104103671027582223e+00) (81, -7.05116212484778626113e-01) (82, -2.37925627405951578552e+00) (83, -1.81704299736908034268e-02) (50, -1.37608652986488222414e-01) (51, -6.73246415102254580631e-01) (52, 3.10265649368749396597e-01) (53, 1.75325156899965417523e-01) (54, 1.21915213516469417288e-01) (55, -2.77598931600056275659e-01) (56, -1.25668605513472519952e+00) (57, 3.93930081385479857747e-01) (58, 3.90498625246473662909e-01) (59, -4.60534840036831150112e-01) (60, 2.00848389141645000677e+00) (61, 2.10440023994846425737e+00) (62, 5.40408707911175789640e-01) (63, -1.77917323963121903896e-01) (64, 3.63464460562266722388e-01) (65, -3.50041303758078847785e-01) (66, -2.10622683154555317975e-02) (67, -7.11690322684837894940e-01) (68, 1.50657294172489208961e+00) (69, -2.94390925993720686815e-01) (70, 1.15228597787714548417e+00) (71, -5.35976325702050715449e+00) (72, 2.92000080108643942367e+01) (73, -9.61268090689226667456e-02) (74, 1.82586382112721073989e-01) (75, -4.10735849146954645761e+00) (76, -1.22690313171658882396e+00) (77, 1.01408169458900451754e-01) (78, 8.84356970016808796586e-01) (79, 1.20133996681390109451e+00) (80, 4.22307398792588495340e-01) (81, -4.58720779002760731258e-02) (82, -8.00106947131336010415e-01) (83, 3.23280550942767960776e-02) (50, 2.56313897639887988689e-01) (51, 9.01830514767003710297e-01) (52, -7.55912346396694267980e+00) (53, -1.79083643634701195069e-01) (54, 2.48731393384442472927e-01) (55, -1.25409662796036186494e-01) (56, 7.27744156849707390933e-01) (57, 1.07525563911602561884e-01) (58, 1.77335991454959374103e+00) (59, 4.29313450979221022941e-01) (60, -4.36552972137050299128e-01) (61, -4.72585155528013434179e+00) (62, 9.13716693328025630905e-01) (63, -6.89266252185731093105e-02) (64, -5.45419700516245553601e-01) (65, -1.25687481043616156029e+00) (66, -3.32391458884690391140e-02) (67, 3.09154864666429363140e+00) (68, 1.09237918185274729410e+00) (69, -5.07936462873367222670e+00) (70, 1.83342592773439505560e-01) (71, 5.64800837072077510648e-01) (72, -1.19147575897682811430e+00) (73, -2.07163176903791337868e-02) (74, 1.10319581736721641918e-01) (75, 9.36073236883782522355e-01) (76, 1.97394284153687515904e+00) (77, -6.11106747833869645703e-01) (78, 3.36859682578124819408e-01) (79, -5.65578100951796258755e+00) (80, 3.45326739317173725397e-01) (81, -1.03354187467954417023e+00) (82, -4.71491076404554032564e+00) (83, 3.79941135572421817557e-01) (50, -5.77635648706646825934e-02) (51, 7.96840681663818162228e-01) (52, -1.73374162374264817466e+00) (53, 2.73442183562282205289e-02) (54, 2.99251949228982461193e-01) (55, -9.20257251138265480739e-02) (56, -4.27289446562760077963e-01) (57, -1.17266127330428937547e+00) (58, 1.63940800903881522821e+00) (59, 1.88727126677506407137e-01) (60, -5.62495737126711858878e+00) (61, -4.45485402438095423605e+00) (62, -8.00607143317610514544e-01) (63, -1.14764688969072270464e-01) (64, 5.27415784132998943790e-01) (65, 1.21112481474902033973e+00) (66, -6.48703553646121311438e-01) (67, 2.01780844505777684494e-02) (68, 8.26451861843632284987e-01) (69, 1.89319981797928416078e+00) (70, -2.07377708523357254244e-02) (71, -4.72556211684931071204e+00) (72, 3.93043904707425895140e+00) (73, 1.05895075050359860347e-01) (74, 1.24531196293257741259e-02) (75, -1.22443458365619162187e+00) (76, 1.66993465658505235716e+00) (77, -1.27201522058783239588e-01) (78, -4.17595008834830228039e+00) (79, 4.33491582422519172724e-01) (80, -2.76211696299702147428e+00) (81, 1.56731076922761114467e+00) (82, -4.05831792783197631280e+00) (83, -1.46153418290095898913e-01) (50, 1.18914475415570305983e-01) (51, 3.59485484643315533759e-01) (52, 7.05255592028139055572e+00) (53, -3.65023821503342782435e-01) (54, -9.22740803593031344576e-01) (55, 3.86264061382298684588e-01) (56, 4.06324377100745412483e-02) (57, -1.64889739000978308159e-01) (58, -1.64845791327520418967e+00) (59, -3.91287258067841314801e-01) (60, 3.90796308760690769279e-01) (61, -1.69631668915216371474e+00) (62, 1.25400257538389930945e-01) (63, -3.01451447749621764816e-02) (64, -3.36714880713934683332e-01) (65, -4.68343421908583046331e+00) (66, -9.09355876134201601690e-02) (67, -2.57949663978926935215e-01) (68, -3.51982282340034702273e+00) (69, 3.01006437991248310126e+00) (70, 7.21257852741959304410e-01) (71, 1.14731042682986017489e+00) (72, -1.45277048089785232321e+00) (73, 1.54162145184789326630e-02) (74, -2.18225122658087883343e-01) (75, -1.34448585593601621646e+00) (76, -1.24162608433178567324e+00) (77, -2.67341086813921713361e-01) (78, 9.60473692605677942247e-01) (79, -2.04961395516150712837e+00) (80, 8.10507224426478045665e-01) (81, 4.20840886639216149590e-01) (82, -1.57361336914361105155e-01) (83, -2.94680202552790426740e-01) (50, -4.69211085492452079082e-02) (51, -7.79916492638587227626e-02) (52, -1.73164426276017524575e-01) (53, -3.55074511570682593842e-01) (54, 3.95735613766777238887e-01) (55, -4.04159968334644625898e-01) (56, -1.32300510145983940546e+00) (57, 1.08076724635524556994e+00) (58, 3.11621162856212718939e-01) (59, -1.43423830706091742782e-01) (60, -2.65533069271849553328e-01) (61, -4.25307239124321512236e+00) (62, 1.57952962664043905505e-01) (63, -2.86243817756144935949e-01) (64, -4.44585030514210055586e-01) (65, 2.03863242866372562645e+00) (66, -4.11273572437114931510e-01) (67, 2.13101686646840593475e-01) (68, -1.45088137259402372159e+00) (69, -4.43831359474049591540e+00) (70, -1.37654864748314476053e+00) (71, 5.77783691943707555794e+00) (72, 5.85207104881249051687e+01) (73, 2.29899358407228887602e-01) (74, -4.13343107954374094914e-02) (75, 1.53751274674062510250e+00) (76, 8.57967355177993384885e-01) (77, 1.00050444167642263449e-01) (78, 3.04096113983996052532e-01) (79, 2.41281932813725719100e+00) (80, -3.32580777127537796645e+00) (81, -2.20191350758841303259e-01) (82, -1.93521636061932400530e+00) (83, -4.52870672184437106367e-01) (50, 1.73640765400718904976e-01) (51, -3.87011501834473525818e-01) (52, 6.84065869208797749934e+00) (53, -4.57198029433938557542e-01) (54, 7.26587841021206076730e-02) (55, -1.39417949485946907062e-01) (56, 1.31681185917342147285e+00) (57, -7.27543368429264553782e-03) (58, -4.98546166248645672425e+00) (59, -6.03280758955244023056e-01) (60, 5.37403695233431011324e-01) (61, -9.45216451149342873350e+00) (62, -6.60087860640705459403e-01) (63, 1.18870923423168878275e-01) (64, -4.16132930088208785602e-01) (65, 1.02390578439288382206e+00) (66, -4.89947235186680984942e-02) (67, -1.10154830747506260469e-01) (68, -2.90119136351928785800e+00) (69, -4.10944013071674330018e-01) (70, -3.22994425249394989663e+00) (71, -7.05160396314201687318e-01) (72, -6.79999485015861182546e+00) (73, 3.40828621139469545298e-02) (74, 2.17099718900355342921e-01) (75, 3.92482559664543817490e+00) (76, 1.74400769852196146914e+00) (77, -5.59348124432739179923e-01) (78, 1.87614550687021530706e+00) (79, 5.89828182558738631225e-02) (80, 1.67527060253296555814e-01) (81, -6.23473136960587592803e-01) (82, -1.76104519113909496753e+00) (83, -9.08781173992332269584e-01) 
