FANN_FLO_2.1
num_layers=3
learning_rate=0.700000
connection_rate=1.000000
network_type=0
learning_momentum=0.000000
training_algorithm=2
train_error_function=1
train_stop_function=1
cascade_output_change_fraction=0.010000
quickprop_decay=-0.000100
quickprop_mu=1.750000
rprop_increase_factor=1.200000
rprop_decrease_factor=0.500000
rprop_delta_min=0.000000
rprop_delta_max=50.000000
rprop_delta_zero=0.100000
cascade_output_stagnation_epochs=12
cascade_candidate_change_fraction=0.010000
cascade_candidate_stagnation_epochs=12
cascade_max_out_epochs=150
cascade_min_out_epochs=50
cascade_max_cand_epochs=150
cascade_min_cand_epochs=50
cascade_num_candidate_groups=2
bit_fail_limit=3.49999999999999977796e-01
cascade_candidate_limit=1.00000000000000000000e+03
cascade_weight_multiplier=4.00000000000000022204e-01
cascade_activation_functions_count=10
cascade_activation_functions=3 5 7 8 10 11 14 15 16 17 
cascade_activation_steepnesses_count=4
cascade_activation_steepnesses=2.50000000000000000000e-01 5.00000000000000000000e-01 7.50000000000000000000e-01 1.00000000000000000000e+00 
layer_sizes=51 34 11 
scale_included=0
neurons (num_inputs, activation_function, activation_steepness)=(0, 0, 0.00000000000000000000e+00) (0, 0, 0.00000000000000000000e+00) (0, 0, 0.00000000000000000000e+00) (0, 0, 0.00000000000000000000e+00) (0, 0, 0.00000000000000000000e+00) (0, 0, 0.00000000000000000000e+00) (0, 0, 0.00000000000000000000e+00) (0, 0, 0.00000000000000000000e+00) (0, 0, 0.00000000000000000000e+00) (0, 0, 0.00000000000000000000e+00) (0, 0, 0.00000000000000000000e+00) (0, 0, 0.00000000000000000000e+00) (0, 0, 0.00000000000000000000e+00) (0, 0, 0.00000000000000000000e+00) (0, 0, 0.00000000000000000000e+00) (0, 0, 0.00000000000000000000e+00) (0, 0, 0.00000000000000000000e+00) (0, 0, 0.00000000000000000000e+00) (0, 0, 0.00000000000000000000e+00) (0, 0, 0.00000000000000000000e+00) (0, 0, 0.00000000000000000000e+00) (0, 0, 0.00000000000000000000e+00) (0, 0, 0.00000000000000000000e+00) (0, 0, 0.00000000000000000000e+00) (0, 0, 0.00000000000000000000e+00) (0, 0, 0.00000000000000000000e+00) (0, 0, 0.00000000000000000000e+00) (0, 0, 0.00000000000000000000e+00) (0, 0, 0.00000000000000000000e+00) (0, 0, 0.00000000000000000000e+00) (0, 0, 0.00000000000000000000e+00) (0, 0, 0.00000000000000000000e+00) (0, 0, 0.00000000000000000000e+00) (0, 0, 0.00000000000000000000e+00) (0, 0, 0.00000000000000000000e+00) (0, 0, 0.00000000000000000000e+00) (0, 0, 0.00000000000000000000e+00) (0, 0, 0.00000000000000000000e+00) (0, 0, 0.00000000000000000000e+00) (0, 0, 0.00000000000000000000e+00) (0, 0, 0.00000000000000000000e+00) (0, 0, 0.00000000000000000000e+00) (0, 0, 0.00000000000000000000e+00) (0, 0, 0.00000000000000000000e+00) (0, 0, 0.00000000000000000000e+00) (0, 0, 0.00000000000000000000e+00) (0, 0, 0.00000000000000000000e+00) (0, 0, 0.00000000000000000000e+00) (0, 0, 0.00000000000000000000e+00) (0, 0, 0.00000000000000000000e+00) (0, 0, 0.00000000000000000000e+00) (51, 3, 5.00000000000000000000e-01) (51, 3, 5.00000000000000000000e-01) (51, 3, 5.00000000000000000000e-01) (51, 3, 5.00000000000000000000e-01) (51, 3, 5.00000000000000000000e-01) (51, 3, 5.00000000000000000000e-01) (51, 3, 5.00000000000000000000e-01) (51, 3, 5.00000000000000000000e-01) (51, 3, 5.00000000000000000000e-01) (51, 3, 5.00000000000000000000e-01) (51, 3, 5.00000000000000000000e-01) (51, 3, 5.00000000000000000000e-01) (51, 3, 5.00000000000000000000e-01) (51, 3, 5.00000000000000000000e-01) (51, 3, 5.00000000000000000000e-01) (51, 3, 5.00000000000000000000e-01) (51, 3, 5.00000000000000000000e-01) (51, 3, 5.00000000000000000000e-01) (51, 3, 5.00000000000000000000e-01) (51, 3, 5.00000000000000000000e-01) (51, 3, 5.00000000000000000000e-01) (51, 3, 5.00000000000000000000e-01) (51, 3, 5.00000000000000000000e-01) (51, 3, 5.00000000000000000000e-01) (51, 3, 5.00000000000000000000e-01) (51, 3, 5.00000000000000000000e-01) (51, 3, 5.00000000000000000000e-01) (51, 3, 5.00000000000000000000e-01) (51, 3, 5.00000000000000000000e-01) (51, 3, 5.00000000000000000000e-01) (51, 3, 5.00000000000000000000e-01) (51, 3, 5.00000000000000000000e-01) (51, 3, 5.00000000000000000000e-01) (0, 3, 0.00000000000000000000e+00) (34, 3, 5.00000000000000000000e-01) (34, 3, 5.00000000000000000000e-01) (34, 3, 5.00000000000000000000e-01) (34, 3, 5.00000000000000000000e-01) (34, 3, 5.00000000000000000000e-01) (34, 3, 5.00000000000000000000e-01) (34, 3, 5.00000000000000000000e-01) (34, 3, 5.00000000000000000000e-01) (34, 3, 5.00000000000000000000e-01) (34, 3, 5.00000000000000000000e-01) (0, 3, 0.00000000000000000000e+00) 
connections (connected_to_neuron, weight)=(0, -4.88436656287143904365e+01) (1, 2.68867790616715707230e+00) (2, 1.66189943679315721425e+00) (3, -4.52705029200718112037e+00) (4, -9.95769729641446410540e+00) (5, -7.08330309885317799257e+00) (6, 9.40939424385350520197e+00) (7, -4.67820182969635709469e+01) (8, 7.60498816722952675207e+00) (9, 1.68480192982390626355e+01) (10, -4.85060255404505582533e+01) (11, -1.10220060128129205168e+02) (12, -3.32319982140724974329e+01) (13, 1.31617153706729919094e+01) (14, -3.42561672140699435829e+00) (15, 1.50000000000000000000e+03) (16, 3.36408467247655877941e+01) (17, -1.52751588125935562346e+01) (18, 3.08903427912607764227e+00) (19, -1.81534900472263700522e+01) (20, -3.07758046198721793019e+01) (21, -1.08145705081403704639e+01) (22, -9.88519988627672985260e-02) (23, 2.72419831047966765070e+00) (24, -1.97345519609191590860e+01) (25, -3.88068436591316583417e+01) (26, 6.71831956416787612341e+00) (27, 2.10736854249792209259e+01) (28, 4.46305835946551532345e+00) (29, -1.46824031342920111598e+01) (30, 1.76902718449575253601e+01) (31, 2.48410387570819715108e+01) (32, -2.31184707405765177413e+00) (33, 2.05469052988706799567e+01) (34, -3.37640820956439435818e-01) (35, 6.54459215219288523713e+01) (36, -3.23919299444218040662e+01) (37, -2.88522515846177327603e+01) (38, 3.76091293923010923095e+01) (39, 9.65949043682669952204e+01) (40, 8.97564967201677554876e-01) (41, -1.69557524102960179846e+01) (42, -2.57176241078630374304e+00) (43, 4.35582496950166131455e+00) (44, -3.16697693247281852891e+00) (45, 1.57168942428113638243e+01) (46, 2.70816421250519141495e+01) (47, -5.15999412869607851917e+01) (48, -4.81635564090226893086e+01) (49, 2.90010545754148303388e+01) (50, -7.06587479641866966773e-01) (0, -2.64888566649255396968e+00) (1, 8.89633789495959170779e+00) (2, 7.32050479198265380276e-01) (3, -1.06418444887526186804e+00) (4, -3.71998714304474198400e+00) (5, 7.63800204294460716170e+00) (6, 2.12468830588289847583e+00) (7, 5.81694896225547708468e+00) (8, 6.40017626969971065165e+00) (9, -3.32824036323158312101e+00) (10, 5.75829414278255402593e+00) (11, -1.39711164937850629286e+00) (12, 9.67384728087162670818e+00) (13, -3.17109713599835862929e-01) (14, 1.31374572301643510741e+00) (15, 3.14420780394366605748e+00) (16, 2.24604901889724573039e+00) (17, 8.07554851068027934602e-01) (18, 2.67334242244800668331e+00) (19, -1.92303198444727629912e+00) (20, 2.21847959379389170209e+00) (21, 7.84675190189392024465e-01) (22, -1.20806712640781444001e+00) (23, -2.34911195911945025472e+00) (24, -4.53914325115491390505e+00) (25, -4.58101193055604871684e-01) (26, -1.69750037865418978988e+00) (27, 2.89040114571479822558e+00) (28, 3.23715643485811208069e-02) (29, -1.71734519666472684740e+00) (30, 1.19038246179390294621e+00) (31, 5.94391907691939280767e+00) (32, 1.23034816131659185956e+00) (33, -2.14156762817282109168e+00) (34, -2.65414686243638975327e+00) (35, 4.06590673191282281351e+00) (36, 1.02678468000392864035e+00) (37, -1.61677454568956657788e+00) (38, 4.57007024245357040826e+00) (39, -3.55311636769982452932e+00) (40, 6.96603521789635471428e-01) (41, 6.36488921497559267948e+00) (42, -1.21318173509871973792e+00) (43, -4.29361785597714451512e+00) (44, -6.52380786835595527506e-01) (45, -4.13439823373830694919e+00) (46, 3.58119314144430411773e+00) (47, -7.94679934100865015267e+00) (48, 4.81696938503928362429e-01) (49, -1.79104767606589443396e+00) (50, -3.31253553472756312459e+00) (0, -4.82090657053646722829e+01) (1, -3.73491470686913515920e+01) (2, 7.77564347919482035110e-01) (3, -4.37390774079032382815e+01) (4, 1.67960761552109296701e+01) (5, 2.42352913057262888685e+01) (6, -1.10322804562272702711e+00) (7, -1.85208297219661197630e+01) (8, 1.99605168265771704128e+00) (9, 6.22119713313381694775e+00) (10, 1.30770512048389697668e+00) (11, 8.66231940975446867981e+00) (12, 2.53478653629858783347e+01) (13, -6.23996254488131629756e+00) (14, -1.22466527350844400779e+00) (15, 4.80539818918285455140e+00) (16, 4.77467046889794488607e+01) (17, -2.38503893170660639100e+01) (18, 1.05264782193673340771e+01) (19, -4.15081598919139338477e+01) (20, -6.30859450619248529613e-01) (21, 5.19224878440827719572e+00) (22, 7.31813583820223279020e+00) (23, 3.78884239179573834022e+00) (24, 2.69520312505646444379e+01) (25, 2.93523829886756644214e+01) (26, -7.53591192239651697093e+00) (27, 6.43114350168261239560e+00) (28, 2.69148212692549826386e+00) (29, 2.21168064610572789874e+00) (30, 1.99110589013704633032e+01) (31, -8.87953126000270742679e+00) (32, 4.53644457562531489003e+00) (33, 9.49506863436665327072e+00) (34, -5.90980065120463038397e+00) (35, 6.28391693343588997323e+01) (36, 2.34087755531927399488e+01) (37, 2.37224320387639338037e+01) (38, -7.70027685056518418349e+00) (39, -1.91480317791565965990e+01) (40, 7.52887435171820573743e+00) (41, 2.50635381051861028112e+00) (42, -8.38035120540387090671e+00) (43, -4.20000528366746905817e+00) (44, 1.36064716243003847040e+00) (45, -2.08603546721110824080e+01) (46, -1.05287524644021801556e+00) (47, -6.35840368673228351071e+00) (48, 3.25089568279336660339e+00) (49, -3.80458340564449137844e+00) (50, 1.33688394396099669015e-01) (0, -2.65352887897687921281e+01) (1, 3.20223880987176157120e+00) (2, 2.59642351005566407451e+00) (3, -2.57562749588687467384e-01) (4, -3.09336180617342559884e+00) (5, 3.05262609835140388270e+01) (6, -9.44314558515325330745e+00) (7, 1.10901055502099801231e+01) (8, -1.07908818308269327524e+00) (9, -1.98511634107205114930e+00) (10, -3.23717788199590899012e+01) (11, 6.12737395266694218066e+00) (12, 4.73278899114585005492e+00) (13, -8.07331815642961991841e+00) (14, -1.47219507901286696949e+01) (15, 7.32707723231038277056e-01) (16, -5.10667123823553836814e+00) (17, 3.41605999734917453736e+00) (18, -2.77278811251929298010e+01) (19, 4.98830695325775064219e+00) (20, -8.88430189946454085259e+00) (21, 4.30397374616169337003e+00) (22, -3.58389678743382900095e+00) (23, 8.62188632235184648778e+00) (24, -8.34967565745328244020e+00) (25, 2.14440563843160845181e+01) (26, 5.93218143120176577554e+00) (27, -2.73383489022957570924e+00) (28, -7.13597575037909503948e+00) (29, -4.14514156362641816855e+00) (30, -9.90286485955977191509e+00) (31, -1.19632169662856586712e+01) (32, -4.45232129582349589469e+00) (33, 2.61858342373910435441e+00) (34, -6.63875345922656734388e+00) (35, 1.07285103339001555156e+01) (36, 1.21665667278252733752e+01) (37, 2.04120889884088363431e+01) (38, 6.48138216415105050672e-01) (39, -5.36671003778605193446e+00) (40, 1.29725282871717939592e+00) (41, 6.25877984099470907609e+00) (42, -1.25935484645769557588e+00) (43, 3.40369418993270653195e-02) (44, -1.18735812957807453927e+01) (45, 2.88628950781850086571e+01) (46, -5.48189619678035100492e+00) (47, 8.84089895526619784505e+00) (48, -1.88547978625823127174e+01) (49, 2.04914970195730070657e+01) (50, -1.02270633245730279554e-02) (0, 3.12689769511931059398e+00) (1, 1.35331975324659059545e+00) (2, -6.66223494983984654283e+00) (3, 7.55981729756172393664e-01) (4, -3.14578956379871819138e+01) (5, -2.54568430071314288909e+00) (6, -3.74232210792303676694e-01) (7, 2.18358721767121233270e-01) (8, -2.88308723432778180040e+00) (9, 1.89029349721741479762e+00) (10, 2.13149979192616845225e+00) (11, -1.52581490515589379697e+01) (12, 2.04069790333981231356e+01) (13, 5.87906696368941794617e+00) (14, -4.40663787298816611582e+00) (15, 5.24839774319057639218e+00) (16, 1.10160726642490480742e+01) (17, -8.43680061547123605337e-01) (18, 1.80192084856365453138e-01) (19, -1.07914320442466871164e+00) (20, -1.79154852689744115146e+00) (21, -2.68244067711647193875e+00) (22, -5.39854847966063928766e+01) (23, 2.76777490990555774530e+00) (24, 3.42301176671921458805e+00) (25, 7.25114983101309285018e-02) (26, 1.68224777393192792552e+00) (27, 4.77142776796473633283e+00) (28, -4.44708970551817994732e+00) (29, 1.33184107588920208620e+00) (30, 2.68755086126167297422e+00) (31, 2.80958766076640609199e+00) (32, -8.52572693429414663058e+00) (33, -1.13631467464269575451e+00) (34, -2.07142497986021245637e+00) (35, -5.85605272998315218302e+00) (36, 3.01937258255728524503e+00) (37, 7.13110668011515791420e-01) (38, -1.04149815553359670339e+00) (39, -5.51153621123374382051e+00) (40, 7.61943332800036721153e+00) (41, 7.84959386347958787411e+00) (42, -3.06096532557539653396e+01) (43, 2.45463251976784452291e-01) (44, -1.78667208690446766006e+00) (45, 5.61465109560704522806e+00) (46, 4.78647052276683471206e+00) (47, -1.10749068716622622865e+00) (48, 9.50688436549039228574e-01) (49, -1.46975114784515659139e+00) (50, 7.09585423454284880407e-01) (0, -6.81280390792353074403e+00) (1, -4.91697091389635971836e+01) (2, -3.91260255797062539429e+00) (3, 8.52444003397891503226e-01) (4, 1.95042504580858206964e+01) (5, -2.22934009907163783737e+01) (6, -4.01959048991708485232e+01) (7, 4.94555820352182173849e+00) (8, 3.15201582464542440221e+00) (9, -4.63700939515307730687e+00) (10, -4.18554751057462226527e+00) (11, 4.34979784649534551022e+00) (12, 3.03513434921475550254e+02) (13, 9.47453075333944916281e+00) (14, 3.17117931246068529560e+00) (15, -1.05368662022400472189e+00) (16, 3.25889572118863384276e+02) (17, -2.45020484319515183813e+01) (18, 9.41545106280829280365e+00) (19, -9.30335374978164253434e+00) (20, 9.76716571332198313371e+00) (21, -2.29933031889695660421e-01) (22, -2.27355949263223990897e+01) (23, 2.30598917032642347635e+00) (24, -8.77071651001803509473e+00) (25, 1.60042638399498500235e+01) (26, -9.96117456810584656068e+00) (27, 2.58498721205055570493e-01) (28, -1.02278114324868099061e+01) (29, -4.62865530958422599639e+00) (30, -1.15455081180006957631e+00) (31, 9.73051136504190061771e+00) (32, 5.24799331137229785327e+00) (33, 9.47131130223926653855e+00) (34, 9.15480841657603505723e+00) (35, -1.54659493024072034473e+01) (36, 2.19255995954476716747e+01) (37, 7.11910941488353632423e+00) (38, 1.60095651494420132543e+00) (39, -2.81687002705764344412e+00) (40, 3.64352637478092500345e+00) (41, -4.24652546341447045819e+00) (42, 3.81205936342263882466e+01) (43, -1.96108703413357225998e+01) (44, -1.17315395291524016130e+01) (45, 2.63903475368239837096e+00) (46, 3.24744523746366597905e+00) (47, -5.03032538859100775142e+00) (48, 5.87640357282943170958e+00) (49, 1.89718847420638923040e+01) (50, -6.84442980297096270625e-01) (0, -1.85093698313372776454e+01) (1, -8.74881769647477547380e-01) (2, 2.69754272227062550371e+01) (3, -1.90762519935374186275e+01) (4, 6.91189271563815310628e+00) (5, -3.09941380252930187567e+00) (6, 3.07470611806849056791e+01) (7, -2.57758798719893320595e+01) (8, -1.89363890471965312656e+01) (9, 1.90127531568808478823e+01) (10, 5.69525908279202841555e+00) (11, -3.77781012986409248100e+00) (12, 1.01418349000619762990e+01) (13, -3.15563516381061681670e+01) (14, -3.96795995077548226959e+01) (15, -1.43583354097450097697e+01) (16, 1.96357470586905087373e+01) (17, 8.83425700045283868178e+00) (18, -7.06243956797727445718e+00) (19, -1.66739398660739226443e+01) (20, 1.69163605901740830006e+01) (21, -7.78429160761536031998e+00) (22, 6.36105160766008115303e+00) (23, -2.98848546472802176766e+01) (24, -2.31073065506815602532e+01) (25, -4.64119661627023916139e+00) (26, -1.62131076180827697897e+01) (27, -3.69049001014813615740e+00) (28, 2.32427353870466610886e+01) (29, 4.73649320169822907189e+00) (30, 2.54171250586212096323e+01) (31, 2.04687690068585759207e+01) (32, 2.19497160886021980275e+01) (33, -1.47484092841252322614e+03) (34, -3.58844444760068128630e+01) (35, -4.54283770059397706831e+00) (36, 6.88425613623570029631e+01) (37, 4.89520101591846223954e+00) (38, -1.52228714792459935978e+01) (39, 9.58463121409626062075e+00) (40, -1.32164951749687027416e+01) (41, -2.31691333680568689601e+00) (42, 2.22181408533849875653e+01) (43, -4.59676267135989036206e+01) (44, -1.12221397220029706077e+00) (45, 3.58377936969388457555e+01) (46, 1.09212788164988316292e-02) (47, -1.12503672499406359719e+01) (48, 1.49987706869932626574e+01) (49, 1.53491986513230820321e+01) (50, -4.13839641485239273511e-01) (0, -7.19704429819064994689e+00) (1, 1.38888080905978400503e-01) (2, 8.68660266052894414202e+00) (3, -1.82544873426559419727e+01) (4, 1.61665284563599129797e+01) (5, 1.49790623525874821986e+00) (6, -3.04703588693646096885e+01) (7, 1.32865707773538179737e+01) (8, 3.78134517470432829356e+00) (9, 2.32591199660871472688e+00) (10, 1.12217819196555392836e+01) (11, 1.35777648478258150533e+01) (12, 1.29834072197070304888e+00) (13, -8.04259306334004975270e+00) (14, 2.37266320544972444395e+01) (15, 1.00889528659824563306e+01) (16, -1.93152415978560334509e+01) (17, 2.23934810256826111186e+01) (18, 6.39877071391368623665e+00) (19, 2.80888309191410723287e+00) (20, -3.24121456818887665463e+01) (21, 4.98014952064184157621e+00) (22, 6.11532630812869371084e+00) (23, -1.81603390866327742970e+01) (24, -4.26630593712056427336e+00) (25, -1.76128375251647195654e+00) (26, 6.41193122504032930742e-02) (27, -6.81167089469914355249e+00) (28, 1.61558425592876614418e-01) (29, -2.86518614124230381890e+01) (30, -1.26736507338036776815e+01) (31, -1.66338085024470250239e+00) (32, -5.44170914634962343825e+00) (33, -3.17214907184613466029e+01) (34, 1.16580335335972939959e+01) (35, -1.49086929292817416126e+01) (36, -7.65420754030547723090e+00) (37, -1.38134317854159700545e+01) (38, 5.13736999500099411620e+00) (39, -4.85019205553312815482e+00) (40, 4.75877809689868813692e-01) (41, -7.07703825499654293196e+00) (42, -7.48004680099147201133e+00) (43, 6.96919789534789480001e+00) (44, -5.12823626016350253565e+00) (45, -5.55372212697856060259e+00) (46, -2.67911506375712704653e+00) (47, -2.30680687846158205545e+00) (48, 4.32426382131486597427e-01) (49, -5.61996968498200022424e-01) (50, -1.15874371374452866945e+00) (0, -7.65592604872753845768e+00) (1, -1.02534801545072040696e+00) (2, 6.20973668224648722713e-01) (3, -3.25649299954019655345e+00) (4, 7.39277935901291627374e+00) (5, -1.44911959015404292472e+01) (6, -1.83042522093356058166e-01) (7, 3.98825314540783892880e+00) (8, 9.50200652153532843158e+00) (9, -6.70653945269941331730e+00) (10, 5.79149256528961320356e+00) (11, 9.96570759308117359865e+00) (12, 1.51803793280573851021e+00) (13, -1.97599526483675669297e+00) (14, 1.12852784327006663290e+01) (15, -2.51004826461139316507e+01) (16, 5.52456444786890443766e+00) (17, 3.14825413819593835640e+00) (18, -2.13709238299771175917e+00) (19, 1.98237214638133651956e-01) (20, 1.16011047781691667424e+00) (21, 2.45145409110343548420e+00) (22, 5.87551744458891178624e+00) (23, -3.86606135266313621912e+00) (24, 9.50515240870909217108e+00) (25, -1.14394770884809204858e+01) (26, 7.08291864999532005953e-01) (27, -3.64998374464736041745e+00) (28, 3.21535421028246233277e+01) (29, 7.47387197848003381750e+00) (30, -1.29175454665938804766e+00) (31, 4.45109349421202171726e+00) (32, 8.14534043132203855464e+00) (33, -3.39800159779714672226e+00) (34, 4.94554052757525786088e-01) (35, -5.18659366599955085064e+00) (36, 6.13836255651708628811e-01) (37, 1.90520714882225189468e-01) (38, 1.05141632249913463681e+00) (39, -8.64675234774556322748e+00) (40, -3.86214575175876539959e+00) (41, 2.49526262529900444420e+00) (42, 3.93083967149305768540e-01) (43, 8.86368638364820427000e+00) (44, -6.01233299657175468411e+00) (45, 7.19703436926616912928e+00) (46, 1.96364829322849221427e+00) (47, -2.16433674208788007221e+00) (48, -4.14673421808073960904e+00) (49, -7.29949024044128158550e+00) (50, -4.19316850407410157686e+00) (0, -5.24427804303588263046e-01) (1, 1.32443682376905940146e+01) (2, -7.07260575224091359026e-01) (3, -5.21895616822299013293e-01) (4, 2.19299230606082762307e+00) (5, -2.41136773875534515810e+00) (6, 1.46157149564984867318e+00) (7, 1.81804249845755661052e-01) (8, -3.85605266375881883256e-01) (9, -2.37389703831447329563e+00) (10, 2.56362080299229078140e-01) (11, 1.17364235264922136537e+01) (12, 5.74749199827994106116e-01) (13, -2.21175527555828671522e-01) (14, 1.96212474065503988951e-01) (15, -2.52736943533999536271e+00) (16, 5.13507367674708277150e+01) (17, -6.16702485588499604852e-01) (18, 2.22673694914185427152e+00) (19, -2.40262083697881756450e+00) (20, 3.32116958607947010407e+00) (21, -2.49123210569364017530e+00) (22, 1.10229273328855414960e+00) (23, 6.75974489288058810743e-01) (24, 2.24548270141350231333e-02) (25, 4.37078037707201971784e+00) (26, 3.23510725119234621161e+00) (27, -8.54797192395287064315e-01) (28, -3.03908162893042732566e-01) (29, 3.67832618233642349992e+00) (30, 2.50780162372647774660e+00) (31, -2.36101490336084829380e+01) (32, 1.85977400095334455266e+00) (33, 4.89076450914765992195e+00) (34, 1.57835373851380844634e+00) (35, 9.47109441553369535427e+00) (36, -7.88416655485776468604e-02) (37, 1.40480210040881681177e-01) (38, 1.41953004168622820558e+00) (39, 3.51909339765819728640e+00) (40, -1.89391647016206676746e+00) (41, -9.65735875542520161297e-01) (42, -1.88621868968743044981e+00) (43, 1.31754421863312876084e+00) (44, -1.07436876565124062033e+00) (45, -2.94335625772466658034e+00) (46, -9.18286077452549864830e-01) (47, 1.32407286843890220629e-01) (48, 8.20866352454868830613e-01) (49, -1.73344741066300911392e+00) (50, -1.74441878764308566652e+00) (0, -1.42522311475506913148e+00) (1, 4.12433362084447185936e+00) (2, 3.50145286896587970560e+00) (3, 7.26445025835426783090e+00) (4, -2.28041869916433839194e+01) (5, 6.38308131305432180369e+00) (6, -4.56077149105541312935e+00) (7, -1.69903106947289792572e+01) (8, -5.11011986125907480272e-01) (9, 1.06623306188529176630e+00) (10, -6.16222842946011972742e+00) (11, -9.23301248809921482064e-01) (12, 7.37374183095157587076e+00) (13, 1.27548430122534006692e+00) (14, -5.18690949090675923472e-01) (15, -3.88125083625725686431e+00) (16, -3.09443540364147562371e+00) (17, 2.10251281793482913685e+00) (18, -2.52854176824039011962e+00) (19, -1.38832947762188974039e+00) (20, 3.02701742659332451169e+00) (21, 6.36294009530089876847e+00) (22, 2.79218915372644760353e+00) (23, 3.70974588608248856403e+00) (24, -5.43490116541603818234e+00) (25, 1.61264359484834773895e+00) (26, -2.28255148647051786526e+00) (27, -2.23070752873997335541e+00) (28, -4.50900083323485656450e+00) (29, 1.36206864036970376475e+00) (30, -2.34339718078288572478e-01) (31, -5.53527574100622743458e+00) (32, 1.29133771867420099611e+00) (33, 1.25429058864712472676e+00) (34, 2.41797998960598903295e+00) (35, 3.75205377846679866138e+00) (36, -1.42994445642657499462e+01) (37, 3.26659649823721442985e+00) (38, 3.24466460361523445499e+00) (39, 8.59222015561933183392e+00) (40, -4.18341161868517996680e+00) (41, 6.27884079246131499019e+00) (42, -3.02085839686622725786e-01) (43, 1.19469984347257884849e+01) (44, -6.32549153508113137789e-01) (45, 1.21374384393941048277e-01) (46, -2.83560086463218041786e+00) (47, -1.88959327846782110250e+00) (48, -2.87448937267539550433e+00) (49, -1.96926945207612047462e+00) (50, -4.10827132071438860805e+00) (0, -3.16536331167884092963e+01) (1, 1.99903608312836560401e+01) (2, -6.26694570483259649762e+00) (3, 9.24983142931761932459e+01) (4, 5.50477692565972720473e+00) (5, 1.04968023791492921504e+01) (6, 2.80992404439194238819e+01) (7, 3.37893655855127228449e+00) (8, 9.47285027561092007886e-01) (9, 7.27469664822337769294e-01) (10, -1.91559059031125364925e+01) (11, 4.19307050777318579549e+00) (12, -1.64648633702772109189e+01) (13, 9.56207700117002623585e+00) (14, 7.09397442272963285603e+00) (15, 5.18087230649068519739e+00) (16, -1.30514325907965478279e+01) (17, 5.47193839469750731297e+00) (18, -6.45465118379448377084e+00) (19, -1.02026191219895268070e+00) (20, 7.36208357974796854251e+01) (21, -1.09359940613205086635e+01) (22, 2.63874547866268365226e+01) (23, 4.79567710485062637105e+00) (24, 1.18541476215549668183e+01) (25, 3.62560255391043462225e+00) (26, -8.82392532243211036302e+00) (27, 1.71561096172472060672e+00) (28, 3.31271222089895100993e+00) (29, -5.14251824829697579133e+00) (30, -2.90031284382808962619e+00) (31, 2.41939356947913886131e+00) (32, -2.40655098251599253167e-01) (33, -1.30483921517628385089e+01) (34, -3.47704722045752978588e+00) (35, -1.38485721820495601975e+01) (36, -2.58095191776180010734e+00) (37, -9.78031806883674192932e+00) (38, -2.59355773987773385869e+00) (39, 6.70375085378338897435e-01) (40, 5.53388079897128992712e+00) (41, 5.64879166113750774691e-01) (42, 2.41924096828032801909e+01) (43, 6.10528139867028407650e+00) (44, -3.05051305011853157723e+00) (45, -4.18653456495867626330e+00) (46, 2.74822711051678680860e+00) (47, 3.93376147177778312525e+00) (48, -2.95283421451303551564e+00) (49, 1.91557135702656866627e+00) (50, -9.08182025092385436515e-01) (0, 1.62039266980558487319e+01) (1, 7.16216042656094931118e+00) (2, -4.17020814566562147974e+00) (3, 1.14187392460989034504e+01) (4, 1.60643303990275647664e+01) (5, -8.50795416843657648087e+00) (6, -4.88156313410445896750e+00) (7, -1.57494638125597656853e+01) (8, 3.31132041065432281002e+00) (9, -9.31747449741825661818e+00) (10, 5.43877484609749402011e+01) (11, 2.31331758642580709306e+00) (12, -3.81813206576389987390e+01) (13, -1.24357505777694523630e+01) (14, 1.71571658222420353468e+01) (15, -1.52469578372169252134e+02) (16, 3.76377199761274727763e+00) (17, 1.51310489937000203220e+00) (18, 4.56744437124267665951e+00) (19, 1.76364113485732199038e+00) (20, -1.90387847766272457761e+01) (21, -2.64581510875595284915e+01) (22, -1.54240037385438877315e+00) (23, 2.18369904519075097582e+00) (24, 1.89724834390845700227e+01) (25, -9.48154481543387817055e+00) (26, 2.81249891823103626010e+00) (27, -3.93375234306392185246e+00) (28, 1.24046382968899688848e+01) (29, 5.73846165066085021067e+01) (30, -1.90131389572130409249e+01) (31, 1.37713253542326334866e+01) (32, 6.72226341487505774097e+00) (33, 7.26057530576270981904e-01) (34, -9.99733379560879775738e+00) (35, 1.03861030714432853728e+01) (36, 4.00082389203361721286e+00) (37, 4.28677995457015725833e+00) (38, -9.53678399155570311052e+00) (39, 1.72726711016272354016e+01) (40, 7.83195681544222122028e+00) (41, -6.79506676857267155611e+00) (42, -3.87576179906908251382e+01) (43, 6.95288918898025742887e-02) (44, 3.02942298008452759461e+00) (45, -8.28413333710504318219e+00) (46, 3.47867621244487423837e+00) (47, -1.01887058674563846239e+01) (48, -1.36771389058968040331e+01) (49, 2.30118958109935649314e-02) (50, -1.23241184768677669581e+00) (0, 8.17651777295282577995e+00) (1, -1.16511263037648706842e+01) (2, 1.74208540036616366109e+00) (3, -5.97516163691311152917e+00) (4, -7.19061953813469045826e-01) (5, -3.01301966360790718369e+00) (6, -5.64136771832147942973e+00) (7, -1.20443627435380196111e+00) (8, -4.79677477414768915764e+00) (9, 7.60106283673019600400e+00) (10, 1.01734200574064175271e+01) (11, -8.40539265100972521338e+00) (12, -7.99871507763004085945e+00) (13, -1.56746663266217858279e+01) (14, -1.41565827141133500078e+01) (15, 6.28753025886395988664e+00) (16, 9.82164881757953089902e+00) (17, 1.46036541312640117951e+01) (18, 3.18392406571359609657e+00) (19, 4.08127200628467576848e+01) (20, -1.61284569924009191233e+00) (21, 5.18514984052942029535e+00) (22, 7.17588613971618816123e+00) (23, -3.55634123496152820820e+00) (24, 7.54576299324200494567e+00) (25, 2.21741347593634241520e+00) (26, -3.72603813572832542889e+00) (27, 2.86322917608535831846e+01) (28, -1.02640889650392228560e+01) (29, -1.34064149099250529140e+00) (30, 1.41702223337998245434e+00) (31, -2.17089918098021286141e+01) (32, -4.21317966075663985492e+00) (33, 1.70989893685917038191e+00) (34, 1.74373577816313130029e+01) (35, -1.41381945149933119232e+00) (36, -6.44694259855742912713e-01) (37, 5.90609005680334142596e+00) (38, -4.90654380840327775104e+00) (39, 3.59495173950275948016e+00) (40, -3.40409008743710206346e+00) (41, -3.06439120434871181686e+00) (42, 3.76576993816041927232e+00) (43, 1.22518824079079298173e+01) (44, 9.76933930288519242202e-02) (45, 8.40523197743803152093e+00) (46, 2.02659391928743159994e+00) (47, 1.07751497550546737614e+01) (48, -2.20464087942467124037e+00) (49, -5.94789097789968468355e-01) (50, -2.08512216452136112110e+00) (0, 1.74487159074271191983e+00) (1, -1.04369908571014118337e+01) (2, -7.17754901216798479879e+00) (3, 1.24883989090511633435e+01) (4, 1.16895941986087814612e+00) (5, 3.81082163330394649847e+01) (6, -2.28253794261533027310e+00) (7, -5.64628572607163103925e+00) (8, 1.88259862870566352377e+00) (9, 1.52840239411643086243e+01) (10, -4.09716872372200402452e+00) (11, -2.23138387978714085591e+01) (12, 4.30721236304173338283e+00) (13, -2.08846626743199692555e+00) (14, 8.58362258984830539532e+00) (15, 9.57653027845651116934e+00) (16, 5.07520936972122616027e+00) (17, 3.72942906145508290550e+00) (18, -3.09115269907543765981e+00) (19, -8.03086905127472228116e+00) (20, -2.64456146252073531766e-01) (21, 2.70662443479431935600e+01) (22, -8.50817586478208909284e+00) (23, 9.68660322103196236299e+00) (24, -4.65304320689529582467e+00) (25, 3.88422010666099311038e+01) (26, -4.19850999494866972128e+00) (27, 6.03596049388677058367e-01) (28, 1.33033526679460245568e+00) (29, 1.26989009365678096053e+00) (30, 9.91935953038323936504e-01) (31, 1.87472856246890700049e+01) (32, -6.23037102266684605922e+00) (33, 2.82967183627350182817e+00) (34, 2.69527588504247139767e+00) (35, 1.25619779335057533132e+01) (36, 2.43272992820641604794e+01) (37, -1.97620516671734436365e+00) (38, -3.22814606500227796460e+00) (39, -2.41844987190248428277e+00) (40, -3.25645996641802248917e+00) (41, -1.55294496558641270667e+00) (42, -1.36529074809555535097e+01) (43, 2.89045790987857253995e+00) (44, 1.99681979969625942317e+01) (45, 1.20907727864521152839e+00) (46, -1.46169232060311826693e+00) (47, -7.63818619885460581287e+00) (48, -1.26790747058104482647e+01) (49, 9.41687280497071910190e+00) (50, -2.60245353063696160945e+00) (0, 2.16270968825370175637e+01) (1, -2.61979695740246754099e+00) (2, 4.43071175519113058527e+00) (3, -2.14122870537731513352e+00) (4, 9.61688163413846730521e+00) (5, 2.15122111628033163555e+00) (6, -1.67775039115773587639e+01) (7, 1.17752478369694237870e+01) (8, 2.29621164273368139064e+00) (9, -4.99778844178128262010e-02) (10, -2.43965600573335272827e+01) (11, -5.16763838486709214948e+00) (12, 2.53485604709569152249e+01) (13, -7.83752339092511718377e+00) (14, 3.77283459670817666876e+00) (15, 6.71913206301550225419e+00) (16, 1.38934142365461497093e+01) (17, 5.64138883201798702061e+00) (18, -1.59707701789555791549e+01) (19, -5.96785605406073749180e+00) (20, 6.93705780918174230720e+00) (21, -5.28568879925427737021e+00) (22, 3.06300852072917129121e+00) (23, 5.33932804775210811954e+00) (24, 4.00924368559914812149e-01) (25, 8.57806045193471966570e+00) (26, -1.41475512603657538335e+01) (27, -8.46765746209006353595e-01) (28, -1.38189200988993765584e+00) (29, 9.97484719544452680395e+00) (30, 7.50775440499555579699e-01) (31, 1.91491010324139843135e+01) (32, 8.20143828779666428375e+00) (33, -3.87630574377943792896e+00) (34, -6.75774922256988919145e+00) (35, -1.08733850400905769362e+01) (36, 2.78580392196023645113e+01) (37, 6.15740817655385619389e+00) (38, 3.72058079587347867445e+00) (39, 1.33486324985107795982e+01) (40, 7.21685832026782225768e+00) (41, -1.53480254513999216925e+01) (42, 4.50727347055117633090e+00) (43, -2.96466407405273579823e-01) (44, -8.64836026634709487126e-01) (45, 1.31264378236847782944e+01) (46, 5.50345109137799770593e+00) (47, 6.84080512125556072789e+00) (48, -4.66846767743218826752e+00) (49, 1.14283285088829718035e+01) (50, -1.33124539950436138191e+00) (0, 2.94355879808474618642e+01) (1, 8.31327721525759066878e+00) (2, 6.09336770099282531987e+00) (3, 8.88852045840145166267e+00) (4, 9.08782938573366294577e+00) (5, -5.81220016838520869840e+00) (6, -4.01256997708434060002e+00) (7, 1.98317605043115641195e+00) (8, -3.35151669911902700960e+01) (9, -1.22497505050573174401e+01) (10, -9.53995107510616158208e+00) (11, 3.99912516458204247982e+00) (12, 1.59334245940213001802e+01) (13, -1.33431936118564031801e+01) (14, 5.87039165427697717803e+00) (15, -1.15496463799185296040e+01) (16, 2.10675167037519734947e+01) (17, 9.91690567695719771280e+00) (18, -4.31984012694536332333e+01) (19, 8.69313477787372690386e+00) (20, -9.39689336033617017563e+00) (21, 4.60155273580842560932e+00) (22, -7.15151726794523234787e+00) (23, 1.60802711833045641754e+01) (24, -3.46127107249015697477e+00) (25, 1.40208617880950328072e+01) (26, -4.86179859217664223081e+00) (27, -1.62419370217637348830e+00) (28, -3.38081389808868735258e+01) (29, 1.74351104179549771800e+01) (30, 2.45976713310971106807e+01) (31, 2.19578096774483899623e+00) (32, -1.01940413255760375932e+01) (33, 2.90666126539019176178e+00) (34, -7.26988262762994530419e+00) (35, 4.35015844940349172276e+00) (36, 2.00512739267420663225e+01) (37, 1.17381670951650800561e+01) (38, -2.13622210838347577067e+01) (39, 3.65924047849370071006e+00) (40, -1.88332415012424938539e+01) (41, -3.37938867753388416659e+00) (42, -3.51864432991453934818e+00) (43, -8.70347195617341284901e+00) (44, 5.49345067923214980254e+00) (45, 7.31288315168742819594e+00) (46, -6.11268770723580701087e+00) (47, 9.43176760000576486220e-01) (48, 5.63005367457422689625e+00) (49, -6.56403512280541523438e+00) (50, -3.84198642329617479074e-01) (0, 1.14309283690416776835e+02) (1, 7.85626563272503730673e+00) (2, 2.26732542685652873615e+01) (3, 7.64028808955463301089e+00) (4, 2.09520605213365769259e+01) (5, 4.65177836625395180192e+00) (6, 1.36216271430895581318e+01) (7, -5.36979723459353692760e+01) (8, 7.87897091971334062599e-01) (9, 9.49948988822164164247e-01) (10, 7.62197928478216795156e+01) (11, -1.74133546174240372295e+01) (12, 2.37290061479349878582e+00) (13, -8.93203552124057509332e+00) (14, -2.55644113582639320725e+00) (15, 9.81240647188435666237e+00) (16, -7.96066832550627712095e-01) (17, -1.80830581976070692285e+00) (18, -7.54576612305320448826e+00) (19, -1.58267334747022836439e+01) (20, 4.78575594031151840824e+00) (21, -9.91068298982841611178e+00) (22, 3.98076271503537215679e+00) (23, -3.02968987278131729468e+00) (24, 2.19730216418023616143e+01) (25, 1.08899945258917316693e+01) (26, 4.88539327333652018126e+00) (27, -1.20709911369393729785e+00) (28, -5.85348513160290995216e+00) (29, 2.29401952870923437899e+01) (30, 3.99952570574770732037e+02) (31, -5.36953957344876542379e+00) (32, 2.41009275310232098377e+01) (33, 1.74849381315689207383e+01) (34, 6.41577562029481374140e+00) (35, -2.02941299098996523753e+01) (36, -1.87732152650028716323e+01) (37, -1.83425564268156016112e+01) (38, -3.51471879514935148237e+00) (39, 1.45527862318086720350e+00) (40, 3.80616673715351865326e+01) (41, -3.36945193024680678118e-01) (42, -5.51781007661057820712e+00) (43, 1.41205081038927016124e+01) (44, -2.39261452010688060454e+01) (45, 7.34009785295126082616e+00) (46, -9.78074823825538430810e+00) (47, 1.79906972063885746138e+01) (48, -3.87725142451726179083e-01) (49, -1.64083783588687985855e+01) (50, -2.11090691940160057882e+00) (0, 5.48426854921042394864e+00) (1, 3.65998072959911949220e-02) (2, -1.26246104377761692028e+00) (3, 1.03594466124444650745e+01) (4, -5.89880350022012489575e+00) (5, 2.09822311491135451433e+01) (6, 6.18352557583330675328e+00) (7, 1.87624719385038463138e+00) (8, 7.97005776189850401181e+00) (9, -3.54381454668184669998e+00) (10, -3.93103039826286515535e+00) (11, -9.23581448377254754512e-01) (12, 6.12721734571551546189e-01) (13, -4.22535060791967875815e+00) (14, 1.44471586073175473075e+00) (15, 9.52264521405774466700e+00) (16, 4.94858414793656820052e+00) (17, 9.68287086684169473472e+00) (18, -2.54581421653355155499e+00) (19, 2.20456813221249081636e+00) (20, -7.41136316995518029671e+00) (21, -1.81420098927644390940e+00) (22, 1.04490628683567510215e+00) (23, -2.72553558394961692457e+00) (24, -1.94976189940548194635e+00) (25, -1.18590802333088483067e+01) (26, -1.09739643062859171252e+00) (27, -1.18991517872588090099e-01) (28, 1.17530558834820961778e+01) (29, 2.73858518711856335770e+00) (30, -4.72889092486092899037e+00) (31, 8.07109554313188937158e+00) (32, 4.10517823894783528971e+00) (33, 4.78721423153809322315e+00) (34, -9.20217684589543338802e+00) (35, 5.74639668336072073629e+00) (36, -6.10582837841734793471e+00) (37, 7.59325435403194887174e-02) (38, -9.45209367322944515877e+00) (39, -3.37399166094502467317e+00) (40, -2.61195401814561356524e-01) (41, -6.82707133824081324747e+00) (42, 3.81159090144376344611e+00) (43, -1.03551302590339631138e+01) (44, -2.54294410490614097853e+00) (45, -8.64860662781208411332e+00) (46, 1.91663748454732996152e+00) (47, 4.27551879392005507174e-01) (48, -1.13586770711229849695e+01) (49, 2.17202266181319325611e+00) (50, -3.05696317628898817098e-01) (0, -7.75840856790992816627e+00) (1, 1.45998520840938850185e+00) (2, 5.53535786729671852591e-01) (3, 9.08210011764479503427e+01) (4, 1.72821778614045618028e+00) (5, 9.97245010917329999245e+00) (6, -6.35943086820483749477e+00) (7, 2.09879397938995779782e+01) (8, 8.10292216715568613949e+00) (9, 1.79203243346750191733e+01) (10, -1.05201736533752879255e-01) (11, -2.20392594196319357991e+01) (12, 1.16507576949950442113e+00) (13, 5.46953998845089106595e+00) (14, -5.80666400184891706715e+00) (15, -2.37129427864882842414e+02) (16, -5.08741345656769006212e+00) (17, 8.01047914908037306247e+00) (18, 1.26730070454064165375e+01) (19, 1.62832288486423526486e+00) (20, -2.27871487316436827086e+01) (21, 2.41903119730640412399e+01) (22, -1.16912908393119714390e+01) (23, -3.03555704542160587067e+00) (24, 2.77137928168743563617e+00) (25, -7.17578913413697421220e+01) (26, -1.66127507496738360260e+01) (27, 3.21436680468733548821e+00) (28, 3.02605211997444385474e+01) (29, 3.01974691683314852564e-02) (30, 7.63759917520758424558e+00) (31, 1.03685091998171579064e+01) (32, 2.05400224869761061086e+00) (33, 1.48653865060837340195e+01) (34, -2.41892687247117210703e+00) (35, 7.47963534888611003559e-01) (36, -3.21661700934310275102e+01) (37, 3.05993580729974690158e+00) (38, 6.54303151017073858497e+00) (39, -1.21466775218388196578e+01) (40, -8.66367272411043742864e+00) (41, 6.76744165897253395769e+01) (42, -1.81113325878841902039e+00) (43, -3.07639239634019787673e+01) (44, 9.10721294111091950185e+00) (45, -7.32246953634298858304e+00) (46, 1.36728923304230232105e+00) (47, -1.47980713108142349910e+01) (48, -1.18695313313452732729e+01) (49, -1.02164951523828584357e+01) (50, 8.50868004605966898879e-01) (0, 9.07179976687553790704e-01) (1, -7.41407087204179315876e+00) (2, -2.64533561313059006892e+00) (3, 4.39841752293303400734e+00) (4, -5.48693046243613657964e+00) (5, 6.68771093502777436157e+00) (6, -7.35447771439071829036e+00) (7, 1.70159228512469729022e-01) (8, 1.94074974176995795894e+00) (9, -9.53966299204255641087e+00) (10, -5.48309164476366817098e+00) (11, 7.59278327282200904413e-01) (12, 2.10859851133245213006e+00) (13, 2.79378468997833984133e+00) (14, -5.55077685497704975681e-01) (15, 5.87313649258230974226e+00) (16, -2.06905396892119197716e+00) (17, 8.09889828744681672390e+00) (18, -6.89328630393611341276e+00) (19, -9.80846803756905805116e-01) (20, 8.00930379711313022995e+00) (21, 9.73738243160642058527e-01) (22, 2.59519530405349607705e+00) (23, 2.04930294960519354674e+00) (24, 6.81351423977714087954e-01) (25, 4.02630461982875242910e+00) (26, 1.12385699170425752413e+01) (27, 7.90609621882294444362e+00) (28, 1.06929352243329951477e+01) (29, -5.16219933128271524225e+00) (30, 7.79528034591758678395e-01) (31, -1.20666378361179571499e+01) (32, -9.92188688384042549728e+00) (33, 7.35747274127338979355e+00) (34, 4.05742437438225778124e+00) (35, 4.29087170470829448732e+00) (36, -3.57542206236226078886e+00) (37, 1.51187219194152855373e+00) (38, -2.94847200248711205361e+00) (39, 5.07886522069953638692e+00) (40, 5.00565202083370319741e+00) (41, -9.34492782121261278405e+00) (42, -1.00497549318133527763e+00) (43, 6.20275164453319671765e+00) (44, -9.86308209444687378209e+00) (45, -1.07900086939470440939e+01) (46, -1.36747908061701508586e+01) (47, -7.93952959832775206905e+00) (48, 5.93185661388003637740e+00) (49, 3.81006660476701330964e+00) (50, 8.32798299649724071969e-02) (0, -6.80696025906199935207e+01) (1, 1.52403741639881342707e+01) (2, -1.67588532600131827621e+01) (3, -1.56546616863232106454e+01) (4, -8.99603906051580359815e+00) (5, 2.25363544808772893191e+01) (6, -1.21387994254978810460e+01) (7, 8.28942015385679020767e+00) (8, -1.74708585628198975748e+00) (9, -6.53539641223466194475e-01) (10, -2.29961361746590817745e+01) (11, -1.08969765983891573313e+01) (12, 3.04343310696410052074e+00) (13, 7.72649214852525023645e+00) (14, -9.00580797724080639455e+00) (15, 1.34772467606747459179e+00) (16, 1.18931352262849743262e+00) (17, 3.08263924938473454773e+00) (18, -5.23525461616018716882e+00) (19, -1.51168454334144208850e+00) (20, -9.20529311738277584709e+01) (21, 1.38675791490949684714e+01) (22, 1.61496731159325150884e+01) (23, 3.95721847427112471962e-01) (24, -1.09741939807514321537e+00) (25, 2.03010781621478173520e+01) (26, 1.40947017235716742789e+00) (27, -5.33074200530773278928e+00) (28, -1.00477709938019366120e+01) (29, -4.03579381777792456365e-01) (30, 1.43014253059274132340e+01) (31, 1.07468245650721936357e+01) (32, -1.65861651110525301078e+01) (33, -8.15453059033877458717e+00) (34, 5.08360205978534018811e+00) (35, 1.62845476958795316591e+01) (36, -2.16743594848963283539e+01) (37, 2.63254215426962945301e+00) (38, 5.18619667462979165862e+01) (39, 1.41682542736272343298e+00) (40, 1.74514978819047961167e+01) (41, 5.47315148238682436244e+00) (42, -1.23019092157601566129e+01) (43, -2.15718724486633206538e-01) (44, -8.77925517342716332791e+00) (45, 9.08615304365197395953e+00) (46, -1.72596561499541922835e+00) (47, 2.87092126544432613144e+00) (48, -5.68261708527557285464e+00) (49, 1.67292703681971066665e+00) (50, -1.90389737590485630392e+00) (0, -1.49695784357101100426e+01) (1, -5.49517203703134313741e+01) (2, 7.29340564300974136813e+00) (3, 1.56578925795979917446e+00) (4, 1.09754767169036195895e+01) (5, 1.45719443372639489986e+00) (6, -9.52154936642972771210e+00) (7, -3.00727721326003116786e+00) (8, 1.24518858631957052285e-01) (9, -7.37002562310632658438e+00) (10, -6.63765828350393150004e+00) (11, -1.41819941791753887372e+01) (12, -8.99296405645958607522e+00) (13, 7.75471382801161013276e+00) (14, 4.33405275619727969882e-01) (15, 1.95005416140483127663e+01) (16, 7.73696579098150571951e+00) (17, 2.64460824653129877859e+00) (18, 2.08813389652933274476e+01) (19, 7.45829699085755049026e+00) (20, -6.46817895968347134072e+00) (21, 1.87462329518319741339e+01) (22, 1.08153571349528689893e+01) (23, 1.83135464303064154912e+00) (24, -8.11628688074552329113e+00) (25, -1.58682751759532614244e+00) (26, 4.64031254409893492152e+01) (27, -4.62507808251743934846e+00) (28, 1.60472565443776549188e+00) (29, -3.30462165716744404875e+00) (30, -1.42682828275516779826e+01) (31, -9.45048536627929891552e+00) (32, -3.43392872642586155507e+00) (33, 2.20599719084081016263e+01) (34, 4.97378601708752210442e+00) (35, -5.80357814833672058796e+00) (36, 7.30895367497020487235e+00) (37, -1.31999208822004798769e+00) (38, -8.23380292014874726192e+00) (39, 7.88134089785814850870e+00) (40, 6.08121267233331685986e+00) (41, -9.77979238363301028869e+00) (42, 9.13039728669957995066e+00) (43, -1.04625926375363871301e+01) (44, 2.49122256763925120637e+00) (45, -1.11086706000646557868e+01) (46, -2.09908655746882040205e+01) (47, -1.30923613275789585408e+00) (48, 7.32769868699093684938e+00) (49, 2.00326169881183435706e+00) (50, -1.51888423562172414361e-01) (0, -9.80062436100093137270e+00) (1, 7.95311360776172726617e+00) (2, 3.73051062426226298641e+00) (3, -1.18542157892315938028e+01) (4, 1.96394992387089644126e+01) (5, -5.31053036941931555504e+00) (6, -1.82414478890262223842e+01) (7, -4.60172839616470863433e+00) (8, -5.72640119426847693518e+00) (9, -2.01519564924446470400e+00) (10, -7.30991772172347964442e+00) (11, -3.45009176386601845721e+00) (12, -8.73744492465377398105e+00) (13, -2.10285188570470849001e+00) (14, 1.06853067543577768816e+01) (15, -3.80353739320701578208e+00) (16, -7.38167423634390473808e+01) (17, 6.01866845419907825487e+00) (18, -1.75522147017927188095e+00) (19, 1.13654418316253291721e+01) (20, -5.78930769618824481171e+00) (21, -3.67133257273629942663e-01) (22, 4.69202442072392322814e+00) (23, 2.13627508939646926223e+00) (24, 6.37545401616401274936e+00) (25, -2.86928341202255454689e+00) (26, 1.27263240062195013280e+01) (27, 2.90413878255043655940e+00) (28, 4.93794346627036695452e+00) (29, 5.54233022562341659523e+00) (30, -6.95926150671878485099e+00) (31, 2.42496010299851754155e+01) (32, 2.11912229220570793586e+01) (33, 5.62467963846459451105e+00) (34, 6.60235394976312761628e+00) (35, 8.19985192945433460920e+00) (36, -2.40922188678942319484e+01) (37, 1.01615742685845091842e+01) (38, -1.47888933903280639370e+00) (39, -4.00578674162571513051e+00) (40, -8.35127884504249351494e-01) (41, -1.53392446076974877656e+01) (42, 4.29951532128109192854e+00) (43, 1.20861265874841095069e+01) (44, 1.07646769064611529387e+01) (45, -5.14850630321888846908e+00) (46, -3.58102973553882435453e+01) (47, -4.33329045126713907621e+00) (48, 5.26376474582434550342e+00) (49, -8.99844245175230206257e+00) (50, -5.72338304212014703509e-01) (0, -3.11751235902739987083e+00) (1, -9.82557161223695985086e+00) (2, 3.22223963758782927513e-01) (3, 1.94655044768616258821e+00) (4, -6.58707472026313833879e+00) (5, 6.81145466615075534378e+00) (6, 2.94610079273471558992e+00) (7, -1.40272341881305595557e+00) (8, 2.79592207749556154184e+00) (9, 1.49341954945774002539e+00) (10, 1.55532030492594275373e+00) (11, -1.70607172206359052780e+02) (12, 1.35900870782327309882e+00) (13, 2.57872666821972140738e+00) (14, -2.27213962253774465205e-01) (15, -1.15105552741420922302e+01) (16, 2.75545830823079285210e+00) (17, 4.78202643103515651068e-02) (18, -1.77575856544177024254e+00) (19, 5.09687761636750913397e+00) (20, 1.15531726708207993504e+00) (21, -5.07858584431155435368e+00) (22, -3.75569046257634209240e+00) (23, -2.44355013910114005071e+00) (24, 9.35015495743531666051e+00) (25, -1.71559826188919998913e+02) (26, -5.13899725401234608313e+00) (27, 4.99332415477336866161e+00) (28, -6.03360961874391588111e+00) (29, -1.49782505031377066729e+00) (30, -2.78623125446914976511e-01) (31, -5.17965118136429438778e+01) (32, 4.43502154089219935429e+00) (33, -4.11912616605525894187e+00) (34, 1.04261989725315000754e+01) (35, -1.83588569372967356230e+01) (36, 3.81993749602688481559e+00) (37, -5.33538637326258058380e+00) (38, 1.08319271248296349341e+01) (39, -2.02783356919909429905e+00) (40, 1.59261604046612714747e+00) (41, -3.61940062654618088800e+01) (42, -3.57571943891008592331e+00) (43, 1.06793673881597195319e+00) (44, -2.28763305697662699956e+00) (45, 1.25999199959186403142e+00) (46, -1.33258107276479309533e+00) (47, 4.36473100890956633435e+00) (48, 2.71352380567629891672e+00) (49, -6.71155085822601304990e-01) (50, -5.66392114742389596316e-01) (0, -4.11855147693322454217e+00) (1, -1.84416188805093845815e+01) (2, 9.64358614051575457893e+00) (3, 3.07880338909902784295e+00) (4, 3.44350860934608391517e+01) (5, -9.35513405551380650138e+00) (6, -2.52453201493674006528e+00) (7, -5.53580387215406410917e+00) (8, 4.44931956964525099352e+00) (9, 3.07107820969498845898e+00) (10, 8.75052916768376576329e+00) (11, -4.70824981412447041151e+00) (12, 1.04664933147937198044e+01) (13, 3.56278682878845742721e+00) (14, 7.83210811672842766029e+00) (15, -9.81922103749540298168e+00) (16, -5.10610268435590253233e+00) (17, 2.09905007815945898741e+00) (18, -6.17305687199243635632e+00) (19, 2.14438245380507552795e+00) (20, -3.22214728021281748838e+00) (21, -1.78792644708200079151e+01) (22, -1.83739228098701943281e+01) (23, 1.60331811898529652538e+00) (24, 2.94120122965777897051e+00) (25, -5.55554841819257649860e+00) (26, -6.25449500589155249486e+00) (27, 2.63426800752369794090e-01) (28, -8.78510958774117867165e+00) (29, 5.33330253311564295160e+00) (30, 1.73340974589831091635e+01) (31, -1.68246246337559703932e+01) (32, -6.65033367544564946172e+00) (33, 3.74933498344251214807e-01) (34, -7.79802048303608064117e+00) (35, 7.11845756126710238476e+00) (36, -5.64595709568616488383e+00) (37, 1.06552796490195866852e+00) (38, 1.25544665158510015956e+00) (39, 3.26248170783598334665e+00) (40, 1.02043611235222475564e+00) (41, -3.17309261002764575466e+00) (42, -1.82226044850509283357e+00) (43, 1.00598198363069588623e+01) (44, -1.13864565411253568783e+01) (45, 1.75415195330932083273e+00) (46, 3.70875176548161800127e+00) (47, 3.81140188795340240091e+00) (48, -1.67585331595541953131e-01) (49, -2.16651442045105913081e+00) (50, -1.76324191265492524749e+00) (0, 4.81937560876893655859e+00) (1, 3.69159989954279721402e+00) (2, 1.90841269710996974673e+00) (3, 3.37459763422144609635e+00) (4, -1.05898903468723659671e+00) (5, -7.57531416443395499982e-01) (6, 2.55536795438524357849e+01) (7, -9.31192285497286498241e+00) (8, -3.45139367893895832040e+00) (9, -8.12753655204272895674e+00) (10, 1.37404440526686366653e+00) (11, 3.45323917487752662936e+00) (12, -6.05589364552831366240e+00) (13, 1.01493935157107606493e+00) (14, -5.95929731067323764648e+00) (15, 2.03856858936574747432e+00) (16, -5.25458452638155470993e+00) (17, 1.83768258845150622705e+00) (18, -2.12002109387367143611e+00) (19, 3.97303402777335001872e+00) (20, -3.04169625427830236930e+00) (21, -2.87545331625596567449e+00) (22, 5.50639515355206565772e+00) (23, -1.01452900738092721689e+00) (24, 8.99262472295915493703e+00) (25, 5.23375361086238943820e-01) (26, -3.58527705242813476971e+00) (27, 1.10533290042114789031e+01) (28, 6.11389524872887335505e-01) (29, -2.72669466998224621079e+01) (30, -3.40243078975042934076e+00) (31, -1.90194610589062973460e+00) (32, -9.50892854751603650021e-02) (33, 1.29868598160421711007e+00) (34, 6.74019097671138478489e+00) (35, 4.36047864374561111589e-01) (36, -1.07905288409967514696e+01) (37, -7.40533145780077539655e+00) (38, -5.64231943456988283003e+00) (39, -2.86874734020759127873e+01) (40, 1.83056743857462267400e+00) (41, 1.11961455476598619185e+01) (42, 1.98617869903365169837e-02) (43, 1.20448045131883119119e-01) (44, -4.18927918420120803944e+00) (45, 2.42873663013662222099e+00) (46, 6.74758441589214807976e+00) (47, 4.99145521854811935469e+00) (48, 6.72932913748028571632e+00) (49, -1.28144041315050642993e+01) (50, -1.99821240525667992438e-01) (0, 3.95477335454509248969e-01) (1, -6.63850455231032388070e+00) (2, -2.55959628563728724959e-01) (3, 2.73530258529525793776e+00) (4, 1.96266394422201995162e+00) (5, 8.06805653983955428643e-01) (6, 7.87986724738787280842e+00) (7, 4.68006361429050221634e-01) (8, 1.21945903668132893394e+00) (9, 1.71605129751661933390e+00) (10, -2.94634970914566007849e+00) (11, -1.77237437839770251014e-01) (12, 9.97632682828922368046e-01) (13, 3.36905930488923077704e+00) (14, 8.02925487380750202426e-01) (15, 1.69010048661813327975e+00) (16, 3.10561854428409267470e+00) (17, 1.40498697397060112735e-01) (18, -1.23094664673700227020e+00) (19, 2.77339241889377019490e+00) (20, -3.57449166368917348180e+00) (21, -2.59102216085636927190e+00) (22, -2.51506639307363855096e+00) (23, -2.79893413905829280264e-01) (24, -5.22474466330663633862e-01) (25, 9.53417276499956778402e-01) (26, 1.47935047309970690854e+00) (27, -1.11633153844215057826e-01) (28, 1.26795144334624798610e-01) (29, -2.84377556001298614774e+00) (30, 3.10455279902707870221e+00) (31, 6.03255277835117542651e+00) (32, 2.80276735130001819485e+00) (33, 8.46580560679233484755e-01) (34, 1.52562727941609022064e-01) (35, 2.20590815952756091889e+00) (36, 1.12277215311441480594e+00) (37, 3.71604073488225905564e+00) (38, -3.57968441562149727875e-02) (39, 1.50260672490501678844e+00) (40, -1.44243217667747303246e+00) (41, -1.53357319244528889080e+00) (42, 1.87367583011662341974e+00) (43, -6.44700786872786846260e+00) (44, -1.49411416414829067989e+00) (45, -1.13045352232157525485e+00) (46, 2.64369751765592786441e+00) (47, 1.53239895713199336669e+00) (48, -1.01112363366838065026e+00) (49, 1.88522145299612842173e+00) (50, -3.27416409649548434402e+00) (0, -9.48859030212273957261e+00) (1, -2.77728764296372716558e+01) (2, 8.56931573448370187407e+00) (3, 4.69588082018734027656e+01) (4, -1.44584042516459287953e+01) (5, -1.37451826466661444215e+01) (6, -2.92535640105685168511e-01) (7, -4.48733889693045906455e+00) (8, 6.42636963180598108636e+00) (9, -7.07106639969860140127e+00) (10, -1.32662588604612299292e+01) (11, 3.17746423858623643355e+01) (12, 8.57382238948402353174e+00) (13, 1.93285739935006155577e+01) (14, -1.04787714255563120247e+01) (15, -1.48296226618501805206e+01) (16, -3.30580013464681007895e-02) (17, 4.45456273292272619813e+00) (18, -4.44533689241967344685e+00) (19, -2.93186350722830226800e+01) (20, 2.97362837109810129732e+00) (21, 8.21876720776078961705e+00) (22, 1.22650245454827491187e+01) (23, -1.12808925952855059194e+01) (24, -6.54228153120637845319e+00) (25, -8.90929338842253315534e+00) (26, -1.17507703782947334759e+01) (27, -2.48899021613990870105e-02) (28, 2.14289145317271767510e+00) (29, 6.84758992279496325750e+00) (30, 2.51891639215460338974e+00) (31, -2.86049935440117337748e+01) (32, 5.63063197367036671892e+00) (33, -4.30018311343211667719e+00) (34, -9.33071433719212706137e+00) (35, 4.25637786715128019210e+00) (36, -8.74403441425516092522e+00) (37, -1.15891719722307295903e+00) (38, 2.43618222710599781067e+01) (39, 3.83078902140172106172e+00) (40, -1.55120927376621846605e+01) (41, -6.95864351712125905891e+00) (42, -1.08342412119107933677e+00) (43, 2.22853404387659637109e+01) (44, -4.15221718047865984147e+00) (45, -4.33857319829075116502e+00) (46, -4.40262819545145411837e+00) (47, -3.54493536081532756299e+00) (48, 1.14652564161461661962e-01) (49, 4.43110765313484833428e+00) (50, 3.71391823054971670359e+00) (0, 1.13985773242597243637e+01) (1, 4.46935095642934143711e+00) (2, -1.96078809119365971014e+01) (3, 3.39789464654314965486e+00) (4, 1.20196320885720364657e+01) (5, -4.23157799137284307278e+00) (6, 1.66634062412572099277e+01) (7, -6.90852642783182790964e+00) (8, 2.67150240554832727469e+01) (9, 3.33809093871931761299e+00) (10, 1.28208848751065289662e+01) (11, -4.45417581252647032386e+00) (12, -4.63674353724576775448e+01) (13, -5.14395341518571402872e+00) (14, -4.28172023782602551023e+00) (15, 2.07784090265976004730e+01) (16, -1.55231076536888874529e+01) (17, -9.65717523332772742606e+01) (18, 9.42887322429305108074e+00) (19, 5.74930445317273974837e+00) (20, -6.09803461020230130885e+00) (21, -4.94410793479431287523e+00) (22, -3.35047508882693634291e+01) (23, -2.34218966572602340648e+01) (24, 2.26036561465052160402e-01) (25, 1.96706412833368715631e+00) (26, 2.36601462843287393412e+01) (27, -1.37746846572138661458e+01) (28, -1.31711965009627345324e+01) (29, 5.56638437238892258563e+00) (30, 1.26906232424762723809e+01) (31, -9.27548692566712595919e+00) (32, -8.38357006802871929096e+00) (33, 1.12475294735283544156e+01) (34, 9.90848366002555636101e+00) (35, -2.70965627880232906577e+00) (36, 8.62561148337557170862e+00) (37, -8.04612780952857242767e+00) (38, 5.06935395592554272071e+00) (39, -3.11425601237438032243e+00) (40, -1.72058937613239815168e-01) (41, 3.44200807317640000704e+00) (42, 1.27236997772450100008e+00) (43, 1.13327120925740576496e+01) (44, 3.02968973900987537107e-01) (45, -1.84092154405775296766e+01) (46, 2.66764728585821142559e+00) (47, -7.90786046438539180770e+00) (48, 1.76070568600983285990e+01) (49, -8.67815134343333127731e+00) (50, -4.69274348063369983741e-01) (0, 7.75994222673386335742e+00) (1, -3.75049390334515706513e+01) (2, -8.01266185599318170318e+00) (3, -1.59529301063490086543e-01) (4, -2.05044987640553486585e+01) (5, -4.28989022232055372541e+00) (6, 6.92255109023678372182e+00) (7, -6.96159467417420341206e+00) (8, 6.02501026609732281969e+00) (9, 5.52665064101143688191e+00) (10, 4.19020963109507427191e+00) (11, -3.43715305902049408360e+01) (12, -8.63616810042475435694e+00) (13, 1.39692945334874316643e+01) (14, -1.09497464040891774317e+01) (15, 1.62941320667509059739e+00) (16, -6.95323616273664901755e-01) (17, 1.06619239764746254195e+00) (18, 6.23610946263648369126e+00) (19, -6.48149133303839519726e+00) (20, -3.53065534045616935543e+00) (21, -9.45222777259179736120e+00) (22, 5.20532386435950300552e+00) (23, -3.83980028578543297613e+00) (24, -2.19544574263687337634e+01) (25, -4.80667373689822063909e+00) (26, -3.63054802275842325443e+00) (27, 2.03202867012881291942e+01) (28, 1.36876488916866123624e+00) (29, 6.60290933861613460465e+00) (30, -6.91930021464840172563e-01) (31, 2.92951239640852634238e+00) (32, -1.20158456193448337501e+01) (33, -3.44032654779324920113e+00) (34, -4.59378510562752637725e+01) (35, -7.21676189720263927541e-01) (36, 4.57154548669262883465e+00) (37, -2.84765308556179128630e+01) (38, 3.38903473735594147342e+01) (39, 4.29194927887086947749e+01) (40, 3.94151140665334454027e+00) (41, -6.93731734197424199095e+00) (42, -3.25130065244995103413e+00) (43, -9.48622971189188923802e+00) (44, -3.52076667390155240156e+00) (45, -5.33840932619837094109e+00) (46, 5.80235793434769142607e+00) (47, -1.95735562087452557023e+01) (48, 2.85589414507843075697e+00) (49, 1.71829304978095969147e+01) (50, -5.31953291717491283386e-01) (0, -9.80136726820865966658e+00) (1, -5.25801209662478274964e+00) (2, -4.67617156493799335237e+00) (3, 1.43667584736770409526e-01) (4, 1.48207575590252971232e+00) (5, 4.75380089396918226186e+00) (6, -1.45466123873897572594e+01) (7, 1.16023917119559261124e+01) (8, 4.94429631878713138349e+01) (9, -1.78713243623092737922e-01) (10, 6.67353164622601280342e+00) (11, 5.14349353165974410018e-01) (12, -4.71516655172072560731e+01) (13, -3.29793153099428804076e-01) (14, -8.76285599398975811880e+00) (15, -5.35991255422296042354e+00) (16, 5.67144865069193429008e+01) (17, 8.60470736417008730257e+00) (18, 1.47859739199827675549e+01) (19, 7.51857411304895872917e+00) (20, 2.36344494957070194729e+00) (21, -1.05299955835626533940e+02) (22, -9.43521218236064607154e-01) (23, -4.81738385246367162296e+00) (24, 6.88253902589662214240e+00) (25, -3.57934078869700256220e+00) (26, 2.13798056412138137716e+01) (27, -1.73582722939756095570e+01) (28, -9.39904000969791475484e+00) (29, 9.34720919012434414697e+00) (30, -1.60169964028651218291e-01) (31, 2.15745728880683307338e+00) (32, -2.36987715089542394509e+00) (33, -1.21266862636583514501e+01) (34, -1.31100209828900506892e+01) (35, -9.93820130046075611574e+00) (36, 6.57872834748961632378e-01) (37, -9.62308817438780472742e+00) (38, 5.47390185979314880527e-01) (39, 9.03903865498397607325e+00) (40, -5.02191590255704678469e+00) (41, 1.16943513861157502021e+01) (42, 3.91539676313973661337e+00) (43, -6.18224960113865940059e+00) (44, -6.60015517661310102682e+00) (45, -1.15092933188497923425e+01) (46, -3.07042337344729894255e+01) (47, 1.32365479276664448349e+01) (48, 2.47010904931962791409e+01) (49, 3.14563392307111167057e+00) (50, 2.87129254980842896217e+00) (0, 2.68330183412904199614e+00) (1, 4.44243407576574877993e+00) (2, 5.18789880531020397569e+00) (3, 1.33732750827587465459e+00) (4, 3.29998114549652310501e+00) (5, -6.00923629918708535058e+00) (6, 2.00095249559445020893e+00) (7, 4.92557745983842742987e+00) (8, -3.03513294419371248978e+00) (9, 1.39139314117018741968e+00) (10, 4.87547842098598049887e+00) (11, -1.20634147557931958872e+00) (12, 2.04634531898310045861e+00) (13, -3.58064051664487692506e+00) (14, -4.27576499160614964534e-01) (15, -6.12109615059993128483e+00) (16, -7.98127133492692930616e-01) (17, 4.10619078592249309168e+00) (18, -3.35094003357356262640e+00) (19, -1.92484402074477056743e+00) (20, 5.44928936153016785227e+00) (21, -3.47023455509146172560e+00) (22, -3.46932427092054362916e+00) (23, -2.93115041067240911232e+00) (24, 4.90175606622079540475e-01) (25, 1.82801019619114302195e+00) (26, -5.10431719414899820464e+00) (27, 3.82255235516044322708e+00) (28, 3.01698146339697625962e+00) (29, -6.16846575982258382709e+00) (30, -2.25381967360437984738e+00) (31, 3.02763680489087150249e+00) (32, 5.02407346940174992511e+00) (33, -2.66771432720916790160e+00) (34, -2.44017782922523052136e+00) (35, -7.04491188188687456062e+00) (36, -4.45469376630619126600e-02) (37, 1.05387911245648013825e+00) (38, -1.92536407018033006722e+00) (39, 1.19743608759801745123e+00) (40, -1.48644777411083461871e+00) (41, 6.46743442852269811993e+00) (42, -2.15724493601315459035e-01) (43, 7.55198340192129863313e-02) (44, 3.46475077254794117110e+00) (45, -4.12008515029433197707e-01) (46, 2.23294789391016346158e+00) (47, 7.11764087522671173858e-01) (48, -2.41554375329873394218e-01) (49, -5.43171742023061260296e-02) (50, -2.48677975667751827160e+00) (51, -2.69239553759046734704e-01) (52, 5.07210250423578656864e+00) (53, -1.23203854383673183648e+00) (54, -8.03401635858444329585e+00) (55, 3.30582754983921400793e+00) (56, -1.64834712772404218262e-01) (57, -2.08662372259948020181e-01) (58, -4.53935134758940606048e+00) (59, -2.15715335404177022127e+00) (60, -4.45827545909454447948e-01) (61, -5.35131121260572140130e+00) (62, -1.57081368028710754992e-01) (63, 2.37084344554064818666e+00) (64, 3.12274444541087436988e+00) (65, -1.95409869450258311119e+00) (66, 1.35065939647945509883e+00) (67, 8.89212120626030722015e-01) (68, 3.76564215911887878452e-02) (69, -4.76708205945644536428e+00) (70, 1.97160250522047220123e+00) (71, 2.20661441995188978282e+00) (72, -2.39398858766061284342e+00) (73, -2.19211339629633183979e-01) (74, -4.85732545741390975280e+00) (75, -3.35023514051814919057e+00) (76, -1.50377599833243336125e-01) (77, -1.38022956356008363876e+00) (78, 2.23384250161140440749e-01) (79, 6.12175314431621764300e-01) (80, 1.16724075933964965834e+00) (81, -3.45875106552494404610e+00) (82, -2.86933559308205987648e+00) (83, 2.98254235554935021035e-01) (84, -2.33930104422635221084e+00) (51, 1.70012749734007462266e+00) (52, 1.22864466794113647019e+00) (53, -4.44350399706689991319e+00) (54, 2.03499471915408935985e+00) (55, 9.04761437752803904244e-02) (56, 6.85711443011604693254e-01) (57, 1.68465252231046891396e+00) (58, 1.05487490897682389956e+00) (59, 3.09387530784180331267e+00) (60, 3.40917818348083767610e-01) (61, -1.89973448795933502753e-01) (62, -7.75515214979468736622e-01) (63, 6.94322745326770074392e-01) (64, -2.59911013736105145355e+00) (65, 1.78715609183208967714e+00) (66, -2.81863845714231064932e+00) (67, 5.45455342170701795723e-01) (68, 8.92767636284688137494e-01) (69, -2.43376397993054416347e+00) (70, -1.01665330395244457584e+00) (71, -4.40245968973537404878e+00) (72, 1.19897081347850065214e+00) (73, -2.19867396698220529672e+00) (74, 6.55750761729268827338e-01) (75, -1.15703659363434177010e+01) (76, -1.85527712943726585948e+00) (77, 3.88858346339564397987e-01) (78, -1.10507211908858171689e+00) (79, -8.28918188752442497425e-01) (80, -2.48489118507227724209e+00) (81, -6.24698601462313707344e+00) (82, 3.27962058712174264752e-01) (83, 9.22386631009465607356e-01) (84, -2.47106860846020781608e+00) (51, -1.71523429795365300876e+00) (52, -4.04676911117277729457e-02) (53, 1.80555146029484681058e+00) (54, -1.86817070250950667543e+00) (55, 4.25209113033692354122e-01) (56, 4.64404406282024288105e-03) (57, 1.39352662355571110808e+00) (58, -2.06467465397744387445e+00) (59, 1.55779910446271974145e+00) (60, -3.85149845829988057844e+00) (61, 2.19839922548658872614e+00) (62, -7.27544900086182222410e-01) (63, -1.49835477751391543677e+00) (64, 1.29681296621375841127e+00) (65, -2.74333224729185953805e+00) (66, -7.52990829869570998945e-01) (67, 9.85198902068041282298e-02) (68, 2.14222869303219676240e+00) (69, -4.42153983115052065522e-02) (70, -1.11978322876218272519e+00) (71, -1.14946824382907042406e+00) (72, -1.70181072299818403337e+00) (73, 1.29212218168058101675e+00) (74, 1.81978529495529506299e-01) (75, 1.66537294795153179017e+00) (76, -1.73969762667441396609e+00) (77, -1.98854237237921993575e+00) (78, -2.48300463224602807610e-01) (79, 3.44669350245346128858e+00) (80, -2.10877415397549983211e+00) (81, -2.25132168030902302114e-01) (82, -1.87264662717214358523e+00) (83, 9.72310844879381352968e-01) (84, -1.39480740933827673800e+00) (51, -1.25450592340064925878e+00) (52, -5.54497364790375812937e-01) (53, -1.53904964529331822476e+00) (54, 2.33483753779710134779e+00) (55, 8.14800675905760884987e-01) (56, 2.17866101550991553282e+00) (57, -2.28104743006129195848e+00) (58, -1.91745585937644968944e+00) (59, -1.40173690090539726505e+00) (60, -5.31606065022909746176e-01) (61, -1.11375267221326668121e+00) (62, 4.37401608383431450555e-01) (63, -1.59671667289820939928e+00) (64, -1.11372764978214910947e+00) (65, 2.03371643111469380116e+00) (66, -2.63750927561476578020e+00) (67, -1.99571444959380306372e+00) (68, 4.59425530802261117280e-01) (69, 6.87960277189155755551e-01) (70, 3.89566796498130529791e-01) (71, 1.92913298476513200841e-01) (72, -1.71334660298881447105e+00) (73, 2.30657496908448056416e-01) (74, 7.69032667967171290613e-01) (75, 3.64423339651559374808e-01) (76, 2.44907878823494096210e+00) (77, 3.03761755068072625274e-01) (78, 2.19154804175369311015e-01) (79, 2.04904970827516530463e+00) (80, -1.44127175053914746705e+00) (81, -2.67609875297133481542e-01) (82, -1.27732123270863628939e+00) (83, -4.05402137312030674821e+00) (84, -1.73536492871649761227e+00) (51, -2.48991572563605734203e+00) (52, -4.81965557501578700794e+00) (53, 6.74404334205132710567e-02) (54, -1.70766126367184556401e+00) (55, -1.32290673435908479050e+00) (56, 5.74457821717409222728e-01) (57, -2.13946756039655872073e+00) (58, 1.92143938114590850930e+00) (59, 1.40849975386650694276e+00) (60, 1.64180237209987711644e+00) (61, -3.61625461531403669113e+00) (62, -7.14115979608708983939e-01) (63, 2.54886448572640089694e+00) (64, -1.20932253953675727942e+00) (65, 1.20442217194312140016e+00) (66, 4.67984724831089937691e-01) (67, -1.84341940760598266280e+00) (68, -2.27832443625640319873e-02) (69, -9.48201293137460460292e-02) (70, -2.36679046290824990351e+00) (71, -2.18533621495726482209e+00) (72, 6.08135704571195367940e-01) (73, 2.41456427810660345656e+00) (74, 6.48733292484832024805e-01) (75, -3.69904028333011503094e-01) (76, 6.35681688807937961272e-01) (77, -2.44211009583688326563e-01) (78, 1.76841977272350359129e+00) (79, -1.91019281173970956189e+00) (80, -6.81910318479947208381e-01) (81, -1.76891662157226153829e-01) (82, -2.41693687580677574189e+00) (83, 3.70077509548833671893e-01) (84, -1.73328340955709658822e+00) (51, 2.14461258957597933339e-01) (52, 7.77859663392518996261e-01) (53, 1.12466237154235759732e+00) (54, -4.07710712655867113519e-02) (55, -9.55378737882582207419e-01) (56, -1.69559557706845476233e+00) (57, -2.61372341206151048709e+00) (58, -8.45298211012785460916e-01) (59, -1.97472011267389291334e+00) (60, 8.29127455689889769630e-01) (61, 7.33045708106640825363e-01) (62, 2.18186500721006471082e+00) (63, -1.43772304192022937208e+00) (64, 2.18207110183717567509e+00) (65, 5.71349524338717551508e-01) (66, 1.21300751173211573963e+00) (67, 1.63077859080543952075e-01) (68, 1.84768261092304930671e-01) (69, -1.30645727898087526953e+00) (70, -1.55955515893245455494e+00) (71, 1.63353565851109161500e+00) (72, 1.62535694640583128212e+00) (73, 5.33589589688037158055e-01) (74, -2.93307834867705485848e+00) (75, -3.51858434693703658880e+00) (76, -2.16571862106714485563e+00) (77, -1.56828820860834827755e+00) (78, 2.60700584504628796179e-01) (79, -2.09865662827318688599e+00) (80, 2.02890828966622915885e-01) (81, -2.36902764260467835200e+00) (82, -9.53174603691988142629e-01) (83, -5.05277482599191074542e+00) (84, -2.10922388886255962603e+00) (51, -1.60537886171118282519e+00) (52, -1.77712105536985665033e+00) (53, 1.28665497621524438365e+00) (54, 5.43430923434782719994e-01) (55, 2.96701961956652993102e-01) (56, 6.04926060051994674005e-01) (57, 6.39063637128145400901e-01) (58, -2.78624813904130608222e+00) (59, 2.46448217489353238463e+00) (60, 1.87784732780453222922e+00) (61, -1.83660320584664837895e+00) (62, -7.68841986987053416236e-01) (63, -3.13148584335912261167e+00) (64, -1.89135536048140640020e+00) (65, 1.00113997942003218888e+00) (66, -3.00499255218909966381e-01) (67, 1.21797406636369198729e+00) (68, 1.16846404273673032392e+00) (69, 1.04603850988963964497e+00) (70, -1.94002094389901524885e+00) (71, -3.12614164919931569742e+00) (72, -2.33568683120353615124e+00) (73, -2.44996645378719968278e+00) (74, -2.75353535737357679736e+00) (75, 2.05136153862889214494e+00) (76, -2.91818976661221807234e+00) (77, 8.66422731810164381550e-01) (78, 1.47820796226887440916e+00) (79, -3.17768631598401984917e+00) (80, 1.51937720710627666154e-01) (81, 1.89118939598727009432e+00) (82, 2.47963675593346088988e+00) (83, -3.97793324939447545674e+00) (84, -2.60936765859527408651e+00) (51, -4.95855251170114363912e-01) (52, -2.82773412292502479559e+00) (53, 2.84437066372359229072e-02) (54, 1.42223927307623099203e+00) (55, 9.93398184682390938960e-01) (56, 2.03130995068856901042e-01) (57, -1.91071864466356378109e+00) (58, 2.95588491870034042464e+00) (59, -1.38587766642431087227e+00) (60, 6.86176602634846477535e-02) (61, -1.79326236970872554544e+00) (62, -2.47330128632311652126e+00) (63, -1.80295178211025186599e+00) (64, 3.14592012479596805363e+00) (65, -1.81297250804848886219e+00) (66, 2.57404350043435925510e-01) (67, 1.93384832421637981037e-01) (68, -5.31402824144706631415e-01) (69, 1.35746330257440983580e+00) (70, 2.21463371651376128568e+00) (71, 1.78634366007610223548e+00) (72, -1.54463854357143293150e+00) (73, -1.91474971962477802379e+00) (74, 1.47557652270462913435e+00) (75, -1.91268913434570819732e+00) (76, -1.65610234850880977397e+00) (77, -1.26066312412021291900e-01) (78, -1.98784902946070762830e+00) (79, -1.67339878169737898972e+00) (80, -5.49153191710937793601e+00) (81, -9.87179708104369280086e-01) (82, 1.94412114139577063554e+00) (83, 6.54079061604316835954e-01) (84, -2.04641020277830421037e+00) (51, 2.17551560769504481740e+00) (52, 4.27293032836043418232e-01) (53, 7.08885637033090154624e-01) (54, -1.38352284950908366312e+00) (55, -2.09943503042378143419e+00) (56, 6.91291402215941319653e-01) (57, -7.31152095577674021598e-01) (58, -1.29880597863852892404e-01) (59, 7.77763886352568545313e-01) (60, 4.22207309285342752281e-02) (61, -2.09747612512285863673e+00) (62, -1.87266925144528140201e+00) (63, 5.23485444757317286424e-01) (64, -1.67194536812623240074e+00) (65, -7.88267155648484374453e-01) (66, 7.53988423129934526301e-01) (67, -2.74893523926655003464e+00) (68, -3.13614977476792589073e+00) (69, 8.78007998471342587798e-01) (70, -1.30485056826054185430e-01) (71, 8.29510867740976598483e-01) (72, 1.25761861161625709826e+00) (73, -9.46952677940084086572e-01) (74, -1.18275786688122774848e+00) (75, 1.15148334816206365794e+00) (76, 1.93047428328929820962e-01) (77, 2.23607432112325055229e+00) (78, -5.43247005949660000113e+00) (79, 1.05226774291701219433e+00) (80, 9.64487909852742575367e-01) (81, 7.20055955630679811463e-01) (82, 1.32188399053357774626e+00) (83, -1.62963471021313366371e+00) (84, -1.25628801514010035589e+00) (51, 7.54635086032891866381e-01) (52, -3.35426167936031305317e+00) (53, -2.52361371226761499464e-01) (54, -3.31426531079101860389e-01) (55, -3.33793655080620288444e+00) (56, -2.01857534125691717719e+00) (57, 1.51273753026124002652e+00) (58, -2.18362739226420554672e+00) (59, -1.43722017540656654688e+00) (60, -2.99327471850653203944e+00) (61, 1.49009046949548107364e+00) (62, 1.33523746604176341002e+00) (63, 8.09162566464091348450e-01) (64, 9.33531160019175687559e-01) (65, 4.63832414151783556377e-01) (66, -1.54575276523203264389e+00) (67, 1.20532755982074935019e+00) (68, 1.01089150477599987177e+00) (69, -1.67651317446593206562e+00) (70, -1.71453734847564062335e-03) (71, -3.12709222011648343975e-02) (72, 9.05560629752531709435e-01) (73, -1.27679986330363193225e+00) (74, 7.41225746087970649434e-01) (75, 6.28555130772156966934e-01) (76, 7.66339298857292350320e-01) (77, -4.63576655466170262088e+00) (78, -1.69539414536244020804e-01) (79, 3.71854113936007757424e-01) (80, 8.34004215444556162851e-01) (81, 1.08907794832370274918e+00) (82, 9.49277434695855681923e-01) (83, -1.13450636682458161353e+00) (84, -1.39578877309077964419e+00) 
